{"learner":{"attributes":{"scikit_learn":"{\"_estimator_type\": \"regressor\"}"},"feature_names":[],"feature_types":[],"gradient_booster":{"model":{"gbtree_model_param":{"num_parallel_tree":"1","num_trees":"500"},"iteration_indptr":[0,1,2,3,4,5,6,7,8,9,10,11,12,13,14,15,16,17,18,19,20,21,22,23,24,25,26,27,28,29,30,31,32,33,34,35,36,37,38,39,40,41,42,43,44,45,46,47,48,49,50,51,52,53,54,55,56,57,58,59,60,61,62,63,64,65,66,67,68,69,70,71,72,73,74,75,76,77,78,79,80,81,82,83,84,85,86,87,88,89,90,91,92,93,94,95,96,97,98,99,100,101,102,103,104,105,106,107,108,109,110,111,112,113,114,115,116,117,118,119,120,121,122,123,124,125,126,127,128,129,130,131,132,133,134,135,136,137,138,139,140,141,142,143,144,145,146,147,148,149,150,151,152,153,154,155,156,157,158,159,160,161,162,163,164,165,166,167,168,169,170,171,172,173,174,175,176,177,178,179,180,181,182,183,184,185,186,187,188,189,190,191,192,193,194,195,196,197,198,199,200,201,202,203,204,205,206,207,208,209,210,211,212,213,214,215,216,217,218,219,220,221,222,223,224,225,226,227,228,229,230,231,232,233,234,235,236,237,238,239,240,241,242,243,244,245,246,247,248,249,250,251,252,253,254,255,256,257,258,259,260,261,262,263,264,265,266,267,268,269,270,271,272,273,274,275,276,277,278,279,280,281,282,283,284,285,286,287,288,289,290,291,292,293,294,295,296,297,298,299,300,301,302,303,304,305,306,307,308,309,310,311,312,313,314,315,316,317,318,319,320,321,322,323,324,325,326,327,328,329,330,331,332,333,334,335,336,337,338,339,340,341,342,343,344,345,346,347,348,349,350,351,352,353,354,355,356,357,358,359,360,361,362,363,364,365,366,367,368,369,370,371,372,373,374,375,376,377,378,379,380,381,382,383,384,385,386,387,388,389,390,391,392,393,394,395,396,397,398,399,400,401,402,403,404,405,406,407,408,409,410,411,412,413,414,415,416,417,418,419,420,421,422,423,424,425,426,427,428,429,430,431,432,433,434,435,436,437,438,439,440,441,442,443,444,445,446,447,448,449,450,451,452,453,454,455,456,457,458,459,460,461,462,463,464,465,466,467,468,469,470,471,472,473,474,475,476,477,478,479,480,481,482,483,484,485,486,487,488,489,490,491,492,493,494,495,496,497,498,499,500],"tree_info":[0,0,0,0,0,0,0,0,0,0,0,0,0,0,0,0,0,0,0,0,0,0,0,0,0,0,0,0,0,0,0,0,0,0,0,0,0,0,0,0,0,0,0,0,0,0,0,0,0,0,0,0,0,0,0,0,0,0,0,0,0,0,0,0,0,0,0,0,0,0,0,0,0,0,0,0,0,0,0,0,0,0,0,0,0,0,0,0,0,0,0,0,0,0,0,0,0,0,0,0,0,0,0,0,0,0,0,0,0,0,0,0,0,0,0,0,0,0,0,0,0,0,0,0,0,0,0,0,0,0,0,0,0,0,0,0,0,0,0,0,0,0,0,0,0,0,0,0,0,0,0,0,0,0,0,0,0,0,0,0,0,0,0,0,0,0,0,0,0,0,0,0,0,0,0,0,0,0,0,0,0,0,0,0,0,0,0,0,0,0,0,0,0,0,0,0,0,0,0,0,0,0,0,0,0,0,0,0,0,0,0,0,0,0,0,0,0,0,0,0,0,0,0,0,0,0,0,0,0,0,0,0,0,0,0,0,0,0,0,0,0,0,0,0,0,0,0,0,0,0,0,0,0,0,0,0,0,0,0,0,0,0,0,0,0,0,0,0,0,0,0,0,0,0,0,0,0,0,0,0,0,0,0,0,0,0,0,0,0,0,0,0,0,0,0,0,0,0,0,0,0,0,0,0,0,0,0,0,0,0,0,0,0,0,0,0,0,0,0,0,0,0,0,0,0,0,0,0,0,0,0,0,0,0,0,0,0,0,0,0,0,0,0,0,0,0,0,0,0,0,0,0,0,0,0,0,0,0,0,0,0,0,0,0,0,0,0,0,0,0,0,0,0,0,0,0,0,0,0,0,0,0,0,0,0,0,0,0,0,0,0,0,0,0,0,0,0,0,0,0,0,0,0,0,0,0,0,0,0,0,0,0,0,0,0,0,0,0,0,0,0,0,0,0,0,0,0,0,0,0,0,0,0,0,0,0,0,0,0,0,0,0,0,0,0,0,0,0,0,0,0,0,0,0,0,0,0,0,0,0,0,0,0,0,0,0,0,0,0,0,0,0,0,0,0,0,0,0,0,0,0,0,0,0,0,0,0,0,0,0,0,0,0,0,0,0,0,0,0,0],"trees":[{"base_weights":[1.6692989E-3,-6.7252E-1,8.524071E-1,-9.493762E-1,-2.3514275E-1,3.7273622E-1,1.1034966E0,-9.71675E-1,-6.996347E-3,-3.7394434E-1,-2.79336E-2,1.6892537E-1,2.3974542E-2,1.116728E0,-9.300085E-2,1.1142899E-1,-9.8696196E-1,1.33740185E-2,-8.4092105E-3,-2.2202043E-2,-2.0378323E-1,-5.6144513E-2,1.1302192E-1,-2.7946352E-3,1.7921685E-1,4.6345387E-2,6.9074534E-2,-2.1226667E-2,1.5801616E-2,-1.5974795E-2,2.0060053E-2,-5.3736445E-2,-3.893884E-2,3.904468E-3,-1.1073792E-2,-5.271701E-3,5.57968E-4,6.97001E-3,3.056549E-4,1.019983E-3,9.5533645E-3],"categories":[],"categories_nodes":[],"categories_segments":[],"categories_sizes":[],"default_left":[0,0,0,0,0,0,0,0,0,0,0,0,0,0,0,0,0,0,0,0,0,0,0,0,0,0,0,0,0,0,0,0,0,0,0,0,0,0,0,0,0],"id":0,"left_children":[1,3,5,7,9,11,13,15,17,19,21,23,-1,25,27,29,31,-1,-1,-1,33,35,37,-1,39,-1,-1,-1,-1,-1,-1,-1,-1,-1,-1,-1,-1,-1,-1,-1,-1],"loss_changes":[4.3590283E2,5.0226242E1,3.8411377E1,5.3876038E0,4.8658953E0,2.2712116E0,3.97052E0,4.722351E0,7.1159536E-1,7.6418495E-1,3.259876E-1,1.6576993E-1,0E0,4.453003E0,1.6200858E0,1.6398705E0,3.6480713E-1,0E0,0E0,0E0,2.8096998E-1,2.2151223E-1,3.5220146E-2,0E0,7.273221E-2,0E0,0E0,0E0,0E0,0E0,0E0,0E0,0E0,0E0,0E0,0E0,0E0,0E0,0E0,0E0,0E0],"parents":[2147483647,0,0,1,1,2,2,3,3,4,4,5,5,6,6,7,7,8,8,9,9,10,10,11,11,13,13,14,14,15,15,16,16,20,20,21,21,22,22,24,24],"right_children":[2,4,6,8,10,12,14,16,18,20,22,24,-1,26,28,30,32,-1,-1,-1,34,36,38,-1,40,-1,-1,-1,-1,-1,-1,-1,-1,-1,-1,-1,-1,-1,-1,-1,-1],"split_conditions":[1.3879082E-1,-5.4673564E-1,7.687554E-1,-3.6172074E-1,1.0418079E-2,4.0256044E-1,1.9206364E0,-1.7309054E0,-1.4357768E0,-2.5520083E-1,5.2394617E-1,-1.3725519E-2,2.3974542E-2,1.3229777E0,-1.3912884E0,-1.3434424E0,-8.7775534E-1,1.33740185E-2,-8.4092105E-3,-2.2202043E-2,-1.0343143E0,-1.727368E-3,1.6258884E-2,-2.7946352E-3,5.298632E-3,4.6345387E-2,6.9074534E-2,-2.1226667E-2,1.5801616E-2,-1.5974795E-2,2.0060053E-2,-5.3736445E-2,-3.893884E-2,3.904468E-3,-1.1073792E-2,-5.271701E-3,5.57968E-4,6.97001E-3,3.056549E-4,1.019983E-3,9.5533645E-3],"split_indices":[9,9,9,8,6,9,8,2,1,9,4,3,0,9,1,1,8,0,0,0,1,9,9,0,5,0,0,0,0,0,0,0,0,0,0,0,0,0,0,0,0],"split_type":[0,0,0,0,0,0,0,0,0,0,0,0,0,0,0,0,0,0,0,0,0,0,0,0,0,0,0,0,0,0,0,0,0,0,0,0,0,0,0,0,0],"sum_hessian":[7.5E2,4.19E2,3.31E2,2.53E2,1.66E2,1.18E2,2.13E2,2.47E2,6E0,9.7E1,6.9E1,4.5E1,7.3E1,2.11E2,2E0,3E0,2.44E2,1E0,5E0,6.3E1,3.4E1,6E1,9E0,1E0,4.4E1,1.36E2,7.5E1,1E0,1E0,1E0,2E0,1.57E2,8.7E1,1E0,3.3E1,3.3E1,2.7E1,6E0,3E0,4E0,4E1],"tree_param":{"num_deleted":"0","num_feature":"10","num_nodes":"41","size_leaf_vector":"1"}},{"base_weights":[-2.8125655E-2,-6.2100935E-1,7.421437E-1,-7.8044516E-1,-2.0637955E-1,3.444544E-1,1.0451509E0,4.3082625E-1,-8.1216824E-1,-3.176877E-1,-2.7298095E-2,1.2712058E-1,4.661507E-1,4.0070456E-2,1.2261876E0,3.0841578E-2,-1.1910222E-2,-8.568771E-1,-4.9098295E-1,4.6939184E-3,-3.294338E-1,-7.082196E-2,9.763276E-3,-4.3958776E-2,1.3680942E-1,1.6360939E-2,2.6809622E-2,3.6173448E-2,6.315132E-2,-3.1066302E-2,-4.6564486E-2,-2.6079843E-2,-5.9577654E-4,-1.7065272E-2,-2.638055E-3,-5.9382557E-3,-1.2687448E-3,2.070847E-4,-2.7713466E-3,3.298609E-3,9.596441E-3,2.010972E-2,-2.1049779E-2],"categories":[],"categories_nodes":[],"categories_segments":[],"categories_sizes":[],"default_left":[0,0,0,0,0,0,0,0,0,0,0,0,0,0,0,0,0,0,0,0,0,0,0,0,0,0,0,0,0,0,0,0,0,0,0,0,0,0,0,0,0,0,0],"id":1,"left_children":[1,3,5,7,9,11,13,15,17,19,21,23,25,-1,27,-1,-1,29,31,-1,33,35,-1,37,39,-1,-1,41,-1,-1,-1,-1,-1,-1,-1,-1,-1,-1,-1,-1,-1,-1,-1],"loss_changes":[3.4116104E2,2.7091751E1,3.7363342E1,1.33923645E1,2.428358E0,3.618122E0,3.1175842E0,2.1035361E0,2.161316E0,5.2204084E-1,5.8254737E-1,1.295234E-1,2.772522E-2,0E0,3.9362488E0,0E0,0E0,1.5589447E0,6.728983E-1,0E0,1.5630436E-1,8.951776E-2,0E0,5.0091743E-3,1.6315162E-1,0E0,0E0,2.1852777E0,0E0,0E0,0E0,0E0,0E0,0E0,0E0,0E0,0E0,0E0,0E0,0E0,0E0,0E0,0E0],"parents":[2147483647,0,0,1,1,2,2,3,3,4,4,5,5,6,6,7,7,8,8,9,9,10,10,11,11,12,12,14,14,17,17,18,18,20,20,21,21,23,23,24,24,27,27],"right_children":[2,4,6,8,10,12,14,16,18,20,22,24,26,-1,28,-1,-1,30,32,-1,34,36,-1,38,40,-1,-1,42,-1,-1,-1,-1,-1,-1,-1,-1,-1,-1,-1,-1,-1,-1,-1],"split_conditions":[1.2080625E-1,-3.6172074E-1,8.1925833E-1,-1.7256688E0,2.5696775E-2,3.8400885E-1,1.2350732E0,-1.1203889E0,-4.7876382E-1,-9.5831186E-1,5.347423E-1,-5.7686526E-2,5.924449E-1,4.0070456E-2,-1.665951E0,3.0841578E-2,-1.1910222E-2,-1.269363E0,-3.629578E-2,4.6939184E-3,-9.537116E-2,7.932137E-3,9.763276E-3,6.701059E-1,3.9063707E-1,1.6360939E-2,2.6809622E-2,-1.5166503E0,6.315132E-2,-3.1066302E-2,-4.6564486E-2,-2.6079843E-2,-5.9577654E-4,-1.7065272E-2,-2.638055E-3,-5.9382557E-3,-1.2687448E-3,2.070847E-4,-2.7713466E-3,3.298609E-3,9.596441E-3,2.010972E-2,-2.1049779E-2],"split_indices":[8,8,8,1,6,8,8,2,7,1,5,4,8,0,7,0,0,7,6,0,8,8,0,1,6,0,0,1,0,0,0,0,0,0,0,0,0,0,0,0,0,0,0],"split_type":[0,0,0,0,0,0,0,0,0,0,0,0,0,0,0,0,0,0,0,0,0,0,0,0,0,0,0,0,0,0,0,0,0,0,0,0,0,0,0,0,0,0,0],"sum_hessian":[7.37E2,4.17E2,3.2E2,2.98E2,1.19E2,1.43E2,1.77E2,6E0,2.92E2,7.1E1,4.8E1,5.5E1,8.8E1,8.7E1,9E1,5E0,1E0,2.49E2,4.3E1,1E0,7E1,4.3E1,5E0,2E0,5.3E1,3.9E1,4.9E1,3E0,8.7E1,7.1E1,1.78E2,4E1,3E0,6.6E1,4E0,1.7E1,2.6E1,1E0,1E0,2.8E1,2.5E1,2E0,1E0],"tree_param":{"num_deleted":"0","num_feature":"10","num_nodes":"43","size_leaf_vector":"1"}},{"base_weights":[-6.636779E-6,-6.251769E-1,7.612302E-1,-8.9425266E-1,-2.2834095E-1,4.0200266E-1,1.0656897E0,1.2980784E-1,-9.096296E-1,-3.6079198E-1,-5.7856855E-3,1.8512608E-1,2.693086E-2,4.134364E-2,1.1922138E0,1.754128E-2,-1.18109705E-2,-1.0013562E0,-5.891651E-1,-2.3285296E-2,-2.1544872E-1,-4.377673E-2,1.5800267E-2,1.2354081E-1,2.4466501E-1,1.8862504E-1,6.1101582E-2,1.2772319E-2,-5.077171E-2,-3.0819014E-2,-3.3085793E-4,-1.1100947E-2,-5.905474E-4,-5.0782855E-3,-6.0921384E-4,6.6921897E-3,-2.748252E-3,1.675212E-3,1.3065325E-2,2.6265932E-2,-2.0874364E-2],"categories":[],"categories_nodes":[],"categories_segments":[],"categories_sizes":[],"default_left":[0,0,0,0,0,0,0,0,0,0,0,0,0,0,0,0,0,0,0,0,0,0,0,0,0,0,0,0,0,0,0,0,0,0,0,0,0,0,0,0,0],"id":2,"left_children":[1,3,5,7,9,11,13,15,17,19,21,23,-1,-1,25,-1,-1,27,29,-1,31,33,-1,35,37,39,-1,-1,-1,-1,-1,-1,-1,-1,-1,-1,-1,-1,-1,-1,-1],"loss_changes":[3.5883057E2,4.318553E1,3.5043823E1,4.4483795E0,5.118679E0,4.360512E0,5.4008484E-1,1.0615473E0,4.163803E0,1.1604099E0,9.249308E-1,1.0920668E-1,0E0,0E0,2.0494232E0,0E0,0E0,4.499405E0,1.0259819E0,0E0,6.0475588E-2,1.1613408E-1,0E0,1.1954504E-1,6.516039E-2,2.9332361E0,0E0,0E0,0E0,0E0,0E0,0E0,0E0,0E0,0E0,0E0,0E0,0E0,0E0,0E0,0E0],"parents":[2147483647,0,0,1,1,2,2,3,3,4,4,5,5,6,6,7,7,8,8,9,9,10,10,11,11,14,14,17,17,18,18,20,20,21,21,23,23,24,24,25,25],"right_children":[2,4,6,8,10,12,14,16,18,20,22,24,-1,-1,26,-1,-1,28,30,-1,32,34,-1,36,38,40,-1,-1,-1,-1,-1,-1,-1,-1,-1,-1,-1,-1,-1,-1,-1],"split_conditions":[1.18668556E-1,-4.951763E-1,9.2258483E-1,-1.7256688E0,-1.8870475E-2,4.4733736E-1,1.1853318E0,-1.1719193E0,-8.117176E-1,-2.5050953E-1,8.033714E-1,4.3386245E-1,2.693086E-2,4.134364E-2,-1.665951E0,1.754128E-2,-1.18109705E-2,-1.9710519E0,-3.4204903E-1,-2.3285296E-2,4.548765E-1,6.2717825E-2,1.5800267E-2,1.1127902E0,5.298632E-3,-1.5492107E0,6.1101582E-2,1.2772319E-2,-5.077171E-2,-3.0819014E-2,-3.3085793E-4,-1.1100947E-2,-5.905474E-4,-5.0782855E-3,-6.0921384E-4,6.6921897E-3,-2.748252E-3,1.675212E-3,1.3065325E-2,2.6265932E-2,-2.0874364E-2],"split_indices":[9,8,9,1,7,9,9,2,9,8,7,7,0,0,7,0,0,7,9,0,5,7,0,1,5,1,0,0,0,0,0,0,0,0,0,0,0,0,0,0,0],"split_type":[0,0,0,0,0,0,0,0,0,0,0,0,0,0,0,0,0,0,0,0,0,0,0,0,0,0,0,0,0,0,0,0,0,0,0,0,0,0,0,0,0],"sum_hessian":[7.44E2,4.09E2,3.35E2,2.4E2,1.69E2,1.59E2,1.76E2,3E0,2.37E2,1.04E2,6.5E1,6.6E1,9.3E1,7.4E1,1.02E2,2E0,1E0,1.76E2,6.1E1,5.4E1,5E1,6.2E1,3E0,4E1,2.6E1,4E0,9.8E1,1E0,1.75E2,5.8E1,3E0,4.8E1,2E0,1.8E1,4.4E1,3.9E1,1E0,3E0,2.3E1,3E0,1E0],"tree_param":{"num_deleted":"0","num_feature":"10","num_nodes":"41","size_leaf_vector":"1"}},{"base_weights":[-4.7473055E-3,-5.9861416E-1,7.3164755E-1,-8.471977E-1,-2.0996597E-1,3.3840707E-1,9.782603E-1,9.21723E-2,-8.67424E-1,-3.436541E-1,-1.05873495E-2,1.5156569E-1,2.2283345E-2,4.090209E-2,1.1784769E0,-2.4333704E-1,2.048871E-2,1.3858142E-2,-8.773862E-1,-2.0552365E-2,-1.9523473E-1,-4.2215317E-2,2.4480402E-1,-2.72535E-3,1.5981753E-1,6.041156E-2,2.6589724E-1,-1.5406817E-2,-6.991301E-4,-4.8085902E-2,-2.8215552E-2,-1.0496053E-2,-8.086059E-5,-5.40637E-3,-3.867597E-4,1.4631176E-2,-1.1479326E-3,3.3863063E-3,8.823993E-3,-2.0700408E-2,3.0482028E-2],"categories":[],"categories_nodes":[],"categories_segments":[],"categories_sizes":[],"default_left":[0,0,0,0,0,0,0,0,0,0,0,0,0,0,0,0,0,0,0,0,0,0,0,0,0,0,0,0,0,0,0,0,0,0,0,0,0,0,0,0,0],"id":3,"left_children":[1,3,5,7,9,11,13,15,17,19,21,23,-1,-1,25,27,-1,-1,29,-1,31,33,35,-1,37,-1,39,-1,-1,-1,-1,-1,-1,-1,-1,-1,-1,-1,-1,-1,-1],"loss_changes":[3.3892667E2,4.055693E1,3.1899185E1,5.3397675E0,4.6197E0,2.4879818E0,1.9162445E0,1.5641501E0,4.1235657E0,6.3900185E-1,6.5748566E-1,1.4388442E-1,0E0,0E0,6.202316E-1,9.735331E-2,0E0,0E0,3.99263E0,0E0,1.17730856E-1,1.5717666E-1,1.4882964E-1,0E0,2.9236794E-2,0E0,3.365397E0,0E0,0E0,0E0,0E0,0E0,0E0,0E0,0E0,0E0,0E0,0E0,0E0,0E0,0E0],"parents":[2147483647,0,0,1,1,2,2,3,3,4,4,5,5,6,6,7,7,8,8,9,9,10,10,11,11,14,14,15,15,18,18,20,20,21,21,22,22,24,24,26,26],"right_children":[2,4,6,8,10,12,14,16,18,20,22,24,-1,-1,26,28,-1,-1,30,-1,32,34,36,-1,38,-1,40,-1,-1,-1,-1,-1,-1,-1,-1,-1,-1,-1,-1,-1,-1],"split_conditions":[1.3879082E-1,-5.0506425E-1,8.0810493E-1,-1.6621267E0,-1.0583116E-1,4.0256044E-1,1.3229777E0,-1.3434424E0,-1.9737114E0,-2.9479185E-1,3.632341E-1,-1.3725519E-2,2.2283345E-2,4.090209E-2,1.9206364E0,-1.6328197E0,2.048871E-2,1.3858142E-2,-8.117176E-1,-2.0552365E-2,9.975033E-2,-2.370591E-2,9.214232E-1,-2.72535E-3,1.8608572E-1,6.041156E-2,-1.3912884E0,-1.5406817E-2,-6.991301E-4,-4.8085902E-2,-2.8215552E-2,-1.0496053E-2,-8.086059E-5,-5.40637E-3,-3.867597E-4,1.4631176E-2,-1.1479326E-3,3.3863063E-3,8.823993E-3,-2.0700408E-2,3.0482028E-2],"split_indices":[9,8,9,2,8,9,9,1,9,9,8,3,0,0,8,1,0,0,9,0,5,8,1,0,9,0,1,0,0,0,0,0,0,0,0,0,0,0,0,0,0],"split_type":[0,0,0,0,0,0,0,0,0,0,0,0,0,0,0,0,0,0,0,0,0,0,0,0,0,0,0,0,0,0,0,0,0,0,0,0,0,0,0,0,0],"sum_hessian":[7.65E2,4.24E2,3.41E2,2.55E2,1.69E2,1.36E2,2.05E2,5E0,2.5E2,9.9E1,7E1,5.4E1,8.2E1,1.28E2,7.7E1,3E0,2E0,1E0,2.49E2,6.2E1,3.7E1,6.6E1,4E0,1E0,5.3E1,7.3E1,4E0,1E0,2E0,1.88E2,6.1E1,3.4E1,3E0,1.9E1,4.7E1,3E0,1E0,1.2E1,4.1E1,1E0,3E0],"tree_param":{"num_deleted":"0","num_feature":"10","num_nodes":"41","size_leaf_vector":"1"}},{"base_weights":[1.9749844E-2,-5.521535E-1,7.0312065E-1,-7.8968346E-1,-2.024784E-1,2.679511E-1,9.291813E-1,2.2932003E-1,-8.112645E-1,-3.244926E-1,-9.0174977E-4,1.3890728E-1,3.678041E-1,3.3782586E-2,1.0829672E0,-1.5153863E-2,2.4264649E-2,-8.6681E-1,-4.8037386E-1,-2.0411374E-2,-1.9750601E-1,-4.1188527E-2,2.6544186E-1,1.4439024E-1,-8.092233E-3,2.7824843E-2,1.8799929E-2,3.0808195E-2,1.1060628E0,-1.7580384E-2,-4.494534E-2,-2.5222316E-2,-5.058069E-3,-1.0368094E-2,-6.232785E-4,-3.8353286E-3,5.6422583E-4,1.5505681E-2,-1.1383665E-3,4.970511E-3,1.1211428E-2,2.4048502E-3,-2.876897E-3,-7.8366336E-4,2.4067792E-3,1.9355817E-2,-2.0527905E-2,4.3056826E-3,5.553158E-2],"categories":[],"categories_nodes":[],"categories_segments":[],"categories_sizes":[],"default_left":[0,0,0,0,0,0,0,0,0,0,0,0,0,0,0,0,0,0,0,0,0,0,0,0,0,0,0,0,0,0,0,0,0,0,0,0,0,0,0,0,0,0,0,0,0,0,0,0,0],"id":4,"left_children":[1,3,5,7,9,11,13,15,17,19,21,23,25,-1,27,-1,-1,29,31,-1,33,35,37,39,41,43,-1,45,47,-1,-1,-1,-1,-1,-1,-1,-1,-1,-1,-1,-1,-1,-1,-1,-1,-1,-1,-1,-1],"loss_changes":[2.985751E2,3.3752777E1,3.2989517E1,6.340027E0,4.3027005E0,1.3681087E0,5.1920166E0,1.9619201E0,2.36586E0,7.5588226E-1,8.1650466E-1,5.6619763E-2,1.371336E-1,0E0,3.061554E0,0E0,0E0,1.7434998E0,1.6476154E-1,0E0,8.373332E-2,1.2733483E-1,1.640504E-1,1.07605696E-1,3.328523E-2,9.956561E-3,0E0,2.0527678E0,1.2760925E-1,0E0,0E0,0E0,0E0,0E0,0E0,0E0,0E0,0E0,0E0,0E0,0E0,0E0,0E0,0E0,0E0,0E0,0E0,0E0,0E0],"parents":[2147483647,0,0,1,1,2,2,3,3,4,4,5,5,6,6,7,7,8,8,9,9,10,10,11,11,12,12,14,14,17,17,18,18,20,20,21,21,22,22,23,23,24,24,25,25,27,27,28,28],"right_children":[2,4,6,8,10,12,14,16,18,20,22,24,26,-1,28,-1,-1,30,32,-1,34,36,38,40,42,44,-1,46,48,-1,-1,-1,-1,-1,-1,-1,-1,-1,-1,-1,-1,-1,-1,-1,-1,-1,-1,-1,-1],"split_conditions":[1.18668556E-1,-4.951763E-1,7.011379E-1,-1.7309054E0,-1.8870475E-2,5.0333923E-1,1.1047366E0,-1.9437765E0,-5.818285E-1,-2.5050953E-1,4.8779616E-1,4.8779616E-1,4.6298057E-1,3.3782586E-2,-1.665951E0,-1.5153863E-2,2.4264649E-2,-1.4639332E0,-9.46381E-3,-2.0411374E-2,1.0710608E-1,-1.727368E-3,1.4770782E0,3.484483E-1,7.114805E-1,7.3839426E-1,1.8799929E-2,-1.484089E0,-1.9644101E0,-1.7580384E-2,-4.494534E-2,-2.5222316E-2,-5.058069E-3,-1.0368094E-2,-6.232785E-4,-3.8353286E-3,5.6422583E-4,1.5505681E-2,-1.1383665E-3,4.970511E-3,1.1211428E-2,2.4048502E-3,-2.876897E-3,-7.8366336E-4,2.4067792E-3,1.9355817E-2,-2.0527905E-2,4.3056826E-3,5.553158E-2],"split_indices":[9,8,9,2,7,7,9,2,7,8,7,7,6,0,7,0,0,0,2,0,6,9,0,9,0,0,0,0,3,0,0,0,0,0,0,0,0,0,0,0,0,0,0,0,0,0,0,0,0],"split_type":[0,0,0,0,0,0,0,0,0,0,0,0,0,0,0,0,0,0,0,0,0,0,0,0,0,0,0,0,0,0,0,0,0,0,0,0,0,0,0,0,0,0,0,0,0,0,0,0,0],"sum_hessian":[7.54E2,4.11E2,3.43E2,2.41E2,1.7E2,1.21E2,2.22E2,4E0,2.37E2,1.04E2,6.6E1,5.8E1,6.3E1,9.4E1,1.28E2,1E0,3E0,1.96E2,4.1E1,5.6E1,4.8E1,6.1E1,5E0,5.6E1,2E0,2E0,6.1E1,3E0,1.25E2,1.5E1,1.81E2,3.7E1,4E0,4.5E1,3E0,3.5E1,2.6E1,4E0,1E0,4.3E1,1.3E1,1E0,1E0,1E0,1E0,2E0,1E0,1E0,1.24E2],"tree_param":{"num_deleted":"0","num_feature":"10","num_nodes":"49","size_leaf_vector":"1"}},{"base_weights":[5.1560244E-3,-5.31448E-1,6.67405E-1,-7.6223415E-1,-1.8396153E-1,3.0996192E-1,9.097448E-1,2.2493709E-2,-7.804904E-1,-2.9119313E-1,-3.624966E-2,1.5295276E-1,2.1117639E-2,3.6953926E-2,1.0965998E0,-8.47882E-1,-5.318281E-1,4.7432478E-3,-2.9962823E-1,-6.995651E-2,4.8506465E-2,9.7418346E-2,2.3343104E-1,2.800401E-1,5.6446012E-2,-3.5682116E-3,-4.2707246E-2,-2.7586956E-2,-7.023742E-3,-1.7831635E-2,-9.749064E-3,-5.912324E-3,-1.3220207E-3,4.3958335E-5,5.1852665E-3,5.306331E-3,-2.7440595E-3,1.2281305E-2,1.3312557E-3,2.9129012E-2,-2.035684E-2],"categories":[],"categories_nodes":[],"categories_segments":[],"categories_sizes":[],"default_left":[0,0,0,0,0,0,0,0,0,0,0,0,0,0,0,0,0,0,0,0,0,0,0,0,0,0,0,0,0,0,0,0,0,0,0,0,0,0,0,0,0],"id":5,"left_children":[1,3,5,7,9,11,13,-1,15,17,19,21,-1,-1,23,25,27,-1,29,31,33,35,37,39,-1,-1,-1,-1,-1,-1,-1,-1,-1,-1,-1,-1,-1,-1,-1,-1,-1],"loss_changes":[2.7789243E2,3.394317E1,2.890802E1,7.464752E0,2.7824702E0,2.3063126E0,2.5169373E0,0E0,2.0353699E0,4.7753525E-1,2.4837254E-1,1.9914961E-1,0E0,0E0,7.41745E-1,6.338043E-1,1.4234543E-1,0E0,2.6078033E-1,1.1045101E-1,6.7897424E-2,9.543508E-2,3.0351162E-2,3.2649345E0,0E0,0E0,0E0,0E0,0E0,0E0,0E0,0E0,0E0,0E0,0E0,0E0,0E0,0E0,0E0,0E0,0E0],"parents":[2147483647,0,0,1,1,2,2,3,3,4,4,5,5,6,6,8,8,9,9,10,10,11,11,14,14,15,15,16,16,18,18,19,19,20,20,21,21,22,22,23,23],"right_children":[2,4,6,8,10,12,14,-1,16,18,20,22,-1,-1,24,26,28,-1,30,32,34,36,38,40,-1,-1,-1,-1,-1,-1,-1,-1,-1,-1,-1,-1,-1,-1,-1,-1,-1],"split_conditions":[1.18668556E-1,-5.4673564E-1,8.2209814E-1,-1.9737114E0,-1.0583116E-1,5.4496914E-1,1.3229777E0,2.2493709E-2,-6.881142E-1,-1.0343143E0,1.7047973E-1,3.484483E-1,2.1117639E-2,3.6953926E-2,-1.665951E0,-1.7937174E0,-3.6172074E-1,4.7432478E-3,-2.9479185E-1,-5.1633727E-2,3.9063707E-1,1.1127902E0,5.620151E-1,-1.5166503E0,5.6446012E-2,-3.5682116E-3,-4.2707246E-2,-2.7586956E-2,-7.023742E-3,-1.7831635E-2,-9.749064E-3,-5.912324E-3,-1.3220207E-3,4.3958335E-5,5.1852665E-3,5.306331E-3,-2.7440595E-3,1.2281305E-2,1.3312557E-3,2.9129012E-2,-2.035684E-2],"split_indices":[9,9,9,9,8,7,9,0,7,1,7,9,0,0,7,2,8,0,9,9,6,1,8,1,0,0,0,0,0,0,0,0,0,0,0,0,0,0,0,0,0],"split_type":[0,0,0,0,0,0,0,0,0,0,0,0,0,0,0,0,0,0,0,0,0,0,0,0,0,0,0,0,0,0,0,0,0,0,0,0,0,0,0,0,0],"sum_hessian":[7.72E2,4.27E2,3.45E2,2.53E2,1.74E2,1.44E2,2.01E2,2E0,2.51E2,9.8E1,7.6E1,6.5E1,7.9E1,1.18E2,8.3E1,1.88E2,6.3E1,1E0,9.7E1,5.5E1,2.1E1,4.5E1,2E1,5E0,7.8E1,2E0,1.86E2,5.8E1,5E0,5.5E1,4.2E1,2.2E1,3.3E1,1.4E1,7E0,4.4E1,1E0,1.8E1,2E0,4E0,1E0],"tree_param":{"num_deleted":"0","num_feature":"10","num_nodes":"41","size_leaf_vector":"1"}},{"base_weights":[4.33992E-3,-5.48549E-1,6.538034E-1,-8.062242E-1,-2.1971108E-1,3.5747877E-1,9.220894E-1,-9.1529614E-1,-5.7291394E-1,-3.542469E-1,-1.7628957E-2,1.7712957E-1,2.4258051E-2,3.7023373E-2,1.055572E0,-7.75956E-2,-9.4819134E-1,-7.89282E-2,-5.9219813E-1,-4.012085E-1,-1.7415413E-1,-4.1153423E-2,2.1981215E-1,1.2452743E-1,2.3657537E-1,5.396208E-2,2.3770696E-1,-2.6151925E-2,1.5598433E-2,8.264865E-4,-4.813334E-2,1.0072143E-2,-1.1993819E-2,-3.0890388E-2,-7.303898E-3,-2.0186191E-2,-1.5826887E-3,-9.028408E-3,-1.1134852E-3,-5.3669484E-3,-4.257365E-4,1.3565344E-2,-1.1720906E-3,-2.721192E-3,6.6600936E-3,1.33157885E-2,6.3094374E-4,-2.01872E-2,2.8511418E-2],"categories":[],"categories_nodes":[],"categories_segments":[],"categories_sizes":[],"default_left":[0,0,0,0,0,0,0,0,0,0,0,0,0,0,0,0,0,0,0,0,0,0,0,0,0,0,0,0,0,0,0,0,0,0,0,0,0,0,0,0,0,0,0,0,0,0,0,0,0],"id":6,"left_children":[1,3,5,7,9,11,13,15,17,19,21,23,-1,-1,25,27,29,31,33,35,37,39,41,43,45,-1,47,-1,-1,-1,-1,-1,-1,-1,-1,-1,-1,-1,-1,-1,-1,-1,-1,-1,-1,-1,-1,-1,-1],"loss_changes":[2.7254044E2,3.385501E1,2.609726E1,3.1801147E0,5.0527983E0,3.5770855E0,4.5573425E-1,3.682907E0,5.8553886E-1,5.978737E-1,4.9208415E-1,1.0285759E-1,0E0,0E0,4.9827576E-1,2.7246728E0,2.0485764E0,6.477338E-1,4.8560524E-1,1.5113831E-2,1.10679865E-2,1.6176635E-1,1.3200998E-1,1.1851865E-1,1.9633484E-1,0E0,3.0707967E0,0E0,0E0,0E0,0E0,0E0,0E0,0E0,0E0,0E0,0E0,0E0,0E0,0E0,0E0,0E0,0E0,0E0,0E0,0E0,0E0,0E0,0E0],"parents":[2147483647,0,0,1,1,2,2,3,3,4,4,5,5,6,6,7,7,8,8,9,9,10,10,11,11,14,14,15,15,16,16,17,17,18,18,19,19,20,20,21,21,22,22,23,23,24,24,26,26],"right_children":[2,4,6,8,10,12,14,16,18,20,22,24,-1,-1,26,28,30,32,34,36,38,40,42,44,46,-1,48,-1,-1,-1,-1,-1,-1,-1,-1,-1,-1,-1,-1,-1,-1,-1,-1,-1,-1,-1,-1,-1,-1],"split_conditions":[1.3879082E-1,-5.896576E-1,9.392325E-1,-7.806116E-1,-1.0583116E-1,5.233879E-1,1.3229777E0,-1.6621267E0,-6.3128775E-1,-2.651908E-1,4.441721E-1,3.845207E-1,2.4258051E-2,3.7023373E-2,1.9206364E0,-1.6874168E0,-1.9007709E0,-6.0321236E-1,-6.244993E-1,-1.9442844E-1,5.490622E-1,-2.370591E-2,9.92334E-1,-5.7686526E-2,4.9030712E-1,5.396208E-2,-1.3518409E0,-2.6151925E-2,1.5598433E-2,8.264865E-4,-4.813334E-2,1.0072143E-2,-1.1993819E-2,-3.0890388E-2,-7.303898E-3,-2.0186191E-2,-1.5826887E-3,-9.028408E-3,-1.1134852E-3,-5.3669484E-3,-4.257365E-4,1.3565344E-2,-1.1720906E-3,-2.721192E-3,6.6600936E-3,1.33157885E-2,6.3094374E-4,-2.01872E-2,2.8511418E-2],"split_indices":[9,8,9,5,8,9,9,2,1,9,8,9,0,0,8,4,0,0,9,8,0,8,0,4,9,0,0,0,0,0,0,0,0,0,0,0,0,0,0,0,0,0,0,0,0,0,0,0,0],"split_type":[0,0,0,0,0,0,0,0,0,0,0,0,0,0,0,0,0,0,0,0,0,0,0,0,0,0,0,0,0,0,0,0,0,0,0,0,0,0,0,0,0,0,0,0,0,0,0,0,0],"sum_hessian":[7.49E2,4.05E2,3.44E2,2.23E2,1.82E2,1.69E2,1.75E2,1.42E2,8.1E1,1.07E2,7.5E1,7.5E1,9.4E1,8.8E1,8.7E1,6E0,1.36E2,4E0,7.7E1,8E1,2.7E1,7.2E1,3E0,4.8E1,2.7E1,8.3E1,4E0,2E0,4E0,2E0,1.34E2,1E0,3E0,7.1E1,6E0,7.9E1,1E0,2.5E1,2E0,2E1,5.2E1,2E0,1E0,1E0,4.7E1,2.3E1,4E0,1E0,3E0],"tree_param":{"num_deleted":"0","num_feature":"10","num_nodes":"49","size_leaf_vector":"1"}},{"base_weights":[-4.4928174E-3,-5.0076205E-1,5.922426E-1,-6.742831E-1,-1.3459617E-1,2.2748397E-1,7.7844906E-1,-7.200165E-1,-2.9819182E-1,-2.3625356E-1,1.2348083E-2,1.3059022E-1,1.6858488E-2,6.3182515E-1,9.8211E-1,9.162472E-3,-7.274128E-1,5.104832E-3,-3.221595E-1,-1.3186804E-2,-1.0722612E-1,-2.4838278E-2,2.4513347E-1,1.3519233E-1,-1.7113666E-3,3.1716928E-2,2.228189E-3,2.1261245E-2,5.077794E-2,8.146797E-4,-3.6692135E-2,-1.6403059E-2,-8.6497766E-4,-5.5382154E-3,-2.4488207E-4,-2.4880236E-3,1.0417463E-3,1.46605E-2,-1.1623233E-3,4.5472216E-3,9.503247E-3,1.8374048E-2,-2.0018972E-2],"categories":[],"categories_nodes":[],"categories_segments":[],"categories_sizes":[],"default_left":[0,0,0,0,0,0,0,0,0,0,0,0,0,0,0,0,0,0,0,0,0,0,0,0,0,0,0,0,0,0,0,0,0,0,0,0,0,0,0,0,0,0,0],"id":7,"left_children":[1,3,5,7,9,11,13,15,17,19,21,23,-1,25,27,-1,29,-1,31,-1,33,35,37,39,-1,-1,-1,41,-1,-1,-1,-1,-1,-1,-1,-1,-1,-1,-1,-1,-1,-1,-1],"loss_changes":[2.2566193E2,2.5977806E1,2.2615044E1,3.7596817E0,2.105902E0,1.0977006E0,3.6759644E0,2.3166656E0,5.386226E-1,1.5292072E-1,5.6714284E-1,7.926595E-2,0E0,7.4157715E-2,2.6560059E0,0E0,1.2361298E0,0E0,3.9992332E-2,0E0,5.6149364E-3,7.120381E-2,1.5020543E-1,9.0817094E-2,0E0,0E0,0E0,1.9035017E0,0E0,0E0,0E0,0E0,0E0,0E0,0E0,0E0,0E0,0E0,0E0,0E0,0E0,0E0,0E0],"parents":[2147483647,0,0,1,1,2,2,3,3,4,4,5,5,6,6,7,7,8,8,9,9,10,10,11,11,13,13,14,14,16,16,18,18,20,20,21,21,22,22,23,23,27,27],"right_children":[2,4,6,8,10,12,14,16,18,20,22,24,-1,26,28,-1,30,-1,32,-1,34,36,38,40,-1,-1,-1,42,-1,-1,-1,-1,-1,-1,-1,-1,-1,-1,-1,-1,-1,-1,-1],"split_conditions":[1.0116933E-1,-3.6172074E-1,7.011379E-1,-5.4673564E-1,-5.461737E-2,5.4496914E-1,1.3229777E0,-1.9853841E0,-8.8014036E-1,-1.7114212E-1,8.033714E-1,5.620151E-1,1.6858488E-2,1.7235153E0,-1.665951E0,9.162472E-3,-1.9007709E0,5.104832E-3,6.337247E-2,-1.3186804E-2,8.662201E-1,9.39363E-2,1.4770782E0,3.484483E-1,-1.7113666E-3,3.1716928E-2,2.228189E-3,-1.4639332E0,5.077794E-2,8.146797E-4,-3.6692135E-2,-1.6403059E-2,-8.6497766E-4,-5.5382154E-3,-2.4488207E-4,-2.4880236E-3,1.0417463E-3,1.46605E-2,-1.1623233E-3,4.5472216E-3,9.503247E-3,1.8374048E-2,-2.0018972E-2],"split_indices":[9,8,9,9,8,7,9,4,0,9,7,8,0,4,7,0,0,0,3,0,0,8,0,9,0,0,0,0,0,0,0,0,0,0,0,0,0,0,0,0,0,0,0],"split_type":[0,0,0,0,0,0,0,0,0,0,0,0,0,0,0,0,0,0,0,0,0,0,0,0,0,0,0,0,0,0,0,0,0,0,0,0,0,0,0,0,0,0,0],"sum_hessian":[7.52E2,4.11E2,3.41E2,2.76E2,1.35E2,1.19E2,2.22E2,2.42E2,3.4E1,7.8E1,5.7E1,6.9E1,5E1,1.41E2,8.1E1,1E0,2.41E2,1E0,3.3E1,6E1,1.8E1,5.3E1,4E0,6.8E1,1E0,1.4E2,1E0,3E0,7.8E1,2E0,2.39E2,3.2E1,1E0,1.7E1,1E0,3.4E1,1.9E1,3E0,1E0,4.5E1,2.3E1,2E0,1E0],"tree_param":{"num_deleted":"0","num_feature":"10","num_nodes":"43","size_leaf_vector":"1"}},{"base_weights":[-6.4932816E-3,-4.8214477E-1,5.67946E-1,-6.7080635E-1,-1.8321326E-1,1.9146582E-1,7.4803793E-1,2.4211799E-1,-6.90178E-1,-2.7475303E-1,-2.7047345E-2,1.0142876E-1,1.3577494E-2,5.8305043E-1,4.530108E-2,-1.4822065E-2,2.4735687E-2,2.662374E-1,-7.0711523E-1,-1.613018E-2,-1.5547419E-1,-5.0237443E-2,1.0210539E-1,1.1077492E-1,-2.6900321E-3,2.927768E-2,2.2096208E-3,2.1959035E-2,-7.869712E-3,-4.0184923E-2,-2.5766814E-2,-8.01499E-3,-9.1125065E-4,-4.0432136E-3,1.6522649E-4,6.198096E-3,-1.1526373E-3,-3.774103E-4,6.2063173E-3],"categories":[],"categories_nodes":[],"categories_segments":[],"categories_sizes":[],"default_left":[0,0,0,0,0,0,0,0,0,0,0,0,0,0,0,0,0,0,0,0,0,0,0,0,0,0,0,0,0,0,0,0,0,0,0,0,0,0,0],"id":8,"left_children":[1,3,5,7,9,11,13,15,17,19,21,23,-1,25,-1,-1,-1,27,29,-1,31,33,35,37,-1,-1,-1,-1,-1,-1,-1,-1,-1,-1,-1,-1,-1,-1,-1],"loss_changes":[2.092994E2,2.30158E1,2.2810852E1,5.345154E0,2.3787637E0,7.2033834E-1,3.4319305E0,1.9576077E0,5.007263E0,3.5421848E-1,2.2931197E-1,1.2264997E-1,0E0,4.3266296E-2,0E0,0E0,0E0,9.317365E-1,2.5227356E0,0E0,1.1885226E-2,1.0136515E-1,4.7114596E-2,1.0263115E-1,0E0,0E0,0E0,0E0,0E0,0E0,0E0,0E0,0E0,0E0,0E0,0E0,0E0,0E0,0E0],"parents":[2147483647,0,0,1,1,2,2,3,3,4,4,5,5,6,6,7,7,8,8,9,9,10,10,11,11,13,13,17,17,18,18,20,20,21,21,22,22,23,23],"right_children":[2,4,6,8,10,12,14,16,18,20,22,24,-1,26,-1,-1,-1,28,30,-1,32,34,36,38,-1,-1,-1,-1,-1,-1,-1,-1,-1,-1,-1,-1,-1,-1,-1],"split_conditions":[1.0116933E-1,-5.4673564E-1,6.869381E-1,-1.7309054E0,1.0418079E-2,3.845207E-1,1.1853318E0,-1.9437765E0,-1.9737114E0,-2.651908E-1,5.48688E-1,1.1796305E0,1.3577494E-2,1.6669116E0,4.530108E-2,-1.4822065E-2,2.4735687E-2,-1.3915918E0,-7.4941117E-1,-1.613018E-2,-7.560736E-2,-1.727368E-3,1.4770782E0,2.768211E-1,-2.6900321E-3,2.927768E-2,2.2096208E-3,2.1959035E-2,-7.869712E-3,-4.0184923E-2,-2.5766814E-2,-8.01499E-3,-9.1125065E-4,-4.0432136E-3,1.6522649E-4,6.198096E-3,-1.1526373E-3,-3.774103E-4,6.2063173E-3],"split_indices":[9,9,9,2,6,9,9,2,9,9,4,0,0,4,0,0,0,0,5,0,9,9,0,5,0,0,0,0,0,0,0,0,0,0,0,0,0,0,0],"split_type":[0,0,0,0,0,0,0,0,0,0,0,0,0,0,0,0,0,0,0,0,0,0,0,0,0,0,0,0,0,0,0,0,0,0,0,0,0,0,0],"sum_hessian":[7.56E2,4.14E2,3.42E2,2.5E2,1.64E2,1.14E2,2.28E2,4E0,2.46E2,1.01E2,6.3E1,5.9E1,5.5E1,1.23E2,1.05E2,1E0,3E0,3E0,2.43E2,6.6E1,3.5E1,5.6E1,7E0,5.7E1,2E0,1.22E2,1E0,2E0,1E0,1.51E2,9.2E1,3.3E1,2E0,3.4E1,2.2E1,6E0,1E0,6E0,5.1E1],"tree_param":{"num_deleted":"0","num_feature":"10","num_nodes":"39","size_leaf_vector":"1"}},{"base_weights":[-1.42961405E-2,-5.056342E-1,4.9577567E-1,-6.925125E-1,-2.2987014E-1,1.6214289E-1,7.0147204E-1,1.3682919E-2,-7.02842E-1,-3.4634683E-1,-1.0261231E-1,5.4532576E-2,2.5782692E-1,2.4932152E-2,8.326262E-1,-7.2202456E-1,-5.9909873E-2,-1.7699404E-2,-2.673376E-3,-1.2740766E-1,2.1567269E-1,6.9231438E-3,8.656094E-2,5.040936E-4,1.3021171E-2,4.2293552E-2,1.8315727E-1,9.332265E-4,-3.646406E-2,5.129083E-3,-6.065493E-3,-7.4064503E-3,-9.859359E-4,1.33038955E-2,-1.143032E-3,-4.7032093E-4,9.098885E-4,4.6732645E-3,-1.810251E-3,-2.0229658E-2,2.547484E-2],"categories":[],"categories_nodes":[],"categories_segments":[],"categories_sizes":[],"default_left":[0,0,0,0,0,0,0,0,0,0,0,0,0,0,0,0,0,0,0,0,0,0,0,0,0,0,0,0,0,0,0,0,0,0,0,0,0,0,0,0,0],"id":9,"left_children":[1,3,5,7,9,11,13,-1,15,17,19,21,23,-1,25,27,29,-1,-1,31,33,35,37,-1,-1,-1,39,-1,-1,-1,-1,-1,-1,-1,-1,-1,-1,-1,-1,-1,-1],"loss_changes":[1.894673E2,1.9044785E1,2.4891945E1,3.2271576E0,2.2383814E0,1.4535952E0,3.9893036E0,0E0,2.5709915E0,9.1116905E-2,8.082107E-1,1.1289242E-1,3.6404133E-2,0E0,3.5224152E-1,1.2451782E0,1.8194458E-1,0E0,0E0,1.6837513E-1,1.2660015E-1,7.483828E-3,5.5062413E-2,0E0,0E0,0E0,2.7569501E0,0E0,0E0,0E0,0E0,0E0,0E0,0E0,0E0,0E0,0E0,0E0,0E0,0E0,0E0],"parents":[2147483647,0,0,1,1,2,2,3,3,4,4,5,5,6,6,8,8,9,9,10,10,11,11,12,12,14,14,15,15,16,16,19,19,20,20,21,21,22,22,26,26],"right_children":[2,4,6,8,10,12,14,-1,16,18,20,22,24,-1,26,28,30,-1,-1,32,34,36,38,-1,-1,-1,40,-1,-1,-1,-1,-1,-1,-1,-1,-1,-1,-1,-1,-1,-1],"split_conditions":[-1.727368E-3,-5.896576E-1,6.823825E-1,-1.8143332E0,-2.5050953E-1,4.250198E-1,1.0802138E0,1.3682919E-2,-6.244993E-1,1.7417243E-1,8.033714E-1,1.3879082E-1,-3.758856E-1,2.4932152E-2,1.9206364E0,-1.9007709E0,-8.8014036E-1,-1.7699404E-2,-2.673376E-3,7.932137E-3,1.4770782E0,5.7923976E-2,5.620151E-1,5.040936E-4,1.3021171E-2,4.2293552E-2,-1.3518409E0,9.332265E-4,-3.646406E-2,5.129083E-3,-6.065493E-3,-7.4064503E-3,-9.859359E-4,1.33038955E-2,-1.143032E-3,-4.7032093E-4,9.098885E-4,4.6732645E-3,-1.810251E-3,-2.0229658E-2,2.547484E-2],"split_indices":[9,8,9,1,8,7,9,0,9,1,7,9,8,0,8,0,0,0,0,8,0,9,8,0,0,0,0,0,0,0,0,0,0,0,0,0,0,0,0,0,0],"split_type":[0,0,0,0,0,0,0,0,0,0,0,0,0,0,0,0,0,0,0,0,0,0,0,0,0,0,0,0,0,0,0,0,0,0,0,0,0,0,0,0,0],"sum_hessian":[7.46E2,3.8E2,3.66E2,2.22E2,1.58E2,1.43E2,2.23E2,1E0,2.21E2,7.8E1,8E1,7.1E1,7.2E1,9.7E1,1.26E2,2.14E2,7E0,7.5E1,3E0,7.7E1,3E0,3.1E1,4E1,1E0,7.1E1,1.22E2,4E0,2E0,2.12E2,1E0,6E0,6.3E1,1.4E1,2E0,1E0,1.3E1,1.8E1,3.9E1,1E0,1E0,3E0],"tree_param":{"num_deleted":"0","num_feature":"10","num_nodes":"41","size_leaf_vector":"1"}},{"base_weights":[2.0792391E-2,-4.1984624E-1,5.1291597E-1,-5.397447E-1,-7.364395E-2,2.6706642E-1,7.385856E-1,-6.1732066E-1,-3.3740348E-1,-1.5808013E-1,2.6698345E-2,1.480998E-1,3.8708156E-1,3.036193E-2,8.8137835E-1,-1.2690014E-1,-6.512692E-1,-1.7691901E-2,6.247092E-2,-8.624196E-3,-2.8206937E-3,-1.22212665E-2,2.324104E-1,7.560515E-2,2.2180597E-1,1.969579E-2,-1.7291496E-3,2.0796533E-1,4.5641378E-2,-1.7348928E-2,3.3788253E-2,1.3568895E-2,-3.3142023E-2,5.0863414E-3,-7.8995404E-4,2.3809837E-3,-1.1950884E-3,1.3923215E-2,-1.1335067E-3,4.255062E-3,-2.718364E-3,1.1646259E-2,1.1010809E-3,2.4927681E-2,-2.0061078E-2],"categories":[],"categories_nodes":[],"categories_segments":[],"categories_sizes":[],"default_left":[0,0,0,0,0,0,0,0,0,0,0,0,0,0,0,0,0,0,0,0,0,0,0,0,0,0,0,0,0,0,0,0,0,0,0,0,0,0,0,0,0,0,0,0,0],"id":10,"left_children":[1,3,5,7,9,11,13,15,17,19,21,23,25,-1,27,29,31,-1,33,-1,-1,35,37,39,41,-1,-1,43,-1,-1,-1,-1,-1,-1,-1,-1,-1,-1,-1,-1,-1,-1,-1,-1,-1],"loss_changes":[1.680502E2,1.6778473E1,1.931971E1,3.7147064E0,9.61552E-1,2.3262024E0,8.499756E-1,3.1330261E0,7.348404E-1,4.0674806E-2,4.5454457E-1,4.5048213E-1,3.2170773E-1,0E0,7.239075E-1,4.705366E0,3.0132751E0,0E0,3.261642E-2,0E0,0E0,4.1338544E-2,1.3729116E-1,9.471896E-2,7.876086E-2,0E0,0E0,2.770378E0,0E0,0E0,0E0,0E0,0E0,0E0,0E0,0E0,0E0,0E0,0E0,0E0,0E0,0E0,0E0,0E0,0E0],"parents":[2147483647,0,0,1,1,2,2,3,3,4,4,5,5,6,6,7,7,8,8,9,9,10,10,11,11,12,12,14,14,15,15,16,16,18,18,21,21,22,22,23,23,24,24,27,27],"right_children":[2,4,6,8,10,12,14,16,18,20,22,24,26,-1,28,30,32,-1,34,-1,-1,36,38,40,42,-1,-1,44,-1,-1,-1,-1,-1,-1,-1,-1,-1,-1,-1,-1,-1,-1,-1,-1,-1],"split_conditions":[1.0116933E-1,-2.0817666E-1,9.2258483E-1,-7.2638965E-1,3.520115E-2,6.601858E-1,1.3574225E0,-1.4639332E0,-2.651908E-1,-1.1376347E-1,8.033714E-1,3.484483E-1,9.005916E-1,3.036193E-2,-1.665951E0,-8.946497E-1,-1.8143332E0,-1.7691901E-2,-8.8014036E-1,-8.624196E-3,-2.8206937E-3,-2.100277E-1,1.4770782E0,1.1796305E0,6.563511E-1,1.969579E-2,-1.7291496E-3,-1.4639332E0,4.5641378E-2,-1.7348928E-2,3.3788253E-2,1.3568895E-2,-3.3142023E-2,5.0863414E-3,-7.8995404E-4,2.3809837E-3,-1.1950884E-3,1.3923215E-2,-1.1335067E-3,4.255062E-3,-2.718364E-3,1.1646259E-2,1.1010809E-3,2.4927681E-2,-2.0061078E-2],"split_indices":[9,7,9,9,7,7,9,0,9,9,7,9,9,0,7,1,1,0,0,0,0,9,0,0,7,0,0,0,0,0,0,0,0,0,0,0,0,0,0,0,0,0,0,0,0],"split_type":[0,0,0,0,0,0,0,0,0,0,0,0,0,0,0,0,0,0,0,0,0,0,0,0,0,0,0,0,0,0,0,0,0,0,0,0,0,0,0,0,0,0,0,0,0],"sum_hessian":[7.65E2,4.04E2,3.61E2,2.98E2,1.06E2,1.78E2,1.83E2,2.08E2,9E1,5.6E1,5E1,9.5E1,8.3E1,1.09E2,7.4E1,1.5E1,1.93E2,8.7E1,3E0,4.6E1,1E1,4.6E1,4E0,5.3E1,4.2E1,8.2E1,1E0,5E0,6.9E1,1.4E1,1E0,1E0,1.92E2,1E0,2E0,5E0,4.1E1,3E0,1E0,5.1E1,2E0,3.9E1,3E0,4E0,1E0],"tree_param":{"num_deleted":"0","num_feature":"10","num_nodes":"45","size_leaf_vector":"1"}},{"base_weights":[-4.554883E-3,-4.0653095E-1,4.9192992E-1,-5.4249114E-1,-1.3082816E-1,2.4668919E-1,7.0489764E-1,7.226375E-2,-5.6002724E-1,-1.9846433E-1,2.229936E-2,1.306927E-1,1.8161535E-2,2.761682E-2,4.0914897E-2,-2.8663683E-1,3.5113996E-1,-6.3816196E-1,-3.5274962E-1,-1.2046568E-2,-8.184627E-2,1.1266262E-2,-1.1019725E-2,8.1424095E-2,1.8341862E-1,9.328429E-3,-2.4375044E-2,-1.4118497E-2,3.0340496E-2,1.345582E-2,-3.2513704E-2,-1.8502552E-2,2.1447714E-3,-4.393387E-3,2.071039E-4,-2.0359734E-3,7.6721486E-4,4.578735E-3,-2.6795303E-3,1.0160496E-2,2.0336292E-3],"categories":[],"categories_nodes":[],"categories_segments":[],"categories_sizes":[],"default_left":[0,0,0,0,0,0,0,0,0,0,0,0,0,0,0,0,0,0,0,0,0,0,0,0,0,0,0,0,0,0,0,0,0,0,0,0,0,0,0,0,0],"id":11,"left_children":[1,3,5,7,9,11,13,15,17,19,21,23,-1,-1,-1,25,27,29,31,-1,33,-1,35,37,39,-1,-1,-1,-1,-1,-1,-1,-1,-1,-1,-1,-1,-1,-1,-1,-1],"loss_changes":[1.480867E2,1.5013824E1,1.647036E1,3.145401E0,1.492816E0,1.9526234E0,7.677078E-1,1.7043141E0,3.1824722E0,3.9169312E-1,3.3711767E-1,1.5652466E-1,0E0,0E0,0E0,1.2151613E0,2.3144493E0,2.9299545E0,6.543646E-1,0E0,1.942417E-2,0E0,3.9142266E-2,9.991422E-2,6.885469E-2,0E0,0E0,0E0,0E0,0E0,0E0,0E0,0E0,0E0,0E0,0E0,0E0,0E0,0E0,0E0,0E0],"parents":[2147483647,0,0,1,1,2,2,3,3,4,4,5,5,6,6,7,7,8,8,9,9,10,10,11,11,15,15,16,16,17,17,18,18,20,20,22,22,23,23,24,24],"right_children":[2,4,6,8,10,12,14,16,18,20,22,24,-1,-1,-1,26,28,30,32,-1,34,-1,36,38,40,-1,-1,-1,-1,-1,-1,-1,-1,-1,-1,-1,-1,-1,-1,-1,-1],"split_conditions":[1.18668556E-1,-3.8857463E-1,9.2258483E-1,-1.6621267E0,-3.0174144E-3,5.924449E-1,1.3345691E0,-1.656722E0,-8.117176E-1,-1.7114212E-1,-5.9072968E-2,3.845207E-1,1.8161535E-2,2.761682E-2,4.0914897E-2,-1.6865178E0,-1.9437765E0,-1.8143332E0,-2.5520083E-1,-1.2046568E-2,4.6298057E-1,1.1266262E-2,-1.727368E-3,1.1314424E0,5.620151E-1,9.328429E-3,-2.4375044E-2,-1.4118497E-2,3.0340496E-2,1.345582E-2,-3.2513704E-2,-1.8502552E-2,2.1447714E-3,-4.393387E-3,2.071039E-4,-2.0359734E-3,7.6721486E-4,4.578735E-3,-2.6795303E-3,1.0160496E-2,2.0336292E-3],"split_indices":[9,8,9,2,8,8,9,3,9,9,3,9,0,0,0,0,2,1,9,0,6,0,9,0,8,0,0,0,0,0,0,0,0,0,0,0,0,0,0,0,0],"split_type":[0,0,0,0,0,0,0,0,0,0,0,0,0,0,0,0,0,0,0,0,0,0,0,0,0,0,0,0,0,0,0,0,0,0,0,0,0,0,0,0,0],"sum_hessian":[7.32E2,4.05E2,3.27E2,2.68E2,1.37E2,1.57E2,1.7E2,7E0,2.61E2,9.4E1,4.3E1,8.4E1,7.3E1,8.5E1,8.5E1,3E0,4E0,1.82E2,7.9E1,6.5E1,2.9E1,2E0,4.1E1,5E1,3.4E1,1E0,2E0,1E0,3E0,1E0,1.81E2,7.6E1,3E0,2.7E1,2E0,1.8E1,2.3E1,4.8E1,2E0,2.8E1,6E0],"tree_param":{"num_deleted":"0","num_feature":"10","num_nodes":"41","size_leaf_vector":"1"}},{"base_weights":[7.7112024E-3,-3.832059E-1,4.7936028E-1,-5.2059186E-1,-1.2873685E-1,1.93933E-1,6.2968045E-1,5.5403646E-2,-5.4337287E-1,-1.9165194E-1,-5.9103114E-3,1.2655966E-1,1.4900709E-2,5.088552E-1,7.819497E-1,-2.301615E-1,3.377763E-2,-9.046947E-1,-4.7799787E-1,5.0260816E-3,-1.9944392E-1,-2.2386983E-2,6.657817E-2,6.507263E-2,1.8191002E-1,2.5552232E-2,1.6679617E-3,1.7954293E-1,4.0312614E-2,1.0726587E-2,-2.2447795E-2,-4.8501384E-2,-1.2817427E-2,4.8567164E-3,-2.597095E-2,-1.107359E-2,-3.7818446E-3,-2.1243338E-3,2.5550803E-4,-2.245386E-4,3.7540123E-3,3.785462E-3,-2.641251E-3,9.599522E-3,8.9071284E-4,2.3464514E-2,-2.0234859E-2],"categories":[],"categories_nodes":[],"categories_segments":[],"categories_sizes":[],"default_left":[0,0,0,0,0,0,0,0,0,0,0,0,0,0,0,0,0,0,0,0,0,0,0,0,0,0,0,0,0,0,0,0,0,0,0,0,0,0,0,0,0,0,0,0,0,0,0],"id":12,"left_children":[1,3,5,7,9,11,13,15,17,19,21,23,-1,25,27,29,-1,31,33,-1,35,37,39,41,43,-1,-1,45,-1,-1,-1,-1,-1,-1,-1,-1,-1,-1,-1,-1,-1,-1,-1,-1,-1,-1,-1],"loss_changes":[1.4362524E2,1.45580635E1,1.4535049E1,3.7590103E0,1.1998489E0,7.160034E-1,2.2236328E0,3.433825E0,4.097473E0,3.34733E-1,7.672582E-2,2.3690283E-1,0E0,6.258774E-2,6.2309647E-1,1.843726E0,0E0,2.3921776E-1,5.850586E0,0E0,1.9441795E-1,2.9272458E-2,8.936636E-3,8.144419E-2,5.4027677E-2,0E0,0E0,2.6424222E0,0E0,0E0,0E0,0E0,0E0,0E0,0E0,0E0,0E0,0E0,0E0,0E0,0E0,0E0,0E0,0E0,0E0,0E0,0E0],"parents":[2147483647,0,0,1,1,2,2,3,3,4,4,5,5,6,6,7,7,8,8,9,9,10,10,11,11,13,13,14,14,15,15,17,17,18,18,20,20,21,21,22,22,23,23,24,24,27,27],"right_children":[2,4,6,8,10,12,14,16,18,20,22,24,-1,26,28,30,-1,32,34,-1,36,38,40,42,44,-1,-1,46,-1,-1,-1,-1,-1,-1,-1,-1,-1,-1,-1,-1,-1,-1,-1,-1,-1,-1,-1],"split_conditions":[1.18668556E-1,-5.072152E-1,7.569133E-1,-1.484089E0,5.205118E-3,6.601858E-1,1.3229777E0,-9.408915E-1,-1.3261977E0,-8.8014036E-1,5.48688E-1,3.484483E-1,1.4900709E-2,1.818555E0,-1.665951E0,-1.6865178E0,3.377763E-2,-6.613875E-1,-1.188639E0,5.0260816E-3,-1.7114212E-1,-1.727368E-3,-1.3904943E-1,1.1796305E0,6.563511E-1,2.5552232E-2,1.6679617E-3,-1.4639332E0,4.0312614E-2,1.0726587E-2,-2.2447795E-2,-4.8501384E-2,-1.2817427E-2,4.8567164E-3,-2.597095E-2,-1.107359E-2,-3.7818446E-3,-2.1243338E-3,2.5550803E-4,-2.245386E-4,3.7540123E-3,3.785462E-3,-2.641251E-3,9.599522E-3,8.9071284E-4,2.3464514E-2,-2.0234859E-2],"split_indices":[9,9,9,0,7,7,9,1,4,0,4,9,0,4,7,0,0,0,2,0,9,9,5,0,7,0,0,0,0,0,0,0,0,0,0,0,0,0,0,0,0,0,0,0,0,0,0],"split_type":[0,0,0,0,0,0,0,0,0,0,0,0,0,0,0,0,0,0,0,0,0,0,0,0,0,0,0,0,0,0,0,0,0,0,0,0,0,0,0,0,0,0,0,0,0,0,0],"sum_hessian":[7.69E2,4.21E2,3.48E2,2.7E2,1.51E2,1.24E2,2.24E2,1E1,2.6E2,9.8E1,5.3E1,8.2E1,4.2E1,1.37E2,8.7E1,9E0,1E0,3E1,2.3E2,1E0,9.7E1,4.6E1,7E0,4.4E1,3.8E1,1.36E2,1E0,5E0,8.2E1,3E0,6E0,2.5E1,5E0,1.5E1,2.15E2,7.9E1,1.8E1,2.5E1,2.1E1,1E0,6E0,4.2E1,2E0,3.5E1,3E0,4E0,1E0],"tree_param":{"num_deleted":"0","num_feature":"10","num_nodes":"47","size_leaf_vector":"1"}},{"base_weights":[-9.082783E-3,-4.1425535E-1,4.286738E-1,-5.714782E-1,-1.8159015E-1,1.4704978E-1,5.777419E-1,-8.4762394E-1,-4.7990617E-1,-2.8040287E-1,-8.145777E-2,4.772088E-2,2.2650991E-1,5.877795E-1,-1.6904052E-1,1.1446874E-2,-9.2195415E-1,1.3045026E-1,-5.222405E-1,-2.8230038E-1,-1.0716919E-3,-1.0670288E-1,1.7133005E-1,5.9162594E-2,-4.4789832E-2,1.1766856E-3,1.1531413E-2,3.605694E-2,4.52314E-1,-2.0066237E-2,1.020554E-2,1.9701175E-2,-1.8965306E-2,-4.661082E-2,-3.74909E-3,4.1041944E-2,-2.2084774E-2,-3.0926738E-2,-1.9112526E-2,-1.429341E-2,-2.0450742E-3,-6.3459687E-3,-1.8598497E-3,1.02772545E-2,-1.1383778E-3,1.031042E-3,5.1225256E-3,-3.8389277E-3,1.188072E-3,1.5475047E-2,2.5286315E-2],"categories":[],"categories_nodes":[],"categories_segments":[],"categories_sizes":[],"default_left":[0,0,0,0,0,0,0,0,0,0,0,0,0,0,0,0,0,0,0,0,0,0,0,0,0,0,0,0,0,0,0,0,0,0,0,0,0,0,0,0,0,0,0,0,0,0,0,0,0,0,0],"id":13,"left_children":[1,3,5,7,9,11,13,15,17,19,21,23,25,27,29,31,33,35,37,39,-1,41,43,45,47,-1,-1,-1,49,-1,-1,-1,-1,-1,-1,-1,-1,-1,-1,-1,-1,-1,-1,-1,-1,-1,-1,-1,-1,-1,-1],"loss_changes":[1.335584E2,1.3784012E1,1.4772392E1,3.8074493E0,1.518363E0,9.8778844E-1,2.2583313E0,3.3093643E0,5.1208534E0,9.548664E-3,6.593745E-1,8.2050696E-2,3.3049107E-2,2.5783691E0,1.0163136E0,2.0927143E0,5.9020996E-2,8.132851E0,1.1633873E0,1.0439873E-2,0E0,9.442878E-2,8.980939E-2,8.954044E-2,3.1050518E-2,0E0,0E0,0E0,2.0139503E-1,0E0,0E0,0E0,0E0,0E0,0E0,0E0,0E0,0E0,0E0,0E0,0E0,0E0,0E0,0E0,0E0,0E0,0E0,0E0,0E0,0E0,0E0],"parents":[2147483647,0,0,1,1,2,2,3,3,4,4,5,5,6,6,7,7,8,8,9,9,10,10,11,11,12,12,13,13,14,14,15,15,16,16,17,17,18,18,19,19,21,21,22,22,23,23,24,24,28,28],"right_children":[2,4,6,8,10,12,14,16,18,20,22,24,26,28,30,32,34,36,38,40,-1,42,44,46,48,-1,-1,-1,50,-1,-1,-1,-1,-1,-1,-1,-1,-1,-1,-1,-1,-1,-1,-1,-1,-1,-1,-1,-1,-1,-1],"split_conditions":[-1.727368E-3,-5.896576E-1,6.823825E-1,-1.2831956E0,-2.5050953E-1,4.250198E-1,1.9206364E0,-1.6865178E0,-1.1403258E0,3.5859194E-1,1.7047973E-1,9.1969633E-1,-2.1483839E-1,-7.202333E-1,-1.3518409E0,-1.598592E0,-5.9729964E-1,-1.1012241E0,-7.806116E-1,-2.9479185E-1,-1.0716919E-3,3.520115E-2,1.1702561E0,1.8608572E-1,8.2781583E-1,1.1766856E-3,1.1531413E-2,3.605694E-2,9.2258483E-1,-2.0066237E-2,1.020554E-2,1.9701175E-2,-1.8965306E-2,-4.661082E-2,-3.74909E-3,4.1041944E-2,-2.2084774E-2,-3.0926738E-2,-1.9112526E-2,-1.429341E-2,-2.0450742E-3,-6.3459687E-3,-1.8598497E-3,1.02772545E-2,-1.1383778E-3,1.031042E-3,5.1225256E-3,-3.8389277E-3,1.188072E-3,1.5475047E-2,2.5286315E-2],"split_indices":[9,8,9,4,8,7,8,0,0,0,7,2,8,0,0,5,2,2,5,9,0,7,0,9,4,0,0,0,9,0,0,0,0,0,0,0,0,0,0,0,0,0,0,0,0,0,0,0,0,0,0],"split_type":[0,0,0,0,0,0,0,0,0,0,0,0,0,0,0,0,0,0,0,0,0,0,0,0,0,0,0,0,0,0,0,0,0,0,0,0,0,0,0,0,0,0,0,0,0,0,0,0,0,0,0],"sum_hessian":[7.43E2,3.86E2,3.57E2,2.26E2,1.6E2,1.27E2,2.3E2,4.6E1,1.8E2,7.6E1,8.4E1,6E1,6.7E1,2.28E2,2E0,4E0,4.2E1,1.1E1,1.69E2,7.5E1,1E0,7.9E1,5E0,5.5E1,5E0,2E0,6.5E1,1.04E2,1.24E2,1E0,1E0,2E0,2E0,4.1E1,1E0,4E0,7E0,9E1,7.9E1,7.3E1,2E0,5.8E1,2.1E1,4E0,1E0,3.3E1,2.2E1,3E0,2E0,4.3E1,8.1E1],"tree_param":{"num_deleted":"0","num_feature":"10","num_nodes":"51","size_leaf_vector":"1"}},{"base_weights":[1.4598388E-3,-3.276137E-1,4.0592438E-1,-4.1395134E-1,-9.691611E-2,2.1760102E-1,6.0628E-1,1.8747233E-2,-4.2828044E-1,-1.49327E-1,-9.6564E-3,9.781767E-2,3.1856453E-1,-1.2843707E-1,6.2440956E-1,1.0078244E-1,-4.409642E-1,3.4022566E-3,-1.5696532E-1,-3.554905E-2,9.830346E-2,5.6071714E-2,1.4299114E-1,2.332938E-2,1.618026E-2,9.717039E-3,-1.9899016E-2,2.4654685E-2,3.8405534E-2,-2.2605343E-2,2.374086E-2,-4.5253416E-3,-2.2855071E-2,-8.142875E-3,-3.6527083E-4,-2.1489456E-3,5.6009693E-4,-3.0831125E-4,5.591677E-3,3.245129E-3,-3.5066258E-3,7.823515E-3,-1.6158915E-3,3.4524493E-3,-2.0915687E-3],"categories":[],"categories_nodes":[],"categories_segments":[],"categories_sizes":[],"default_left":[0,0,0,0,0,0,0,0,0,0,0,0,0,0,0,0,0,0,0,0,0,0,0,0,0,0,0,0,0,0,0,0,0,0,0,0,0,0,0,0,0,0,0,0,0],"id":14,"left_children":[1,3,5,7,9,11,13,-1,15,17,19,21,23,25,27,29,31,-1,33,35,37,39,41,43,-1,-1,-1,-1,-1,-1,-1,-1,-1,-1,-1,-1,-1,-1,-1,-1,-1,-1,-1,-1,-1],"loss_changes":[9.969028E1,8.025497E0,1.2018196E1,4.18285E0,5.3701985E-1,2.033162E0,2.5322037E0,0E0,2.2085152E0,1.7627025E-1,1.572413E-1,1.2963408E-1,1.051178E-1,1.0827398E0,1.0688705E0,3.3481383E0,1.4332161E0,0E0,5.8424354E-2,1.7690782E-2,1.8996261E-2,8.405602E-2,1.1980444E-1,3.5295937E-2,0E0,0E0,0E0,0E0,0E0,0E0,0E0,0E0,0E0,0E0,0E0,0E0,0E0,0E0,0E0,0E0,0E0,0E0,0E0,0E0,0E0],"parents":[2147483647,0,0,1,1,2,2,3,3,4,4,5,5,6,6,8,8,9,9,10,10,11,11,12,12,13,13,14,14,15,15,16,16,18,18,19,19,20,20,21,21,22,22,23,23],"right_children":[2,4,6,8,10,12,14,-1,16,18,20,22,24,26,28,30,32,-1,34,36,38,40,42,44,-1,-1,-1,-1,-1,-1,-1,-1,-1,-1,-1,-1,-1,-1,-1,-1,-1,-1,-1,-1,-1],"split_conditions":[1.2080625E-1,-3.6172074E-1,9.966763E-1,-1.727224E0,-1.8870475E-2,5.729951E-1,-1.665951E0,1.8747233E-2,-1.7256688E0,-1.0139918E0,8.662201E-1,5.571386E-1,-1.2436044E-1,-1.6571157E0,1.4195831E0,-1.8984946E0,-1.521001E0,3.4022566E-3,5.3221706E-2,9.39363E-2,-1.3904943E-1,5.4814374E-1,5.620151E-1,-6.714534E-1,1.618026E-2,9.717039E-3,-1.9899016E-2,2.4654685E-2,3.8405534E-2,-2.2605343E-2,2.374086E-2,-4.5253416E-3,-2.2855071E-2,-8.142875E-3,-3.6527083E-4,-2.1489456E-3,5.6009693E-4,-3.0831125E-4,5.591677E-3,3.245129E-3,-3.5066258E-3,7.823515E-3,-1.6158915E-3,3.4524493E-3,-2.0915687E-3],"split_indices":[8,8,8,0,7,8,7,0,1,0,0,5,7,0,8,1,2,0,6,8,5,6,8,0,0,0,0,0,0,0,0,0,0,0,0,0,0,0,0,0,0,0,0,0,0],"split_type":[0,0,0,0,0,0,0,0,0,0,0,0,0,0,0,0,0,0,0,0,0,0,0,0,0,0,0,0,0,0,0,0,0,0,0,0,0,0,0,0,0,0,0,0,0],"sum_hessian":[7.39E2,4.08E2,3.31E2,2.94E2,1.14E2,1.76E2,1.55E2,3E0,2.91E2,6.9E1,4.5E1,8.5E1,9.1E1,3E0,1.52E2,6E0,2.85E2,1E0,6.8E1,3.9E1,6E0,5E1,3.5E1,2E0,8.9E1,2E0,1E0,9.1E1,6.1E1,2E0,4E0,1.4E1,2.71E2,6.5E1,3E0,3.4E1,5E0,1E0,5E0,4.9E1,1E0,3.3E1,2E0,1E0,1E0],"tree_param":{"num_deleted":"0","num_feature":"10","num_nodes":"45","size_leaf_vector":"1"}},{"base_weights":[-1.938316E-2,-3.3553433E-1,3.7259445E-1,-4.4952643E-1,-1.2821673E-1,1.6318864E-1,5.212122E-1,1.3532303E-1,-4.677347E-1,-1.8480378E-1,-7.501983E-3,6.0519263E-2,2.2065337E-1,3.7217554E-1,6.0201013E-1,-2.2282409E-2,2.3717068E-2,1.3502999E-2,-4.7573504E-1,3.3739042E-3,-1.904197E-1,-3.6594816E-2,1.0056517E-1,-4.6904415E-2,7.028756E-2,1.51457E-1,2.5858864E-1,3.811745E-1,3.4906524E-3,-6.0246967E-2,6.217343E-1,-3.4384783E-2,-2.0907674E-2,-1.170108E-2,-5.835461E-3,-2.4195267E-3,-7.6046115E-4,-3.0922482E-4,5.6018927E-3,3.532685E-5,-2.7105324E-3,1.8258261E-3,5.176531E-3,8.565694E-3,-1.1572455E-3,-2.074139E-3,1.34173995E-2,1.920741E-2,1.2187521E-3,4.599746E-3,-4.3961247E-3,1.34714795E-2,-1.973319E-2,4.73574E-3,3.1341307E-2],"categories":[],"categories_nodes":[],"categories_segments":[],"categories_sizes":[],"default_left":[0,0,0,0,0,0,0,0,0,0,0,0,0,0,0,0,0,0,0,0,0,0,0,0,0,0,0,0,0,0,0,0,0,0,0,0,0,0,0,0,0,0,0,0,0,0,0,0,0,0,0,0,0,0,0],"id":15,"left_children":[1,3,5,7,9,11,13,15,17,19,21,23,25,27,29,-1,-1,-1,31,-1,33,35,37,39,41,43,45,47,49,51,53,-1,-1,-1,-1,-1,-1,-1,-1,-1,-1,-1,-1,-1,-1,-1,-1,-1,-1,-1,-1,-1,-1,-1,-1],"loss_changes":[9.4063934E1,9.637493E0,1.0124882E1,3.1810837E0,1.0586872E0,8.064115E-1,1.2399406E0,3.4204655E0,2.1888733E0,2.144258E-1,1.913197E-1,7.9444766E-2,4.829836E-2,2.654047E-1,1.7417221E0,0E0,0E0,0E0,1.7476997E0,0E0,2.0089889E-1,8.17623E-3,1.9385666E-2,2.974363E-3,4.508838E-2,1.758424E-1,2.1086931E-1,3.806305E-2,9.707528E-2,1.4136657E0,1.4434814E-2,0E0,0E0,0E0,0E0,0E0,0E0,0E0,0E0,0E0,0E0,0E0,0E0,0E0,0E0,0E0,0E0,0E0,0E0,0E0,0E0,0E0,0E0,0E0,0E0],"parents":[2147483647,0,0,1,1,2,2,3,3,4,4,5,5,6,6,7,7,8,8,9,9,10,10,11,11,12,12,13,13,14,14,18,18,20,20,21,21,22,22,23,23,24,24,25,25,26,26,27,27,28,28,29,29,30,30],"right_children":[2,4,6,8,10,12,14,16,18,20,22,24,26,28,30,-1,-1,-1,32,-1,34,36,38,40,42,44,46,48,50,52,54,-1,-1,-1,-1,-1,-1,-1,-1,-1,-1,-1,-1,-1,-1,-1,-1,-1,-1,-1,-1,-1,-1,-1,-1],"split_conditions":[1.1471756E-1,-4.951763E-1,8.1925833E-1,-1.7256688E0,-1.8870475E-2,3.8400885E-1,1.1400801E0,-1.8984946E0,-1.9007709E0,-1.0139918E0,3.8705218E-1,3.5714723E-2,5.924449E-1,1.1273084E0,-1.665951E0,-2.2282409E-2,2.3717068E-2,1.3502999E-2,-1.2960978E0,3.3739042E-3,-2.5050953E-1,2.1993365E-2,1.5649019E-2,7.0412046E-1,3.436324E-1,5.620151E-1,-1.2436044E-1,1.818555E0,-1.1459612E0,-1.484089E0,-1.9644101E0,-3.4384783E-2,-2.0907674E-2,-1.170108E-2,-5.835461E-3,-2.4195267E-3,-7.6046115E-4,-3.0922482E-4,5.6018927E-3,3.532685E-5,-2.7105324E-3,1.8258261E-3,5.176531E-3,8.565694E-3,-1.1572455E-3,-2.074139E-3,1.34173995E-2,1.920741E-2,1.2187521E-3,4.599746E-3,-4.3961247E-3,1.34714795E-2,-1.973319E-2,4.73574E-3,3.1341307E-2],"split_indices":[8,8,8,1,7,8,8,1,0,0,5,4,8,8,7,0,0,0,4,0,8,8,3,0,7,8,7,4,0,0,3,0,0,0,0,0,0,0,0,0,0,0,0,0,0,0,0,0,0,0,0,0,0,0,0],"split_type":[0,0,0,0,0,0,0,0,0,0,0,0,0,0,0,0,0,0,0,0,0,0,0,0,0,0,0,0,0,0,0,0,0,0,0,0,0,0,0,0,0,0,0,0,0,0,0,0,0,0,0,0,0,0,0],"sum_hessian":[7.49E2,4.15E2,3.34E2,2.64E2,1.51E2,1.43E2,1.91E2,7E0,2.57E2,1.01E2,5E1,5.5E1,8.8E1,7.7E1,1.14E2,2E0,5E0,1E0,2.56E2,1E0,1E2,4.2E1,8E0,3E0,5.2E1,4E1,4.8E1,7.5E1,2E0,3E0,1.11E2,4.3E1,2.13E2,5.6E1,4.4E1,2.3E1,1.9E1,1E0,7E0,1E0,2E0,3.1E1,2.1E1,3.6E1,4E0,1E0,4.7E1,7.4E1,1E0,1E0,1E0,2E0,1E0,2E0,1.09E2],"tree_param":{"num_deleted":"0","num_feature":"10","num_nodes":"55","size_leaf_vector":"1"}},{"base_weights":[3.5901202E-3,-3.4008396E-1,4.0315896E-1,-5.169051E-1,-1.4094104E-1,1.4474311E-1,5.331631E-1,-8.126609E-1,-4.164213E-1,-2.3072745E-1,-3.633174E-2,5.4902907E-2,1.9016862E-1,4.3386072E-1,7.334538E-1,-5.3429544E-2,-8.573397E-1,1.1902479E-2,-4.9224952E-1,-1.2164253E-2,-7.5123996E-2,-5.79107E-2,2.0443748E-1,6.13226E-2,-2.0568545E-3,1.2640329E-1,1.2116801E-2,4.7940365E-4,4.361695E-1,3.808353E-2,1.2532695E-1,-1.4530666E-2,1.3390474E-2,-4.385534E-2,-6.176397E-3,-1.8110214E-2,4.113626E-2,-2.9781057E-2,-1.6404638E-2,-4.1759033E-3,3.5327522E-4,-4.5017693E-3,-5.417133E-4,1.2620415E-2,-1.4944088E-3,6.1059655E-3,1.8766461E-3,6.706886E-3,-1.847052E-3,2.1898333E-2,1.2085957E-3,-1.9568747E-2,2.1726202E-2],"categories":[],"categories_nodes":[],"categories_segments":[],"categories_sizes":[],"default_left":[0,0,0,0,0,0,0,0,0,0,0,0,0,0,0,0,0,0,0,0,0,0,0,0,0,0,0,0,0,0,0,0,0,0,0,0,0,0,0,0,0,0,0,0,0,0,0,0,0,0,0,0,0],"id":16,"left_children":[1,3,5,7,9,11,13,15,17,19,21,23,25,27,29,31,33,35,37,-1,39,41,43,45,-1,47,-1,-1,49,-1,51,-1,-1,-1,-1,-1,-1,-1,-1,-1,-1,-1,-1,-1,-1,-1,-1,-1,-1,-1,-1,-1,-1],"loss_changes":[1.0216609E2,1.372081E1,1.1170868E1,4.548874E0,1.7896225E0,4.456823E-1,2.9237976E0,1.3992004E0,5.453291E0,1.1183405E-1,5.579683E-1,4.220742E-2,1.0963106E-1,1.3973427E-1,6.895485E-1,9.9868643E-1,1.11003876E-1,1.0589999E1,1.4325256E0,0E0,1.3299055E-2,1.342557E-1,1.3888729E-1,4.5060232E-2,0E0,8.2891226E-2,0E0,0E0,6.775665E-2,0E0,2.2881734E0,0E0,0E0,0E0,0E0,0E0,0E0,0E0,0E0,0E0,0E0,0E0,0E0,0E0,0E0,0E0,0E0,0E0,0E0,0E0,0E0,0E0,0E0],"parents":[2147483647,0,0,1,1,2,2,3,3,4,4,5,5,6,6,7,7,8,8,9,9,10,10,11,11,12,12,13,13,14,14,15,15,16,16,17,17,18,18,20,20,21,21,22,22,23,23,25,25,28,28,30,30],"right_children":[2,4,6,8,10,12,14,16,18,20,22,24,26,28,30,32,34,36,38,-1,40,42,44,46,-1,48,-1,-1,50,-1,52,-1,-1,-1,-1,-1,-1,-1,-1,-1,-1,-1,-1,-1,-1,-1,-1,-1,-1,-1,-1,-1,-1],"split_conditions":[1.0116933E-1,-6.47538E-1,7.011379E-1,-1.2960978E0,-1.9442844E-1,4.250198E-1,1.4253821E0,-1.9737114E0,-1.3287917E0,-2.651908E-1,4.605323E-1,5.620151E-1,5.924449E-1,-1.9853841E0,1.9206364E0,-1.614083E0,-6.063272E-1,-1.368937E0,-7.4941117E-1,-1.2164253E-2,2.6749817E-1,-3.0174144E-3,1.4094539E0,1.5226585E-1,-2.0568545E-3,8.00584E-1,1.2116801E-2,4.7940365E-4,1.8520863E0,3.808353E-2,-1.3912884E0,-1.4530666E-2,1.3390474E-2,-4.385534E-2,-6.176397E-3,-1.8110214E-2,4.113626E-2,-2.9781057E-2,-1.6404638E-2,-4.1759033E-3,3.5327522E-4,-4.5017693E-3,-5.417133E-4,1.2620415E-2,-1.4944088E-3,6.1059655E-3,1.8766461E-3,6.706886E-3,-1.847052E-3,2.1898333E-2,1.2085957E-3,-1.9568747E-2,2.1726202E-2],"split_indices":[9,8,9,4,8,7,9,9,8,9,7,8,8,4,8,4,1,8,5,0,1,8,1,7,0,7,0,0,4,0,1,0,0,0,0,0,0,0,0,0,0,0,0,0,0,0,0,0,0,0,0,0,0],"split_type":[0,0,0,0,0,0,0,0,0,0,0,0,0,0,0,0,0,0,0,0,0,0,0,0,0,0,0,0,0,0,0,0,0,0,0,0,0,0,0,0,0,0,0,0,0,0,0,0,0,0,0,0,0],"sum_hessian":[7.34E2,3.95E2,3.39E2,2.05E2,1.9E2,1.17E2,2.22E2,4.3E1,1.62E2,9.9E1,9.1E1,4.3E1,7.4E1,1.59E2,6.3E1,3E0,4E1,2.5E1,1.37E2,8.9E1,1E1,8.7E1,4E0,4.2E1,1E0,4.1E1,3.3E1,1E0,1.58E2,5.9E1,4E0,2E0,1E0,3.8E1,2E0,1.9E1,6E0,7.6E1,6.1E1,9E0,1E0,4.9E1,3.8E1,3E0,1E0,6E0,3.6E1,4E1,1E0,1.57E2,1E0,1E0,3E0],"tree_param":{"num_deleted":"0","num_feature":"10","num_nodes":"53","size_leaf_vector":"1"}},{"base_weights":[1.1043748E-2,-2.3193477E-1,3.777723E-1,-3.318547E-1,-5.2673593E-2,2.5745478E-1,5.5804044E-1,-1.380744E-1,-3.8747874E-1,-1.0838512E-1,3.226846E-2,1.5997143E-1,3.1238022E-1,5.5568174E-2,5.736445E-1,-5.181467E-1,3.6291033E-1,-5.70525E-1,-3.272337E-1,-1.5091377E-1,-6.603892E-2,1.1624887E-2,6.360102E-3,1.6926365E-1,2.6435314E-2,1.5832024E-2,5.7499275E-2,1.7679965E-2,-1.9405676E-2,4.1737277E-3,2.8940467E-2,-3.7825347E-3,-3.2921713E-2,4.6261232E-2,5.981366E-4,-3.187435E-2,-5.200974E-3,8.424215E-3,-1.8569794E-2,3.2949056E-3,-8.139496E-3,-4.0334095E-3,-9.831786E-4,-1.5354723E-3,1.744307E-3,3.4044757E-3,9.495783E-3,-2.5829466E-3,5.3979917E-3,7.1787955E-3,-4.5419764E-3],"categories":[],"categories_nodes":[],"categories_segments":[],"categories_sizes":[],"default_left":[0,0,0,0,0,0,0,0,0,0,0,0,0,0,0,0,0,0,0,0,0,0,0,0,0,0,0,0,0,0,0,0,0,0,0,0,0,0,0,0,0,0,0,0,0,0,0,0,0,0,0],"id":17,"left_children":[1,3,5,7,9,11,13,15,17,19,21,23,25,27,29,31,33,35,37,39,41,43,-1,45,47,-1,49,-1,-1,-1,-1,-1,-1,-1,-1,-1,-1,-1,-1,-1,-1,-1,-1,-1,-1,-1,-1,-1,-1,-1,-1],"loss_changes":[6.6644714E1,7.9728947E0,5.745098E0,2.8367996E0,8.077731E-1,7.56752E-1,7.4228287E-1,1.4649754E1,1.5036316E0,1.3386357E-1,1.2979022E-1,7.441366E-2,3.3841133E-2,1.8762621E0,3.943634E-2,2.4202414E0,6.6543155E0,1.1678762E0,4.2096424E0,1.7465746E-1,3.2775134E-2,6.7395896E-2,0E0,8.578396E-2,9.791799E-2,0E0,1.6735986E-1,0E0,0E0,0E0,0E0,0E0,0E0,0E0,0E0,0E0,0E0,0E0,0E0,0E0,0E0,0E0,0E0,0E0,0E0,0E0,0E0,0E0,0E0,0E0,0E0],"parents":[2147483647,0,0,1,1,2,2,3,3,4,4,5,5,6,6,7,7,8,8,9,9,10,10,11,11,12,12,13,13,14,14,15,15,16,16,17,17,18,18,19,19,20,20,21,21,23,23,24,24,26,26],"right_children":[2,4,6,8,10,12,14,16,18,20,22,24,26,28,30,32,34,36,38,40,42,44,-1,46,48,-1,50,-1,-1,-1,-1,-1,-1,-1,-1,-1,-1,-1,-1,-1,-1,-1,-1,-1,-1,-1,-1,-1,-1,-1,-1],"split_conditions":[2.9649764E-1,-3.6172074E-1,1.1400801E0,-1.269363E0,2.2607929E-1,7.0632625E-1,-1.665951E0,-1.2960978E0,-1.1629483E0,-1.9442844E-1,5.347423E-1,7.909088E-1,1.1273084E0,-1.4639332E0,-1.9853841E0,-1.4639332E0,-1.0677553E0,-8.471071E-1,-7.8684735E-1,-1.0139918E0,3.520115E-2,9.39363E-2,6.360102E-3,3.977278E-1,8.522721E-1,1.5832024E-2,1.2157935E0,1.7679965E-2,-1.9405676E-2,4.1737277E-3,2.8940467E-2,-3.7825347E-3,-3.2921713E-2,4.6261232E-2,5.981366E-4,-3.187435E-2,-5.200974E-3,8.424215E-3,-1.8569794E-2,3.2949056E-3,-8.139496E-3,-4.0334095E-3,-9.831786E-4,-1.5354723E-3,1.744307E-3,3.4044757E-3,9.495783E-3,-2.5829466E-3,5.3979917E-3,7.1787955E-3,-4.5419764E-3],"split_indices":[8,8,8,7,4,8,7,4,8,8,5,7,8,0,4,0,0,5,0,0,7,8,0,8,6,0,7,0,0,0,0,0,0,0,0,0,0,0,0,0,0,0,0,0,0,0,0,0,0,0,0],"split_type":[0,0,0,0,0,0,0,0,0,0,0,0,0,0,0,0,0,0,0,0,0,0,0,0,0,0,0,0,0,0,0,0,0,0,0,0,0,0,0,0,0,0,0,0,0,0,0,0,0,0,0],"sum_hessian":[7.38E2,4.45E2,2.93E2,2.83E2,1.62E2,1.83E2,1.1E2,6.7E1,2.16E2,9.7E1,6.5E1,7.3E1,1.1E2,4E0,1.06E2,3.8E1,2.9E1,4.3E1,1.73E2,4.2E1,5.5E1,5.8E1,7E0,6.7E1,6E0,1.07E2,3E0,3E0,1E0,2E0,1.04E2,1.1E1,2.7E1,8E0,2.1E1,3.6E1,7E0,1.3E1,1.6E2,1E0,4.1E1,3.9E1,1.6E1,2E1,3.8E1,1.5E1,5.2E1,4E0,2E0,2E0,1E0],"tree_param":{"num_deleted":"0","num_feature":"10","num_nodes":"51","size_leaf_vector":"1"}},{"base_weights":[-6.5767406E-3,-2.9528493E-1,3.5124794E-1,-4.3527198E-1,-1.4019608E-1,1.2677751E-1,4.7545087E-1,1.3618077E-2,-4.4467854E-1,-1.9509546E-1,-9.282814E-3,6.7445025E-2,1.8000911E-1,6.0721284E-1,1.8280363E-2,1.3310407E-2,-4.540024E-1,-1.1127629E-2,-9.0527974E-2,1.0818035E-2,-2.909262E-2,7.7904664E-2,-7.575206E-3,-2.1716475E-3,9.34468E-3,1.3880654E-1,6.318222E-1,-3.3590138E-2,-1.9167176E-2,-4.8163254E-3,-3.927297E-4,-2.7166286E-3,7.431925E-4,4.1511273E-3,-1.0438964E-3,-4.7090934E-3,2.54907E-3,1.9180737E-2,-1.9243961E-2,7.930073E-3,3.256216E-2],"categories":[],"categories_nodes":[],"categories_segments":[],"categories_sizes":[],"default_left":[0,0,0,0,0,0,0,0,0,0,0,0,0,0,0,0,0,0,0,0,0,0,0,0,0,0,0,0,0,0,0,0,0,0,0,0,0,0,0,0,0],"id":18,"left_children":[1,3,5,7,9,11,13,-1,15,17,19,21,23,25,-1,-1,27,-1,29,-1,31,33,35,-1,-1,37,39,-1,-1,-1,-1,-1,-1,-1,-1,-1,-1,-1,-1,-1,-1],"loss_changes":[7.934176E1,8.921818E0,9.261417E0,2.0766258E0,1.4930401E0,3.4672546E-1,2.0596237E0,0E0,2.0625076E0,3.213191E-1,3.309594E-1,5.7093978E-2,1.4057493E-1,6.21994E-1,0E0,0E0,2.0826492E0,0E0,1.4912963E-2,0E0,7.726227E-2,3.950569E-2,8.993571E-2,0E0,0E0,2.148455E0,2.739334E-1,0E0,0E0,0E0,0E0,0E0,0E0,0E0,0E0,0E0,0E0,0E0,0E0,0E0,0E0],"parents":[2147483647,0,0,1,1,2,2,3,3,4,4,5,5,6,6,8,8,9,9,10,10,11,11,12,12,13,13,16,16,18,18,20,20,21,21,22,22,25,25,26,26],"right_children":[2,4,6,8,10,12,14,-1,16,18,20,22,24,26,-1,-1,28,-1,30,-1,32,34,36,-1,-1,38,40,-1,-1,-1,-1,-1,-1,-1,-1,-1,-1,-1,-1,-1,-1],"split_conditions":[1.0116933E-1,-5.818285E-1,7.011379E-1,-1.9710519E0,-4.0654596E-2,5.8619034E-1,-7.9317194E-1,1.3618077E-2,-1.9007709E0,-2.651908E-1,-1.3915918E0,7.188628E-1,-1.2436044E-1,-1.665951E0,1.8280363E-2,1.3310407E-2,-1.2831956E0,-1.1127629E-2,4.4205007E-1,1.0818035E-2,-1.727368E-3,1.1230776E0,9.472988E-1,-2.1716475E-3,9.34468E-3,-1.4639332E0,-1.8569208E0,-3.3590138E-2,-1.9167176E-2,-4.8163254E-3,-3.927297E-4,-2.7166286E-3,7.431925E-4,4.1511273E-3,-1.0438964E-3,-4.7090934E-3,2.54907E-3,1.9180737E-2,-1.9243961E-2,7.930073E-3,3.256216E-2],"split_indices":[9,7,9,7,7,6,1,0,0,9,0,4,7,7,0,0,4,0,3,0,9,0,0,0,0,0,3,0,0,0,0,0,0,0,0,0,0,0,0,0,0],"split_type":[0,0,0,0,0,0,0,0,0,0,0,0,0,0,0,0,0,0,0,0,0,0,0,0,0,0,0,0,0,0,0,0,0,0,0,0,0,0,0,0,0],"sum_hessian":[7.58E2,4.2E2,3.38E2,2.16E2,2.04E2,1.24E2,2.14E2,1E0,2.15E2,1.42E2,6.2E1,6.4E1,6E1,8.7E1,1.27E2,1E0,2.14E2,1.08E2,3.4E1,1E0,6.1E1,5.6E1,8E0,1E0,5.9E1,6E0,8.1E1,4.2E1,1.72E2,3.1E1,3E0,3.8E1,2.3E1,5.4E1,2E0,2E0,6E0,5E0,1E0,5E0,7.6E1],"tree_param":{"num_deleted":"0","num_feature":"10","num_nodes":"41","size_leaf_vector":"1"}},{"base_weights":[-2.9785256E-3,-2.9096615E-1,3.536219E-1,-4.08305E-1,-9.821667E-2,1.7688394E-1,4.9830997E-1,3.1469426E-1,-4.2595506E-1,-1.526624E-1,-1.2192678E-2,7.5026564E-2,2.2862063E-1,2.0885117E-2,3.2535184E-2,-1.1964264E-2,2.6674751E-2,-5.0897074E-1,-2.8035116E-1,5.91227E-3,-1.6137083E-1,-2.7215082E-2,7.050336E-2,-2.6937174E-3,8.1664436E-2,8.0932E-3,2.7019638E-1,5.544606E-3,-2.6453143E-2,3.3037884E-3,-1.488427E-2,-9.228139E-3,-4.6298276E-3,-3.2438373E-3,-1.5150389E-4,4.7135926E-3,-1.5912503E-3,1.149423E-3,4.6969405E-3,1.36687E-2,7.9523894E-4],"categories":[],"categories_nodes":[],"categories_segments":[],"categories_sizes":[],"default_left":[0,0,0,0,0,0,0,0,0,0,0,0,0,0,0,0,0,0,0,0,0,0,0,0,0,0,0,0,0,0,0,0,0,0,0,0,0,0,0,0,0],"id":19,"left_children":[1,3,5,7,9,11,13,15,17,19,21,23,25,-1,-1,-1,-1,27,29,-1,31,33,35,-1,37,-1,39,-1,-1,-1,-1,-1,-1,-1,-1,-1,-1,-1,-1,-1,-1],"loss_changes":[7.722875E1,9.208157E0,8.15144E0,3.9498024E0,7.5881016E-1,7.5212955E-1,8.7669754E-1,1.7291877E0,2.344658E0,3.3132482E-1,9.5312014E-2,7.419142E-2,6.719637E-2,0E0,0E0,0E0,0E0,2.223774E0,7.168684E-1,0E0,7.24566E-2,5.5489633E-2,4.4187304E-2,0E0,3.2415092E-2,0E0,2.3510456E-2,0E0,0E0,0E0,0E0,0E0,0E0,0E0,0E0,0E0,0E0,0E0,0E0,0E0,0E0],"parents":[2147483647,0,0,1,1,2,2,3,3,4,4,5,5,6,6,7,7,8,8,9,9,10,10,11,11,12,12,17,17,18,18,20,20,21,21,22,22,24,24,26,26],"right_children":[2,4,6,8,10,12,14,16,18,20,22,24,26,-1,-1,-1,-1,28,30,-1,32,34,36,-1,38,-1,40,-1,-1,-1,-1,-1,-1,-1,-1,-1,-1,-1,-1,-1,-1],"split_conditions":[1.18668556E-1,-5.4673564E-1,8.5991216E-1,-1.7309054E0,1.0418079E-2,4.1197875E-1,1.4688627E0,-1.9437765E0,-7.4941117E-1,-8.8014036E-1,5.48688E-1,-1.3725519E-2,6.461258E-1,2.0885117E-2,3.2535184E-2,-1.1964264E-2,2.6674751E-2,-1.9737114E0,-6.709295E-1,5.91227E-3,-2.651908E-1,-2.9988255E-2,1.4770782E0,-2.6937174E-3,3.624987E-1,8.0932E-3,1.4780906E0,5.544606E-3,-2.6453143E-2,3.3037884E-3,-1.488427E-2,-9.228139E-3,-4.6298276E-3,-3.2438373E-3,-1.5150389E-4,4.7135926E-3,-1.5912503E-3,1.149423E-3,4.6969405E-3,1.36687E-2,7.9523894E-4],"split_indices":[9,9,9,2,6,9,9,2,5,0,4,3,9,0,0,0,0,9,2,0,9,9,0,0,5,0,4,0,0,0,0,0,0,0,0,0,0,0,0,0,0],"split_type":[0,0,0,0,0,0,0,0,0,0,0,0,0,0,0,0,0,0,0,0,0,0,0,0,0,0,0,0,0,0,0,0,0,0,0,0,0,0,0,0,0],"sum_hessian":[7.42E2,4.11E2,3.31E2,2.52E2,1.59E2,1.54E2,1.77E2,4E0,2.48E2,9.5E1,6.4E1,5.6E1,9.8E1,1.28E2,4.9E1,1E0,3E0,1.5E2,9.8E1,1E0,9.4E1,5.7E1,7E0,1E0,5.5E1,4.7E1,5.1E1,4E0,1.46E2,4E0,9.4E1,6.4E1,3E1,1.9E1,3.8E1,6E0,1E0,1.2E1,4.3E1,5E1,1E0],"tree_param":{"num_deleted":"0","num_feature":"10","num_nodes":"41","size_leaf_vector":"1"}},{"base_weights":[1.069316E-2,-1.922696E-1,3.478469E-1,-2.7681783E-1,-1.3465692E-2,2.2763038E-1,4.9960324E-1,1.6525468E-1,-2.8485054E-1,-7.7568546E-2,3.9401773E-2,1.3397968E-1,2.5673464E-1,1.9639054E-2,6.1399764E-1,-1.310987E-2,1.912798E-2,-5.545853E-1,-2.627111E-1,-8.377678E-2,1.3811363E-2,1.639251E-2,1.16986535E-1,1.0199882E-2,8.628215E-2,2.5804192E-1,7.8861194E-4,9.849792E-4,3.1195683E-2,-3.1276084E-2,1.1977396E-3,2.4566077E-2,-1.4035677E-2,-4.7490825E-3,-2.0115848E-3,1.5385951E-3,-6.507218E-4,-7.4355217E-4,1.6587863E-3,3.9675675E-4,6.694852E-3,5.619135E-3,-2.2800406E-3,2.563609E-3,1.3052488E-2],"categories":[],"categories_nodes":[],"categories_segments":[],"categories_sizes":[],"default_left":[0,0,0,0,0,0,0,0,0,0,0,0,0,0,0,0,0,0,0,0,0,0,0,0,0,0,0,0,0,0,0,0,0,0,0,0,0,0,0,0,0,0,0,0,0],"id":20,"left_children":[1,3,5,7,9,11,13,15,17,19,21,23,25,-1,27,-1,-1,29,31,33,35,37,39,-1,41,43,-1,-1,-1,-1,-1,-1,-1,-1,-1,-1,-1,-1,-1,-1,-1,-1,-1,-1,-1],"loss_changes":[5.2819942E1,7.2680244E0,4.722027E0,1.396553E0,5.5751455E-1,2.940979E-1,3.0943108E-1,1.3375175E0,1.2004051E0,4.776615E-2,1.5286179E-1,8.2317114E-2,1.9025803E-2,0E0,2.3909187E-1,0E0,0E0,8.957114E-1,4.8705235E0,1.5047878E-2,6.0972157E-3,4.2344213E-2,3.156984E-2,0E0,1.598702E-1,1.0195732E-2,0E0,0E0,0E0,0E0,0E0,0E0,0E0,0E0,0E0,0E0,0E0,0E0,0E0,0E0,0E0,0E0,0E0,0E0,0E0],"parents":[2147483647,0,0,1,1,2,2,3,3,4,4,5,5,6,6,7,7,8,8,9,9,10,10,11,11,12,12,14,14,17,17,18,18,19,19,20,20,21,21,22,22,24,24,25,25],"right_children":[2,4,6,8,10,12,14,16,18,20,22,24,26,-1,28,-1,-1,30,32,34,36,38,40,-1,42,44,-1,-1,-1,-1,-1,-1,-1,-1,-1,-1,-1,-1,-1,-1,-1,-1,-1,-1,-1],"split_conditions":[3.8400885E-1,-2.5050953E-1,1.0928673E0,-1.7309054E0,1.9613923E-1,5.924449E-1,1.5044583E0,-1.9754671E0,-1.5639627E0,5.161973E-1,3.9929774E-1,4.2539024E-1,1.818555E0,1.9639054E-2,-1.7063246E0,-1.310987E-2,1.912798E-2,-9.906295E-1,-1.4960103E0,1.9199121E-1,8.5625637E-1,1.1471756E-1,-8.80046E-2,1.0199882E-2,6.563511E-1,-1.2436044E-1,7.8861194E-4,9.849792E-4,3.1195683E-2,-3.1276084E-2,1.1977396E-3,2.4566077E-2,-1.4035677E-2,-4.7490825E-3,-2.0115848E-3,1.5385951E-3,-6.507218E-4,-7.4355217E-4,1.6587863E-3,3.9675675E-4,6.694852E-3,5.619135E-3,-2.2800406E-3,2.563609E-3,1.3052488E-2],"split_indices":[8,8,8,2,4,8,8,5,3,3,7,8,4,0,3,0,0,2,3,3,0,8,8,0,7,7,0,0,0,0,0,0,0,0,0,0,0,0,0,0,0,0,0,0,0],"split_type":[0,0,0,0,0,0,0,0,0,0,0,0,0,0,0,0,0,0,0,0,0,0,0,0,0,0,0,0,0,0,0,0,0,0,0,0,0,0,0,0,0,0,0,0,0],"sum_hessian":[7.62E2,4.77E2,2.85E2,3.22E2,1.55E2,1.66E2,1.19E2,4E0,3.18E2,6.9E1,8.6E1,4.6E1,1.2E2,7.3E1,4.6E1,1E0,3E0,1.5E1,3.03E2,6.5E1,4E0,7.1E1,1.5E1,1.2E1,3.4E1,1.19E2,1E0,1E0,4.5E1,1.3E1,2E0,4E0,2.99E2,4.7E1,1.8E1,2E0,2E0,2.5E1,4.6E1,3E0,1.2E1,2.9E1,5E0,3E0,1.16E2],"tree_param":{"num_deleted":"0","num_feature":"10","num_nodes":"45","size_leaf_vector":"1"}},{"base_weights":[-9.78461E-3,-2.666611E-1,3.1846452E-1,-3.9496702E-1,-1.156889E-1,1.6825557E-1,4.5773274E-1,-6.1329013E-1,-3.2292575E-1,-1.6834778E-1,-1.8482799E-2,6.963335E-2,2.1079773E-1,4.671704E-1,-2.8900146E-2,1.2247019E-1,-6.873608E-1,3.951401E-2,-3.629863E-1,-1.9067037E-1,-9.7283326E-2,-3.1752292E-2,6.0077097E-2,1.4217936E-3,4.2823832E-3,7.372008E-3,2.4707651E-1,1.9000893E-2,3.2454897E-2,-1.9614685E-2,1.5161149E-2,-1.8325318E-2,2.6198402E-2,-3.731915E-2,-7.478343E-3,1.4211026E-2,-1.946489E-2,-9.84144E-3,-1.0894798E-3,-5.0504655E-3,-3.251956E-4,-3.0434942E-3,-3.8147057E-4,4.097556E-3,-1.6867606E-3,1.2194862E-4,1.2529919E-2],"categories":[],"categories_nodes":[],"categories_segments":[],"categories_sizes":[],"default_left":[0,0,0,0,0,0,0,0,0,0,0,0,0,0,0,0,0,0,0,0,0,0,0,0,0,0,0,0,0,0,0,0,0,0,0,0,0,0,0,0,0,0,0,0,0,0,0],"id":21,"left_children":[1,3,5,7,9,11,13,15,17,19,21,23,25,27,29,31,33,-1,35,37,39,41,43,-1,-1,-1,45,-1,-1,-1,-1,-1,-1,-1,-1,-1,-1,-1,-1,-1,-1,-1,-1,-1,-1,-1,-1],"loss_changes":[6.509766E1,8.159016E0,6.7065735E0,2.658722E0,1.038908E0,6.4405537E-1,8.6203766E-1,3.254816E0,9.684496E0,1.1823821E-1,9.084903E-2,2.6747882E-2,8.678341E-2,1.4620819E0,1.5602936E0,2.7270951E0,9.654331E-1,0E0,3.6525059E0,7.8400135E-2,1.09214485E-2,4.6846002E-2,4.0499896E-2,0E0,0E0,0E0,5.4669857E-2,0E0,0E0,0E0,0E0,0E0,0E0,0E0,0E0,0E0,0E0,0E0,0E0,0E0,0E0,0E0,0E0,0E0,0E0,0E0,0E0],"parents":[2147483647,0,0,1,1,2,2,3,3,4,4,5,5,6,6,7,7,8,8,9,9,10,10,11,11,12,12,13,13,14,14,15,15,16,16,18,18,19,19,20,20,21,21,22,22,26,26],"right_children":[2,4,6,8,10,12,14,16,18,20,22,24,26,28,30,32,34,-1,36,38,40,42,44,-1,-1,-1,46,-1,-1,-1,-1,-1,-1,-1,-1,-1,-1,-1,-1,-1,-1,-1,-1,-1,-1,-1,-1],"split_conditions":[1.3879082E-1,-4.8643804E-1,9.392325E-1,-1.2960978E0,-1.0583116E-1,4.0256044E-1,1.9206364E0,-1.5638388E0,-1.2596858E0,-2.5050953E-1,3.6197367E-1,2.1366197E-1,6.461258E-1,1.4814705E0,-1.3518409E0,-1.7408986E0,-6.613875E-1,3.951401E-2,-1.7159126E0,-2.651908E-1,-1.6014951E-1,-2.9988255E-2,1.4770782E0,1.4217936E-3,4.2823832E-3,7.372008E-3,-1.2830271E-1,1.9000893E-2,3.2454897E-2,-1.9614685E-2,1.5161149E-2,-1.8325318E-2,2.6198402E-2,-3.731915E-2,-7.478343E-3,1.4211026E-2,-1.946489E-2,-9.84144E-3,-1.0894798E-3,-5.0504655E-3,-3.251956E-4,-3.0434942E-3,-3.8147057E-4,4.097556E-3,-1.6867606E-3,1.2194862E-4,1.2529919E-2],"split_indices":[9,6,9,4,8,9,8,0,4,8,6,9,9,9,0,6,0,0,6,9,9,9,0,0,0,0,8,0,0,0,0,0,0,0,0,0,0,0,0,0,0,0,0,0,0,0,0],"split_type":[0,0,0,0,0,0,0,0,0,0,0,0,0,0,0,0,0,0,0,0,0,0,0,0,0,0,0,0,0,0,0,0,0,0,0,0,0,0,0,0,0,0,0,0,0,0,0],"sum_hessian":[7.62E2,4.28E2,3.34E2,2.27E2,2.01E2,1.66E2,1.68E2,4.7E1,1.8E2,1.28E2,7.3E1,5.4E1,1.12E2,1.65E2,3E0,4E0,4.3E1,3E0,1.77E2,9.1E1,3.7E1,6.5E1,8E0,1.9E1,3.5E1,5E1,6.2E1,1.22E2,4.3E1,1E0,2E0,2E0,2E0,3.7E1,6E0,5E0,1.72E2,8.7E1,4E0,3.5E1,2E0,2.6E1,3.9E1,7E0,1E0,1E0,6.1E1],"tree_param":{"num_deleted":"0","num_feature":"10","num_nodes":"47","size_leaf_vector":"1"}},{"base_weights":[3.4014343E-3,-2.4717177E-1,2.996822E-1,-3.5411128E-1,-7.727058E-2,1.7099664E-1,4.712831E-1,-5.7569563E-1,-3.0314642E-1,-1.24923766E-1,2.8526062E-2,9.022509E-2,2.597729E-1,1.9150795E-2,3.310421E-2,7.029599E-2,-6.964793E-1,1.961746E-1,-3.4320354E-1,-1.4113107E-1,-3.89995E-2,-8.2670525E-3,1.982286E-1,5.0935578E-2,1.2573588E-1,1.3083569E-2,6.7762437E-4,1.7553212E-2,-1.7045159E-2,-3.836546E-2,-3.2788392E-3,4.511973E-2,-1.8916529E-2,4.869189E-3,-1.821034E-2,-7.986961E-3,-4.5439056E-3,7.550893E-4,-2.349348E-3,1.3056857E-3,-7.9614035E-4,1.2127836E-2,-1.6727044E-3,-2.2741558E-3,2.8912488E-3,6.557831E-3,1.7339999E-3],"categories":[],"categories_nodes":[],"categories_segments":[],"categories_sizes":[],"default_left":[0,0,0,0,0,0,0,0,0,0,0,0,0,0,0,0,0,0,0,0,0,0,0,0,0,0,0,0,0,0,0,0,0,0,0,0,0,0,0,0,0,0,0,0,0,0,0],"id":22,"left_children":[1,3,5,7,9,11,13,15,17,19,21,23,25,-1,-1,27,29,31,33,35,37,39,41,43,45,-1,-1,-1,-1,-1,-1,-1,-1,-1,-1,-1,-1,-1,-1,-1,-1,-1,-1,-1,-1,-1,-1],"loss_changes":[5.5901905E1,7.2761993E0,7.21554E0,1.9393616E0,8.4463155E-1,1.3527813E0,1.1740723E0,3.4438353E0,4.5969296E0,1.3123643E-1,3.516075E-1,1.2842607E-1,2.6675701E-2,0E0,0E0,1.8683629E0,1.3124466E0,9.41583E0,2.018837E0,1.5316844E-2,1.435123E-2,1.5239553E-2,1.4327314E-1,5.499907E-2,5.392134E-3,0E0,0E0,0E0,0E0,0E0,0E0,0E0,0E0,0E0,0E0,0E0,0E0,0E0,0E0,0E0,0E0,0E0,0E0,0E0,0E0,0E0,0E0],"parents":[2147483647,0,0,1,1,2,2,3,3,4,4,5,5,6,6,7,7,8,8,9,9,10,10,11,11,12,12,15,15,16,16,17,17,18,18,19,19,20,20,21,21,22,22,23,23,24,24],"right_children":[2,4,6,8,10,12,14,16,18,20,22,24,26,-1,-1,28,30,32,34,36,38,40,42,44,46,-1,-1,-1,-1,-1,-1,-1,-1,-1,-1,-1,-1,-1,-1,-1,-1,-1,-1,-1,-1,-1,-1],"split_conditions":[1.0116933E-1,-4.7876382E-1,1.0189587E0,-1.2960978E0,-3.459471E-2,6.461258E-1,1.5202061E0,-1.5638388E0,-1.0677553E0,-1.7114212E-1,4.3849465E-1,3.845207E-1,1.6669116E0,1.9150795E-2,3.310421E-2,-1.6263803E0,-8.8014036E-1,-1.269363E0,-1.7134594E0,8.8705584E-2,-4.3444943E-1,2.160936E-1,1.4770782E0,-5.7686526E-2,6.9710606E-1,1.3083569E-2,6.7762437E-4,1.7553212E-2,-1.7045159E-2,-3.836546E-2,-3.2788392E-3,4.511973E-2,-1.8916529E-2,4.869189E-3,-1.821034E-2,-7.986961E-3,-4.5439056E-3,7.550893E-4,-2.349348E-3,1.3056857E-3,-7.9614035E-4,1.2127836E-2,-1.6727044E-3,-2.2741558E-3,2.8912488E-3,6.557831E-3,1.7339999E-3],"split_indices":[9,7,9,4,8,9,9,0,0,9,7,9,4,0,0,7,0,7,7,0,8,2,0,4,8,0,0,0,0,0,0,0,0,0,0,0,0,0,0,0,0,0,0,0,0,0,0],"split_type":[0,0,0,0,0,0,0,0,0,0,0,0,0,0,0,0,0,0,0,0,0,0,0,0,0,0,0,0,0,0,0,0,0,0,0,0,0,0,0,0,0,0,0,0,0,0,0],"sum_hessian":[7.43E2,4.03E2,3.4E2,2.44E2,1.59E2,2E2,1.4E2,3.6E1,2.08E2,1.09E2,5E1,1.1E2,9E1,1.06E2,3.4E1,6E0,3E1,1.4E1,1.94E2,8.9E1,2E1,4.5E1,5E0,5.8E1,5.2E1,8.9E1,1E0,4E0,2E0,2.6E1,4E0,5E0,9E0,8E0,1.86E2,5.7E1,3.2E1,2E0,1.8E1,6E0,3.9E1,4E0,1E0,2E0,5.6E1,4.7E1,5E0],"tree_param":{"num_deleted":"0","num_feature":"10","num_nodes":"47","size_leaf_vector":"1"}},{"base_weights":[1.3274869E-2,-2.0477772E-1,3.06001E-1,-3.0338687E-1,-4.634384E-2,1.8206169E-1,4.367297E-1,2.0104644E-1,-3.1268033E-1,-9.775612E-2,2.6773158E-2,9.739002E-2,2.3448607E-1,4.4810706E-1,-5.6662858E-2,1.8417649E-2,-8.084162E-3,-3.5825476E-2,-2.8348172E-1,-1.05991215E-1,-1.882617E-2,3.0735792E-3,1.8402354E-1,9.96501E-2,-6.1980373E-4,2.3593748E-1,6.719776E-4,1.8137245E-2,2.9787669E-2,-1.97271E-2,1.3671065E-2,1.7356366E-2,-1.5384696E-2,-4.6639593E-4,-5.379282E-3,-1.3963905E-3,6.4121874E-4,-2.7534048E-4,3.309782E-3,1.1329374E-2,-1.658765E-3,4.0963585E-3,7.443882E-3,1.185784E-2,8.9924637E-4],"categories":[],"categories_nodes":[],"categories_segments":[],"categories_sizes":[],"default_left":[0,0,0,0,0,0,0,0,0,0,0,0,0,0,0,0,0,0,0,0,0,0,0,0,0,0,0,0,0,0,0,0,0,0,0,0,0,0,0,0,0,0,0,0,0],"id":23,"left_children":[1,3,5,7,9,11,13,15,17,19,21,23,25,27,29,-1,-1,-1,31,33,35,37,39,41,-1,43,-1,-1,-1,-1,-1,-1,-1,-1,-1,-1,-1,-1,-1,-1,-1,-1,-1,-1,-1],"loss_changes":[4.965366E1,6.8975697E0,4.9816456E0,1.5988102E0,6.7844903E-1,6.8037367E-1,1.0138912E0,7.8327894E-1,2.1798458E0,5.827236E-2,2.8413308E-1,2.5282025E-2,1.8474102E-2,8.729954E-1,1.4316093E0,0E0,0E0,0E0,4.519106E0,9.469867E-3,6.3999337E-3,4.0818684E-2,1.3003388E-1,5.321026E-3,0E0,6.84309E-3,0E0,0E0,0E0,0E0,0E0,0E0,0E0,0E0,0E0,0E0,0E0,0E0,0E0,0E0,0E0,0E0,0E0,0E0,0E0],"parents":[2147483647,0,0,1,1,2,2,3,3,4,4,5,5,6,6,7,7,8,8,9,9,10,10,11,11,12,12,13,13,14,14,18,18,19,19,20,20,21,21,22,22,23,23,25,25],"right_children":[2,4,6,8,10,12,14,16,18,20,22,24,26,28,30,-1,-1,-1,32,34,36,38,40,42,-1,44,-1,-1,-1,-1,-1,-1,-1,-1,-1,-1,-1,-1,-1,-1,-1,-1,-1,-1,-1],"split_conditions":[1.8608572E-1,-4.0249878E-1,1.011343E0,-1.6865178E0,-3.459471E-2,5.7277924E-1,1.9206364E0,-1.4357768E0,-1.6510828E0,-1.1376347E-1,4.441721E-1,1.6040655E0,1.6669116E0,1.4958313E0,-1.3518409E0,1.8417649E-2,-8.084162E-3,-3.5825476E-2,-1.6664462E0,-3.7205747E-1,-1.494211E-2,1.0454775E0,9.92334E-1,1.1256849E0,-6.1980373E-4,1.778891E0,6.719776E-4,1.8137245E-2,2.9787669E-2,-1.97271E-2,1.3671065E-2,1.7356366E-2,-1.5384696E-2,-4.6639593E-4,-5.379282E-3,-1.3963905E-3,6.4121874E-4,-2.7534048E-4,3.309782E-3,1.1329374E-2,-1.658765E-3,4.0963585E-3,7.443882E-3,1.185784E-2,8.9924637E-4],"split_indices":[9,8,9,0,8,9,8,1,5,9,8,0,4,9,0,0,0,0,6,0,9,0,0,1,0,5,0,0,0,0,0,0,0,0,0,0,0,0,0,0,0,0,0,0,0],"split_type":[0,0,0,0,0,0,0,0,0,0,0,0,0,0,0,0,0,0,0,0,0,0,0,0,0,0,0,0,0,0,0,0,0,0,0,0,0,0,0,0,0,0,0,0,0],"sum_hessian":[7.68E2,4.41E2,3.27E2,2.69E2,1.72E2,1.74E2,1.53E2,3E0,2.66E2,1E2,7.2E1,7.2E1,1.02E2,1.5E2,3E0,2E0,1E0,1E1,2.56E2,8.9E1,1.1E1,6.7E1,5E0,7.1E1,1E0,1.01E2,1E0,1.06E2,4.4E1,1E0,2E0,7E0,2.49E2,2E0,8.7E1,9E0,2E0,6.3E1,4E0,4E0,1E0,6.2E1,9E0,1E2,1E0],"tree_param":{"num_deleted":"0","num_feature":"10","num_nodes":"45","size_leaf_vector":"1"}},{"base_weights":[8.547533E-3,-2.0621252E-1,2.8481653E-1,-3.1776217E-1,-6.0647167E-2,4.3651965E-1,1.8819582E-1,3.128592E-1,-3.3507904E-1,-1.1762045E-1,9.823991E-3,-7.143861E-2,4.562637E-1,9.0842396E-2,2.3963767E-1,-1.1265051E-2,2.6047116E-2,-4.9658015E-1,-2.5636026E-1,-1.4634028E-1,-6.767356E-2,1.0073426E-2,-5.978642E-3,1.0653608E-2,-1.9562704E-2,1.7711477E-2,5.8412045E-1,-2.7104616E-3,9.604362E-2,9.379508E-2,1.24396635E-2,-2.6367057E-2,5.8569346E-4,3.2648586E-2,-1.4060332E-2,-7.788078E-3,-9.263359E-4,-3.6500215E-3,-5.465619E-4,-1.5429782E-3,9.504462E-4,1.8221438E-4,2.9830752E-2,-1.3294665E-3,5.0446247E-3,6.285938E-3,-1.8524379E-3],"categories":[],"categories_nodes":[],"categories_segments":[],"categories_sizes":[],"default_left":[0,0,0,0,0,0,0,0,0,0,0,0,0,0,0,0,0,0,0,0,0,0,0,0,0,0,0,0,0,0,0,0,0,0,0,0,0,0,0,0,0,0,0,0,0,0,0],"id":24,"left_children":[1,3,5,7,9,11,13,15,17,19,21,23,25,27,29,-1,-1,31,33,35,37,-1,39,-1,-1,-1,41,-1,43,45,-1,-1,-1,-1,-1,-1,-1,-1,-1,-1,-1,-1,-1,-1,-1,-1,-1],"loss_changes":[4.4910988E1,6.8209286E0,4.4409294E0,3.1450577E0,7.7263755E-1,1.4166164E0,9.478502E-1,1.5946828E0,2.3637924E0,1.0253644E-1,2.7858648E-1,1.2357453E0,5.43972E-1,8.714235E-2,6.358433E-2,0E0,0E0,1.1566486E0,4.7364187E0,6.143391E-2,1.0518521E-2,0E0,5.764384E-2,0E0,0E0,0E0,3.2275867E-1,0E0,6.0983896E-2,9.012087E-2,0E0,0E0,0E0,0E0,0E0,0E0,0E0,0E0,0E0,0E0,0E0,0E0,0E0,0E0,0E0,0E0,0E0],"parents":[2147483647,0,0,1,1,2,2,3,3,4,4,5,5,6,6,7,7,8,8,9,9,10,10,11,11,12,12,13,13,14,14,17,17,18,18,19,19,20,20,22,22,26,26,28,28,29,29],"right_children":[2,4,6,8,10,12,14,16,18,20,22,24,26,28,30,-1,-1,32,34,36,38,-1,40,-1,-1,-1,42,-1,44,46,-1,-1,-1,-1,-1,-1,-1,-1,-1,-1,-1,-1,-1,-1,-1,-1,-1],"split_conditions":[1.8608572E-1,-4.7876382E-1,-2.5148395E-1,-1.7309054E0,-1.8870475E-2,-1.665951E0,6.2993485E-1,-1.9437765E0,-9.1306025E-1,-2.9479185E-1,-5.9072968E-2,-1.589414E0,1.5202061E0,-1.3725519E-2,8.4672415E-1,-1.1265051E-2,2.6047116E-2,-1.0122589E0,-1.484089E0,4.0375218E-2,-1.1376347E-1,1.0073426E-2,-1.727368E-3,1.0653608E-2,-1.9562704E-2,1.7711477E-2,-1.7063246E0,-2.7104616E-3,-1.2436044E-1,8.417373E-1,1.24396635E-2,-2.6367057E-2,5.8569346E-4,3.2648586E-2,-1.4060332E-2,-7.788078E-3,-9.263359E-4,-3.6500215E-3,-5.465619E-4,-1.5429782E-3,9.504462E-4,1.8221438E-4,2.9830752E-2,-1.3294665E-3,5.0446247E-3,6.285938E-3,-1.8524379E-3],"split_indices":[9,7,0,2,7,7,9,2,1,9,3,2,9,3,4,0,0,9,0,2,9,0,9,0,0,0,3,0,7,4,0,0,0,0,0,0,0,0,0,0,0,0,0,0,0,0,0],"split_type":[0,0,0,0,0,0,0,0,0,0,0,0,0,0,0,0,0,0,0,0,0,0,0,0,0,0,0,0,0,0,0,0,0,0,0,0,0,0,0,0,0,0,0,0,0,0,0],"sum_hessian":[7.47E2,4.21E2,3.26E2,2.35E2,1.86E2,1.2E2,2.06E2,4E0,2.31E2,1.01E2,8.5E1,4E0,1.16E2,7.6E1,1.3E2,1E0,3E0,6.7E1,1.64E2,5.8E1,4.3E1,2E0,8.3E1,3E0,1E0,7.5E1,4.1E1,1E0,7.5E1,1.1E1,1.19E2,6.3E1,4E0,1E0,1.63E2,5.3E1,5E0,3.8E1,5E0,4.1E1,4.2E1,1E0,4E1,2E0,7.3E1,9E0,2E0],"tree_param":{"num_deleted":"0","num_feature":"10","num_nodes":"47","size_leaf_vector":"1"}},{"base_weights":[3.0680997E-3,-2.0378777E-1,2.7286115E-1,-3.352991E-1,-8.678251E-2,1.5790571E-1,4.0771064E-1,-5.1649487E-1,-2.7387884E-1,-1.2890087E-1,2.7991394E-2,9.108893E-2,2.1658304E-1,5.2714676E-2,4.1806275E-1,-1.5191987E-2,-5.49703E-1,2.8404891E-1,-3.4002182E-1,-1.5799111E-1,-6.610442E-2,4.0596622E-4,1.1731419E-2,5.08907E-2,1.0967739E-1,3.2159942E-1,1.8283959E-1,1.5861716E-2,-1.9399684E-2,1.7174564E-2,6.1319643E-1,-1.1711154E-2,1.2650214E-2,-2.9617975E-2,-7.817851E-3,3.2511067E-2,-1.5555094E-2,7.262339E-3,-1.8103391E-2,-8.137025E-3,-2.4510648E-3,-3.527176E-3,-3.430769E-4,-7.759595E-4,1.1425425E-3,-2.6878745E-3,3.0232987E-3,6.461303E-3,3.143182E-3,3.3194304E-3,1.7628862E-2,1.0825192E-3,9.270972E-3,1.8069545E-4,3.1556055E-2],"categories":[],"categories_nodes":[],"categories_segments":[],"categories_sizes":[],"default_left":[0,0,0,0,0,0,0,0,0,0,0,0,0,0,0,0,0,0,0,0,0,0,0,0,0,0,0,0,0,0,0,0,0,0,0,0,0,0,0,0,0,0,0,0,0,0,0,0,0,0,0,0,0,0,0],"id":25,"left_children":[1,3,5,7,9,11,13,15,17,19,21,23,25,27,29,31,33,35,37,39,41,43,-1,45,47,49,51,-1,-1,-1,53,-1,-1,-1,-1,-1,-1,-1,-1,-1,-1,-1,-1,-1,-1,-1,-1,-1,-1,-1,-1,-1,-1,-1,-1],"loss_changes":[4.3082973E1,6.5788555E0,4.8711624E0,1.5630493E0,1.1685535E0,6.4235735E-1,4.4472694E-1,7.2402096E-1,6.498104E0,2.674644E-1,3.8713527E-1,4.457289E-2,4.9725533E-2,1.7811844E0,1.0713673E0,7.6624376E-1,2.5839043E-1,5.3699822E0,1.846283E0,2.0145655E-2,1.4410853E-2,2.5006624E-2,0E0,5.6333885E-2,1.612091E-2,1.7364383E-2,1.5274525E-2,0E0,0E0,0E0,3.6009884E-1,0E0,0E0,0E0,0E0,0E0,0E0,0E0,0E0,0E0,0E0,0E0,0E0,0E0,0E0,0E0,0E0,0E0,0E0,0E0,0E0,0E0,0E0,0E0,0E0],"parents":[2147483647,0,0,1,1,2,2,3,3,4,4,5,5,6,6,7,7,8,8,9,9,10,10,11,11,12,12,13,13,14,14,15,15,16,16,17,17,18,18,19,19,20,20,21,21,23,23,24,24,25,25,26,26,30,30],"right_children":[2,4,6,8,10,12,14,16,18,20,22,24,26,28,30,32,34,36,38,40,42,44,-1,46,48,50,52,-1,-1,-1,54,-1,-1,-1,-1,-1,-1,-1,-1,-1,-1,-1,-1,-1,-1,-1,-1,-1,-1,-1,-1,-1,-1,-1,-1],"split_conditions":[1.8608572E-1,-7.629798E-1,1.0189587E0,-1.3261977E0,3.520115E-2,6.461258E-1,-1.665951E0,-1.9737114E0,-1.1719193E0,-2.9479185E-1,8.033714E-1,3.845207E-1,-9.1485226E-1,-1.5166503E0,1.620904E0,-1.614083E0,-9.8467666E-1,-1.0547457E0,-1.7134594E0,1.7417243E-1,-6.64699E-2,5.7923976E-2,1.1731419E-2,-1.3725519E-2,8.6228913E-1,-1.9437765E0,-8.1157243E-1,1.5861716E-2,-1.9399684E-2,1.7174564E-2,-1.7063246E0,-1.1711154E-2,1.2650214E-2,-2.9617975E-2,-7.817851E-3,3.2511067E-2,-1.5555094E-2,7.262339E-3,-1.8103391E-2,-8.137025E-3,-2.4510648E-3,-3.527176E-3,-3.430769E-4,-7.759595E-4,1.1425425E-3,-2.6878745E-3,3.0232987E-3,6.461303E-3,3.143182E-3,3.3194304E-3,1.7628862E-2,1.0825192E-3,9.270972E-3,1.8069545E-4,3.1556055E-2],"split_indices":[9,8,9,4,7,9,7,9,2,9,7,9,2,1,9,4,3,1,7,1,9,9,0,3,3,2,1,0,0,0,3,0,0,0,0,0,0,0,0,0,0,0,0,0,0,0,0,0,0,0,0,0,0,0,0],"split_type":[0,0,0,0,0,0,0,0,0,0,0,0,0,0,0,0,0,0,0,0,0,0,0,0,0,0,0,0,0,0,0,0,0,0,0,0,0,0,0,0,0,0,0,0,0,0,0,0,0,0,0,0,0,0,0],"sum_hessian":[7.62E2,4.32E2,3.3E2,1.99E2,2.33E2,1.84E2,1.46E2,4.1E1,1.58E2,1.7E2,6.3E1,9.2E1,9.2E1,5E0,1.41E2,3E0,3.8E1,1.5E1,1.43E2,1.11E2,5.9E1,6E1,3E0,3.5E1,5.7E1,1.2E1,8E1,4E0,1E0,1.12E2,2.9E1,2E0,1E0,3.2E1,6E0,9E0,6E0,5E0,1.38E2,1.04E2,7E0,5.4E1,5E0,3.6E1,2.4E1,1E0,3.4E1,3.4E1,2.3E1,3E0,9E0,2E0,7.8E1,1E0,2.8E1],"tree_param":{"num_deleted":"0","num_feature":"10","num_nodes":"55","size_leaf_vector":"1"}},{"base_weights":[7.2334427E-3,-1.95726E-1,2.3366363E-1,-2.7135316E-1,-9.022603E-2,8.879461E-2,3.33697E-1,1.5924312E-1,-3.0123153E-1,-1.0191152E-1,1.7802875E-1,3.9697003E-2,1.4277205E-1,4.3920022E-1,2.5572562E-1,-2.0916483E-1,7.504811E-1,-5.116677E-1,-2.4873024E-1,-1.509236E-1,-5.529969E-2,1.1311501E-2,-1.7298457E-3,3.0196847E-2,4.839989E-3,1.1839803E-1,1.2109853E-2,4.562784E-1,4.9086824E-2,9.849138E-2,2.646503E-1,1.2544795E-2,-1.65816E-2,4.7158003E-2,-4.9855965E-3,-2.7253876E-2,6.0374564E-3,8.128979E-3,-1.4816135E-2,-3.880243E-3,-9.178435E-3,-3.2982328E-3,-1.0776838E-3,2.185338E-3,-1.4614299E-3,6.9149E-3,-2.1982295E-3,6.795013E-3,2.3930453E-2,-1.923802E-2,1.718965E-2,-2.6783472E-4,5.39111E-3,7.351359E-4,1.3306029E-2],"categories":[],"categories_nodes":[],"categories_segments":[],"categories_sizes":[],"default_left":[0,0,0,0,0,0,0,0,0,0,0,0,0,0,0,0,0,0,0,0,0,0,0,0,0,0,0,0,0,0,0,0,0,0,0,0,0,0,0,0,0,0,0,0,0,0,0,0,0,0,0,0,0,0,0],"id":26,"left_children":[1,3,5,7,9,11,13,15,17,19,21,23,25,27,29,31,33,35,37,39,41,-1,-1,43,-1,45,-1,47,49,51,53,-1,-1,-1,-1,-1,-1,-1,-1,-1,-1,-1,-1,-1,-1,-1,-1,-1,-1,-1,-1,-1,-1,-1,-1],"loss_changes":[3.4328133E1,3.0211773E0,4.96743E0,3.1603184E0,6.298827E-1,3.7183666E-1,1.1412563E0,4.705573E0,1.7279701E0,3.4207296E-1,1.3137373E-1,3.2038495E-2,2.6258826E-2,4.2767048E-1,5.3498268E-2,1.2611604E0,1.780736E0,1.1319885E0,3.7840004E0,1.178571E-1,2.6721686E-2,0E0,0E0,7.141685E-2,0E0,2.4364787E-1,0E0,2.2566223E-1,1.8121064E0,1.7422691E-2,2.4902344E-2,0E0,0E0,0E0,0E0,0E0,0E0,0E0,0E0,0E0,0E0,0E0,0E0,0E0,0E0,0E0,0E0,0E0,0E0,0E0,0E0,0E0,0E0,0E0,0E0],"parents":[2147483647,0,0,1,1,2,2,3,3,4,4,5,5,6,6,7,7,8,8,9,9,10,10,11,11,12,12,13,13,14,14,15,15,16,16,17,17,18,18,19,19,20,20,23,23,25,25,27,27,28,28,29,29,30,30],"right_children":[2,4,6,8,10,12,14,16,18,20,22,24,26,28,30,32,34,36,38,40,42,-1,-1,44,-1,46,-1,48,50,52,54,-1,-1,-1,-1,-1,-1,-1,-1,-1,-1,-1,-1,-1,-1,-1,-1,-1,-1,-1,-1,-1,-1,-1,-1],"split_conditions":[5.7923976E-2,-5.896576E-1,7.687554E-1,-1.4639332E0,4.605323E-1,5.4496914E-1,-9.1485226E-1,-1.4963721E0,-1.4796032E0,-2.5050953E-1,1.4770782E0,4.4733736E-1,9.047647E-1,1.9206364E0,8.0810493E-1,-1.9737114E0,-1.1012241E0,-9.984994E-1,-1.1719193E0,-1.0844214E-1,-5.1633727E-2,1.1311501E-2,-1.7298457E-3,8.272958E-1,4.839989E-3,8.4513915E-1,1.2109853E-2,-1.8143332E0,-1.3518409E0,8.164262E-1,-8.270839E-1,1.2544795E-2,-1.65816E-2,4.7158003E-2,-4.9855965E-3,-2.7253876E-2,6.0374564E-3,8.128979E-3,-1.4816135E-2,-3.880243E-3,-9.178435E-3,-3.2982328E-3,-1.0776838E-3,2.185338E-3,-1.4614299E-3,6.9149E-3,-2.1982295E-3,6.795013E-3,2.3930453E-2,-1.923802E-2,1.718965E-2,-2.6783472E-4,5.39111E-3,7.351359E-4,1.3306029E-2],"split_indices":[9,8,9,0,7,7,2,0,8,8,0,9,8,8,9,9,2,9,2,0,9,0,0,2,0,7,0,1,0,5,2,0,0,0,0,0,0,0,0,0,0,0,0,0,0,0,0,0,0,0,0,0,0,0,0],"split_type":[0,0,0,0,0,0,0,0,0,0,0,0,0,0,0,0,0,0,0,0,0,0,0,0,0,0,0,0,0,0,0,0,0,0,0,0,0,0,0,0,0,0,0,0,0,0,0,0,0,0,0,0,0,0,0],"sum_hessian":[7.37E2,3.89E2,3.48E2,2.22E2,1.67E2,1.46E2,2.02E2,1.3E1,2.09E2,1.63E2,4E0,8.1E1,6.5E1,7.6E1,1.26E2,1E1,3E0,3.3E1,1.76E2,7.4E1,8.9E1,3E0,1E0,7.6E1,5E0,6.1E1,4E0,7.2E1,4E0,1E1,1.16E2,1E0,9E0,2E0,1E0,3.2E1,1E0,1.7E1,1.59E2,2.8E1,4.6E1,6.4E1,2.5E1,6.3E1,1.3E1,5.5E1,6E0,7E0,6.5E1,1E0,3E0,1E0,9E0,1E0,1.15E2],"tree_param":{"num_deleted":"0","num_feature":"10","num_nodes":"55","size_leaf_vector":"1"}},{"base_weights":[7.475384E-3,-1.4792606E-1,2.5789344E-1,-2.069998E-1,-1.2127694E-2,1.7863187E-1,4.0730274E-1,1.9666148E-2,-2.2039828E-1,-6.267422E-2,2.259538E-2,1.2883857E-1,2.41661E-1,1.5122664E-2,2.4444986E-2,-4.465908E-1,-1.7622882E-1,-6.777502E-2,2.5814276E-2,1.1061479E-2,6.693989E-2,2.0741293E-1,1.1012464E-1,3.6575675E-2,1.2353285E-2,-2.5560278E-2,-3.3034899E-3,4.0809825E-2,-1.0264633E-2,-2.1099132E-3,-5.4189484E-3,5.8392063E-5,1.4474407E-3,8.6967665E-4,-2.800323E-3,-4.0587597E-4,3.687127E-3,1.0723387E-2,7.290095E-4,3.1667945E-3,7.260085E-3,2.8341252E-3,-8.6810096E-4],"categories":[],"categories_nodes":[],"categories_segments":[],"categories_sizes":[],"default_left":[0,0,0,0,0,0,0,0,0,0,0,0,0,0,0,0,0,0,0,0,0,0,0,0,0,0,0,0,0,0,0,0,0,0,0,0,0,0,0,0,0,0,0],"id":27,"left_children":[1,3,5,7,9,11,13,-1,15,17,19,21,23,-1,-1,25,27,29,31,33,35,37,39,41,-1,-1,-1,-1,-1,-1,-1,-1,-1,-1,-1,-1,-1,-1,-1,-1,-1,-1,-1],"loss_changes":[2.9883144E1,3.7899313E0,3.1178856E0,3.0877657E0,2.685952E-1,4.7514725E-1,9.908104E-2,0E0,2.86349E0,3.67323E-2,4.3352522E-2,6.6657305E-2,4.681635E-2,0E0,0E0,1.0604877E0,8.942872E0,3.9444E-2,3.7174812E-4,3.8420297E-2,1.2183636E-2,8.852303E-3,1.3455093E-1,1.3596739E-2,0E0,0E0,0E0,0E0,0E0,0E0,0E0,0E0,0E0,0E0,0E0,0E0,0E0,0E0,0E0,0E0,0E0,0E0,0E0],"parents":[2147483647,0,0,1,1,2,2,3,3,4,4,5,5,6,6,8,8,9,9,10,10,11,11,12,12,15,15,16,16,17,17,18,18,19,19,20,20,21,21,22,22,23,23],"right_children":[2,4,6,8,10,12,14,-1,16,18,20,22,24,-1,-1,26,28,30,32,34,36,38,40,42,-1,-1,-1,-1,-1,-1,-1,-1,-1,-1,-1,-1,-1,-1,-1,-1,-1,-1,-1],"split_conditions":[3.8400885E-1,-2.0817666E-1,1.2554874E0,-1.6865178E0,3.520115E-2,1.0319604E0,1.5307062E0,1.9666148E-2,-1.2960978E0,7.7687025E-1,4.3386245E-1,-7.557329E-1,-1.6745533E0,1.5122664E-2,2.4444986E-2,-9.8467666E-1,-1.2596858E0,9.6100256E-2,8.662201E-1,9.1969633E-1,3.5714723E-2,1.368484E0,1.0454775E0,-1.7900318E0,1.2353285E-2,-2.5560278E-2,-3.3034899E-3,4.0809825E-2,-1.0264633E-2,-2.1099132E-3,-5.4189484E-3,5.8392063E-5,1.4474407E-3,8.6967665E-4,-2.800323E-3,-4.0587597E-4,3.687127E-3,1.0723387E-2,7.290095E-4,3.1667945E-3,7.260085E-3,2.8341252E-3,-8.6810096E-4],"split_indices":[8,7,8,0,7,6,8,0,4,3,7,0,4,0,0,3,4,4,0,2,4,5,0,0,0,0,0,0,0,0,0,0,0,0,0,0,0,0,0,0,0,0,0],"split_type":[0,0,0,0,0,0,0,0,0,0,0,0,0,0,0,0,0,0,0,0,0,0,0,0,0,0,0,0,0,0,0,0,0,0,0,0,0,0,0,0,0,0,0],"sum_hessian":[7.58E2,4.69E2,2.89E2,3.25E2,1.44E2,1.96E2,9.3E1,4E0,3.21E2,5.7E1,8.7E1,1.18E2,7.8E1,5.1E1,4.2E1,4.5E1,2.76E2,5.5E1,2E0,7.4E1,1.3E1,1.3E1,1.05E2,3E0,7.5E1,3.7E1,8E0,4E0,2.72E2,4E1,1.5E1,1E0,1E0,7.1E1,3E0,1E0,1.2E1,1.2E1,1E0,5.1E1,5.4E1,2E0,1E0],"tree_param":{"num_deleted":"0","num_feature":"10","num_nodes":"43","size_leaf_vector":"1"}},{"base_weights":[4.457898E-3,-1.8236828E-1,2.2315666E-1,-2.9374677E-1,-8.469679E-2,1.024047E-1,3.3502644E-1,3.1641665E-1,-3.1537437E-1,-1.2252434E-1,-2.5060007E-2,3.88535E-2,1.336013E-1,1.36557985E-2,4.686821E-1,-1.048424E-2,2.5661618E-2,-4.9449122E-1,-2.5430202E-1,-1.3900566E-1,-5.9195682E-2,5.7892385E-3,-3.44145E-2,-2.629961E-3,4.4391762E-2,1.3756907E-1,-5.9442744E-3,5.0450945E-1,2.5185592E-2,-6.612316E-4,-2.6490813E-2,9.934084E-3,-1.5621133E-2,-1.2754467E-3,-7.1702525E-3,-3.4679007E-3,1.0495759E-3,-3.1238522E-3,-2.8646097E-4,-1.3518962E-3,2.6368236E-3,4.8905737E-3,8.172172E-3,-3.917014E-3,3.017768E-3,-2.2393864E-4,2.5815899E-2,-1.9281412E-2,1.5877748E-2],"categories":[],"categories_nodes":[],"categories_segments":[],"categories_sizes":[],"default_left":[0,0,0,0,0,0,0,0,0,0,0,0,0,0,0,0,0,0,0,0,0,0,0,0,0,0,0,0,0,0,0,0,0,0,0,0,0,0,0,0,0,0,0,0,0,0,0,0,0],"id":28,"left_children":[1,3,5,7,9,11,13,15,17,19,21,23,25,-1,27,-1,-1,29,31,33,35,-1,37,-1,39,41,43,45,47,-1,-1,-1,-1,-1,-1,-1,-1,-1,-1,-1,-1,-1,-1,-1,-1,-1,-1,-1,-1],"loss_changes":[3.1133484E1,4.3466663E0,4.5699425E0,3.00626E0,4.9448407E-1,3.229798E-1,8.4942055E-1,1.4699903E0,1.40592E0,1.01849794E-1,1.4377135E-1,4.459665E-2,6.831646E-2,0E0,7.309332E-1,0E0,0E0,6.7899895E-1,4.2331896E0,3.4137726E-2,3.7430525E-2,0E0,7.226862E-2,0E0,4.5277268E-2,3.6310196E-2,6.2039908E-2,2.8804016E-1,1.6932751E0,0E0,0E0,0E0,0E0,0E0,0E0,0E0,0E0,0E0,0E0,0E0,0E0,0E0,0E0,0E0,0E0,0E0,0E0,0E0,0E0],"parents":[2147483647,0,0,1,1,2,2,3,3,4,4,5,5,6,6,7,7,8,8,9,9,10,10,11,11,12,12,14,14,17,17,18,18,19,19,20,20,22,22,24,24,25,25,26,26,27,27,28,28],"right_children":[2,4,6,8,10,12,14,16,18,20,22,24,26,-1,28,-1,-1,30,32,34,36,-1,38,-1,40,42,44,46,48,-1,-1,-1,-1,-1,-1,-1,-1,-1,-1,-1,-1,-1,-1,-1,-1,-1,-1,-1,-1],"split_conditions":[1.0116933E-1,-8.218723E-1,9.392325E-1,-1.7309054E0,-2.5520083E-1,3.845207E-1,1.4958313E0,-1.9437765E0,-1.4796032E0,7.9163894E-2,-8.8874197E-1,-1.3725519E-2,9.005916E-1,1.36557985E-2,1.9206364E0,-1.048424E-2,2.5661618E-2,-1.5638388E0,-1.1719193E0,-1.0429798E0,3.520115E-2,5.7892385E-3,-7.560736E-2,-2.629961E-3,2.444455E-1,6.461258E-1,1.0498819E0,-1.7063246E0,-1.3518409E0,-6.612316E-4,-2.6490813E-2,9.934084E-3,-1.5621133E-2,-1.2754467E-3,-7.1702525E-3,-3.4679007E-3,1.0495759E-3,-3.1238522E-3,-2.8646097E-4,-1.3518962E-3,2.6368236E-3,4.8905737E-3,8.172172E-3,-3.917014E-3,3.017768E-3,-2.2393864E-4,2.5815899E-2,-1.9281412E-2,1.5877748E-2],"split_indices":[9,9,9,2,9,9,9,2,8,0,8,3,9,0,8,0,0,0,2,8,7,0,9,0,5,9,2,3,0,0,0,0,0,0,0,0,0,0,0,0,0,0,0,0,0,0,0,0,0],"split_type":[0,0,0,0,0,0,0,0,0,0,0,0,0,0,0,0,0,0,0,0,0,0,0,0,0,0,0,0,0,0,0,0,0,0,0,0,0,0,0,0,0,0,0,0,0,0,0,0,0],"sum_hessian":[7.52E2,4.06E2,3.46E2,1.85E2,2.21E2,1.71E2,1.75E2,4E0,1.81E2,1.32E2,8.9E1,6E1,1.11E2,1.3E2,4.5E1,1E0,3E0,3.7E1,1.44E2,1E2,3.2E1,2E0,8.7E1,1E0,5.9E1,1.08E2,3E0,4.1E1,4E0,3E0,3.4E1,1.5E1,1.29E2,5E0,9.5E1,2.9E1,3E0,4.1E1,4.6E1,5E0,5.4E1,5.2E1,5.6E1,1E0,2E0,1E0,4E1,1E0,3E0],"tree_param":{"num_deleted":"0","num_feature":"10","num_nodes":"49","size_leaf_vector":"1"}},{"base_weights":[4.285995E-3,-1.6554375E-1,2.1079987E-1,-4.671086E-1,-1.29941E-1,8.972004E-2,3.0195165E-1,8.103528E-2,-5.697208E-1,3.1373158E-1,-1.4872228E-1,4.747631E-2,1.3453399E-1,2.4186382E-1,4.0674686E-1,3.4964776E-1,-1.61103E-2,-6.201978E-1,9.974769E-3,7.0567614E-1,-1.1040914E-2,-2.385065E-1,-6.250989E-2,1.1051922E-1,3.2112345E-2,6.7966147E-3,2.9378955E-4,2.5327232E-2,1.2208394E-2,4.24049E-1,1.0302101E-1,-1.2528549E-2,2.9064102E-2,-3.24065E-2,-6.042268E-3,-1.3972326E-2,5.399202E-2,1.2816905E-2,-1.2427171E-2,-5.0040414E-3,-1.2592503E-3,1.516352E-3,6.77259E-3,2.238745E-3,-1.2874057E-3,2.6396117E-3,-1.1621898E-3,2.3187068E-3,2.166984E-2,-1.9120734E-2,1.8470546E-2],"categories":[],"categories_nodes":[],"categories_segments":[],"categories_sizes":[],"default_left":[0,0,0,0,0,0,0,0,0,0,0,0,0,0,0,0,0,0,0,0,0,0,0,0,0,0,0,0,0,0,0,0,0,0,0,0,0,0,0,0,0,0,0,0,0,0,0,0,0,0,0],"id":29,"left_children":[1,3,5,7,9,11,13,15,17,19,21,23,25,27,29,31,-1,33,-1,35,-1,37,39,41,43,-1,-1,45,-1,47,49,-1,-1,-1,-1,-1,-1,-1,-1,-1,-1,-1,-1,-1,-1,-1,-1,-1,-1,-1,-1],"loss_changes":[2.6583849E1,4.162917E0,3.6390743E0,2.5931807E0,3.3914022E0,2.596028E-1,7.234192E-1,1.7547652E0,2.01643E0,4.340868E0,2.766223E0,6.652209E-2,8.959532E-3,3.643179E-2,1.1264324E-1,1.9795427E0,0E0,9.6562386E-2,0E0,5.5633616E0,0E0,1.202631E0,2.5944942E-1,9.451702E-3,6.2179282E-2,0E0,0E0,1.5473481E-2,0E0,1.0427284E-1,1.9994923E0,0E0,0E0,0E0,0E0,0E0,0E0,0E0,0E0,0E0,0E0,0E0,0E0,0E0,0E0,0E0,0E0,0E0,0E0,0E0,0E0],"parents":[2147483647,0,0,1,1,2,2,3,3,4,4,5,5,6,6,7,7,8,8,9,9,10,10,11,11,12,12,13,13,14,14,15,15,17,17,19,19,21,21,22,22,23,23,24,24,27,27,29,29,30,30],"right_children":[2,4,6,8,10,12,14,16,18,20,22,24,26,28,30,32,-1,34,-1,36,-1,38,40,42,44,-1,-1,46,-1,48,50,-1,-1,-1,-1,-1,-1,-1,-1,-1,-1,-1,-1,-1,-1,-1,-1,-1,-1,-1,-1],"split_conditions":[9.326853E-2,-1.3261977E0,8.2931274E-1,-1.5638388E0,-1.1403258E0,5.233879E-1,1.4253821E0,-1.598592E0,-1.105334E0,-1.1012241E0,-7.076581E-1,4.4885498E-1,1.4780906E0,-1.9853841E0,1.9206364E0,-1.9754671E0,-1.61103E-2,-1.3140923E0,9.974769E-3,-1.6158644E0,-1.1040914E-2,-1.8143332E0,-2.9479185E-1,2.5619534E-1,7.293503E-1,6.7966147E-3,2.9378955E-4,-1.6571157E0,1.2208394E-2,-1.7063246E0,-1.3518409E0,-1.2528549E-2,2.9064102E-2,-3.24065E-2,-6.042268E-3,-1.3972326E-2,5.399202E-2,1.2816905E-2,-1.2427171E-2,-5.0040414E-3,-1.2592503E-3,1.516352E-3,6.77259E-3,2.238745E-3,-1.2874057E-3,2.6396117E-3,-1.1621898E-3,2.3187068E-3,2.166984E-2,-1.9120734E-2,1.8470546E-2],"split_indices":[9,4,9,0,0,9,9,5,8,2,9,0,4,4,8,5,0,9,0,0,0,1,9,9,5,0,0,0,0,3,0,0,0,0,0,0,0,0,0,0,0,0,0,0,0,0,0,0,0,0,0],"split_type":[0,0,0,0,0,0,0,0,0,0,0,0,0,0,0,0,0,0,0,0,0,0,0,0,0,0,0,0,0,0,0,0,0,0,0,0,0,0,0,0,0,0,0,0,0,0,0,0,0,0,0],"sum_hessian":[7.48E2,4.11E2,3.37E2,3.7E1,3.74E2,1.49E2,1.88E2,6E0,3.1E1,1.2E1,3.62E2,8.2E1,6.7E1,1.3E2,5.8E1,4E0,2E0,3E1,1E0,6E0,6E0,1.73E2,1.89E2,1E1,7.2E1,6.6E1,1E0,2E0,1.28E2,5.3E1,5E0,1E0,3E0,2.7E1,3E0,2E0,4E0,1E0,1.72E2,9E1,9.9E1,5E0,5E0,6E1,1.2E1,1E0,1E0,2E0,5.1E1,1E0,4E0],"tree_param":{"num_deleted":"0","num_feature":"10","num_nodes":"51","size_leaf_vector":"1"}},{"base_weights":[1.1762971E-2,-1.5313242E-1,2.2535846E-1,-2.868568E-1,-7.718563E-2,3.797789E-1,1.5880649E-1,-4.3056074E-1,-2.181528E-1,-1.20353214E-1,1.3169625E-2,3.4888774E-2,4.0060195E-1,9.279407E-2,2.3253311E-1,8.297814E-3,-4.629766E-1,5.8834966E-2,-3.1937405E-1,7.6425776E-2,-1.3211901E-1,-3.0308552E-3,1.7145808E-1,1.3295719E-2,-1.8961394E-2,5.6563973E-1,3.1068775E-1,9.771915E-2,-6.776743E-2,2.913413E-4,1.1716462E-2,-2.4465026E-2,-4.438612E-3,3.4781888E-2,-9.642745E-3,-2.1848504E-2,-9.6679935E-3,1.3793635E-2,-2.251059E-3,-8.492564E-3,-3.7643563E-3,-1.4065359E-3,4.7795713E-4,1.09986365E-2,-1.8054935E-3,2.2231052E-3,2.8879723E-2,5.7566324E-3,1.6505152E-2,2.6577679E-3,6.513018E-3,3.300905E-5,-3.9861086E-3],"categories":[],"categories_nodes":[],"categories_segments":[],"categories_sizes":[],"default_left":[0,0,0,0,0,0,0,0,0,0,0,0,0,0,0,0,0,0,0,0,0,0,0,0,0,0,0,0,0,0,0,0,0,0,0,0,0,0,0,0,0,0,0,0,0,0,0,0,0,0,0,0,0],"id":30,"left_children":[1,3,5,7,9,11,13,15,17,19,21,23,25,27,29,-1,31,33,35,37,39,41,43,-1,-1,45,47,49,51,-1,-1,-1,-1,-1,-1,-1,-1,-1,-1,-1,-1,-1,-1,-1,-1,-1,-1,-1,-1,-1,-1,-1,-1],"loss_changes":[2.7010881E1,4.2868147E0,3.1309566E0,1.0606804E0,1.1117436E0,6.267376E-1,1.0698943E0,1.2543173E0,3.3182125E0,4.9501657E-1,2.4877584E-1,1.5565978E0,4.716854E-1,1.4065659E-1,3.8371086E-2,0E0,2.1624184E-1,6.280474E0,8.371334E-1,4.012117E-1,3.284862E-1,3.0417189E-2,1.3034672E-1,0E0,0E0,3.3587456E-2,7.5745106E-2,1.5970123E-1,5.989399E-3,0E0,0E0,0E0,0E0,0E0,0E0,0E0,0E0,0E0,0E0,0E0,0E0,0E0,0E0,0E0,0E0,0E0,0E0,0E0,0E0,0E0,0E0,0E0,0E0],"parents":[2147483647,0,0,1,1,2,2,3,3,4,4,5,5,6,6,7,7,8,8,9,9,10,10,11,11,12,12,13,13,14,14,16,16,17,17,18,18,19,19,20,20,21,21,22,22,25,25,26,26,27,27,28,28],"right_children":[2,4,6,8,10,12,14,16,18,20,22,24,26,28,30,-1,32,34,36,38,40,42,44,-1,-1,46,48,50,52,-1,-1,-1,-1,-1,-1,-1,-1,-1,-1,-1,-1,-1,-1,-1,-1,-1,-1,-1,-1,-1,-1,-1,-1],"split_conditions":[2.2241026E-1,-9.077114E-1,-8.494206E-1,-1.3261977E0,-1.8870475E-2,-1.665951E0,9.9926907E-1,-1.9853841E0,-1.269363E0,-1.1982087E0,8.033714E-1,-1.7537435E0,-8.040017E-1,9.9253E-1,-8.1157243E-1,8.297814E-3,-9.8467666E-1,-1.371683E0,-1.1879528E0,-6.3128775E-1,-4.9409327E-1,1.9613923E-1,1.4094539E0,1.3295719E-2,-1.8961394E-2,-1.9428793E0,-1.6745533E0,5.233879E-1,4.0242752E-1,2.913413E-4,1.1716462E-2,-2.4465026E-2,-4.438612E-3,3.4781888E-2,-9.642745E-3,-2.1848504E-2,-9.6679935E-3,1.3793635E-2,-2.251059E-3,-8.492564E-3,-3.7643563E-3,-1.4065359E-3,4.7795713E-4,1.09986365E-2,-1.8054935E-3,2.2231052E-3,2.8879723E-2,5.7566324E-3,1.6505152E-2,2.6577679E-3,6.513018E-3,3.300905E-5,-3.9861086E-3],"split_indices":[9,8,1,4,7,7,6,4,7,9,7,7,7,6,1,0,3,6,9,1,9,4,1,0,0,4,4,9,1,0,0,0,0,0,0,0,0,0,0,0,0,0,0,0,0,0,0,0,0,0,0,0,0],"split_type":[0,0,0,0,0,0,0,0,0,0,0,0,0,0,0,0,0,0,0,0,0,0,0,0,0,0,0,0,0,0,0,0,0,0,0,0,0,0,0,0,0,0,0,0,0,0,0,0,0,0,0,0,0],"sum_hessian":[7.57E2,4.28E2,3.29E2,1.5E2,2.78E2,9.2E1,2.37E2,4E1,1.1E2,1.87E2,9.1E1,6E0,8.6E1,1.31E2,1.06E2,1E0,3.9E1,3E1,8E1,9E0,1.78E2,8.7E1,4E0,5E0,1E0,2.1E1,6.5E1,1.29E2,2E0,1E0,1.05E2,3.5E1,4E0,6E0,2.4E1,3.5E1,4.5E1,1E0,8E0,1.01E2,7.7E1,2.7E1,6E1,3E0,1E0,1E0,2E1,9E0,5.6E1,6E1,6.9E1,1E0,1E0],"tree_param":{"num_deleted":"0","num_feature":"10","num_nodes":"53","size_leaf_vector":"1"}},{"base_weights":[8.65073E-4,-1.3609122E-1,2.3021635E-1,-4.384029E-1,-9.778164E-2,1.3807759E-1,3.1946018E-1,8.228666E-3,-4.6582294E-1,2.5020463E-2,-1.06303364E-1,8.075331E-2,1.6410886E-1,2.713098E-2,2.7627426E-1,-2.5183534E-2,-1.2980102E-1,-1.8289435E-1,-2.178606E-2,6.2637076E-2,7.6283524E-3,1.6542967E-1,2.889134E-4,-1.6065665E-1,2.9292053E-1,5.3668073E-3,-1.0007406E-2,1.395153E-2,-9.979127E-3,-2.3695887E-3,1.0026555E-3,3.8256408E-3,-1.8336282E-3,8.3338795E-3,3.6985677E-4,6.936805E-3,-1.8803382E-2,1.2307188E-2,2.0157078E-2],"categories":[],"categories_nodes":[],"categories_segments":[],"categories_sizes":[],"default_left":[0,0,0,0,0,0,0,0,0,0,0,0,0,0,0,0,0,0,0,0,0,0,0,0,0,0,0,0,0,0,0,0,0,0,0,0,0,0,0],"id":31,"left_children":[1,3,5,7,9,11,13,-1,15,-1,17,19,21,-1,23,-1,25,27,29,31,-1,33,-1,35,37,-1,-1,-1,-1,-1,-1,-1,-1,-1,-1,-1,-1,-1,-1],"loss_changes":[2.4280376E1,5.391074E0,2.1558428E0,1.259593E0,2.4885364E0,1.5906382E-1,6.28582E-1,0E0,3.344345E-1,0E0,2.789474E0,2.6374906E-2,1.5923738E-2,0E0,1.1808224E0,0E0,3.0759853E-1,2.0283213E0,2.31872E-1,8.844131E-2,0E0,1.3162136E-2,0E0,7.7681065E-1,1.5863132E-1,0E0,0E0,0E0,0E0,0E0,0E0,0E0,0E0,0E0,0E0,0E0,0E0,0E0,0E0],"parents":[2147483647,0,0,1,1,2,2,3,3,4,4,5,5,6,6,8,8,10,10,11,11,12,12,14,14,16,16,17,17,18,18,19,19,21,21,23,23,24,24],"right_children":[2,4,6,8,10,12,14,-1,16,-1,18,20,22,-1,24,-1,26,28,30,32,-1,34,-1,36,38,-1,-1,-1,-1,-1,-1,-1,-1,-1,-1,-1,-1,-1,-1],"split_conditions":[3.845207E-1,-1.2960978E0,1.0434182E0,-1.9853841E0,-1.2596858E0,6.461258E-1,-1.1537163E0,8.228666E-3,-9.8467666E-1,2.5020463E-2,-4.9409327E-1,9.9926907E-1,1.4780906E0,2.713098E-2,-1.665951E0,-2.5183534E-2,-1.0329168E0,-1.7159126E0,1.7646146E-1,6.9710606E-1,7.6283524E-3,1.4338077E0,2.889134E-4,-1.5536994E0,1.6302408E0,5.3668073E-3,-1.0007406E-2,1.395153E-2,-9.979127E-3,-2.3695887E-3,1.0026555E-3,3.8256408E-3,-1.8336282E-3,8.3338795E-3,3.6985677E-4,6.936805E-3,-1.8803382E-2,1.2307188E-2,2.0157078E-2],"split_indices":[9,4,9,4,4,9,8,0,3,0,9,6,4,0,7,0,2,6,5,8,0,5,0,2,8,0,0,0,0,0,0,0,0,0,0,0,0,0,0],"split_type":[0,0,0,0,0,0,0,0,0,0,0,0,0,0,0,0,0,0,0,0,0,0,0,0,0,0,0,0,0,0,0,0,0,0,0,0,0,0,0],"sum_hessian":[7.63E2,4.79E2,2.84E2,4.8E1,4.31E2,1.46E2,1.38E2,1E0,4.7E1,2E0,4.29E2,5.2E1,9.4E1,1.3E1,1.25E2,4E1,7E0,2.22E2,2.07E2,4.9E1,3E0,9.3E1,1E0,3E0,1.22E2,1E0,6E0,5E0,2.17E2,1.28E2,7.9E1,4.4E1,5E0,9.2E1,1E0,2E0,1E0,9.7E1,2.5E1],"tree_param":{"num_deleted":"0","num_feature":"10","num_nodes":"39","size_leaf_vector":"1"}},{"base_weights":[1.0740087E-2,-1.4648983E-1,1.888428E-1,-2.4632448E-1,-8.01962E-2,3.7041038E-1,1.3845602E-1,2.1732575E-1,-2.6210523E-1,1.9724931E-1,-9.2148714E-2,4.073842E-2,4.0135172E-1,8.233018E-2,1.0758826E-2,-9.71308E-3,2.0744111E-2,-4.308276E-1,-1.9213136E-1,2.0375745E-2,-4.8561264E-2,-1.3237539E-1,-3.315451E-2,1.2393015E-2,-1.8646685E-2,8.169072E-4,4.1342726E-1,4.0524393E-2,1.19562075E-1,-5.824961E-4,-2.564994E-2,8.810124E-3,-1.6234918E-2,-2.9126215E-3,3.2216014E-4,-6.9643236E-3,7.248908E-4,-2.7748018E-3,-2.7887555E-4,1.3506894E-3,-1.3030366E-3,2.5972147E-2,1.4816043E-2,-2.6572044E-3,2.2281236E-3,6.483403E-3,-5.9786363E-4],"categories":[],"categories_nodes":[],"categories_segments":[],"categories_sizes":[],"default_left":[0,0,0,0,0,0,0,0,0,0,0,0,0,0,0,0,0,0,0,0,0,0,0,0,0,0,0,0,0,0,0,0,0,0,0,0,0,0,0,0,0,0,0,0,0,0,0],"id":32,"left_children":[1,3,5,7,9,11,13,15,17,19,21,23,25,27,-1,-1,-1,29,31,-1,33,35,37,-1,-1,39,41,43,45,-1,-1,-1,-1,-1,-1,-1,-1,-1,-1,-1,-1,-1,-1,-1,-1,-1,-1],"loss_changes":[2.1448656E1,2.5949173E0,3.0279236E0,1.455492E0,9.2655647E-1,6.8328476E-1,1.1558571E0,1.0534724E0,1.4396887E0,7.191732E-1,5.594752E-1,1.4903437E0,3.2720566E-1,2.4816298E-1,0E0,0E0,0E0,1.4167814E0,6.1455326E0,0E0,7.2072353E-3,1.562643E-1,6.3760236E-2,0E0,0E0,8.448767E-3,4.978752E-2,4.5882806E-2,1.2737429E-1,0E0,0E0,0E0,0E0,0E0,0E0,0E0,0E0,0E0,0E0,0E0,0E0,0E0,0E0,0E0,0E0,0E0,0E0],"parents":[2147483647,0,0,1,1,2,2,3,3,4,4,5,5,6,6,7,7,8,8,9,9,10,10,11,11,12,12,13,13,17,17,18,18,20,20,21,21,22,22,25,25,26,26,27,27,28,28],"right_children":[2,4,6,8,10,12,14,16,18,20,22,24,26,28,-1,-1,-1,30,32,-1,34,36,38,-1,-1,40,42,44,46,-1,-1,-1,-1,-1,-1,-1,-1,-1,-1,-1,-1,-1,-1,-1,-1,-1,-1],"split_conditions":[1.18668556E-1,-9.077114E-1,-9.074306E-1,-1.7309054E0,-1.3691131E0,-1.665951E0,9.392325E-1,-1.3089767E0,-1.2960978E0,-6.0321236E-1,-2.5050953E-1,-1.589414E0,-1.9644101E0,5.924449E-1,1.0758826E-2,-9.71308E-3,2.0744111E-2,-1.4639332E0,-1.3287917E0,2.0375745E-2,-3.1837174E-1,-2.651908E-1,3.520115E-2,1.2393015E-2,-1.8646685E-2,-1.7900318E0,-8.040017E-1,-1.3725519E-2,9.005916E-1,-5.824961E-4,-2.564994E-2,8.810124E-3,-1.6234918E-2,-2.9126215E-3,3.2216014E-4,-6.9643236E-3,7.248908E-4,-2.7748018E-3,-2.7887555E-4,1.3506894E-3,-1.3030366E-3,2.5972147E-2,1.4816043E-2,-2.6572044E-3,2.2281236E-3,6.483403E-3,-5.9786363E-4],"split_indices":[9,8,3,2,9,7,9,0,4,0,8,2,3,8,0,0,0,0,8,0,0,9,7,0,0,0,7,3,9,0,0,0,0,0,0,0,0,0,0,0,0,0,0,0,0,0,0],"split_type":[0,0,0,0,0,0,0,0,0,0,0,0,0,0,0,0,0,0,0,0,0,0,0,0,0,0,0,0,0,0,0,0,0,0,0,0,0,0,0,0,0,0,0,0,0,0,0],"sum_hessian":[7.56E2,4.02E2,3.54E2,1.55E2,2.47E2,7E1,2.84E2,3E0,1.52E2,7E0,2.4E2,7E0,6.3E1,1.7E2,1.14E2,1E0,2E0,3.7E1,1.15E2,2E0,5E0,1.39E2,1.01E2,6E0,1E0,2E0,6.1E1,8.5E1,8.5E1,7E0,3E1,3E1,8.5E1,4E0,1E0,1.33E2,6E0,5.3E1,4.8E1,1E0,1E0,2.3E1,3.8E1,1E0,8.4E1,7.9E1,6E0],"tree_param":{"num_deleted":"0","num_feature":"10","num_nodes":"47","size_leaf_vector":"1"}},{"base_weights":[-5.2139345E-3,-1.3961112E-1,1.3864669E-1,1.6673181E-2,-1.4864568E-1,8.839046E-2,1.328038E-2,-2.2863394E-1,-8.2183085E-2,-2.8936994E-1,9.648741E-2,2.3438197E-2,-2.5809273E-1,1.5629473E-1,-8.898721E-2,1.6113848E-3,-1.8491298E-2,1.7341027E-2,7.92929E-2,-2.6493816E-2,1.6216226E-2,-1.9417116E-2,-1.0262179E-2,1.3592051E-2,-2.7192014E-3,-5.8578947E-3,-2.4662248E-3,1.0367037E-3,6.5769167E-3],"categories":[],"categories_nodes":[],"categories_segments":[],"categories_sizes":[],"default_left":[0,0,0,0,0,0,0,0,0,0,0,0,0,0,0,0,0,0,0,0,0,0,0,0,0,0,0,0,0],"id":33,"left_children":[1,3,5,-1,7,9,-1,11,13,15,17,19,21,23,25,-1,-1,-1,27,-1,-1,-1,-1,-1,-1,-1,-1,-1,-1],"loss_changes":[1.4887649E1,1.9489017E0,2.2561884E0,0E0,2.0006437E0,9.776883E-1,0E0,1.3371763E0,4.3138814E-1,2.4071443E-1,1.0332828E0,4.6884084E0,6.890812E-1,2.686642E-1,2.1691787E-1,0E0,0E0,0E0,7.8487504E-1,0E0,0E0,0E0,0E0,0E0,0E0,0E0,0E0,0E0,0E0],"parents":[2147483647,0,0,1,1,2,2,4,4,5,5,7,7,8,8,9,9,10,10,11,11,12,12,13,13,14,14,18,18],"right_children":[2,4,6,-1,8,10,-1,12,14,16,18,20,22,24,26,-1,-1,-1,28,-1,-1,-1,-1,-1,-1,-1,-1,-1,-1],"split_conditions":[-2.370591E-2,-1.7559865E0,1.2338074E0,1.6673181E-2,-7.4941117E-1,-1.665951E0,1.328038E-2,-1.4639332E0,-6.3128775E-1,-1.7471477E0,-8.040017E-1,-1.656722E0,-1.3974618E0,-6.0321236E-1,-1.7737161E-2,1.6113848E-3,-1.8491298E-2,1.7341027E-2,7.032628E-1,-2.6493816E-2,1.6216226E-2,-1.9417116E-2,-1.0262179E-2,1.3592051E-2,-2.7192014E-3,-5.8578947E-3,-2.4662248E-3,1.0367037E-3,6.5769167E-3],"split_indices":[8,2,7,0,5,7,0,0,1,0,7,3,6,0,0,0,0,0,6,0,0,0,0,0,0,0,0,0,0],"split_type":[0,0,0,0,0,0,0,0,0,0,0,0,0,0,0,0,0,0,0,0,0,0,0,0,0,0,0,0,0],"sum_hessian":[7.6E2,3.93E2,3.67E2,4E0,3.89E2,2.69E2,9.8E1,1.71E2,2.18E2,2E0,2.67E2,1.8E1,1.53E2,3E0,2.15E2,1E0,1E0,1.1E1,2.56E2,5E0,1.3E1,3.5E1,1.18E2,1E0,2E0,1.2E2,9.5E1,1.24E2,1.32E2],"tree_param":{"num_deleted":"0","num_feature":"10","num_nodes":"29","size_leaf_vector":"1"}},{"base_weights":[8.3028255E-3,-1.3107528E-1,1.6792291E-1,-2.2540824E-1,-6.502408E-2,2.922323E-1,9.6867755E-2,-1.6514378E-2,-3.0241364E-1,2.2358666E-1,-7.6848134E-2,3.529784E-1,2.0713772E-1,4.8200645E-2,1.4772832E-1,-2.1716097E-1,2.2756441E-1,-4.3400994E-1,-1.717896E-1,1.9892719E-2,-3.616968E-2,-1.0884726E-1,-1.50287775E-2,8.619606E-2,3.7691998E-1,9.5518194E-2,1.1420692E-2,2.2615885E-2,8.533958E-2,6.439523E-2,1.5729554E-1,1.8393021E-2,-1.8895334E-2,3.3036005E-2,-1.4072302E-2,-2.2746628E-2,6.147136E-3,2.61104E-2,-1.2144808E-2,-2.3107629E-3,3.6829113E-4,-5.666667E-3,1.419259E-3,-1.1174607E-3,2.3186503E-3,1.4703713E-2,-1.8337203E-2,4.5244936E-3,2.0310681E-2,4.9820147E-3,1.7766978E-4,2.1098654E-3,-9.179065E-4,5.1356335E-3,-1.147174E-3,4.396109E-3,-1.2923278E-3,-1.0798251E-4,