{"learner":{"attributes":{"scikit_learn":"{\"_estimator_type\": \"regressor\"}"},"feature_names":[],"feature_types":[],"gradient_booster":{"model":{"gbtree_model_param":{"num_parallel_tree":"1","num_trees":"500"},"iteration_indptr":[0,1,2,3,4,5,6,7,8,9,10,11,12,13,14,15,16,17,18,19,20,21,22,23,24,25,26,27,28,29,30,31,32,33,34,35,36,37,38,39,40,41,42,43,44,45,46,47,48,49,50,51,52,53,54,55,56,57,58,59,60,61,62,63,64,65,66,67,68,69,70,71,72,73,74,75,76,77,78,79,80,81,82,83,84,85,86,87,88,89,90,91,92,93,94,95,96,97,98,99,100,101,102,103,104,105,106,107,108,109,110,111,112,113,114,115,116,117,118,119,120,121,122,123,124,125,126,127,128,129,130,131,132,133,134,135,136,137,138,139,140,141,142,143,144,145,146,147,148,149,150,151,152,153,154,155,156,157,158,159,160,161,162,163,164,165,166,167,168,169,170,171,172,173,174,175,176,177,178,179,180,181,182,183,184,185,186,187,188,189,190,191,192,193,194,195,196,197,198,199,200,201,202,203,204,205,206,207,208,209,210,211,212,213,214,215,216,217,218,219,220,221,222,223,224,225,226,227,228,229,230,231,232,233,234,235,236,237,238,239,240,241,242,243,244,245,246,247,248,249,250,251,252,253,254,255,256,257,258,259,260,261,262,263,264,265,266,267,268,269,270,271,272,273,274,275,276,277,278,279,280,281,282,283,284,285,286,287,288,289,290,291,292,293,294,295,296,297,298,299,300,301,302,303,304,305,306,307,308,309,310,311,312,313,314,315,316,317,318,319,320,321,322,323,324,325,326,327,328,329,330,331,332,333,334,335,336,337,338,339,340,341,342,343,344,345,346,347,348,349,350,351,352,353,354,355,356,357,358,359,360,361,362,363,364,365,366,367,368,369,370,371,372,373,374,375,376,377,378,379,380,381,382,383,384,385,386,387,388,389,390,391,392,393,394,395,396,397,398,399,400,401,402,403,404,405,406,407,408,409,410,411,412,413,414,415,416,417,418,419,420,421,422,423,424,425,426,427,428,429,430,431,432,433,434,435,436,437,438,439,440,441,442,443,444,445,446,447,448,449,450,451,452,453,454,455,456,457,458,459,460,461,462,463,464,465,466,467,468,469,470,471,472,473,474,475,476,477,478,479,480,481,482,483,484,485,486,487,488,489,490,491,492,493,494,495,496,497,498,499,500],"tree_info":[0,0,0,0,0,0,0,0,0,0,0,0,0,0,0,0,0,0,0,0,0,0,0,0,0,0,0,0,0,0,0,0,0,0,0,0,0,0,0,0,0,0,0,0,0,0,0,0,0,0,0,0,0,0,0,0,0,0,0,0,0,0,0,0,0,0,0,0,0,0,0,0,0,0,0,0,0,0,0,0,0,0,0,0,0,0,0,0,0,0,0,0,0,0,0,0,0,0,0,0,0,0,0,0,0,0,0,0,0,0,0,0,0,0,0,0,0,0,0,0,0,0,0,0,0,0,0,0,0,0,0,0,0,0,0,0,0,0,0,0,0,0,0,0,0,0,0,0,0,0,0,0,0,0,0,0,0,0,0,0,0,0,0,0,0,0,0,0,0,0,0,0,0,0,0,0,0,0,0,0,0,0,0,0,0,0,0,0,0,0,0,0,0,0,0,0,0,0,0,0,0,0,0,0,0,0,0,0,0,0,0,0,0,0,0,0,0,0,0,0,0,0,0,0,0,0,0,0,0,0,0,0,0,0,0,0,0,0,0,0,0,0,0,0,0,0,0,0,0,0,0,0,0,0,0,0,0,0,0,0,0,0,0,0,0,0,0,0,0,0,0,0,0,0,0,0,0,0,0,0,0,0,0,0,0,0,0,0,0,0,0,0,0,0,0,0,0,0,0,0,0,0,0,0,0,0,0,0,0,0,0,0,0,0,0,0,0,0,0,0,0,0,0,0,0,0,0,0,0,0,0,0,0,0,0,0,0,0,0,0,0,0,0,0,0,0,0,0,0,0,0,0,0,0,0,0,0,0,0,0,0,0,0,0,0,0,0,0,0,0,0,0,0,0,0,0,0,0,0,0,0,0,0,0,0,0,0,0,0,0,0,0,0,0,0,0,0,0,0,0,0,0,0,0,0,0,0,0,0,0,0,0,0,0,0,0,0,0,0,0,0,0,0,0,0,0,0,0,0,0,0,0,0,0,0,0,0,0,0,0,0,0,0,0,0,0,0,0,0,0,0,0,0,0,0,0,0,0,0,0,0,0,0,0,0,0,0,0,0,0,0,0,0,0,0,0,0,0,0,0,0,0,0,0,0,0,0,0,0,0,0,0,0,0,0,0,0,0,0,0],"trees":[{"base_weights":[-8.972568E-3,-8.9722955E-1,7.936597E-1,-1.3394681E0,-4.6536857E-1,3.5379598E-1,1.1648598E0,-7.526854E-2,-5.287827E-2,-6.667526E-1,-2.6161417E-1,1.4350261E-1,5.381229E-1,1.2019955E0,-4.9423285E-2,-3.634071E-2,-2.4821497E-2,-1.6707718E-2,-1.4281374E-1,4.4138536E-2,2.323481E-1,1.9660981E-2,3.0147934E-2,4.7443792E-2,7.047651E-2,-8.234768E-3,-3.543593E-3,-8.520189E-5,3.953128E-3,6.6907294E-3,1.2579572E-2],"categories":[],"categories_nodes":[],"categories_segments":[],"categories_sizes":[],"default_left":[0,0,0,0,0,0,0,0,0,0,0,0,0,0,0,0,0,0,0,0,0,0,0,0,0,0,0,0,0,0,0],"id":0,"left_children":[1,3,5,7,9,11,13,-1,-1,15,17,19,21,23,-1,-1,-1,-1,25,27,29,-1,-1,-1,-1,-1,-1,-1,-1,-1,-1],"loss_changes":[1.2241201E3,1.525365E2,1.452157E2,1.0747253E1,1.636164E1,1.5894234E1,4.4883728E1,0E0,0E0,3.2375336E-1,1.6314554E0,1.7408166E0,9.001999E-1,1.858014E1,0E0,0E0,0E0,0E0,8.48912E-2,1.6397637E-1,3.2654762E-2,0E0,0E0,0E0,0E0,0E0,0E0,0E0,0E0,0E0,0E0],"parents":[2147483647,0,0,1,1,2,2,3,3,4,4,5,5,6,6,9,9,10,10,11,11,12,12,13,13,18,18,19,19,20,20],"right_children":[2,4,6,8,10,12,14,-1,-1,16,18,20,22,24,-1,-1,-1,-1,26,28,30,-1,-1,-1,-1,-1,-1,-1,-1,-1,-1],"split_conditions":[-5.996128E-2,-9.12036E-1,7.425623E-1,-1.2966149E0,-5.168639E-1,2.6683807E-1,1.6664551E0,-7.526854E-2,-5.287827E-2,-6.813002E-1,-2.4536993E-1,6.3100986E-2,4.2165172E-1,1.133795E0,-4.9423285E-2,-3.634071E-2,-2.4821497E-2,-1.6707718E-2,-1.8535258E-1,-3.5975747E-2,1.5858018E-1,1.9660981E-2,3.0147934E-2,4.7443792E-2,7.047651E-2,-8.234768E-3,-3.543593E-3,-8.520189E-5,3.953128E-3,6.6907294E-3,1.2579572E-2],"split_indices":[9,9,8,9,4,1,5,0,0,2,9,1,1,4,0,0,0,0,2,1,6,0,0,0,0,0,0,0,0,0,0],"split_type":[0,0,0,0,0,0,0,0,0,0,0,0,0,0,0,0,0,0,0,0,0,0,0,0,0,0,0,0,0,0,0],"sum_hessian":[1.707E3,8.1E2,8.97E2,3.95E2,4.15E2,4.15E2,4.82E2,2.35E2,1.6E2,2.03E2,2.12E2,1.98E2,2.17E2,4.76E2,6E0,1.38E2,6.5E1,1.26E2,8.6E1,9.7E1,1.01E2,7.8E1,1.39E2,2.27E2,2.49E2,6.1E1,2.5E1,4.4E1,5.3E1,2.3E1,7.8E1],"tree_param":{"num_deleted":"0","num_feature":"10","num_nodes":"31","size_leaf_vector":"1"}},{"base_weights":[9.040475E-3,-8.266729E-1,7.71543E-1,-1.2274017E0,-3.9757785E-1,3.641899E-1,1.1341914E0,-7.078749E-2,-4.8206374E-2,-5.8058023E-1,-2.0934187E-1,1.4960307E-1,5.346902E-1,1.171442E0,-4.74634E-2,-3.2322805E-2,-2.1805214E-2,-1.4100431E-2,-1.0666749E-1,5.491834E-2,2.3072234E-1,2.0260688E-2,3.052341E-2,4.735538E-2,6.835778E-2,-6.559584E-3,-2.364287E-3,5.762924E-4,4.282938E-3,7.534417E-3,1.2865469E-2],"categories":[],"categories_nodes":[],"categories_segments":[],"categories_sizes":[],"default_left":[0,0,0,0,0,0,0,0,0,0,0,0,0,0,0,0,0,0,0,0,0,0,0,0,0,0,0,0,0,0,0],"id":1,"left_children":[1,3,5,7,9,11,13,-1,-1,15,17,19,21,23,-1,-1,-1,-1,25,27,29,-1,-1,-1,-1,-1,-1,-1,-1,-1,-1],"loss_changes":[1.0858489E3,1.3735602E2,1.2955847E2,1.3902588E1,1.3171356E1,1.5222736E1,4.195941E1,0E0,0E0,4.9388885E-1,1.3791018E0,1.4420738E0,1.078659E0,1.3853882E1,0E0,0E0,0E0,0E0,1.0441744E-1,1.24452114E-1,2.7430534E-2,0E0,0E0,0E0,0E0,0E0,0E0,0E0,0E0,0E0,0E0],"parents":[2147483647,0,0,1,1,2,2,3,3,4,4,5,5,6,6,9,9,10,10,11,11,12,12,13,13,18,18,19,19,20,20],"right_children":[2,4,6,8,10,12,14,-1,-1,16,18,20,22,24,-1,-1,-1,-1,26,28,30,-1,-1,-1,-1,-1,-1,-1,-1,-1,-1],"split_conditions":[-4.643517E-2,-8.621783E-1,7.558087E-1,-1.263495E0,-4.2873943E-1,2.9376584E-1,1.6664551E0,-7.078749E-2,-4.8206374E-2,-5.9127724E-1,-2.2248267E-1,9.091642E-2,5.002491E-1,1.1652709E0,-4.74634E-2,-3.2322805E-2,-2.1805214E-2,-1.4100431E-2,-1.744875E-1,-2.3841899E-2,1.5912125E-1,2.0260688E-2,3.052341E-2,4.735538E-2,6.835778E-2,-6.559584E-3,-2.364287E-3,5.762924E-4,4.282938E-3,7.534417E-3,1.2865469E-2],"split_indices":[8,8,5,8,8,2,5,0,0,7,8,3,6,2,0,0,0,0,1,1,3,0,0,0,0,0,0,0,0,0,0],"split_type":[0,0,0,0,0,0,0,0,0,0,0,0,0,0,0,0,0,0,0,0,0,0,0,0,0,0,0,0,0,0,0],"sum_hessian":[1.694E3,8.08E2,8.86E2,4.13E2,3.95E2,4.22E2,4.64E2,2.28E2,1.85E2,1.95E2,2E2,1.91E2,2.31E2,4.58E2,6E0,1.22E2,7.3E1,1.12E2,8.8E1,9.2E1,9.9E1,9.7E1,1.34E2,2.27E2,2.31E2,5.8E1,3E1,4.1E1,5.1E1,3.3E1,6.6E1],"tree_param":{"num_deleted":"0","num_feature":"10","num_nodes":"31","size_leaf_vector":"1"}},{"base_weights":[2.6006226E-3,-8.146552E-1,7.352664E-1,-1.1937871E0,-4.0772304E-1,3.5458133E-1,1.0912468E0,-6.8505906E-2,-4.841802E-2,-5.8878523E-1,-2.1732642E-1,1.5015718E-1,5.2871513E-1,1.1222856E0,-4.286666E-2,-3.2906365E-2,-2.2775201E-2,-1.4448809E-2,-1.1828938E-1,4.7832176E-2,2.2924976E-1,2.0277577E-2,3.012777E-2,4.589262E-2,6.5320626E-2,-7.0543173E-3,-2.6750183E-3,1.3742335E-4,3.961439E-3,7.733553E-3,1.2985403E-2],"categories":[],"categories_nodes":[],"categories_segments":[],"categories_sizes":[],"default_left":[0,0,0,0,0,0,0,0,0,0,0,0,0,0,0,0,0,0,0,0,0,0,0,0,0,0,0,0,0,0,0],"id":2,"left_children":[1,3,5,7,9,11,13,-1,-1,15,17,19,21,23,-1,-1,-1,-1,25,27,29,-1,-1,-1,-1,-1,-1,-1,-1,-1,-1],"loss_changes":[1.00953625E3,1.2052832E2,1.1853946E2,9.663513E0,1.2873871E1,1.5159008E1,3.245105E1,0E0,0E0,3.3101654E-1,1.2411871E0,1.6285472E0,9.062576E-1,1.1018494E1,0E0,0E0,0E0,0E0,9.8142385E-2,1.3621227E-1,6.265211E-2,0E0,0E0,0E0,0E0,0E0,0E0,0E0,0E0,0E0,0E0],"parents":[2147483647,0,0,1,1,2,2,3,3,4,4,5,5,6,6,9,9,10,10,11,11,12,12,13,13,18,18,19,19,20,20],"right_children":[2,4,6,8,10,12,14,-1,-1,16,18,20,22,24,-1,-1,-1,-1,26,28,30,-1,-1,-1,-1,-1,-1,-1,-1,-1,-1],"split_conditions":[-4.788184E-2,-8.993896E-1,7.5297457E-1,-1.3256918E0,-4.6246123E-1,3.0292723E-1,1.6420631E0,-6.8505906E-2,-4.841802E-2,-6.678478E-1,-2.3400916E-1,1.315077E-1,5.273345E-1,1.2034607E0,-4.286666E-2,-3.2906365E-2,-2.2775201E-2,-1.4448809E-2,-1.7259465E-1,-2.2314899E-2,1.8817388E-1,2.0277577E-2,3.012777E-2,4.589262E-2,6.5320626E-2,-7.0543173E-3,-2.6750183E-3,1.3742335E-4,3.961439E-3,7.733553E-3,1.2985403E-2],"split_indices":[9,9,2,9,8,1,2,0,0,5,9,8,5,4,0,0,0,0,2,2,5,0,0,0,0,0,0,0,0,0,0],"split_type":[0,0,0,0,0,0,0,0,0,0,0,0,0,0,0,0,0,0,0,0,0,0,0,0,0,0,0,0,0,0,0],"sum_hessian":[1.676E3,7.92E2,8.84E2,4.05E2,3.87E2,4.32E2,4.52E2,2.13E2,1.92E2,1.93E2,1.94E2,2.03E2,2.29E2,4.47E2,5E0,1.14E2,7.9E1,1.07E2,8.7E1,9.2E1,1.11E2,9.8E1,1.31E2,2.26E2,2.21E2,6E1,2.7E1,4E1,5.2E1,4.1E1,7E1],"tree_param":{"num_deleted":"0","num_feature":"10","num_nodes":"31","size_leaf_vector":"1"}},{"base_weights":[-4.0069022E-4,-7.6634085E-1,6.9706357E-1,-1.1654147E0,-3.9868015E-1,3.420496E-1,1.0467465E0,-6.669589E-2,-4.7909465E-2,-5.8646286E-1,-2.0360988E-1,1.5214692E-1,5.182099E-1,1.0770242E0,-4.1804742E-2,-3.304166E-2,-2.2468736E-2,-1.4354176E-2,-1.1787534E-1,5.4980513E-2,2.3352046E-1,1.9957203E-2,2.9371966E-2,4.283856E-2,6.1032742E-2,-7.610414E-3,-3.4618552E-3,4.3886024E-4,4.502149E-3,7.6056267E-3,1.2876433E-2],"categories":[],"categories_nodes":[],"categories_segments":[],"categories_sizes":[],"default_left":[0,0,0,0,0,0,0,0,0,0,0,0,0,0,0,0,0,0,0,0,0,0,0,0,0,0,0,0,0,0,0],"id":3,"left_children":[1,3,5,7,9,11,13,-1,-1,15,17,19,21,23,-1,-1,-1,-1,25,27,29,-1,-1,-1,-1,-1,-1,-1,-1,-1,-1],"loss_changes":[9.247275E2,1.18724E2,1.1068277E2,7.3320923E0,1.5410629E1,1.489394E1,3.0384125E1,0E0,0E0,7.581558E-1,1.4195585E0,1.7306423E0,7.6470566E-1,8.975037E0,0E0,0E0,0E0,0E0,1.4435506E-1,1.7424855E-1,4.2577267E-2,0E0,0E0,0E0,0E0,0E0,0E0,0E0,0E0,0E0,0E0],"parents":[2147483647,0,0,1,1,2,2,3,3,4,4,5,5,6,6,9,9,10,10,11,11,12,12,13,13,18,18,19,19,20,20],"right_children":[2,4,6,8,10,12,14,-1,-1,16,18,20,22,24,-1,-1,-1,-1,26,28,30,-1,-1,-1,-1,-1,-1,-1,-1,-1,-1],"split_conditions":[-4.788184E-2,-9.3901765E-1,7.6624507E-1,-1.3660915E0,-5.1669323E-1,3.2898468E-1,1.6664551E0,-6.669589E-2,-4.7909465E-2,-6.989826E-1,-3.1524244E-1,9.0362854E-2,5.135102E-1,1.1303002E0,-4.1804742E-2,-3.304166E-2,-2.2468736E-2,-1.4354176E-2,-1.8391828E-1,-1.1326901E-2,2.3251149E-1,1.9957203E-2,2.9371966E-2,4.283856E-2,6.1032742E-2,-7.610414E-3,-3.4618552E-3,4.3886024E-4,4.502149E-3,7.6056267E-3,1.2876433E-2],"split_indices":[9,9,2,9,3,2,5,0,0,5,2,1,1,1,0,0,0,0,4,1,9,0,0,0,0,0,0,0,0,0,0],"split_type":[0,0,0,0,0,0,0,0,0,0,0,0,0,0,0,0,0,0,0,0,0,0,0,0,0,0,0,0,0,0,0],"sum_hessian":[1.721E3,8.2E2,9.01E2,3.88E2,4.32E2,4.52E2,4.49E2,1.99E2,1.89E2,2.15E2,2.17E2,2.22E2,2.3E2,4.44E2,5E0,1.27E2,8.8E1,1.04E2,1.13E2,1.05E2,1.17E2,9.7E1,1.33E2,1.89E2,2.55E2,6E1,5.3E1,4.8E1,5.7E1,3.5E1,8.2E1],"tree_param":{"num_deleted":"0","num_feature":"10","num_nodes":"31","size_leaf_vector":"1"}},{"base_weights":[-2.5133013E-3,-7.3574036E-1,6.5610725E-1,-1.1041843E0,-3.9227453E-1,2.9635495E-1,9.6800286E-1,-6.395563E-2,-4.623119E-2,-5.7532144E-1,-2.1909036E-1,1.10320054E-1,4.390088E-1,9.996064E-1,-6.8630487E-1,-3.1707976E-2,-2.2419803E-2,-1.4741393E-2,-1.2288025E-1,2.9173521E-2,1.7757992E-1,1.5687438E-2,2.4999095E-2,3.757752E-2,5.6781024E-2,-6.193417E-4,-4.0744755E-2,-7.5776256E-3,-3.6153414E-3,-5.6496146E-4,2.786321E-3,5.4391488E-3,9.846461E-3],"categories":[],"categories_nodes":[],"categories_segments":[],"categories_sizes":[],"default_left":[0,0,0,0,0,0,0,0,0,0,0,0,0,0,0,0,0,0,0,0,0,0,0,0,0,0,0,0,0,0,0,0,0],"id":4,"left_children":[1,3,5,7,9,11,13,-1,-1,15,17,19,21,23,25,-1,-1,-1,27,29,31,-1,-1,-1,-1,-1,-1,-1,-1,-1,-1,-1,-1],"loss_changes":[8.286871E2,1.00591156E2,9.9999084E1,6.305084E0,1.2937721E1,1.1089825E1,2.8630066E1,0E0,0E0,1.09176636E-1,1.4802265E0,1.0220149E0,1.0486565E0,1.17586975E1,9.894409E-1,0E0,0E0,0E0,1.0326457E-1,1.0309252E-1,3.1329155E-2,0E0,0E0,0E0,0E0,0E0,0E0,0E0,0E0,0E0,0E0,0E0,0E0],"parents":[2147483647,0,0,1,1,2,2,3,3,4,4,5,5,6,6,9,9,10,10,11,11,12,12,13,13,14,14,18,18,19,19,20,20],"right_children":[2,4,6,8,10,12,14,-1,-1,16,18,20,22,24,26,-1,-1,-1,28,30,32,-1,-1,-1,-1,-1,-1,-1,-1,-1,-1,-1,-1],"split_conditions":[-5.996128E-2,-9.510364E-1,6.855301E-1,-1.3940825E0,-5.1409644E-1,2.4052155E-1,1.6420631E0,-6.395563E-2,-4.623119E-2,-7.278852E-1,-3.2520205E-1,3.4083113E-2,4.200145E-1,1.0991429E0,1.6274635E0,-3.1707976E-2,-2.2419803E-2,-1.4741393E-2,-2.1198985E-1,-6.357773E-2,1.3111001E-1,1.5687438E-2,2.4999095E-2,3.757752E-2,5.6781024E-2,-6.193417E-4,-4.0744755E-2,-7.5776256E-3,-3.6153414E-3,-5.6496146E-4,2.786321E-3,5.4391488E-3,9.846461E-3],"split_indices":[9,9,0,9,7,0,2,0,0,4,3,0,2,6,0,0,0,0,2,0,4,0,0,0,0,0,0,0,0,0,0,0,0],"split_type":[0,0,0,0,0,0,0,0,0,0,0,0,0,0,0,0,0,0,0,0,0,0,0,0,0,0,0,0,0,0,0,0,0],"sum_hessian":[1.706E3,8.07E2,8.99E2,3.84E2,4.23E2,4.22E2,4.77E2,1.79E2,2.05E2,2E2,2.23E2,1.87E2,2.35E2,4.7E2,7E0,1.23E2,7.7E1,1.19E2,1.04E2,8.8E1,9.9E1,8.7E1,1.48E2,1.78E2,2.92E2,2E0,5E0,6E1,4.4E1,3.6E1,5.2E1,2.9E1,7E1],"tree_param":{"num_deleted":"0","num_feature":"10","num_nodes":"33","size_leaf_vector":"1"}},{"base_weights":[-1.2903972E-2,-7.125029E-1,6.191865E-1,-1.0667305E0,-3.874102E-1,2.6768088E-1,9.1581756E-1,-6.1173033E-2,-4.5125704E-2,-5.6511915E-1,-2.182036E-1,9.248335E-2,3.9627486E-1,9.416327E-1,-3.996451E-2,-3.1167716E-2,-2.2033101E-2,-1.4749206E-2,-1.3012944E-1,1.988357E-2,1.5527894E-1,1.4261936E-2,2.2724053E-2,3.466346E-2,5.3551998E-2,-7.915656E-3,-3.906776E-3,-6.936685E-4,2.3016194E-3,4.852055E-3,8.734658E-3],"categories":[],"categories_nodes":[],"categories_segments":[],"categories_sizes":[],"default_left":[0,0,0,0,0,0,0,0,0,0,0,0,0,0,0,0,0,0,0,0,0,0,0,0,0,0,0,0,0,0,0],"id":5,"left_children":[1,3,5,7,9,11,13,-1,-1,15,17,19,21,23,-1,-1,-1,-1,25,27,29,-1,-1,-1,-1,-1,-1,-1,-1,-1,-1],"loss_changes":[7.667867E2,9.2707794E1,9.37619E1,4.54245E0,1.2523827E1,9.369196E0,2.5546906E1,0E0,0E0,1.4859009E-1,1.3769417E0,8.3252645E-1,9.2233276E-1,1.1939575E1,0E0,0E0,0E0,0E0,1.0960019E-1,8.44019E-2,2.717185E-2,0E0,0E0,0E0,0E0,0E0,0E0,0E0,0E0,0E0,0E0],"parents":[2147483647,0,0,1,1,2,2,3,3,4,4,5,5,6,6,9,9,10,10,11,11,12,12,13,13,18,18,19,19,20,20],"right_children":[2,4,6,8,10,12,14,-1,-1,16,18,20,22,24,-1,-1,-1,-1,26,28,30,-1,-1,-1,-1,-1,-1,-1,-1,-1,-1],"split_conditions":[-7.504662E-2,-9.8478776E-1,6.5812624E-1,-1.4136974E0,-5.851297E-1,2.974567E-1,1.6664551E0,-6.1173033E-2,-4.5125704E-2,-7.596244E-1,-3.1165552E-1,6.466457E-2,4.1049963E-1,1.0332569E0,-3.996451E-2,-3.1167716E-2,-2.2033101E-2,-1.4749206E-2,-2.1368249E-1,-5.1517114E-2,1.0322281E-1,1.4261936E-2,2.2724053E-2,3.466346E-2,5.3551998E-2,-7.915656E-3,-3.906776E-3,-6.936685E-4,2.3016194E-3,4.852055E-3,8.734658E-3],"split_indices":[9,9,1,9,1,9,5,0,0,3,7,5,3,1,0,0,0,0,3,2,2,0,0,0,0,0,0,0,0,0,0],"split_type":[0,0,0,0,0,0,0,0,0,0,0,0,0,0,0,0,0,0,0,0,0,0,0,0,0,0,0,0,0,0,0],"sum_hessian":[1.724E3,8.18E2,9.06E2,3.86E2,4.32E2,4.19E2,4.87E2,1.81E2,2.05E2,2.05E2,2.27E2,1.81E2,2.38E2,4.82E2,5E0,1.26E2,7.9E1,1.15E2,1.12E2,8.7E1,9.4E1,9.2E1,1.46E2,1.76E2,3.06E2,6.6E1,4.6E1,3.9E1,4.8E1,3.1E1,6.3E1],"tree_param":{"num_deleted":"0","num_feature":"10","num_nodes":"31","size_leaf_vector":"1"}},{"base_weights":[-6.233816E-3,-6.760969E-1,5.8841467E-1,-9.790174E-1,-3.3045238E-1,2.8773373E-1,9.0777856E-1,-5.4960605E-2,-3.6979847E-2,-4.7077325E-1,-1.7163983E-1,1.0940611E-1,4.394398E-1,9.305391E-1,-3.4705233E-2,-2.6070857E-2,-1.7066276E-2,-1.0572991E-2,-9.11294E-2,2.6099684E-2,1.8384077E-1,1.6753044E-2,2.53535E-2,3.881983E-2,5.497774E-2,-4.807457E-3,-1.8176461E-3,-5.595192E-4,2.7470742E-3,5.820023E-3,1.0317556E-2],"categories":[],"categories_nodes":[],"categories_segments":[],"categories_sizes":[],"default_left":[0,0,0,0,0,0,0,0,0,0,0,0,0,0,0,0,0,0,0,0,0,0,0,0,0,0,0,0,0,0,0],"id":6,"left_children":[1,3,5,7,9,11,13,-1,-1,15,17,19,21,23,-1,-1,-1,-1,25,27,29,-1,-1,-1,-1,-1,-1,-1,-1,-1,-1],"loss_changes":[6.827404E2,8.277286E1,8.588623E1,8.2229E0,8.153313E0,1.260997E1,1.9198761E1,0E0,0E0,4.2783356E-1,5.063634E-1,1.3712082E0,9.5059204E-1,7.03833E0,0E0,0E0,0E0,0E0,2.0458102E-3,1.235315E-1,5.903983E-2,0E0,0E0,0E0,0E0,0E0,0E0,0E0,0E0,0E0,0E0],"parents":[2147483647,0,0,1,1,2,2,3,3,4,4,5,5,6,6,9,9,10,10,11,11,12,12,13,13,18,18,19,19,20,20],"right_children":[2,4,6,8,10,12,14,-1,-1,16,18,20,22,24,-1,-1,-1,-1,26,28,30,-1,-1,-1,-1,-1,-1,-1,-1,-1,-1],"split_conditions":[-7.504662E-2,-8.811094E-1,7.681275E-1,-1.2193631E0,-5.0669354E-1,2.9187986E-1,1.6664551E0,-5.4960605E-2,-3.6979847E-2,-6.4717436E-1,-2.3847258E-1,6.15936E-2,5.129376E-1,1.2387484E0,-3.4705233E-2,-2.6070857E-2,-1.7066276E-2,-1.0572991E-2,-1.6960955E-1,1.722982E-2,1.3380574E-1,1.6753044E-2,2.53535E-2,3.881983E-2,5.497774E-2,-4.807457E-3,-1.8176461E-3,-5.595192E-4,2.7470742E-3,5.820023E-3,1.0317556E-2],"split_indices":[9,9,0,9,0,1,5,0,0,2,5,2,2,1,0,0,0,0,0,9,0,0,0,0,0,0,0,0,0,0,0],"split_type":[0,0,0,0,0,0,0,0,0,0,0,0,0,0,0,0,0,0,0,0,0,0,0,0,0,0,0,0,0,0,0],"sum_hessian":[1.704E3,8.01E2,9.03E2,4.22E2,3.79E2,4.7E2,4.33E2,2.69E2,1.53E2,1.96E2,1.83E2,2.2E2,2.5E2,4.29E2,4E0,1.3E2,6.6E1,1.17E2,6.6E1,1.07E2,1.13E2,1.1E2,1.4E2,2.39E2,1.9E2,5.7E1,9E0,4.8E1,5.9E1,3.6E1,7.7E1],"tree_param":{"num_deleted":"0","num_feature":"10","num_nodes":"31","size_leaf_vector":"1"}},{"base_weights":[-1.7581067E-4,-6.277658E-1,5.766235E-1,-9.218487E-1,-3.0083868E-1,2.9058903E-1,8.8171834E-1,-5.2023638E-2,-3.4528207E-2,-4.248207E-1,-1.4825965E-1,1.284585E-1,4.4399977E-1,8.9851534E-1,-2.8714715E-2,-2.3627613E-2,-1.5745984E-2,-1.9167717E-1,-6.900878E-2,5.1376022E-2,2.0147325E-1,1.7124496E-2,2.5079539E-2,3.8279116E-2,5.3213816E-2,-1.0795544E-2,-6.9336495E-3,-4.1624545E-3,-1.5374051E-3,8.33349E-4,4.292656E-3,6.7370697E-3,1.1209092E-2],"categories":[],"categories_nodes":[],"categories_segments":[],"categories_sizes":[],"default_left":[0,0,0,0,0,0,0,0,0,0,0,0,0,0,0,0,0,0,0,0,0,0,0,0,0,0,0,0,0,0,0,0,0],"id":7,"left_children":[1,3,5,7,9,11,13,-1,-1,15,17,19,21,23,-1,-1,-1,25,27,29,31,-1,-1,-1,-1,-1,-1,-1,-1,-1,-1,-1,-1],"loss_changes":[6.266106E2,7.83165E1,7.7434326E1,8.314606E0,7.2519035E0,1.1479546E1,1.3194244E1,0E0,0E0,3.9949036E-1,5.7730675E-1,1.2821195E0,5.4995346E-1,5.4231873E0,0E0,0E0,0E0,1.8644333E-3,2.7519643E-2,1.3883883E-1,3.081274E-2,0E0,0E0,0E0,0E0,0E0,0E0,0E0,0E0,0E0,0E0,0E0,0E0],"parents":[2147483647,0,0,1,1,2,2,3,3,4,4,5,5,6,6,9,9,10,10,11,11,12,12,13,13,17,17,18,18,19,19,20,20],"right_children":[2,4,6,8,10,12,14,-1,-1,16,18,20,22,24,-1,-1,-1,26,28,30,32,-1,-1,-1,-1,-1,-1,-1,-1,-1,-1,-1,-1],"split_conditions":[-3.3838287E-2,-8.4940153E-1,8.340496E-1,-1.2022411E0,-4.3350697E-1,3.705717E-1,1.6664551E0,-5.2023638E-2,-3.4528207E-2,-5.9058267E-1,-2.3842143E-1,9.020547E-2,5.665722E-1,1.2646573E0,-2.8714715E-2,-2.3627613E-2,-1.5745984E-2,-3.556699E-1,-9.986986E-2,6.789061E-2,2.0103236E-1,1.7124496E-2,2.5079539E-2,3.8279116E-2,5.3213816E-2,-1.0795544E-2,-6.9336495E-3,-4.1624545E-3,-1.5374051E-3,8.33349E-4,4.292656E-3,6.7370697E-3,1.1209092E-2],"split_indices":[9,9,4,9,5,5,5,0,0,5,3,0,4,0,0,0,0,0,7,9,3,0,0,0,0,0,0,0,0,0,0,0,0],"split_type":[0,0,0,0,0,0,0,0,0,0,0,0,0,0,0,0,0,0,0,0,0,0,0,0,0,0,0,0,0,0,0,0,0],"sum_hessian":[1.721E3,8.24E2,8.97E2,4.29E2,3.95E2,4.68E2,4.29E2,2.72E2,1.57E2,2.13E2,1.82E2,2.32E2,2.36E2,4.26E2,3E0,1.37E2,7.6E1,1.13E2,6.9E1,1.17E2,1.15E2,9.8E1,1.38E2,2.52E2,1.74E2,6.7E1,4.6E1,4.6E1,2.3E1,6.2E1,5.5E1,3.8E1,7.7E1],"tree_param":{"num_deleted":"0","num_feature":"10","num_nodes":"33","size_leaf_vector":"1"}},{"base_weights":[-6.4252904E-3,-5.918371E-1,5.615884E-1,-8.6386615E-1,-2.6659408E-1,2.9803398E-1,8.488601E-1,-4.979634E-2,-3.339747E-2,-3.864319E-1,-1.256424E-1,1.4250661E-1,4.3834326E-1,8.658554E-1,-2.7846813E-2,-2.1654908E-2,-1.4616439E-2,-8.514886E-3,-5.61411E-2,6.495479E-2,1.0508031E-2,1.6996266E-2,2.458906E-2,3.6991354E-2,5.084898E-2,-3.5272706E-3,-1.2927464E-3,1.2565932E-3,4.7282847E-3],"categories":[],"categories_nodes":[],"categories_segments":[],"categories_sizes":[],"default_left":[0,0,0,0,0,0,0,0,0,0,0,0,0,0,0,0,0,0,0,0,0,0,0,0,0,0,0,0,0],"id":8,"left_children":[1,3,5,7,9,11,13,-1,-1,15,17,19,21,23,-1,-1,-1,-1,25,27,-1,-1,-1,-1,-1,-1,-1,-1,-1],"loss_changes":[5.7193695E2,7.378726E1,6.483139E1,8.54953E0,6.3955383E0,9.791218E0,1.2326294E1,0E0,0E0,2.891655E-1,5.356736E-1,1.1227436E0,4.31633E-1,4.084961E0,0E0,0E0,0E0,0E0,2.6216656E-2,1.21365726E-1,0E0,0E0,0E0,0E0,0E0,0E0,0E0,0E0,0E0],"parents":[2147483647,0,0,1,1,2,2,3,3,4,4,5,5,6,6,9,9,10,10,11,11,12,12,13,13,18,18,19,19],"right_children":[2,4,6,8,10,12,14,-1,-1,16,18,20,22,24,-1,-1,-1,-1,26,28,-1,-1,-1,-1,-1,-1,-1,-1,-1],"split_conditions":[-1.6818196E-2,-8.1764853E-1,8.227787E-1,-1.2380006E0,-3.781429E-1,3.7182367E-1,1.6274635E0,-4.979634E-2,-3.339747E-2,-6.171821E-1,-2.2580361E-1,1.3101695E-1,5.510195E-1,1.2921926E0,-2.7846813E-2,-2.1654908E-2,-1.4616439E-2,-8.514886E-3,-1.5697642E-1,1.4766967E-2,1.0508031E-2,1.6996266E-2,2.458906E-2,3.6991354E-2,5.084898E-2,-3.5272706E-3,-1.2927464E-3,1.2565932E-3,4.7282847E-3],"split_indices":[9,9,0,9,9,2,0,0,0,0,3,1,0,1,0,0,0,0,0,1,0,0,0,0,0,0,0,0,0],"split_type":[0,0,0,0,0,0,0,0,0,0,0,0,0,0,0,0,0,0,0,0,0,0,0,0,0,0,0,0,0],"sum_hessian":[1.71E3,8.42E2,8.68E2,4.54E2,3.88E2,4.58E2,4.1E2,2.59E2,1.95E2,2.05E2,1.83E2,2.22E2,2.36E2,4.07E2,3E0,1.25E2,8E1,1.07E2,7.6E1,1.08E2,1.14E2,9.6E1,1.4E2,2.38E2,1.69E2,4.7E1,2.9E1,5E1,5.8E1],"tree_param":{"num_deleted":"0","num_feature":"10","num_nodes":"29","size_leaf_vector":"1"}},{"base_weights":[5.376051E-3,-5.622808E-1,5.171261E-1,-8.804046E-1,-3.0593365E-1,2.6028293E-1,7.839443E-1,-5.1548965E-2,-3.696727E-2,-4.4838834E-1,-1.6119361E-1,1.1929832E-1,3.9336348E-1,8.099508E-1,-3.6445357E-2,-2.5290612E-2,-1.7297385E-2,-1.1361714E-2,-8.95372E-2,4.1204367E-2,1.7487432E-1,1.5292997E-2,2.24279E-2,3.341425E-2,4.7156285E-2,-5.7547647E-3,-2.3184936E-3,4.558018E-4,3.3150278E-3,6.0709286E-3,1.0220282E-2],"categories":[],"categories_nodes":[],"categories_segments":[],"categories_sizes":[],"default_left":[0,0,0,0,0,0,0,0,0,0,0,0,0,0,0,0,0,0,0,0,0,0,0,0,0,0,0,0,0,0,0],"id":9,"left_children":[1,3,5,7,9,11,13,-1,-1,15,17,19,21,23,-1,-1,-1,-1,25,27,29,-1,-1,-1,-1,-1,-1,-1,-1,-1,-1],"loss_changes":[4.9384866E2,6.438269E1,6.024597E1,3.7713928E0,8.999592E0,8.452314E0,2.0105835E1,0E0,0E0,4.545288E-1,1.0008821E0,9.7088695E-1,4.5383072E-1,4.980011E0,0E0,0E0,0E0,0E0,1.0570818E-1,7.9923406E-2,8.7441444E-2,0E0,0E0,0E0,0E0,0E0,0E0,0E0,0E0,0E0,0E0],"parents":[2147483647,0,0,1,1,2,2,3,3,4,4,5,5,6,6,9,9,10,10,11,11,12,12,13,13,18,18,19,19,20,20],"right_children":[2,4,6,8,10,12,14,-1,-1,16,18,20,22,24,-1,-1,-1,-1,26,28,30,-1,-1,-1,-1,-1,-1,-1,-1,-1,-1],"split_conditions":[-3.3838287E-2,-9.986923E-1,8.066534E-1,-1.457332E0,-5.451777E-1,3.98886E-1,1.6274635E0,-5.1548965E-2,-3.696727E-2,-7.307844E-1,-3.427425E-1,9.182395E-2,5.7977986E-1,1.2154219E0,-3.6445357E-2,-2.5290612E-2,-1.7297385E-2,-1.1361714E-2,-2.1476845E-1,-2.4159014E-2,1.8756922E-1,1.5292997E-2,2.24279E-2,3.341425E-2,4.7156285E-2,-5.7547647E-3,-2.3184936E-3,4.558018E-4,3.3150278E-3,6.0709286E-3,1.0220282E-2],"split_indices":[9,9,3,9,2,9,0,0,0,5,1,2,7,0,0,0,0,0,0,0,1,0,0,0,0,0,0,0,0,0,0],"split_type":[0,0,0,0,0,0,0,0,0,0,0,0,0,0,0,0,0,0,0,0,0,0,0,0,0,0,0,0,0,0,0],"sum_hessian":[1.69E3,8.01E2,8.89E2,3.52E2,4.49E2,4.58E2,4.31E2,1.55E2,1.97E2,2.21E2,2.28E2,2.27E2,2.31E2,4.26E2,5E0,1.29E2,9.2E1,1.13E2,1.15E2,9.8E1,1.29E2,1.02E2,1.29E2,2.21E2,2.05E2,6.7E1,4.8E1,4.6E1,5.2E1,5.5E1,7.4E1],"tree_param":{"num_deleted":"0","num_feature":"10","num_nodes":"31","size_leaf_vector":"1"}},{"base_weights":[5.5876616E-3,-5.251467E-1,4.8487234E-1,-7.6866543E-1,-2.4160524E-1,2.0882861E-1,6.947403E-1,-4.370761E-2,-2.8323552E-2,-3.4107777E-1,-1.1157547E-1,8.4827E-2,3.0453968E-1,7.204457E-1,-3.9707582E-2,-1.9281646E-2,-1.3051775E-2,-7.4763554E-3,-5.8111247E-2,2.7607825E-2,6.1919116E-3,1.1010005E-2,1.7016185E-2,2.5858035E-2,8.2414603E-1,-3.4102395E-3,-1.2833736E-3,6.7987494E-5,2.017798E-3,3.6199562E-2,4.687742E-2],"categories":[],"categories_nodes":[],"categories_segments":[],"categories_sizes":[],"default_left":[0,0,0,0,0,0,0,0,0,0,0,0,0,0,0,0,0,0,0,0,0,0,0,0,0,0,0,0,0,0,0],"id":10,"left_children":[1,3,5,7,9,11,13,-1,-1,15,17,19,21,23,-1,-1,-1,-1,25,27,-1,-1,-1,-1,29,-1,-1,-1,-1,-1,-1],"loss_changes":[4.3472452E2,5.506906E1,5.1298187E1,6.7808228E0,4.750658E0,4.5588226E0,2.2303177E1,0E0,0E0,2.598667E-1,3.0758047E-1,3.8246775E-1,2.92284E-1,8.451416E0,0E0,0E0,0E0,0E0,1.744458E-2,2.616014E-2,0E0,0E0,0E0,0E0,2.8605652E-1,0E0,0E0,0E0,0E0,0E0,0E0],"parents":[2147483647,0,0,1,1,2,2,3,3,4,4,5,5,6,6,9,9,10,10,11,11,12,12,13,13,18,18,19,19,24,24],"right_children":[2,4,6,8,10,12,14,-1,-1,16,18,20,22,24,-1,-1,-1,-1,26,28,-1,-1,-1,-1,30,-1,-1,-1,-1,-1,-1],"split_conditions":[-3.3838287E-2,-8.04311E-1,6.48684E-1,-1.1601036E0,-3.812692E-1,2.554592E-1,1.6664551E0,-4.370761E-2,-2.8323552E-2,-6.03538E-1,-1.9822934E-1,1.0447945E-1,4.487713E-1,1.0058706E0,-3.9707582E-2,-1.9281646E-2,-1.3051775E-2,-7.4763554E-3,-1.4224254E-1,-3.5617825E-2,6.1919116E-3,1.1010005E-2,1.7016185E-2,2.5858035E-2,1.3316832E0,-3.4102395E-3,-1.2833736E-3,6.7987494E-5,2.017798E-3,3.6199562E-2,4.687742E-2],"split_indices":[9,9,2,9,7,3,5,0,0,2,7,9,9,2,0,0,0,0,2,2,0,0,0,0,0,0,0,0,0,0,0],"split_type":[0,0,0,0,0,0,0,0,0,0,0,0,0,0,0,0,0,0,0,0,0,0,0,0,0,0,0,0,0,0,0],"sum_hessian":[1.699E3,8.06E2,8.93E2,4.29E2,3.77E2,3.9E2,5.03E2,2.71E2,1.58E2,2.09E2,1.68E2,1.74E2,2.16E2,4.97E2,6E0,1.22E2,8.7E1,9.3E1,7.5E1,7.4E1,1E2,7.5E1,1.41E2,1.78E2,3.19E2,5.3E1,2.2E1,2.6E1,4.8E1,1.89E2,1.3E2],"tree_param":{"num_deleted":"0","num_feature":"10","num_nodes":"31","size_leaf_vector":"1"}},{"base_weights":[-6.4192037E-3,-5.227247E-1,4.512247E-1,-8.043455E-1,-3.0180568E-1,1.8299712E-1,6.6719556E-1,-4.705579E-2,-3.441753E-2,-4.305096E-1,-1.5895872E-1,6.3073084E-2,2.826848E-1,6.871942E-1,-5.341973E-1,-2.3852084E-2,-1.6615609E-2,-1.1241405E-2,-9.7270094E-2,8.912503E-3,1.0996521E-1,1.0092686E-2,1.5920104E-2,2.4809053E-2,7.8972614E-1,-2.4786328E-3,-3.0717565E-2,-5.852548E-3,-2.7946844E-3,-7.9526886E-4,1.4203907E-3,3.1794056E-3,6.0014944E-3,3.443598E-2,4.471753E-2],"categories":[],"categories_nodes":[],"categories_segments":[],"categories_sizes":[],"default_left":[0,0,0,0,0,0,0,0,0,0,0,0,0,0,0,0,0,0,0,0,0,0,0,0,0,0,0,0,0,0,0,0,0,0,0],"id":11,"left_children":[1,3,5,7,9,11,13,-1,-1,15,17,19,21,23,25,-1,-1,-1,27,29,31,-1,-1,-1,33,-1,-1,-1,-1,-1,-1,-1,-1,-1,-1],"loss_changes":[4.038074E2,4.8745163E1,5.1873505E1,2.3135376E0,8.078144E0,4.824336E0,1.3848633E1,0E0,0E0,2.9486465E-1,8.049183E-1,4.8526275E-1,3.2246208E-1,7.7157135E0,2.7501512E-1,0E0,0E0,0E0,6.9595575E-2,4.8223242E-2,9.914875E-3,0E0,0E0,0E0,2.2793579E-1,0E0,0E0,0E0,0E0,0E0,0E0,0E0,0E0,0E0,0E0],"parents":[2147483647,0,0,1,1,2,2,3,3,4,4,5,5,6,6,9,9,10,10,11,11,12,12,13,13,14,14,18,18,19,19,20,20,24,24],"right_children":[2,4,6,8,10,12,14,-1,-1,16,18,20,22,24,26,-1,-1,-1,28,30,32,-1,-1,-1,34,-1,-1,-1,-1,-1,-1,-1,-1,-1,-1],"split_conditions":[-7.504662E-2,-1.0256798E0,6.247142E-1,-1.4822575E0,-5.7248175E-1,2.2621718E-1,1.6420631E0,-4.705579E-2,-3.441753E-2,-7.8786016E-1,-3.5194233E-1,1.2742899E-2,3.973619E-1,1.0707844E0,1.6274635E0,-2.3852084E-2,-1.6615609E-2,-1.1241405E-2,-2.2655636E-1,-7.687814E-2,6.293245E-2,1.0092686E-2,1.5920104E-2,2.4809053E-2,1.3559701E0,-2.4786328E-3,-3.0717565E-2,-5.852548E-3,-2.7946844E-3,-7.9526886E-4,1.4203907E-3,3.1794056E-3,6.0014944E-3,3.443598E-2,4.471753E-2],"split_indices":[9,9,0,9,2,2,2,0,0,2,4,0,4,9,0,0,0,0,1,0,0,0,0,0,2,0,0,0,0,0,0,0,0,0,0],"split_type":[0,0,0,0,0,0,0,0,0,0,0,0,0,0,0,0,0,0,0,0,0,0,0,0,0,0,0,0,0,0,0,0,0,0,0],"sum_hessian":[1.699E3,7.98E2,9.01E2,3.45E2,4.53E2,4.06E2,4.95E2,1.42E2,2.03E2,2.33E2,2.2E2,1.88E2,2.18E2,4.89E2,6E0,1.45E2,8.8E1,1E2,1.2E2,9E1,9.8E1,7.7E1,1.41E2,1.81E2,3.08E2,2E0,4E0,7.5E1,4.5E1,4E1,5E1,2.4E1,7.4E1,1.76E2,1.32E2],"tree_param":{"num_deleted":"0","num_feature":"10","num_nodes":"35","size_leaf_vector":"1"}},{"base_weights":[2.1371096E-3,-4.8856467E-1,4.511118E-1,-7.6325494E-1,-2.7288386E-1,2.4480686E-1,6.894976E-1,-4.5367908E-2,-3.2872006E-2,-4.0127432E-1,-1.3925599E-1,1.0709711E-1,3.5627002E-1,7.100807E-1,-3.133292E-2,-2.2567933E-2,-1.5337722E-2,-9.960175E-3,-8.08939E-2,4.2984594E-2,1.6239966E-1,1.3684096E-2,2.0107267E-2,3.066255E-2,4.1772388E-2,-5.120189E-3,-1.8549048E-3,6.1222253E-4,3.4519967E-3,5.5517606E-3,9.068972E-3],"categories":[],"categories_nodes":[],"categories_segments":[],"categories_sizes":[],"default_left":[0,0,0,0,0,0,0,0,0,0,0,0,0,0,0,0,0,0,0,0,0,0,0,0,0,0,0,0,0,0,0],"id":12,"left_children":[1,3,5,7,9,11,13,-1,-1,15,17,19,21,23,-1,-1,-1,-1,25,27,29,-1,-1,-1,-1,-1,-1,-1,-1,-1,-1],"loss_changes":[3.7717575E2,4.742134E1,4.3123093E1,2.460968E0,7.7155495E0,7.284462E0,1.3386215E1,0E0,0E0,4.2020416E-1,7.451124E-1,7.628534E-1,4.6129608E-1,2.3911133E0,0E0,0E0,0E0,0E0,1.0158652E-1,8.467808E-2,1.5314102E-2,0E0,0E0,0E0,0E0,0E0,0E0,0E0,0E0,0E0,0E0],"parents":[2147483647,0,0,1,1,2,2,3,3,4,4,5,5,6,6,9,9,10,10,11,11,12,12,13,13,18,18,19,19,20,20],"right_children":[2,4,6,8,10,12,14,-1,-1,16,18,20,22,24,-1,-1,-1,-1,26,28,30,-1,-1,-1,-1,-1,-1,-1,-1,-1,-1],"split_conditions":[-3.3838287E-2,-1.0112544E0,9.1470253E-1,-1.5002831E0,-5.5637765E-1,3.9688507E-1,1.6420631E0,-4.5367908E-2,-3.2872006E-2,-7.8666043E-1,-3.553302E-1,1.4458986E-1,6.039131E-1,1.3051467E0,-3.133292E-2,-2.2567933E-2,-1.5337722E-2,-9.960175E-3,-2.1476845E-1,5.386851E-2,2.4304675E-1,1.3684096E-2,2.0107267E-2,3.066255E-2,4.1772388E-2,-5.120189E-3,-1.8549048E-3,6.1222253E-4,3.4519967E-3,5.5517606E-3,9.068972E-3],"split_indices":[9,9,9,9,1,7,2,0,0,1,1,5,7,1,0,0,0,0,0,7,7,0,0,0,0,0,0,0,0,0,0],"split_type":[0,0,0,0,0,0,0,0,0,0,0,0,0,0,0,0,0,0,0,0,0,0,0,0,0,0,0,0,0,0,0],"sum_hessian":[1.702E3,8.13E2,8.89E2,3.52E2,4.61E2,4.82E2,4.07E2,1.33E2,2.19E2,2.3E2,2.31E2,2.2E2,2.62E2,4.03E2,4E0,1.38E2,9.2E1,1.08E2,1.23E2,1.06E2,1.14E2,1.06E2,1.56E2,2.44E2,1.59E2,7.8E1,4.5E1,5.2E1,5.4E1,4E1,7.4E1],"tree_param":{"num_deleted":"0","num_feature":"10","num_nodes":"31","size_leaf_vector":"1"}},{"base_weights":[-1.1450315E-3,-4.8748255E-1,4.2038882E-1,-7.3619473E-1,-2.7770892E-1,1.71532E-1,6.082442E-1,-4.377706E-2,-3.177696E-2,-3.9652368E-1,-1.4992303E-1,5.4070506E-2,2.6011458E-1,6.2726337E-1,-3.4148697E-2,-2.1926364E-2,-1.5361505E-2,-1.0665339E-2,-9.3669124E-2,7.390516E-3,9.638462E-2,1.0028468E-2,1.5381436E-2,2.360443E-2,3.6854472E-2,-5.588197E-3,-2.7494302E-3,-7.509294E-4,1.2067755E-3,2.5712356E-3,5.289803E-3],"categories":[],"categories_nodes":[],"categories_segments":[],"categories_sizes":[],"default_left":[0,0,0,0,0,0,0,0,0,0,0,0,0,0,0,0,0,0,0,0,0,0,0,0,0,0,0,0,0,0,0],"id":13,"left_children":[1,3,5,7,9,11,13,-1,-1,15,17,19,21,23,-1,-1,-1,-1,25,27,29,-1,-1,-1,-1,-1,-1,-1,-1,-1,-1],"loss_changes":[3.532279E2,4.071637E1,4.2627747E1,2.3092194E0,6.413578E0,4.133314E0,1.5010361E1,0E0,0E0,1.740036E-1,6.880932E-1,3.5197836E-1,3.393917E-1,7.105072E0,0E0,0E0,0E0,0E0,5.7460785E-2,3.595928E-2,1.25722885E-2,0E0,0E0,0E0,0E0,0E0,0E0,0E0,0E0,0E0,0E0],"parents":[2147483647,0,0,1,1,2,2,3,3,4,4,5,5,6,6,9,9,10,10,11,11,12,12,13,13,18,18,19,19,20,20],"right_children":[2,4,6,8,10,12,14,-1,-1,16,18,20,22,24,-1,-1,-1,-1,26,28,30,-1,-1,-1,-1,-1,-1,-1,-1,-1,-1],"split_conditions":[-7.504662E-2,-1.0376947E0,6.730694E-1,-1.518443E0,-5.751724E-1,2.262866E-1,1.6420631E0,-4.377706E-2,-3.177696E-2,-8.019152E-1,-3.622663E-1,5.254101E-2,4.2162985E-1,1.0821205E0,-3.4148697E-2,-2.1926364E-2,-1.5361505E-2,-1.0665339E-2,-2.131015E-1,-6.1704207E-2,9.046366E-2,1.0028468E-2,1.5381436E-2,2.360443E-2,3.6854472E-2,-5.588197E-3,-2.7494302E-3,-7.509294E-4,1.2067755E-3,2.5712356E-3,5.289803E-3],"split_indices":[9,9,4,9,4,3,2,0,0,2,4,5,0,2,0,0,0,0,4,2,4,0,0,0,0,0,0,0,0,0,0],"split_type":[0,0,0,0,0,0,0,0,0,0,0,0,0,0,0,0,0,0,0,0,0,0,0,0,0,0,0,0,0,0,0],"sum_hessian":[1.713E3,7.95E2,9.18E2,3.58E2,4.37E2,3.99E2,5.19E2,1.34E2,2.24E2,2.21E2,2.16E2,1.75E2,2.24E2,5.14E2,5E0,1.37E2,8.4E1,9.5E1,1.21E2,8.6E1,8.9E1,1.11E2,1.13E2,2.24E2,2.9E2,7.6E1,4.5E1,3.7E1,4.9E1,2.1E1,6.8E1],"tree_param":{"num_deleted":"0","num_feature":"10","num_nodes":"31","size_leaf_vector":"1"}},{"base_weights":[7.951513E-4,-4.31855E-1,4.0132058E-1,-6.478413E-1,-2.1065308E-1,2.1560371E-1,5.961705E-1,-3.790001E-2,-2.5733564E-2,-3.0473986E-1,-1.0031753E-1,9.8951824E-2,3.0964106E-1,6.3390577E-1,-3.7709873E-2,-1.7504085E-2,-1.167688E-2,-6.691566E-3,-4.6868376E-2,3.8389876E-2,1.4304814E-1,1.1904876E-2,1.749092E-2,2.7257476E-2,3.8460508E-2,-3.013375E-3,-1.1840625E-3,5.24169E-4,2.8526897E-3,4.6939817E-3,7.946428E-3],"categories":[],"categories_nodes":[],"categories_segments":[],"categories_sizes":[],"default_left":[0,0,0,0,0,0,0,0,0,0,0,0,0,0,0,0,0,0,0,0,0,0,0,0,0,0,0,0,0,0,0],"id":14,"left_children":[1,3,5,7,9,11,13,-1,-1,15,17,19,21,23,-1,-1,-1,-1,25,27,29,-1,-1,-1,-1,-1,-1,-1,-1,-1,-1],"loss_changes":[2.9666812E2,3.8637787E1,3.1527481E1,4.122711E0,4.144926E0,4.925743E0,2.4352722E1,0E0,0E0,3.0470085E-1,3.233117E-1,5.440414E-1,3.1365013E-1,2.9711914E0,0E0,0E0,0E0,0E0,1.8961668E-2,4.7531337E-2,2.065897E-2,0E0,0E0,0E0,0E0,0E0,0E0,0E0,0E0,0E0,0E0],"parents":[2147483647,0,0,1,1,2,2,3,3,4,4,5,5,6,6,9,9,10,10,11,11,12,12,13,13,18,18,19,19,20,20],"right_children":[2,4,6,8,10,12,14,-1,-1,16,18,20,22,24,-1,-1,-1,-1,26,28,30,-1,-1,-1,-1,-1,-1,-1,-1,-1,-1],"split_conditions":[-3.2385964E-2,-8.7999773E-1,8.08755E-1,-1.3407671E0,-4.203406E-1,3.5482678E-1,1.6274635E0,-3.790001E-2,-2.5733564E-2,-6.641872E-1,-2.5460595E-1,1.04745276E-1,5.645708E-1,1.3162117E0,-3.7709873E-2,-1.7504085E-2,-1.167688E-2,-6.691566E-3,-1.3127516E-1,1.9371394E-3,1.7574579E-1,1.1904876E-2,1.749092E-2,2.7257476E-2,3.8460508E-2,-3.013375E-3,-1.1840625E-3,5.24169E-4,2.8526897E-3,4.6939817E-3,7.946428E-3],"split_indices":[8,8,0,8,6,4,0,0,0,2,2,1,6,1,0,0,0,0,5,2,1,0,0,0,0,0,0,0,0,0,0],"split_type":[0,0,0,0,0,0,0,0,0,0,0,0,0,0,0,0,0,0,0,0,0,0,0,0,0,0,0,0,0,0,0],"sum_hessian":[1.702E3,8.18E2,8.84E2,4.09E2,4.09E2,4.58E2,4.26E2,2.11E2,1.98E2,2.16E2,1.93E2,2.09E2,2.49E2,4.17E2,9E0,1.2E2,9.6E1,1.14E2,7.9E1,9.2E1,1.17E2,1.02E2,1.47E2,2.67E2,1.5E2,4.5E1,3.4E1,4E1,5.2E1,3.7E1,8E1],"tree_param":{"num_deleted":"0","num_feature":"10","num_nodes":"31","size_leaf_vector":"1"}},{"base_weights":[5.8100075E-3,-4.061828E-1,3.769795E-1,-6.4375806E-1,-2.2381556E-1,1.7713664E-1,5.46058E-1,-3.7839696E-2,-2.6638255E-2,-3.2268837E-1,-1.0367683E-1,7.425762E-2,2.5751787E-1,5.819648E-1,-3.924888E-2,-1.8336939E-2,-1.2093797E-2,-7.306108E-3,-5.5414204E-2,2.5188642E-2,1.0937215E-1,9.664877E-3,1.4732559E-2,4.6940422E-1,3.5058115E-2,-3.5253414E-3,-1.3211947E-3,1.560963E-4,1.8562701E-3,3.5313738E-3,6.0618366E-3,1.8444182E-2,2.5865993E-2],"categories":[],"categories_nodes":[],"categories_segments":[],"categories_sizes":[],"default_left":[0,0,0,0,0,0,0,0,0,0,0,0,0,0,0,0,0,0,0,0,0,0,0,0,0,0,0,0,0,0,0,0,0],"id":15,"left_children":[1,3,5,7,9,11,13,-1,-1,15,17,19,21,23,-1,-1,-1,-1,25,27,29,-1,-1,31,-1,-1,-1,-1,-1,-1,-1,-1,-1],"loss_changes":[2.6424533E2,3.4763535E1,3.0230682E1,2.4128265E0,5.427475E0,3.4106712E0,2.5702805E1,0E0,0E0,4.677887E-1,4.101889E-1,3.187709E-1,2.7801514E-1,4.7944794E0,0E0,0E0,0E0,0E0,3.9251596E-2,2.2336729E-2,8.212328E-3,0E0,0E0,3.077736E-1,0E0,0E0,0E0,0E0,0E0,0E0,0E0,0E0,0E0],"parents":[2147483647,0,0,1,1,2,2,3,3,4,4,5,5,6,6,9,9,10,10,11,11,12,12,13,13,18,18,19,19,20,20,23,23],"right_children":[2,4,6,8,10,12,14,-1,-1,16,18,20,22,24,-1,-1,-1,-1,26,28,30,-1,-1,32,-1,-1,-1,-1,-1,-1,-1,-1,-1],"split_conditions":[-3.2385964E-2,-9.8371774E-1,7.5384927E-1,-1.4412214E0,-4.4905815E-1,2.546239E-1,1.6664551E0,-3.7839696E-2,-2.6638255E-2,-7.0062506E-1,-2.3451798E-1,6.15936E-2,5.034222E-1,1.200446E0,-3.924888E-2,-1.8336939E-2,-1.2093797E-2,-7.306108E-3,-1.3240124E-1,-5.0399173E-2,1.3241225E-1,9.664877E-3,1.4732559E-2,9.049772E-1,3.5058115E-2,-3.5253414E-3,-1.3211947E-3,1.560963E-4,1.8562701E-3,3.5313738E-3,6.0618366E-3,1.8444182E-2,2.5865993E-2],"split_indices":[8,8,7,8,7,0,5,0,0,4,8,2,8,1,0,0,0,0,7,0,2,0,0,1,0,0,0,0,0,0,0,0,0],"split_type":[0,0,0,0,0,0,0,0,0,0,0,0,0,0,0,0,0,0,0,0,0,0,0,0,0,0,0,0,0,0,0,0,0],"sum_hessian":[1.718E3,8.14E2,9.04E2,3.48E2,4.66E2,4.19E2,4.85E2,1.58E2,1.9E2,2.51E2,2.15E2,1.88E2,2.31E2,4.75E2,1E1,1.51E2,1E2,1.09E2,1.06E2,8.2E1,1.06E2,9.6E1,1.35E2,2.57E2,2.18E2,6.5E1,4.1E1,3.1E1,5.1E1,3.3E1,7.3E1,9.7E1,1.6E2],"tree_param":{"num_deleted":"0","num_feature":"10","num_nodes":"33","size_leaf_vector":"1"}},{"base_weights":[-2.489252E-3,-4.111026E-1,3.5291886E-1,-6.3792765E-1,-2.4243246E-1,1.4150207E-1,5.1495826E-1,-3.8246706E-2,-2.7812809E-2,-3.40455E-1,-1.3155927E-1,4.7802478E-2,2.1707894E-1,5.319885E-1,-3.0212585E-2,-1.9042661E-2,-1.3392061E-2,-9.408954E-3,-8.090559E-2,5.9310114E-3,8.3096676E-2,7.993117E-3,1.22642545E-2,1.84721E-2,6.1161464E-1,-4.7367285E-3,-2.312867E-3,-6.0621847E-4,1.0793876E-3,2.3365088E-3,4.546249E-3,2.6970217E-2,3.5910055E-2],"categories":[],"categories_nodes":[],"categories_segments":[],"categories_sizes":[],"default_left":[0,0,0,0,0,0,0,0,0,0,0,0,0,0,0,0,0,0,0,0,0,0,0,0,0,0,0,0,0,0,0,0,0],"id":16,"left_children":[1,3,5,7,9,11,13,-1,-1,15,17,19,21,23,-1,-1,-1,-1,25,27,29,-1,-1,-1,31,-1,-1,-1,-1,-1,-1,-1,-1],"loss_changes":[2.4600961E2,2.9374512E1,3.0673271E1,1.3266449E0,4.775364E0,2.7807245E0,1.1347168E1,0E0,0E0,1.9692421E-1,5.663085E-1,2.709324E-1,1.5898895E-1,5.419342E0,0E0,0E0,0E0,0E0,3.8941205E-2,2.6750647E-2,7.224083E-3,0E0,0E0,0E0,6.1829376E-1,0E0,0E0,0E0,0E0,0E0,0E0,0E0,0E0],"parents":[2147483647,0,0,1,1,2,2,3,3,4,4,5,5,6,6,9,9,10,10,11,11,12,12,13,13,18,18,19,19,20,20,24,24],"right_children":[2,4,6,8,10,12,14,-1,-1,16,18,20,22,24,-1,-1,-1,-1,26,28,30,-1,-1,-1,32,-1,-1,-1,-1,-1,-1,-1,-1],"split_conditions":[-7.504662E-2,-1.0561501E0,6.774088E-1,-1.5445806E0,-6.022715E-1,2.4032706E-1,1.6420631E0,-3.8246706E-2,-2.7812809E-2,-7.890893E-1,-3.9029738E-1,2.5899492E-2,3.8369292E-1,1.0347863E0,-3.0212585E-2,-1.9042661E-2,-1.3392061E-2,-9.408954E-3,-1.9972426E-1,-8.504378E-3,6.3100986E-2,7.993117E-3,1.22642545E-2,1.84721E-2,1.4447732E0,-4.7367285E-3,-2.312867E-3,-6.0621847E-4,1.0793876E-3,2.3365088E-3,4.546249E-3,2.6970217E-2,3.5910055E-2],"split_indices":[9,9,8,9,1,4,2,0,0,5,2,2,2,8,0,0,0,0,5,8,1,0,0,0,9,0,0,0,0,0,0,0,0],"split_type":[0,0,0,0,0,0,0,0,0,0,0,0,0,0,0,0,0,0,0,0,0,0,0,0,0,0,0,0,0,0,0,0,0],"sum_hessian":[1.684E3,7.83E2,9.01E2,3.28E2,4.55E2,3.95E2,5.06E2,1.12E2,2.16E2,2.36E2,2.19E2,1.8E2,2.15E2,5.01E2,5E0,1.38E2,9.8E1,9.7E1,1.22E2,8.5E1,9.5E1,8.2E1,1.33E2,1.74E2,3.27E2,8.1E1,4.1E1,4E1,4.5E1,2.3E1,7.2E1,2.13E2,1.14E2],"tree_param":{"num_deleted":"0","num_feature":"10","num_nodes":"33","size_leaf_vector":"1"}},{"base_weights":[2.958817E-3,-3.7185282E-1,3.4719148E-1,-6.057167E-1,-2.1643955E-1,1.916787E-1,5.26714E-1,-3.6119465E-2,-2.6388694E-2,-3.1047428E-1,-1.00432545E-1,8.9775205E-2,2.7875072E-1,5.603777E-1,-3.5454225E-2,-1.7929556E-2,-1.1996508E-2,-1.4519684E-1,-5.295307E-2,3.9232276E-2,1.3405035E-1,1.0889648E-2,1.5781319E-2,2.4398489E-2,3.3982154E-2,-8.12092E-3,-5.0855186E-3,-3.4219814E-3,-1.2368829E-3,6.146835E-4,2.8946325E-3,4.4367644E-3,7.3069553E-3],"categories":[],"categories_nodes":[],"categories_segments":[],"categories_sizes":[],"default_left":[0,0,0,0,0,0,0,0,0,0,0,0,0,0,0,0,0,0,0,0,0,0,0,0,0,0,0,0,0,0,0,0,0],"id":17,"left_children":[1,3,5,7,9,11,13,-1,-1,15,17,19,21,23,-1,-1,-1,25,27,29,31,-1,-1,-1,-1,-1,-1,-1,-1,-1,-1,-1,-1],"loss_changes":[2.1856436E2,2.8820732E1,2.4146843E1,1.0128098E0,5.243889E0,4.142763E0,1.8918602E1,0E0,0E0,4.8968697E-1,4.4827008E-1,4.8615956E-1,2.3399353E-1,1.7874451E0,0E0,0E0,0E0,3.525734E-3,4.3533027E-2,5.374746E-2,8.9788437E-4,0E0,0E0,0E0,0E0,0E0,0E0,0E0,0E0,0E0,0E0,0E0,0E0],"parents":[2147483647,0,0,1,1,2,2,3,3,4,4,5,5,6,6,9,9,10,10,11,11,12,12,13,13,17,17,18,18,19,19,20,20],"right_children":[2,4,6,8,10,12,14,-1,-1,16,18,20,22,24,-1,-1,-1,26,28,30,32,-1,-1,-1,-1,-1,-1,-1,-1,-1,-1,-1,-1],"split_conditions":[-3.2385964E-2,-1.067769E0,8.6133677E-1,-1.5456711E0,-4.900774E-1,3.5474464E-1,1.6664551E0,-3.6119465E-2,-2.6388694E-2,-8.047365E-1,-2.5720847E-1,1.5901454E-1,6.0192776E-1,1.4196589E0,-3.5454225E-2,-1.7929556E-2,-1.1996508E-2,-3.755544E-1,-1.8593666E-1,3.848709E-2,2.4033952E-1,1.0889648E-2,1.5781319E-2,2.4398489E-2,3.3982154E-2,-8.12092E-3,-5.0855186E-3,-3.4219814E-3,-1.2368829E-3,6.146835E-4,2.8946325E-3,4.4367644E-3,7.3069553E-3],"split_indices":[8,8,1,8,6,1,5,0,0,1,8,5,5,8,0,0,0,4,1,5,6,0,0,0,0,0,0,0,0,0,0,0,0],"split_type":[0,0,0,0,0,0,0,0,0,0,0,0,0,0,0,0,0,0,0,0,0,0,0,0,0,0,0,0,0,0,0,0,0],"sum_hessian":[1.684E3,8.06E2,8.78E2,3.16E2,4.9E2,4.76E2,4.02E2,1.1E2,2.06E2,2.66E2,2.24E2,2.24E2,2.52E2,3.94E2,8E0,1.46E2,1.2E2,1.1E2,1.14E2,1.09E2,1.15E2,1.08E2,1.44E2,2.61E2,1.33E2,6.9E1,4.1E1,6.9E1,4.5E1,4.8E1,6.1E1,3.3E1,8.2E1],"tree_param":{"num_deleted":"0","num_feature":"10","num_nodes":"33","size_leaf_vector":"1"}},{"base_weights":[-1.0968254E-2,-3.7581056E-1,3.1548762E-1,-5.7758373E-1,-2.2306454E-1,1.2621067E-1,4.6307394E-1,-3.5532195E-2,-2.5560563E-2,-3.1477317E-1,-1.2628435E-1,4.4313237E-2,1.9793554E-1,4.780892E-1,-4.353871E-1,-1.7379513E-2,-1.233676E-2,-8.750717E-3,-7.757052E-2,3.5340036E-3,7.806727E-2,7.4623446E-3,1.13824345E-2,1.6411768E-2,5.528103E-1,-1.5851507E-3,-2.5374094E-2,-4.601246E-3,-2.3798158E-3,-7.773303E-4,9.880568E-4,2.451864E-3,4.3592127E-3,2.4607023E-2,3.3102013E-2],"categories":[],"categories_nodes":[],"categories_segments":[],"categories_sizes":[],"default_left":[0,0,0,0,0,0,0,0,0,0,0,0,0,0,0,0,0,0,0,0,0,0,0,0,0,0,0,0,0,0,0,0,0,0,0],"id":18,"left_children":[1,3,5,7,9,11,13,-1,-1,15,17,19,21,23,25,-1,-1,-1,27,29,31,-1,-1,-1,33,-1,-1,-1,-1,-1,-1,-1,-1,-1,-1],"loss_changes":[2.0557237E2,2.4474136E1,2.5156273E1,1.2569275E0,3.9905186E0,2.341022E0,7.9209976E0,0E0,0E0,1.0482597E-1,4.9709034E-1,2.684075E-1,1.4116001E-1,4.7361526E0,2.3969507E-1,0E0,0E0,0E0,3.355694E-2,3.0640708E-2,6.9428086E-3,0E0,0E0,0E0,5.511856E-1,0E0,0E0,0E0,0E0,0E0,0E0,0E0,0E0,0E0,0E0],"parents":[2147483647,0,0,1,1,2,2,3,3,4,4,5,5,6,6,9,9,10,10,11,11,12,12,13,13,14,14,18,18,19,19,20,20,24,24],"right_children":[2,4,6,8,10,12,14,-1,-1,16,18,20,22,24,26,-1,-1,-1,28,30,32,-1,-1,-1,34,-1,-1,-1,-1,-1,-1,-1,-1,-1,-1],"split_conditions":[-8.975598E-2,-1.073413E0,6.6475326E-1,-1.5715427E0,-6.206539E-1,2.3910956E-1,1.6420631E0,-3.5532195E-2,-2.5560563E-2,-8.187101E-1,-3.855633E-1,1.2742899E-2,4.0976456E-1,9.961964E-1,1.6274635E0,-1.7379513E-2,-1.233676E-2,-8.750717E-3,-2.1176937E-1,-4.6373595E-2,1.3304254E-1,7.4623446E-3,1.13824345E-2,1.6411768E-2,1.390397E0,-1.5851507E-3,-2.5374094E-2,-4.601246E-3,-2.3798158E-3,-7.773303E-4,9.880568E-4,2.451864E-3,4.3592127E-3,2.4607023E-2,3.3102013E-2],"split_indices":[9,9,7,9,2,3,2,0,0,2,3,0,2,4,0,0,0,0,6,4,7,0,0,0,0,0,0,0,0,0,0,0,0,0,0],"split_type":[0,0,0,0,0,0,0,0,0,0,0,0,0,0,0,0,0,0,0,0,0,0,0,0,0,0,0,0,0,0,0,0,0,0,0],"sum_hessian":[1.716E3,8.1E2,9.06E2,3.43E2,4.67E2,4.01E2,5.05E2,9.8E1,2.45E2,2.34E2,2.33E2,1.91E2,2.1E2,4.99E2,6E0,1.44E2,9E1,1.1E2,1.23E2,8.9E1,1.02E2,9.1E1,1.19E2,1.75E2,3.24E2,2E0,4E0,7.6E1,4.7E1,4.1E1,4.8E1,3.2E1,7E1,2.26E2,9.8E1],"tree_param":{"num_deleted":"0","num_feature":"10","num_nodes":"35","size_leaf_vector":"1"}},{"base_weights":[-1.4304393E-4,-3.3715814E-1,3.1369597E-1,-5.303457E-1,-1.7921013E-1,1.7751431E-1,4.8734778E-1,-3.235305E-2,-2.2459192E-2,-2.5639197E-1,-8.132099E-2,8.240802E-2,2.5682792E-1,5.0922644E-1,-2.960453E-2,-1.4824517E-2,-9.760884E-3,-5.617562E-3,-4.399415E-2,3.6044445E-2,1.2114637E-1,9.866071E-3,1.4407343E-2,2.2425745E-2,3.153411E-2,-2.712772E-3,-9.96809E-4,7.0068653E-4,2.6558163E-3,4.0541333E-3,6.627033E-3],"categories":[],"categories_nodes":[],"categories_segments":[],"categories_sizes":[],"default_left":[0,0,0,0,0,0,0,0,0,0,0,0,0,0,0,0,0,0,0,0,0,0,0,0,0,0,0,0,0,0,0],"id":19,"left_children":[1,3,5,7,9,11,13,-1,-1,15,17,19,21,23,-1,-1,-1,-1,25,27,29,-1,-1,-1,-1,-1,-1,-1,-1,-1,-1],"loss_changes":[1.811814E2,2.4728996E1,2.0543388E1,2.0422287E0,3.386283E0,3.7035046E0,1.0647186E1,0E0,0E0,3.3856392E-1,2.19679E-1,4.038303E-1,2.2449684E-1,1.4024353E0,0E0,0E0,0E0,0E0,2.0265818E-2,3.953038E-2,4.2414665E-3,0E0,0E0,0E0,0E0,0E0,0E0,0E0,0E0,0E0,0E0],"parents":[2147483647,0,0,1,1,2,2,3,3,4,4,5,5,6,6,9,9,10,10,11,11,12,12,13,13,18,18,19,19,20,20],"right_children":[2,4,6,8,10,12,14,-1,-1,16,18,20,22,24,-1,-1,-1,-1,26,28,30,-1,-1,-1,-1,-1,-1,-1,-1,-1,-1],"split_conditions":[-1.6818196E-2,-9.67097E-1,8.6305046E-1,-1.4697423E0,-4.942324E-1,3.7182367E-1,1.6664551E0,-3.235305E-2,-2.2459192E-2,-7.138122E-1,-2.1996658E-1,1.5901454E-1,5.6394154E-1,1.3896934E0,-2.960453E-2,-1.4824517E-2,-9.760884E-3,-5.617562E-3,-1.4523529E-1,-2.0119692E-3,2.1451785E-1,9.866071E-3,1.4407343E-2,2.2425745E-2,3.153411E-2,-2.712772E-3,-9.96809E-4,7.0068653E-4,2.6558163E-3,4.0541333E-3,6.627033E-3],"split_indices":[9,9,0,9,0,2,5,0,0,1,9,5,0,2,0,0,0,0,4,0,3,0,0,0,0,0,0,0,0,0,0],"split_type":[0,0,0,0,0,0,0,0,0,0,0,0,0,0,0,0,0,0,0,0,0,0,0,0,0,0,0,0,0,0,0],"sum_hessian":[1.703E3,8.21E2,8.82E2,3.64E2,4.57E2,5E2,3.82E2,1.35E2,2.29E2,2.51E2,2.06E2,2.32E2,2.68E2,3.77E2,5E0,1.4E2,1.11E2,1.07E2,9.9E1,1.1E2,1.22E2,1.05E2,1.63E2,2.67E2,1.1E2,6.5E1,3.4E1,5.2E1,5.8E1,3.6E1,8.6E1],"tree_param":{"num_deleted":"0","num_feature":"10","num_nodes":"31","size_leaf_vector":"1"}},{"base_weights":[-4.148292E-3,-3.2993832E-1,2.849157E-1,-5.303874E-1,-1.9913638E-1,1.1434595E-1,4.0943742E-1,-3.1835206E-2,-2.330198E-2,-2.8104532E-1,-1.04259305E-1,4.4867627E-2,1.7863762E-1,4.3431985E-1,-3.3227447E-2,-1.5866354E-2,-1.1048465E-2,-7.445062E-3,-6.3692264E-2,1.0093564E-2,7.424472E-2,6.964478E-3,1.0151677E-2,1.5443705E-2,5.1185286E-1,-3.7700932E-3,-1.6873215E-3,-3.413246E-4,1.1134631E-3,2.3118283E-3,4.0895436E-3,2.2762505E-2,3.0779837E-2],"categories":[],"categories_nodes":[],"categories_segments":[],"categories_sizes":[],"default_left":[0,0,0,0,0,0,0,0,0,0,0,0,0,0,0,0,0,0,0,0,0,0,0,0,0,0,0,0,0,0,0,0,0],"id":20,"left_children":[1,3,5,7,9,11,13,-1,-1,15,17,19,21,23,-1,-1,-1,-1,25,27,29,-1,-1,-1,31,-1,-1,-1,-1,-1,-1,-1,-1],"loss_changes":[1.638622E2,2.0919151E1,1.9348862E1,7.0555115E-1,3.7624474E0,1.7288084E0,1.5633247E1,0E0,0E0,2.3137283E-1,3.8902974E-1,1.9750056E-1,5.442381E-2,4.286583E0,0E0,0E0,0E0,0E0,3.4615576E-2,2.0537397E-2,3.4948587E-3,0E0,0E0,0E0,4.4848633E-1,0E0,0E0,0E0,0E0,0E0,0E0,0E0,0E0],"parents":[2147483647,0,0,1,1,2,2,3,3,4,4,5,5,6,6,9,9,10,10,11,11,12,12,13,13,18,18,19,19,20,20,24,24],"right_children":[2,4,6,8,10,12,14,-1,-1,16,18,20,22,24,-1,-1,-1,-1,26,28,30,-1,-1,-1,32,-1,-1,-1,-1,-1,-1,-1,-1],"split_conditions":[-7.178799E-2,-1.1015115E0,5.985861E-1,-1.570112E0,-5.7205844E-1,2.823976E-1,1.6664551E0,-3.1835206E-2,-2.330198E-2,-8.470589E-1,-3.913463E-1,6.466457E-2,3.9543688E-1,1.033657E0,-3.3227447E-2,-1.5866354E-2,-1.1048465E-2,-7.445062E-3,-2.1198985E-1,-3.7260998E-2,1.0411038E-1,6.964478E-3,1.0151677E-2,1.5443705E-2,1.4614786E0,-3.7700932E-3,-1.6873215E-3,-3.413246E-4,1.1134631E-3,2.3118283E-3,4.0895436E-3,2.2762505E-2,3.0779837E-2],"split_indices":[8,8,0,8,3,7,5,0,0,0,0,5,0,3,0,0,0,0,2,3,3,0,0,0,5,0,0,0,0,0,0,0,0],"split_type":[0,0,0,0,0,0,0,0,0,0,0,0,0,0,0,0,0,0,0,0,0,0,0,0,0,0,0,0,0,0,0,0,0],"sum_hessian":[1.73E3,8.13E2,9.17E2,3.15E2,4.98E2,3.91E2,5.26E2,1.02E2,2.13E2,2.62E2,2.36E2,1.92E2,1.99E2,5.17E2,9E0,1.5E2,1.12E2,1.06E2,1.3E2,9.1E1,1.01E2,8.9E1,1.1E2,2.07E2,3.1E2,8.8E1,4.2E1,3.9E1,5.2E1,2.9E1,7.2E1,2.18E2,9.2E1],"tree_param":{"num_deleted":"0","num_feature":"10","num_nodes":"33","size_leaf_vector":"1"}},{"base_weights":[2.5166164E-3,-3.0800477E-1,2.9372585E-1,-5.011032E-1,-1.7489631E-1,1.6049302E-1,4.5326447E-1,-3.1012569E-2,-2.2209503E-2,-2.4861214E-1,-7.808632E-2,6.55406E-2,2.2429998E-1,4.6757817E-1,-3.387584E-1,-1.4593675E-2,-9.624402E-3,-1.0937674E-1,-3.9052915E-2,2.8214145E-2,9.741345E-2,8.4695285E-3,1.2817713E-2,2.0765388E-2,2.8701399E-2,-1.5588062E-3,-1.9808447E-2,-6.0949605E-3,-3.785489E-3,-2.514645E-3,-8.622102E-4,4.265067E-4,2.1036053E-3,3.019241E-3,5.3014434E-3],"categories":[],"categories_nodes":[],"categories_segments":[],"categories_sizes":[],"default_left":[0,0,0,0,0,0,0,0,0,0,0,0,0,0,0,0,0,0,0,0,0,0,0,0,0,0,0,0,0,0,0,0,0,0,0],"id":21,"left_children":[1,3,5,7,9,11,13,-1,-1,15,17,19,21,23,25,-1,-1,27,29,31,33,-1,-1,-1,-1,-1,-1,-1,-1,-1,-1,-1,-1,-1,-1],"loss_changes":[1.5508197E2,2.0895317E1,1.844764E1,9.009018E-1,3.4640112E0,2.8952217E0,5.326683E0,0E0,0E0,4.0135765E-1,2.510085E-1,2.2895682E-1,2.9506397E-1,1.005867E0,1.1482942E-1,0E0,0E0,4.8680305E-3,2.1892548E-2,2.5756404E-2,2.4411678E-3,0E0,0E0,0E0,0E0,0E0,0E0,0E0,0E0,0E0,0E0,0E0,0E0,0E0,0E0],"parents":[2147483647,0,0,1,1,2,2,3,3,4,4,5,5,6,6,9,9,10,10,11,11,12,12,13,13,14,14,17,17,18,18,19,19,20,20],"right_children":[2,4,6,8,10,12,14,-1,-1,16,18,20,22,24,26,-1,-1,28,30,32,34,-1,-1,-1,-1,-1,-1,-1,-1,-1,-1,-1,-1,-1,-1],"split_conditions":[-1.6818196E-2,-1.073413E0,8.884415E-1,-1.5955596E0,-4.4768327E-1,3.413856E-1,1.6420631E0,-3.1012569E-2,-2.2209503E-2,-7.7272874E-1,-2.3451798E-1,1.1660549E-1,5.5162674E-1,1.4567355E0,1.6274635E0,-1.4593675E-2,-9.624402E-3,-3.7998486E-1,-1.4523529E-1,1.9371394E-3,1.6021894E-1,8.4695285E-3,1.2817713E-2,2.0765388E-2,2.8701399E-2,-1.5588062E-3,-1.9808447E-2,-6.0949605E-3,-3.785489E-3,-2.514645E-3,-8.622102E-4,4.265067E-4,2.1036053E-3,3.019241E-3,5.3014434E-3],"split_indices":[9,9,1,9,8,4,2,0,0,2,8,3,2,8,0,0,0,0,4,2,1,0,0,0,0,0,0,0,0,0,0,0,0,0,0],"split_type":[0,0,0,0,0,0,0,0,0,0,0,0,0,0,0,0,0,0,0,0,0,0,0,0,0,0,0,0,0,0,0,0,0,0,0],"sum_hessian":[1.705E3,8.25E2,8.8E2,3.31E2,4.94E2,4.85E2,3.95E2,9.1E1,2.4E2,2.76E2,2.18E2,1.99E2,2.86E2,3.9E2,5E0,1.44E2,1.32E2,1.16E2,1.02E2,9.6E1,1.03E2,1.17E2,1.69E2,2.78E2,1.12E2,2E0,3E0,7.5E1,4.1E1,6.3E1,3.9E1,4.3E1,5.3E1,2.7E1,7.6E1],"tree_param":{"num_deleted":"0","num_feature":"10","num_nodes":"35","size_leaf_vector":"1"}},{"base_weights":[1.0223989E-3,-2.920849E-1,2.7813622E-1,-4.3655497E-1,-1.3287787E-1,1.5493101E-1,4.2953798E-1,-2.636314E-2,-1.7349511E-2,-1.9474038E-1,-6.1213087E-2,7.8852445E-2,2.2789851E-1,4.4364962E-1,-3.3135122E-1,-1.1225007E-2,-7.724499E-3,-4.2269207E-3,-3.1336203E-2,3.4791283E-2,1.14771076E-1,8.87986E-3,1.2516434E-2,1.974508E-2,2.7865738E-2,-1.5365379E-3,-1.9364981E-2,-2.0190685E-3,-7.1518455E-4,6.879784E-4,2.5043786E-3,4.110312E-3,6.349201E-3],"categories":[],"categories_nodes":[],"categories_segments":[],"categories_sizes":[],"default_left":[0,0,0,0,0,0,0,0,0,0,0,0,0,0,0,0,0,0,0,0,0,0,0,0,0,0,0,0,0,0,0,0,0],"id":22,"left_children":[1,3,5,7,9,11,13,-1,-1,15,17,19,21,23,25,-1,-1,-1,27,29,31,-1,-1,-1,-1,-1,-1,-1,-1,-1,-1,-1,-1],"loss_changes":[1.3905571E2,1.8846497E1,1.6082329E1,2.6111374E0,1.7270417E0,2.6469202E0,4.9440765E0,0E0,0E0,8.292389E-2,1.21950686E-1,3.741063E-1,5.8650017E-2,1.0439224E0,1.08682156E-1,0E0,0E0,0E0,1.1439733E-2,3.4837246E-2,1.4966726E-3,0E0,0E0,0E0,0E0,0E0,0E0,0E0,0E0,0E0,0E0,0E0,0E0],"parents":[2147483647,0,0,1,1,2,2,3,3,4,4,5,5,6,6,9,9,10,10,11,11,12,12,13,13,14,14,18,18,19,19,20,20],"right_children":[2,4,6,8,10,12,14,-1,-1,16,18,20,22,24,26,-1,-1,-1,28,30,32,-1,-1,-1,-1,-1,-1,-1,-1,-1,-1,-1,-1],"split_conditions":[-1.6818196E-2,-8.341918E-1,9.155248E-1,-1.3540933E0,-3.7994578E-1,4.6086812E-1,1.6420631E0,-2.636314E-2,-1.7349511E-2,-6.353452E-1,-1.9779788E-1,2.16964E-1,5.74564E-1,1.4573249E0,1.6274635E0,-1.1225007E-2,-7.724499E-3,-4.2269207E-3,-1.5862566E-1,6.633053E-2,3.099552E-1,8.87986E-3,1.2516434E-2,1.974508E-2,2.7865738E-2,-1.5365379E-3,-1.9364981E-2,-2.0190685E-3,-7.1518455E-4,6.879784E-4,2.5043786E-3,4.110312E-3,6.349201E-3],"split_indices":[9,9,4,9,8,8,2,0,0,4,8,9,0,6,0,0,0,0,1,7,9,0,0,0,0,0,0,0,0,0,0,0,0],"split_type":[0,0,0,0,0,0,0,0,0,0,0,0,0,0,0,0,0,0,0,0,0,0,0,0,0,0,0,0,0,0,0,0,0],"sum_hessian":[1.702E3,8.27E2,8.75E2,4.29E2,3.98E2,4.88E2,3.87E2,2.01E2,2.28E2,2.09E2,1.89E2,2.44E2,2.44E2,3.82E2,5E0,1.07E2,1.02E2,1.01E2,8.8E1,1.14E2,1.3E2,8.9E1,1.55E2,2.83E2,9.9E1,2E0,3E0,5.3E1,3.5E1,5.2E1,6.2E1,4.6E1,8.4E1],"tree_param":{"num_deleted":"0","num_feature":"10","num_nodes":"33","size_leaf_vector":"1"}},{"base_weights":[-2.706847E-3,-2.88716E-1,2.6109686E-1,-4.6417946E-1,-1.7026868E-1,1.3804266E-1,4.0677834E-1,-2.8513256E-2,-2.0272614E-2,-2.4001306E-1,-8.264841E-2,5.5080056E-2,2.0002349E-1,4.2171955E-1,-2.4661222E-2,-1.3601753E-2,-9.289867E-3,-5.9816726E-3,-4.6499766E-2,1.3777695E-2,8.2299285E-2,6.9969767E-3,1.1227179E-2,1.7900134E-2,2.5378097E-2,-2.9082734E-3,-1.1592339E-3,-5.5498753E-5,1.2316339E-3,2.7336602E-3,4.7491128E-3],"categories":[],"categories_nodes":[],"categories_segments":[],"categories_sizes":[],"default_left":[0,0,0,0,0,0,0,0,0,0,0,0,0,0,0,0,0,0,0,0,0,0,0,0,0,0,0,0,0,0,0],"id":23,"left_children":[1,3,5,7,9,11,13,-1,-1,15,17,19,21,23,-1,-1,-1,-1,25,27,29,-1,-1,-1,-1,-1,-1,-1,-1,-1,-1],"loss_changes":[1.3067953E2,1.687564E1,1.5871212E1,9.12323E-1,2.980773E0,2.49539E0,6.553337E0,0E0,0E0,2.2991562E-1,2.810229E-1,2.4053437E-1,2.5834846E-1,1.3121185E0,0E0,0E0,0E0,0E0,2.7255595E-2,1.5166007E-2,1.9934952E-2,0E0,0E0,0E0,0E0,0E0,0E0,0E0,0E0,0E0,0E0],"parents":[2147483647,0,0,1,1,2,2,3,3,4,4,5,5,6,6,9,9,10,10,11,11,12,12,13,13,18,18,19,19,20,20],"right_children":[2,4,6,8,10,12,14,-1,-1,16,18,20,22,24,-1,-1,-1,-1,26,28,30,-1,-1,-1,-1,-1,-1,-1,-1,-1,-1],"split_conditions":[-4.788184E-2,-1.1005671E0,8.774295E-1,-1.5955596E0,-5.441485E-1,3.420941E-1,1.6664551E0,-2.8513256E-2,-2.0272614E-2,-8.065552E-1,-2.9914254E-1,7.4831784E-2,4.7083175E-1,1.3790706E0,-2.4661222E-2,-1.3601753E-2,-9.289867E-3,-5.9816726E-3,-1.9856462E-1,-5.0399173E-2,2.1781777E-1,6.9969767E-3,1.1227179E-2,1.7900134E-2,2.5378097E-2,-2.9082734E-3,-1.1592339E-3,-5.5498753E-5,1.2316339E-3,2.7336602E-3,4.7491128E-3],"split_indices":[9,9,1,9,4,5,5,0,0,4,8,3,0,8,0,0,0,0,1,0,8,0,0,0,0,0,0,0,0,0,0],"split_type":[0,0,0,0,0,0,0,0,0,0,0,0,0,0,0,0,0,0,0,0,0,0,0,0,0,0,0,0,0,0,0],"sum_hessian":[1.722E3,8.26E2,8.96E2,3.27E2,4.99E2,4.91E2,4.05E2,1.01E2,2.26E2,2.73E2,2.26E2,2.14E2,2.77E2,4.01E2,4E0,1.59E2,1.14E2,1.06E2,1.2E2,8.8E1,1.26E2,9E1,1.87E2,2.45E2,1.56E2,7.5E1,4.5E1,3.9E1,4.9E1,4.8E1,7.8E1],"tree_param":{"num_deleted":"0","num_feature":"10","num_nodes":"31","size_leaf_vector":"1"}},{"base_weights":[-6.847359E-3,-2.7776816E-1,2.3651442E-1,-4.4400483E-1,-1.6582392E-1,1.08701E-1,3.5582897E-1,-2.7431507E-2,-1.9501118E-2,-2.3933187E-1,-9.337195E-2,3.9209362E-2,1.6547959E-1,3.711038E-1,-2.6618255E-2,-1.3138587E-2,-9.357307E-3,-6.796417E-3,-5.843333E-2,6.4736106E-3,6.4393856E-2,6.1529926E-3,9.524557E-3,2.9656392E-1,2.280373E-2,-3.563158E-3,-1.798835E-3,-4.048543E-4,8.802103E-4,2.276622E-3,3.670371E-3,1.2063805E-2,1.6642781E-2],"categories":[],"categories_nodes":[],"categories_segments":[],"categories_sizes":[],"default_left":[0,0,0,0,0,0,0,0,0,0,0,0,0,0,0,0,0,0,0,0,0,0,0,0,0,0,0,0,0,0,0,0,0],"id":24,"left_children":[1,3,5,7,9,11,13,-1,-1,15,17,19,21,23,-1,-1,-1,-1,25,27,29,-1,-1,31,-1,-1,-1,-1,-1,-1,-1,-1,-1],"loss_changes":[1.1425858E2,1.4891441E1,1.3729855E1,7.7698517E-1,2.5405111E0,1.7352033E0,7.364311E0,0E0,0E0,5.2583694E-2,3.453834E-1,1.693978E-1,1.4273167E-1,2.2689056E0,0E0,0E0,0E0,0E0,3.068626E-2,1.6282042E-2,3.1789541E-3,0E0,0E0,1.2414932E-1,0E0,0E0,0E0,0E0,0E0,0E0,0E0,0E0,0E0],"parents":[2147483647,0,0,1,1,2,2,3,3,4,4,5,5,6,6,9,9,10,10,11,11,12,12,13,13,18,18,19,19,20,20,23,23],"right_children":[2,4,6,8,10,12,14,-1,-1,16,18,20,22,24,-1,-1,-1,-1,26,28,30,-1,-1,32,-1,-1,-1,-1,-1,-1,-1,-1,-1],"split_conditions":[-7.504662E-2,-1.1148838E0,7.0021325E-1,-1.6115477E0,-6.490416E-1,3.0714327E-1,1.6420631E0,-2.7431507E-2,-1.9501118E-2,-8.469378E-1,-4.286207E-1,2.5251223E-2,5.0323606E-1,1.2141649E0,-2.6618255E-2,-1.3138587E-2,-9.357307E-3,-6.796417E-3,-2.1145964E-1,-8.952122E-3,1.4252211E-1,6.1529926E-3,9.524557E-3,9.39951E-1,2.280373E-2,-3.563158E-3,-1.798835E-3,-4.048543E-4,8.802103E-4,2.276622E-3,3.670371E-3,1.2063805E-2,1.6642781E-2],"split_indices":[9,9,0,9,0,7,2,0,0,1,0,0,7,2,0,0,0,0,7,7,4,0,0,2,0,0,0,0,0,0,0,0,0],"split_type":[0,0,0,0,0,0,0,0,0,0,0,0,0,0,0,0,0,0,0,0,0,0,0,0,0,0,0,0,0,0,0,0,0],"sum_hessian":[1.723E3,8.15E2,9.08E2,3.22E2,4.93E2,4.43E2,4.65E2,9.4E1,2.28E2,2.39E2,2.54E2,2.03E2,2.4E2,4.6E2,5E0,1.51E2,8.8E1,1.08E2,1.46E2,9.1E1,1.12E2,1E2,1.4E2,2.57E2,2.03E2,8.6E1,6E1,4E1,5.1E1,4.6E1,6.6E1,1.17E2,1.4E2],"tree_param":{"num_deleted":"0","num_feature":"10","num_nodes":"33","size_leaf_vector":"1"}},{"base_weights":[-4.921412E-3,-2.6080793E-1,2.2852129E-1,-4.179592E-1,-1.557408E-1,1.1112098E-1,3.491435E-1,-2.5608767E-2,-1.8261125E-2,-2.2199334E-1,-8.510104E-2,4.2379998E-2,1.6797851E-1,3.6299178E-1,-3.6474758E-1,-1.2403202E-2,-8.814662E-3,-6.0747615E-3,-5.037054E-2,1.1019039E-2,6.6862926E-2,6.178792E-3,9.631954E-3,2.974276E-1,2.2088924E-2,-1.1394476E-3,-2.1403894E-2,-3.003002E-3,-1.2610331E-3,-1.9308261E-4,1.0668671E-3,2.243867E-3,3.7800267E-3,1.1698092E-2,1.6239485E-2],"categories":[],"categories_nodes":[],"categories_segments":[],"categories_sizes":[],"default_left":[0,0,0,0,0,0,0,0,0,0,0,0,0,0,0,0,0,0,0,0,0,0,0,0,0,0,0,0,0,0,0,0,0,0,0],"id":25,"left_children":[1,3,5,7,9,11,13,-1,-1,15,17,19,21,23,25,-1,-1,-1,27,29,31,-1,-1,33,-1,-1,-1,-1,-1,-1,-1,-1,-1,-1,-1],"loss_changes":[1.0405742E2,1.3395538E1,1.2706764E1,7.043648E-1,2.273654E0,1.7974648E0,5.081112E0,0E0,0E0,8.8728905E-2,2.891903E-1,1.644662E-1,1.601963E-1,1.6210365E0,1.8944263E-1,0E0,0E0,0E0,2.6055396E-2,1.6073428E-2,6.472647E-3,0E0,0E0,6.461716E-2,0E0,0E0,0E0,0E0,0E0,0E0,0E0,0E0,0E0,0E0,0E0],"parents":[2147483647,0,0,1,1,2,2,3,3,4,4,5,5,6,6,9,9,10,10,11,11,12,12,13,13,14,14,18,18,19,19,20,20,23,23],"right_children":[2,4,6,8,10,12,14,-1,-1,16,18,20,22,24,26,-1,-1,-1,28,30,32,-1,-1,34,-1,-1,-1,-1,-1,-1,-1,-1,-1,-1,-1],"split_conditions":[-5.996128E-2,-1.1005671E0,7.8280133E-1,-1.5715427E0,-6.212798E-1,2.7734908E-1,1.6420631E0,-2.5608767E-2,-1.8261125E-2,-8.356837E-1,-3.4904844E-1,6.2098164E-2,5.2586114E-1,1.2788006E0,1.6528655E0,-1.2403202E-2,-8.814662E-3,-6.0747615E-3,-1.9850087E-1,5.7608373E-3,1.8626755E-1,6.178792E-3,9.631954E-3,9.417766E-1,2.2088924E-2,-1.1394476E-3,-2.1403894E-2,-3.003002E-3,-1.2610331E-3,-1.9308261E-4,1.0668671E-3,2.243867E-3,3.7800267E-3,1.1698092E-2,1.6239485E-2],"split_indices":[9,9,2,9,1,1,2,0,0,2,7,3,7,4,3,0,0,0,3,7,8,0,0,1,0,0,0,0,0,0,0,0,0,0,0],"split_type":[0,0,0,0,0,0,0,0,0,0,0,0,0,0,0,0,0,0,0,0,0,0,0,0,0,0,0,0,0,0,0,0,0,0,0],"sum_hessian":[1.732E3,8.26E2,9.06E2,3.25E2,5.01E2,4.64E2,4.42E2,1.01E2,2.24E2,2.53E2,2.48E2,2.14E2,2.5E2,4.36E2,6E0,1.47E2,1.06E2,1.15E2,1.33E2,9.7E1,1.17E2,1E2,1.5E2,2.51E2,1.85E2,2E0,4E0,9.1E1,4.2E1,4.1E1,5.6E1,4.2E1,7.5E1,9E1,1.61E2],"tree_param":{"num_deleted":"0","num_feature":"10","num_nodes":"35","size_leaf_vector":"1"}},{"base_weights":[1.8206844E-3,-2.3948018E-1,2.2530809E-1,-3.873972E-1,-1.3348982E-1,1.24136284E-1,3.4001842E-1,-2.2387652E-2,-1.5992444E-2,-1.9245344E-1,-5.8627542E-2,5.6341212E-2,1.752585E-1,3.600401E-1,-2.749381E-2,-1.0995313E-2,-7.185906E-3,-4.1184616E-3,-2.9705517E-2,2.1842873E-2,7.994314E-2,6.841401E-3,1.0080884E-2,3.1967333E-1,2.3892166E-2,-1.9777867E-3,-7.7417924E-4,2.7117916E-4,1.5641757E-3,2.4802883E-3,4.349334E-3,1.11267315E-2,1.662546E-2],"categories":[],"categories_nodes":[],"categories_segments":[],"categories_sizes":[],"default_left":[0,0,0,0,0,0,0,0,0,0,0,0,0,0,0,0,0,0,0,0,0,0,0,0,0,0,0,0,0,0,0,0,0],"id":26,"left_children":[1,3,5,7,9,11,13,-1,-1,15,17,19,21,23,-1,-1,-1,-1,25,27,29,-1,-1,31,-1,-1,-1,-1,-1,-1,-1,-1,-1],"loss_changes":[9.1515465E1,1.25345E1,1.0013363E1,6.619377E-1,2.0756197E0,1.6003647E0,8.294926E0,0E0,0E0,2.0054054E-1,1.388306E-1,1.638853E-1,1.3456154E-1,1.1573868E0,0E0,0E0,0E0,0E0,1.192721E-2,1.3567459E-2,4.9214363E-3,0E0,0E0,2.4032593E-2,0E0,0E0,0E0,0E0,0E0,0E0,0E0,0E0,0E0],"parents":[2147483647,0,0,1,1,2,2,3,3,4,4,5,5,6,6,9,9,10,10,11,11,12,12,13,13,18,18,19,19,20,20,23,23],"right_children":[2,4,6,8,10,12,14,-1,-1,16,18,20,22,24,-1,-1,-1,-1,26,28,30,-1,-1,32,-1,-1,-1,-1,-1,-1,-1,-1,-1],"split_conditions":[-1.6818196E-2,-1.0376947E0,9.0357375E-1,-1.4413351E0,-4.3003246E-1,3.4499982E-1,1.6664551E0,-2.2387652E-2,-1.5992444E-2,-7.4033535E-1,-2.1996658E-1,1.1660549E-1,6.4257985E-1,1.4357839E0,-2.749381E-2,-1.0995313E-2,-7.185906E-3,-4.1184616E-3,-1.3240124E-1,2.1059474E-3,1.6305211E-1,6.841401E-3,1.0080884E-2,9.68866E-1,2.3892166E-2,-1.9777867E-3,-7.7417924E-4,2.7117916E-4,1.5641757E-3,2.4802883E-3,4.349334E-3,1.11267315E-2,1.662546E-2],"split_indices":[9,9,7,9,9,2,5,0,0,1,9,3,9,0,0,0,0,0,7,3,0,0,0,3,0,0,0,0,0,0,0,0,0],"split_type":[0,0,0,0,0,0,0,0,0,0,0,0,0,0,0,0,0,0,0,0,0,0,0,0,0,0,0,0,0,0,0,0,0],"sum_hessian":[1.687E3,8.11E2,8.76E2,3.33E2,4.78E2,4.71E2,4.05E2,1.61E2,1.72E2,2.63E2,2.15E2,2.07E2,2.64E2,3.99E2,6E0,1.57E2,1.06E2,1.13E2,1.02E2,8.8E1,1.19E2,1.2E2,1.44E2,3.11E2,8.8E1,5.5E1,4.7E1,3.5E1,5.3E1,3E1,8.9E1,4.7E1,2.64E2],"tree_param":{"num_deleted":"0","num_feature":"10","num_nodes":"33","size_leaf_vector":"1"}},{"base_weights":[-1.6260019E-3,-2.3518515E-1,1.9695711E-1,-3.8026947E-1,-1.4259084E-1,7.8835145E-2,2.835791E-1,-2.3221089E-2,-1.6999807E-2,-2.0542283E-1,-7.8691915E-2,2.6871601E-2,1.2134141E-1,3.0623206E-1,-2.8054118E-2,-1.1291777E-2,-8.05639E-3,-5.6754476E-3,-4.9014352E-2,3.9520278E-3,2.4553924E-3,4.3924632E-3,6.8164296E-3,1.1391551E-2,3.7225303E-1,-2.8677792E-3,-1.3239639E-3,-3.978072E-4,7.3060923E-4,1.6471727E-2,2.2534309E-2],"categories":[],"categories_nodes":[],"categories_segments":[],"categories_sizes":[],"default_left":[0,0,0,0,0,0,0,0,0,0,0,0,0,0,0,0,0,0,0,0,0,0,0,0,0,0,0,0,0,0,0],"id":27,"left_children":[1,3,5,7,9,11,13,-1,-1,15,17,19,21,23,-1,-1,-1,-1,25,27,-1,-1,-1,-1,29,-1,-1,-1,-1,-1,-1],"loss_changes":[8.135181E1,1.0556675E1,9.5881195E0,2.6450348E-1,1.9266224E0,8.8487744E-1,1.1287186E1,0E0,0E0,4.319954E-2,2.3670304E-1,9.586224E-2,5.205345E-2,2.3399887E0,0E0,0E0,0E0,0E0,2.0037979E-2,1.3148637E-2,0E0,0E0,0E0,0E0,2.047081E-1,0E0,0E0,0E0,0E0,0E0,0E0],"parents":[2147483647,0,0,1,1,2,2,3,3,4,4,5,5,6,6,9,9,10,10,11,11,12,12,13,13,18,18,19,19,24,24],"right_children":[2,4,6,8,10,12,14,-1,-1,16,18,20,22,24,-1,-1,-1,-1,26,28,-1,-1,-1,-1,30,-1,-1,-1,-1,-1,-1],"split_conditions":[-8.832615E-2,-1.1306461E0,6.1083645E-1,-1.6276449E0,-5.917883E-1,2.531373E-1,1.6420631E0,-2.3221089E-2,-1.6999807E-2,-8.0454713E-1,-3.8505912E-1,5.1803228E-2,3.564036E-1,1.1193352E0,-2.8054118E-2,-1.1291777E-2,-8.05639E-3,-5.6754476E-3,-2.2795886E-1,-3.6081024E-2,2.4553924E-3,4.3924632E-3,6.8164296E-3,1.1391551E-2,1.4554907E0,-2.8677792E-3,-1.3239639E-3,-3.978072E-4,7.3060923E-4,1.6471727E-2,2.2534309E-2],"split_indices":[8,8,2,8,6,7,2,0,0,6,4,4,2,5,0,0,0,0,2,4,0,0,0,0,0,0,0,0,0,0,0],"split_type":[0,0,0,0,0,0,0,0,0,0,0,0,0,0,0,0,0,0,0,0,0,0,0,0,0,0,0,0,0,0,0],"sum_hessian":[1.744E3,8.01E2,9.43E2,3.06E2,4.95E2,4.03E2,5.4E2,8.2E1,2.24E2,2.44E2,2.51E2,1.85E2,2.18E2,5.29E2,1.1E1,1.53E2,9.1E1,1.09E2,1.42E2,9.4E1,9.1E1,7.8E1,1.4E2,2.52E2,2.77E2,9.8E1,4.4E1,4.5E1,4.9E1,1.96E2,8.1E1],"tree_param":{"num_deleted":"0","num_feature":"10","num_nodes":"31","size_leaf_vector":"1"}},{"base_weights":[-4.5478353E-3,-2.2024679E-1,1.996305E-1,-3.6156178E-1,-1.3269314E-1,1.0656587E-1,3.0900458E-1,-2.2630218E-2,-1.607483E-2,-1.8436165E-1,-5.9513666E-2,4.1446425E-2,1.5240848E-1,3.251047E-1,-2.4153205E-2,-1.0673785E-2,-7.064685E-3,-4.207768E-3,-3.3592332E-2,1.2502928E-2,6.380593E-2,5.4369564E-3,8.641163E-3,2.8932193E-1,2.1778382E-2,-2.043863E-3,-8.430417E-4,3.0677533E-5,1.1045573E-3,2.178526E-3,3.643262E-3,9.807453E-3,1.5043664E-2],"categories":[],"categories_nodes":[],"categories_segments":[],"categories_sizes":[],"default_left":[0,0,0,0,0,0,0,0,0,0,0,0,0,0,0,0,0,0,0,0,0,0,0,0,0,0,0,0,0,0,0,0,0],"id":28,"left_children":[1,3,5,7,9,11,13,-1,-1,15,17,19,21,23,-1,-1,-1,-1,25,27,29,-1,-1,31,-1,-1,-1,-1,-1,-1,-1,-1,-1],"loss_changes":[7.52658E1,1.0041782E1,8.772388E0,4.2145157E-1,1.9150791E0,1.4073043E0,5.8989563E0,0E0,0E0,2.2911263E-1,1.2830538E-1,1.2932661E-1,1.565485E-1,9.351578E-1,0E0,0E0,0E0,0E0,1.0814741E-2,1.0876032E-2,5.207747E-3,0E0,0E0,4.2871475E-2,0E0,0E0,0E0,0E0,0E0,0E0,0E0,0E0,0E0],"parents":[2147483647,0,0,1,1,2,2,3,3,4,4,5,5,6,6,9,9,10,10,11,11,12,12,13,13,18,18,19,19,20,20,23,23],"right_children":[2,4,6,8,10,12,14,-1,-1,16,18,20,22,24,-1,-1,-1,-1,26,28,30,-1,-1,32,-1,-1,-1,-1,-1,-1,-1,-1,-1],"split_conditions":[-4.788184E-2,-1.1148838E0,8.3274275E-1,-1.6284562E0,-4.900774E-1,3.313408E-1,1.6664551E0,-2.2630218E-2,-1.607483E-2,-7.46107E-1,-2.5607857E-1,1.0376805E-1,5.2567065E-1,1.4881567E0,-2.4153205E-2,-1.0673785E-2,-7.064685E-3,-4.207768E-3,-1.9884019E-1,-3.8141448E-2,2.0069818E-1,5.4369564E-3,8.641163E-3,9.807396E-1,2.1778382E-2,-2.043863E-3,-8.430417E-4,3.0677533E-5,1.1045573E-3,2.178526E-3,3.643262E-3,9.807453E-3,1.5043664E-2],"split_indices":[9,9,0,9,6,5,5,0,0,9,9,6,6,6,0,0,0,0,0,0,6,0,0,6,0,0,0,0,0,0,0,0,0],"split_type":[0,0,0,0,0,0,0,0,0,0,0,0,0,0,0,0,0,0,0,0,0,0,0,0,0,0,0,0,0,0,0,0,0],"sum_hessian":[1.699E3,8.26E2,8.73E2,3.1E2,5.16E2,4.77E2,3.96E2,7.9E1,2.31E2,2.98E2,2.18E2,2.01E2,2.76E2,3.91E2,5E0,1.66E2,1.32E2,1.06E2,1.12E2,9.1E1,1.1E2,9.8E1,1.78E2,3.09E2,8.2E1,7.3E1,3.9E1,4.3E1,4.8E1,4.3E1,6.7E1,4.4E1,2.65E2],"tree_param":{"num_deleted":"0","num_feature":"10","num_nodes":"33","size_leaf_vector":"1"}},{"base_weights":[-4.8046077E-5,-2.1032938E-1,1.8851219E-1,-3.5026544E-1,-1.264447E-1,9.514612E-2,2.907188E-1,-2.198648E-2,-1.5295546E-2,-1.7808284E-1,-6.195271E-2,3.6527183E-2,1.3771535E-1,3.0241883E-1,-2.135968E-2,-1.0291711E-2,-7.029552E-3,-4.5414665E-3,-3.6556877E-2,1.0647967E-2,5.6253016E-2,5.047371E-3,7.922148E-3,2.6793164E-1,2.053534E-2,-2.2929201E-3,-9.902904E-4,-3.8581024E-5,9.5388165E-4,1.7676022E-3,3.0834381E-3,9.829032E-3,1.420735E-2],"categories":[],"categories_nodes":[],"categories_segments":[],"categories_sizes":[],"default_left":[0,0,0,0,0,0,0,0,0,0,0,0,0,0,0,0,0,0,0,0,0,0,0,0,0,0,0,0,0,0,0,0,0],"id":29,"left_children":[1,3,5,7,9,11,13,-1,-1,15,17,19,21,23,-1,-1,-1,-1,25,27,29,-1,-1,31,-1,-1,-1,-1,-1,-1,-1,-1,-1],"loss_changes":[6.8437096E1,9.357162E0,8.545486E0,5.2975845E-1,1.6699038E0,1.180109E0,4.2745857E0,0E0,0E0,1.5183544E-1,1.5793419E-1,1.04207784E-1,1.3189507E-1,1.0481796E0,0E0,0E0,0E0,0E0,1.6493097E-2,9.411144E-3,2.456367E-3,0E0,0E0,1.1292648E-1,0E0,0E0,0E0,0E0,0E0,0E0,0E0,0E0,0E0],"parents":[2147483647,0,0,1,1,2,2,3,3,4,4,5,5,6,6,9,9,10,10,11,11,12,12,13,13,18,18,19,19,20,20,23,23],"right_children":[2,4,6,8,10,12,14,-1,-1,16,18,20,22,24,-1,-1,-1,-1,26,28,30,-1,-1,32,-1,-1,-1,-1,-1,-1,-1,-1,-1],"split_conditions":[-4.788184E-2,-1.1290076E0,8.07781E-1,-1.6284562E0,-5.735091E-1,3.3389243E-1,1.6664551E0,-2.198648E-2,-1.5295546E-2,-8.642549E-1,-3.3906087E-1,4.833545E-2,5.275957E-1,1.4858644E0,-2.135968E-2,-1.0291711E-2,-7.029552E-3,-4.5414665E-3,-2.2495653E-1,-8.374475E-3,1.4252211E-1,5.047371E-3,7.922148E-3,9.6912575E-1,2.053534E-2,-2.2929201E-3,-9.902904E-4,-3.8581024E-5,9.5388165E-4,1.7676022E-3,3.0834381E-3,9.829032E-3,1.420735E-2],"split_indices":[9,9,2,9,0,8,5,0,0,0,5,1,8,8,0,0,0,0,0,4,4,0,0,2,0,0,0,0,0,0,0,0,0],"split_type":[0,0,0,0,0,0,0,0,0,0,0,0,0,0,0,0,0,0,0,0,0,0,0,0,0,0,0,0,0,0,0,0,0],"sum_hessian":[1.716E3,8.11E2,9.05E2,2.98E2,5.13E2,4.78E2,4.27E2,8.4E1,2.14E2,2.8E2,2.33E2,2.05E2,2.73E2,4.23E2,4E0,1.48E2,1.32E2,1.03E2,1.3E2,9.2E1,1.13E2,1.09E2,1.64E2,3.34E2,8.9E1,7.8E1,5.2E1,4.1E1,5.1E1,3.1E1,8.2E1,7.4E1,2.6E2],"tree_param":{"num_deleted":"0","num_feature":"10","num_nodes":"33","size_leaf_vector":"1"}},{"base_weights":[-2.4978751E-3,-2.0118155E-1,1.7995365E-1,-3.319917E-1,-1.217761E-1,8.3213985E-2,2.621325E-1,-2.1152578E-2,-1.46494005E-2,-9.1261035E-3,-6.7419454E-2,3.038663E-2,1.2209754E-1,2.7671686E-1,-2.4737604E-2,-5.160023E-3,-4.0179346E-2,7.448436E-3,4.772712E-2,4.51155E-3,6.947975E-3,2.2123861E-1,3.4132704E-1,-2.4900332E-3,-1.0622855E-3,-1.2159229E-4,7.4027124E-4,1.4676522E-3,2.6102886E-3,8.978155E-3,1.2192757E-2,1.4769815E-2,2.0234464E-2],"categories":[],"categories_nodes":[],"categories_segments":[],"categories_sizes":[],"default_left":[0,0,0,0,0,0,0,0,0,0,0,0,0,0,0,0,0,0,0,0,0,0,0,0,0,0,0,0,0,0,0,0,0],"id":30,"left_children":[1,3,5,7,9,11,13,-1,-1,-1,15,17,19,21,-1,-1,23,25,27,-1,-1,29,31,-1,-1,-1,-1,-1,-1,-1,-1,-1,-1],"loss_changes":[6.2930008E1,8.429485E0,7.085644E0,4.8482513E-1,1.6719942E0,8.503399E-1,6.06036E0,0E0,0E0,0E0,2.5705075E-1,7.220583E-2,6.734228E-2,1.3465538E0,0E0,0E0,2.5678068E-2,6.4312867E-3,9.785593E-4,0E0,0E0,3.8380623E-2,2.217102E-2,0E0,0E0,0E0,0E0,0E0,0E0,0E0,0E0,0E0,0E0],"parents":[2147483647,0,0,1,1,2,2,3,3,4,4,5,5,6,6,10,10,11,11,12,12,13,13,16,16,17,17,18,18,21,21,22,22],"right_children":[2,4,6,8,10,12,14,-1,-1,-1,16,18,20,22,-1,-1,24,26,28,-1,-1,30,32,-1,-1,-1,-1,-1,-1,-1,-1,-1,-1],"split_conditions":[-4.788184E-2,-1.1290076E0,7.247952E-1,-1.6454899E0,-6.2091905E-1,2.5471404E-1,1.6664551E0,-2.1152578E-2,-1.46494005E-2,-9.1261035E-3,-3.847675E-1,5.2234586E-2,5.034222E-1,1.2151192E0,-2.4737604E-2,-5.160023E-3,-1.8543807E-1,-5.01843E-2,1.4461362E-1,4.51155E-3,6.947975E-3,9.541271E-1,1.4958297E0,-2.4900332E-3,-1.0622855E-3,-1.2159229E-4,7.4027124E-4,1.4676522E-3,2.6102886E-3,8.978155E-3,1.2192757E-2,1.4769815E-2,2.0234464E-2],"split_indices":[9,9,3,9,6,1,5,0,0,0,5,3,8,1,0,0,7,1,8,0,0,5,3,0,0,0,0,0,0,0,0,0,0],"split_type":[0,0,0,0,0,0,0,0,0,0,0,0,0,0,0,0,0,0,0,0,0,0,0,0,0,0,0,0,0,0,0,0,0],"sum_hessian":[1.726E3,8.26E2,9E2,3.06E2,5.2E2,4.18E2,4.82E2,7.7E1,2.29E2,2.4E2,2.8E2,1.81E2,2.37E2,4.76E2,6E0,1.15E2,1.65E2,8.1E1,1E2,9.3E1,1.44E2,2.68E2,2.08E2,1.04E2,6.1E1,3.6E1,4.5E1,2.7E1,7.3E1,1.1E2,1.58E2,1.37E2,7.1E1],"tree_param":{"num_deleted":"0","num_feature":"10","num_nodes":"33","size_leaf_vector":"1"}},{"base_weights":[-2.8265652E-3,-1.942673E-1,1.7139792E-1,-3.1773895E-1,-1.1974527E-1,7.87638E-2,2.5522572E-1,-1.9005055E-2,-1.3631853E-2,-1.7523326E-1,-6.6510946E-2,3.1632196E-2,1.2072199E-1,2.6430365E-1,-1.813273E-2,-9.492012E-3,-6.844641E-3,-4.919915E-3,-3.958246E-2,7.003888E-3,4.956843E-2,4.5334743E-3,6.9367266E-3,2.1781409E-1,1.6466644E-2,-2.5418361E-3,-1.1869317E-3,-2.037918E-4,7.471141E-4,1.6783926E-3,2.8177798E-3,8.575195E-3,1.1866408E-2],"categories":[],"categories_nodes":[],"categories_segments":[],"categories_sizes":[],"default_left":[0,0,0,0,0,0,0,0,0,0,0,0,0,0,0,0,0,0,0,0,0,0,0,0,0,0,0,0,0,0,0,0,0],"id":31,"left_children":[1,3,5,7,9,11,13,-1,-1,15,17,19,21,23,-1,-1,-1,-1,25,27,29,-1,-1,31,-1,-1,-1,-1,-1,-1,-1,-1,-1],"loss_changes":[5.8035095E1,7.437687E0,6.97369E0,3.5095978E-1,1.4925051E0,8.5103154E-1,3.1491795E0,0E0,0E0,1.2310982E-2,2.1752095E-1,9.2796296E-2,6.215048E-2,1.0682755E0,0E0,0E0,0E0,0E0,2.2139117E-2,8.748211E-3,3.8989484E-3,0E0,0E0,5.8561325E-2,0E0,0E0,0E0,0E0,0E0,0E0,0E0,0E0,0E0],"parents":[2147483647,0,0,1,1,2,2,3,3,4,4,5,5,6,6,9,9,10,10,11,11,12,12,13,13,18,18,19,19,20,20,23,23],"right_children":[2,4,6,8,10,12,14,-1,-1,16,18,20,22,24,-1,-1,-1,-1,26,28,30,-1,-1,32,-1,-1,-1,-1,-1,-1,-1,-1,-1],"split_conditions":[-5.996128E-2,-1.144002E0,7.673761E-1,-1.5570008E0,-6.3681406E-1,2.9186973E-1,1.6420631E0,-1.9005055E-2,-1.3631853E-2,-8.2059544E-1,-3.6928734E-1,9.133785E-2,5.140923E-1,1.3178416E0,-1.813273E-2,-9.492012E-3,-6.844641E-3,-4.919915E-3,-2.3965418E-1,-3.7260998E-2,1.8626755E-1,4.5334743E-3,6.9367266E-3,9.661326E-1,1.6466644E-2,-2.5418361E-3,-1.1869317E-3,-2.037918E-4,7.471141E-4,1.6783926E-3,2.8177798E-3,8.575195E-3,1.1866408E-2],"split_indices":[9,9,5,9,5,3,2,0,0,6,7,7,6,9,0,0,0,0,4,3,8,0,0,6,0,0,0,0,0,0,0,0,0],"split_type":[0,0,0,0,0,0,0,0,0,0,0,0,0,0,0,0,0,0,0,0,0,0,0,0,0,0,0,0,0,0,0,0,0],"sum_hessian":[1.73E3,8.24E2,9.06E2,3.04E2,5.2E2,4.35E2,4.71E2,1.12E2,1.92E2,2.49E2,2.71E2,2.09E2,2.26E2,4.67E2,4E0,1.66E2,8.3E1,1.18E2,1.53E2,9.1E1,1.18E2,9.6E1,1.3E2,2.85E2,1.82E2,8.3E1,7E1,3.9E1,5.2E1,4.4E1,7.4E1,9.9E1,1.86E2],"tree_param":{"num_deleted":"0","num_feature":"10","num_nodes":"33","size_leaf_vector":"1"}},{"base_weights":[-3.7963353E-3,-1.8494184E-1,1.610309E-1,-3.0207303E-1,-1.1405264E-1,7.0999764E-2,2.3427151E-1,-1.9461617E-2,-1.3467972E-2,-1.6774897E-1,-6.4126685E-2,2.606026E-2,1.0457912E-1,2.4780473E-1,-2.3568412E-2,-9.070949E-3,-6.559235E-3,-4.6939394E-3,-3.893592E-2,5.9833727E-3,2.093266E-3,3.9916253E-3,6.040022E-3,1.9493377E-1,3.040681E-1,-2.4419746E-3,-1.1498588E-3,-3.2031798E-4,5.5075245E-4,8.018154E-3,1.0842282E-2,1.3324305E-2,1.8123424E-2],"categories":[],"categories_nodes":[],"categories_segments":[],"categories_sizes":[],"default_left":[0,0,0,0,0,0,0,0,0,0,0,0,0,0,0,0,0,0,0,0,0,0,0,0,0,0,0,0,0,0,0,0,0],"id":32,"left_children":[1,3,5,7,9,11,13,-1,-1,15,17,19,21,23,-1,-1,-1,-1,25,27,-1,-1,-1,29,31,-1,-1,-1,-1,-1,-1,-1,-1],"loss_changes":[5.12056E1,6.6115685E0,5.83819E0,3.4542847E-1,1.3322086E0,6.050794E-1,5.291979E0,0E0,0E0,3.961563E-3,1.8857968E-1,5.649911E-2,4.5312405E-2,1.1523113E0,0E0,0E0,0E0,0E0,1.9324541E-2,5.714169E-3,0E0,0E0,0E0,2.6869774E-2,1.5256882E-2,0E0,0E0,0E0,0E0,0E0,0E0,0E0,0E0],"parents":[2147483647,0,0,1,1,2,2,3,3,4,4,5,5,6,6,9,9,10,10,11,11,12,12,13,13,18,18,19,19,23,23,24,24],"right_children":[2,4,6,8,10,12,14,-1,-1,16,18,20,22,24,-1,-1,-1,-1,26,28,-1,-1,-1,30,32,-1,-1,-1,-1,-1,-1,-1,-1],"split_conditions":[-5.996128E-2,-1.144002E0,7.2614855E-1,-1.6621938E0,-6.524747E-1,2.2802895E-1,1.6420631E0,-1.9461617E-2,-1.3467972E-2,-8.7627286E-1,-3.9901638E-1,3.664828E-2,5.028492E-1,1.2134138E0,-2.3568412E-2,-9.070949E-3,-6.559235E-3,-4.6939394E-3,-2.1164824E-1,-4.6373595E-2,2.093266E-3,3.9916253E-3,6.040022E-3,9.42935E-1,1.5109035E0,-2.4419746E-3,-1.1498588E-3,-3.2031798E-4,5.5075245E-4,8.018154E-3,1.0842282E-2,1.3324305E-2,1.8123424E-2],"split_indices":[9,9,8,9,4,0,2,0,0,0,4,2,9,4,0,0,0,0,8,4,0,0,0,4,4,0,0,0,0,0,0,0,0],"split_type":[0,0,0,0,0,0,0,0,0,0,0,0,0,0,0,0,0,0,0,0,0,0,0,0,0,0,0,0,0,0,0,0,0],"sum_hessian":[1.705E3,8.12E2,8.93E2,3E2,5.12E2,4.05E2,4.88E2,6.7E1,2.33E2,2.41E2,2.71E2,1.77E2,2.28E2,4.82E2,6E0,1.61E2,8E1,1.18E2,1.53E2,8.1E1,9.6E1,1.02E2,1.26E2,2.6E2,2.22E2,8.8E1,6.5E1,2.3E1,5.8E1,1.17E2,1.43E2,1.52E2,7E1],"tree_param":{"num_deleted":"0","num_feature":"10","num_nodes":"33","size_leaf_vector":"1"}},{"base_weights":[-4.2632637E-3,-1.7551619E-1,1.4461097E-1,-2.7602604E-1,-1.0515274E-1,1.5453061E-1,-2.3361977E-2,-1.5984906E-2,-1.1382903E-2,-1.3968243E-1,-4.8591938E-2,8.3329536E-2,2.599993E-1,-7.928735E-3,-5.1526553E-3,-3.1335019E-3,-3.0189723E-2,3.0275537E-2,1.2473341E-1,1.1527886E-2,1.7467907E-2,-1.612205E-3,-6.9056556E-4,1.8451468E-4,2.4926525E-3,4.7935788E-3,7.3822136E-3],"categories":[],"categories_nodes":[],"categories_segments":[],"categories_sizes":[],"default_left":[0,0,0,0,0,0,0,0,0,0,0,0,0,0,0,0,0,0,0,0,0,0,0,0,0,0,0],"id":33,"left_children":[1,3,5,7,9,11,-1,-1,-1,13,15,17,19,-1,-1,-1,21,23,25,-1,-1,-1,-1,-1,-1,-1,-1],"loss_changes":[4.408054E1,5.5409393E0,5.975151E0,3.2893753E-1,9.0546894E-1,6.7553406E0,0E0,0E0,0E0,1.2312746E-1,3.9763004E-2,1.1958604E0,5.601616E-1,0E0,0E0,0E0,8.6889416E-4,1.2867792E-1,1.3355112E-1,0E0,0E0,0E0,0E0,0E0,0E0,0E0,0E0],"parents":[2147483647,0,0,1,1,2,2,3,3,4,4,5,5,9,9,10,10,11,11,12,12,16,16,17,17,18,18],"right_children":[2,4,6,8,10,12,-1,-1,-1,14,16,18,20,-1,-1,-1,22,24,26,-1,-1,-1,-1,-1,-1,-1,-1],"split_conditions":[-1.0024E-1,-1.0847381E0,1.6664551E0,-1.4564519E0,-5.026038E-1,9.164934E-1,-2.3361977E-2,-1.5984906E-2,-1.1382903E-2,-7.411256E-1,-2.8797925E-1,3.0199593E-1,1.5071425E0,-7.928735E-3,-5.1526553E-3,-3.1335019E-3,-1.9884019E-1,4.833545E-2,5.883507E-1,1.1527886E-2,1.7467907E-2,-1.612205E-3,-6.9056556E-4,1.8451468E-4,2.4926525E-3,4.7935788E-3,7.3822136E-3],"split_indices":[8,8,5,8,2,2,0,0,0,2,6,0,6,0,0,0,0,1,1,0,0,0,0,0,0,0,0],"split_type":[0,0,0,0,0,0,0,0,0,0,0,0,0,0,0,0,0,0,0,0,0,0,0,0,0,0,0],"sum_hessian":[1.719E3,7.99E2,9.2E2,3.23E2,4.76E2,9.09E2,1.1E1,1.55E2,1.68E2,2.91E2,1.85E2,5.48E2,3.61E2,1.81E2,1.1E2,9.8E1,8.7E1,2.44E2,3.04E2,2.85E2,7.6E1,7.3E1,1.4E1,1.06E2,1.38E2,1.46E2,1.58E2],"tree_param":{"num_deleted":"0","num_feature":"10","num_nodes":"27","size_leaf_vector":"1"}},{"base_weights":[1.3162448E-3,-1.6297644E-1,1.5084808E-1,-2.5309834E-1,-7.929796E-2,7.6993406E-2,2.2549553E-1,-1.5217154E-2,-9.855545E-3,-1.1652908E-1,-3.5047516E-2,3.3205997E-2,1.11408986E-1,2.3434223E-1,-1.671254E-2,-6.6264756E-3,-4.555368E-3,-2.4233453E-3,-1.883018E-2,1.4300793E-2,4.8201565E-2,4.2956294E-3,6.473314E-3,9.622416E-3,2.838799E-1,-1.2084099E-3,-5.063028E-4,1.9826154E-4,1.0028093E-3,1.6491626E-3,2.7202368E-3,1.4343547E-2,-3.8223607E-6],"categories":[],"categories_nodes":[],"categories_segments":[],"categories_sizes":[],"default_left":[0,0,0,0,0,0,0,0,0,0,0,0,0,0,0,0,0,0,0,0,0,0,0,0,0,0,0,0,0,0,0,0,0],"id":34,"left_children":[1,3,5,7,9,11,13,-1,-1,15,17,19,21,23,-1,-1,-1,-1,25,27,29,-1,-1,-1,31,-1,-1,-1,-1,-1,-1,-1,-1],"loss_changes":[4.232901E1,6.0910244E0,4.885975E0,8.2759476E-1,6.929443E-1,6.7621565E-1,2.600195E0,0E0,0E0,3.440261E-2,4.005027E-2,5.608721E-2,6.2247276E-2,6.441345E-1,0E0,0E0,0E0,0E0,3.4690946E-3,5.55088E-3,1.8839836E-3,0E0,0E0,0E0,1.631794E-1,0E0,0E0,0E0,0E0,0E0,0E0,0E0,0E0],"parents":[2147483647,0,0,1,1,2,2,3,3,4,4,5,5,6,6,9,9,10,10,11,11,12,12,13,13,18,18,19,19,20,20,24,24],"right_children":[2,4,6,8,10,12,14,-1,-1,16,18,20,22,24,-1,-1,-1,-1,26,28,30,-1,-1,-1,32,-1,-1,-1,-1,-1,-1,-1,-1],"split_conditions":[-1.6818196E-2,-9.239206E-1,8.07781E-1,-1.3828384E0,-4.0667242E-1,3.0426815E-1,1.6274635E0,-1.5217154E-2,-9.855545E-3,-6.986812E-1,-2.2365707E-1,1.3304254E-1,5.256608E-1,1.2640544E0,-1.671254E-2,-6.6264756E-3,-4.555368E-3,-2.4233453E-3,-1.4523529E-1,3.0914178E-2,1.7768463E-1,4.2956294E-3,6.473314E-3,9.622416E-3,1.6420631E0,-1.2084099E-3,-5.063028E-4,1.9826154E-4,1.0028093E-3,1.6491626E-3,2.7202368E-3,1.4343547E-2,-3.8223607E-6],"split_indices":[9,9,2,9,7,2,0,0,0,1,7,7,0,1,0,0,0,0,4,7,2,0,0,0,2,0,0,0,0,0,0,0,0],"split_type":[0,0,0,0,0,0,0,0,0,0,0,0,0,0,0,0,0,0,0,0,0,0,0,0,0,0,0,0,0,0,0,0,0],"sum_hessian":[1.713E3,8.16E2,8.97E2,3.88E2,4.28E2,4.56E2,4.41E2,1.91E2,1.97E2,2.28E2,2E2,2.05E2,2.51E2,4.37E2,4E0,1.27E2,1.01E2,1.04E2,9.6E1,9.5E1,1.1E2,1.16E2,1.35E2,2.5E2,1.87E2,5.4E1,4.2E1,3.7E1,5.8E1,4.1E1,6.9E1,1.85E2,2E0],"tree_param":{"num_deleted":"0","num_feature":"10","num_nodes":"33","size_leaf_vector":"1"}},{"base_weights":[1.4510809E-4,-1.553227E-1,1.4187941E-1,-2.5898066E-1,-9.396573E-2,7.699602E-2,2.1707444E-1,-1.7012423E-2,-1.1396515E-2,-1.3081652E-1,-3.898144E-2,3.1336557E-2,1.0819436E-1,2.2947873E-1,-2.0436095E-2,-7.65004E-3,-5.050899E-3,-2.821742E-3,-2.3052784E-2,1.1801223E-2,4.6961345E-2,4.2200517E-3,6.4190603E-3,2.0467818E-1,1.6207268E-2,-1.4430577E-3,-5.608702E-4,7.5133554E-5,9.415249E-4,1.6439973E-3,2.6983172E-3,8.011631E-3,1.1029988E-2],"categories":[],"categories_nodes":[],"categories_segments":[],"categories_sizes":[],"default_left":[0,0,0,0,0,0,0,0,0,0,0,0,0,0,0,0,0,0,0,0,0,0,0,0,0,0,0,0,0,0,0,0,0],"id":35,"left_children":[1,3,5,7,9,11,13,-1,-1,15,17,19,21,23,-1,-1,-1,-1,25,27,29,-1,-1,31,-1,-1,-1,-1,-1,-1,-1,-1,-1],"loss_changes":[3.862758E1,5.1953964E0,4.3903885E0,3.8944054E-1,1.0544748E0,6.952977E-1,3.7447681E0,0E0,0E0,1.3227654E-1,5.4935127E-2,6.1328426E-2,8.75144E-2,6.472969E-1,0E0,0E0,0E0,0E0,6.9055483E-3,7.097656E-3,2.4715662E-3,0E0,0E0,6.669235E-2,0E0,0E0,0E0,0E0,0E0,0E0,0E0,0E0,0E0],"parents":[2147483647,0,0,1,1,2,2,3,3,4,4,5,5,6,6,9,9,10,10,11,11,12,12,13,13,18,18,19,19,20,20,23,23],"right_children":[2,4,6,8,10,12,14,-1,-1,16,18,20,22,24,-1,-1,-1,-1,26,28,30,-1,-1,32,-1,-1,-1,-1,-1,-1,-1,-1,-1],"split_conditions":[-3.3838287E-2,-1.1290076E0,8.606356E-1,-1.6621938E0,-5.026038E-1,3.7162134E-1,1.6664551E0,-1.7012423E-2,-1.1396515E-2,-8.034287E-1,-2.5607857E-1,1.4438848E-1,6.295605E-1,1.4958297E0,-2.0436095E-2,-7.65004E-3,-5.050899E-3,-2.821742E-3,-1.5781558E-1,-1.1594589E-2,2.1774265E-1,4.2200517E-3,6.4190603E-3,1.1075124E0,1.6207268E-2,-1.4430577E-3,-5.608702E-4,7.5133554E-5,9.415249E-4,1.6439973E-3,2.6983172E-3,8.011631E-3,1.1029988E-2],"split_indices":[9,9,3,9,2,9,5,0,0,5,9,9,9,3,0,0,0,0,5,2,6,0,0,9,0,0,0,0,0,0,0,0,0],"split_type":[0,0,0,0,0,0,0,0,0,0,0,0,0,0,0,0,0,0,0,0,0,0,0,0,0,0,0,0,0,0,0,0,0],"sum_hessian":[1.743E3,8.31E2,9.12E2,3.03E2,5.28E2,4.95E2,4.17E2,7E1,2.33E2,3.12E2,2.16E2,2.05E2,2.9E2,4.12E2,5E0,1.67E2,1.45E2,9.7E1,1.19E2,9.5E1,1.1E2,1.45E2,1.45E2,3.39E2,7.3E1,7.5E1,4.4E1,4.1E1,5.4E1,4.6E1,6.4E1,1.04E2,2.35E2],"tree_param":{"num_deleted":"0","num_feature":"10","num_nodes":"33","size_leaf_vector":"1"}},{"base_weights":[-2.6047807E-3,-1.5133984E-1,1.3183059E-1,-2.5412843E-1,-9.448627E-2,6.09205E-2,1.9580023E-1,-1.6368154E-2,-1.1082481E-2,-1.3792674E-1,-5.13802E-2,2.252754E-2,8.930141E-2,2.0640716E-1,-1.9925194E-2,-7.4712983E-3,-5.3284434E-3,-3.811085E-3,-3.098818E-2,3.0081107E-3,3.437525E-2,3.3545487E-3,5.1709623E-3,1.7428268E-1,1.3883054E-2,-1.9126557E-3,-9.17321E-4,-2.8138765E-4,4.0658895E-4,1.1314534E-3,1.9656422E-3,6.7386585E-3,9.71067E-3],"categories":[],"categories_nodes":[],"categories_segments":[],"categories_sizes":[],"default_left":[0,0,0,0,0,0,0,0,0,0,0,0,0,0,0,0,0,0,0,0,0,0,0,0,0,0,0,0,0,0,0,0,0],"id":36,"left_children":[1,3,5,7,9,11,13,-1,-1,15,17,19,21,23,-1,-1,-1,-1,25,27,29,-1,-1,31,-1,-1,-1,-1,-1,-1,-1,-1,-1],"loss_changes":[3.441161E1,4.6544075E0,4.040987E0,3.222294E-1,9.645071E-1,4.650184E-1,3.3929367E0,0E0,0E0,1.5214443E-2,1.28003E-1,4.3885015E-2,4.338467E-2,8.292923E-1,0E0,0E0,0E0,0E0,1.1185616E-2,3.6801076E-3,2.4536848E-3,0E0,0E0,1.3371086E-1,0E0,0E0,0E0,0E0,0E0,0E0,0E0,0E0,0E0],"parents":[2147483647,0,0,1,1,2,2,3,3,4,4,5,5,6,6,9,9,10,10,11,11,12,12,13,13,18,18,19,19,20,20,23,23],"right_children":[2,4,6,8,10,12,14,-1,-1,16,18,20,22,24,-1,-1,-1,-1,26,28,30,-1,-1,32,-1,-1,-1,-1,-1,-1,-1,-1,-1],"split_conditions":[-5.996128E-2,-1.172041E0,7.3955506E-1,-1.6621938E0,-6.801414E-1,2.950507E-1,1.6664551E0,-1.6368154E-2,-1.1082481E-2,-8.7627286E-1,-4.286207E-1,7.6871246E-2,5.167322E-1,1.3827536E0,-1.9925194E-2,-7.4712983E-3,-5.3284434E-3,-3.811085E-3,-2.1176937E-1,-2.0381272E-2,9.020547E-2,3.3545487E-3,5.1709623E-3,9.8259E-1,1.3883054E-2,-1.9126557E-3,-9.17321E-4,-2.8138765E-4,4.0658895E-4,1.1314534E-3,1.9656422E-3,6.7386585E-3,9.71067E-3],"split_indices":[9,9,6,9,0,7,5,0,0,0,0,8,9,4,0,0,0,0,6,7,0,0,0,5,0,0,0,0,0,0,0,0,0],"split_type":[0,0,0,0,0,0,0,0,0,0,0,0,0,0,0,0,0,0,0,0,0,0,0,0,0,0,0,0,0,0,0,0,0],"sum_hessian":[1.711E3,8.12E2,8.99E2,2.83E2,5.29E2,4.31E2,4.68E2,7.3E1,2.1E2,2.58E2,2.71E2,1.87E2,2.44E2,4.63E2,5E0,1.75E2,8.3E1,1.16E2,1.55E2,7.3E1,1.14E2,1.06E2,1.38E2,3.31E2,1.32E2,9.2E1,6.3E1,2.7E1,4.6E1,4.2E1,7.2E1,1.24E2,2.07E2],"tree_param":{"num_deleted":"0","num_feature":"10","num_nodes":"33","size_leaf_vector":"1"}},{"base_weights":[4.4833907E-4,-1.401771E-1,1.2962686E-1,-2.1292417E-1,-6.937547E-2,5.868815E-2,1.8288143E-1,-1.3381216E-2,-8.578556E-3,-1.0175966E-1,-3.0399265E-2,2.4891917E-2,8.170431E-2,1.941414E-1,-2.0807885E-2,-5.759386E-3,-3.9271894E-3,-2.1774515E-3,-1.6683953E-2,7.58396E-3,3.3358514E-2,3.1367398E-3,4.713594E-3,1.5236197E-1,2.4256207E-1,-1.0832223E-3,-4.2045722E-4,1.2365158E-4,5.772902E-4,1.1312304E-3,1.9279517E-3,6.254842E-3,8.493148E-3,1.0545044E-2,1.5602765E-2],"categories":[],"categories_nodes":[],"categories_segments":[],"categories_sizes":[],"default_left":[0,0,0,0,0,0,0,0,0,0,0,0,0,0,0,0,0,0,0,0,0,0,0,0,0,0,0,0,0,0,0,0,0,0,0],"id":37,"left_children":[1,3,5,7,9,11,13,-1,-1,15,17,19,21,23,-1,-1,-1,-1,25,27,29,-1,-1,31,33,-1,-1,-1,-1,-1,-1,-1,-1,-1,-1],"loss_changes":[3.1263342E1,4.170244E0,3.3350315E0,6.8427277E-1,5.2097344E-1,2.94752E-1,3.8439999E0,0E0,0E0,2.6464462E-2,3.243777E-2,2.3060612E-2,2.549982E-2,8.347988E-1,0E0,0E0,0E0,0E0,3.457643E-3,1.0924046E-3,1.7784983E-3,0E0,0E0,2.9269218E-2,1.6598988E-1,0E0,0E0,0E0,0E0,0E0,0E0,0E0,0E0,0E0,0E0],"parents":[2147483647,0,0,1,1,2,2,3,3,4,4,5,5,6,6,9,9,10,10,11,11,12,12,13,13,18,18,19,19,20,20,23,23,24,24],"right_children":[2,4,6,8,10,12,14,-1,-1,16,18,20,22,24,-1,-1,-1,-1,26,28,30,-1,-1,32,34,-1,-1,-1,-1,-1,-1,-1,-1,-1,-1],"split_conditions":[-1.6818196E-2,-9.239206E-1,6.582011E-1,-1.428252E0,-4.0549174E-1,2.4052155E-1,1.6664551E0,-1.3381216E-2,-8.578556E-3,-6.565767E-1,-2.3572612E-1,7.778613E-2,5.028492E-1,1.2036989E0,-2.0807885E-2,-5.759386E-3,-3.9271894E-3,-2.1774515E-3,-1.0047836E-1,3.2727383E-2,1.4458986E-1,3.1367398E-3,4.713594E-3,9.422925E-1,1.555712E0,-1.0832223E-3,-4.2045722E-4,1.2365158E-4,5.772902E-4,1.1312304E-3,1.9279517E-3,6.254842E-3,8.493148E-3,1.0545044E-2,1.5602765E-2],"split_indices":[9,9,0,9,9,0,5,0,0,6,7,7,9,2,0,0,0,0,9,8,5,0,0,3,6,0,0,0,0,0,0,0,0,0,0],"split_type":[0,0,0,0,0,0,0,0,0,0,0,0,0,0,0,0,0,0,0,0,0,0,0,0,0,0,0,0,0,0,0,0,0,0,0],"sum_hessian":[1.711E3,8.19E2,8.92E2,3.99E2,4.2E2,3.87E2,5.05E2,1.6E2,2.39E2,2.25E2,1.95E2,1.61E2,2.26E2,4.99E2,6E0,1.3E2,9.5E1,9.4E1,1.01E2,5.6E1,1.05E2,1.02E2,1.24E2,2.79E2,2.2E2,5.8E1,4.3E1,2.8E1,2.8E1,4.3E1,6.2E1,1.25E2,1.54E2,1.65E2,5.5E1],"tree_param":{"num_deleted":"0","num_feature":"10","num_nodes":"35","size_leaf_vector":"1"}},{"base_weights":[-3.6363334E-3,-1.4051281E-1,1.16900936E-1,-2.2929768E-1,-8.863604E-2,4.574324E-2,1.7131042E-1,-1.4968738E-2,-1.0137716E-2,-1.24964304E-1,-4.914519E-2,1.4414862E-2,7.185492E-2,1.8039161E-1,-1.8874241E-2,-6.752688E-3,-4.8921467E-3,-3.4903847E-3,-2.996388E-2,-5.161159E-4,2.5881412E-2,2.752921E-3,4.107459E-3,6.7523355E-3,2.2308852E-1,-1.8009214E-3,-9.932783E-4,-3.3553163E-4,2.7348552E-4,7.604506E-4,1.4617018E-3,9.858101E-3,1.4056197E-2],"categories":[],"categories_nodes":[],"categories_segments":[],"categories_sizes":[],"default_left":[0,0,0,0,0,0,0,0,0,0,0,0,0,0,0,0,0,0,0,0,0,0,0,0,0,0,0,0,0,0,0,0,0],"id":38,"left_children":[1,3,5,7,9,11,13,-1,-1,15,17,19,21,23,-1,-1,-1,-1,25,27,29,-1,-1,-1,31,-1,-1,-1,-1,-1,-1,-1,-1],"loss_changes":[2.8294935E1,3.5968943E0,3.491768E0,2.4150658E-1,7.081289E-1,3.2367176E-1,2.9070845E0,0E0,0E0,6.444931E-3,9.060663E-2,3.2424867E-2,1.5078902E-2,8.367672E-1,0E0,0E0,0E0,0E0,5.0432086E-3,3.409425E-3,1.6054139E-3,0E0,0E0,0E0,1.06552124E-1,0E0,0E0,0E0,0E0,0E0,0E0,0E0,0E0],"parents":[2147483647,0,0,1,1,2,2,3,3,4,4,5,5,6,6,9,9,10,10,11,11,12,12,13,13,18,18,19,19,20,20,24,24],"right_children":[2,4,6,8,10,12,14,-1,-1,16,18,20,22,24,-1,-1,-1,-1,26,28,30,-1,-1,-1,32,-1,-1,-1,-1,-1,-1,-1,-1],"split_conditions":[-8.975598E-2,-1.172041E0,6.2465304E-1,-1.6748412E0,-6.8006194E-1,2.2743829E-1,1.6420631E0,-1.4968738E-2,-1.0137716E-2,-8.622709E-1,-3.9901638E-1,-1.3473674E-2,4.2208958E-1,1.1426569E0,-1.8874241E-2,-6.752688E-3,-4.8921467E-3,-3.4903847E-3,-2.0798898E-1,-7.46966E-2,1.0197423E-1,2.752921E-3,4.107459E-3,6.7523355E-3,1.5107906E0,-1.8009214E-3,-9.932783E-4,-3.3553163E-4,2.7348552E-4,7.604506E-4,1.4617018E-3,9.858101E-3,1.4056197E-2],"split_indices":[9,9,1,9,1,4,2,0,0,2,4,0,4,2,0,0,0,0,9,1,7,0,0,0,2,0,0,0,0,0,0,0,0],"split_type":[0,0,0,0,0,0,0,0,0,0,0,0,0,0,0,0,0,0,0,0,0,0,0,0,0,0,0,0,0,0,0,0,0],"sum_hessian":[1.705E3,7.98E2,9.07E2,2.88E2,5.1E2,3.97E2,5.1E2,6.5E1,2.23E2,2.6E2,2.5E2,1.84E2,2.13E2,5.05E2,5E0,1.75E2,8.5E1,1.14E2,1.36E2,8.2E1,1.02E2,9.3E1,1.2E2,2.55E2,2.5E2,7.7E1,5.9E1,4E1,4.2E1,3.1E1,7.1E1,1.88E2,6.2E1],"tree_param":{"num_deleted":"0","num_feature":"10","num_nodes":"33","size_leaf_vector":"1"}},{"base_weights":[-2.4626455E-3,-1.3347554E-1,1.0870904E-1,-2.189387E-1,-8.4302455E-2,4.1288197E-2,1.5809973E-1,-1.4277807E-2,-9.632758E-3,-1.1512869E-1,-4.5372624E-2,1.2346871E-2,6.442334E-2,1.6838814E-1,-1.9725645E-2,-6.3533946E-3,-4.5162514E-3,-3.2680295E-3,-2.959536E-2,-1.8260744E-3,2.3382714E-2,2.4537554E-3,3.7159433E-3,1.2835789E-1,2.1465121E-1,-1.7894165E-3,-1.0385447E-3,-3.6452943E-4,2.1881299E-4,6.31373E-4,1.2872341E-3,5.500691E-3,7.349528E-3,9.420203E-3,1.399259E-2],"categories":[],"categories_nodes":[],"categories_segments":[],"categories_sizes":[],"default_left":[0,0,0,0,0,0,0,0,0,0,0,0,0,0,0,0,0,0,0,0,0,0,0,0,0,0,0,0,0,0,0,0,0,0,0],"id":39,"left_children":[1,3,5,7,9,11,13,-1,-1,15,17,19,21,23,-1,-1,-1,-1,25,27,29,-1,-1,31,33,-1,-1,-1,-1,-1,-1,-1,-1,-1,-1],"loss_changes":[2.4337713E1,3.1310215E0,2.9776478E0,2.0994186E-1,5.6791115E-1,2.5648242E-1,3.288618E0,0E0,0E0,2.3458004E-2,6.191379E-2,2.8210951E-2,1.4417887E-2,8.1412697E-1,0E0,0E0,0E0,0E0,3.7155747E-3,2.9726254E-3,9.403117E-4,0E0,0E0,1.7582893E-2,1.3169098E-1,0E0,0E0,0E0,0E0,0E0,0E0,0E0,0E0,0E0,0E0],"parents":[2147483647,0,0,1,1,2,2,3,3,4,4,5,5,6,6,9,9,10,10,11,11,12,12,13,13,18,18,19,19,20,20,23,23,24,24],"right_children":[2,4,6,8,10,12,14,-1,-1,16,18,20,22,24,-1,-1,-1,-1,26,28,30,-1,-1,32,34,-1,-1,-1,-1,-1,-1,-1,-1,-1,-1],"split_conditions":[-1.0047836E-1,-1.172041E0,5.9921736E-1,-1.6748412E0,-6.337545E-1,2.1773535E-1,1.6664551E0,-1.4277807E-2,-9.632758E-3,-8.039233E-1,-4.1304275E-1,4.1078214E-2,3.5634542E-1,1.1929587E0,-1.9725645E-2,-6.3533946E-3,-4.5162514E-3,-3.2680295E-3,-2.456775E-1,-8.715466E-2,6.326733E-2,2.4537554E-3,3.7159433E-3,9.2870694E-1,1.5173721E0,-1.7894165E-3,-1.0385447E-3,-3.6452943E-4,2.1881299E-4,6.31373E-4,1.2872341E-3,5.500691E-3,7.349528E-3,9.420203E-3,1.399259E-2],"split_indices":[9,9,1,9,1,5,5,0,0,7,3,7,0,7,0,0,0,0,7,0,4,0,0,3,1,0,0,0,0,0,0,0,0,0,0],"split_type":[0,0,0,0,0,0,0,0,0,0,0,0,0,0,0,0,0,0,0,0,0,0,0,0,0,0,0,0,0,0,0,0,0,0,0],"sum_hessian":[1.661E3,7.62E2,8.99E2,2.72E2,4.9E2,3.84E2,5.15E2,6.3E1,2.09E2,2.68E2,2.22E2,1.74E2,2.1E2,5.09E2,6E0,1.67E2,1.01E2,9.1E1,1.31E2,7.8E1,9.6E1,9.4E1,1.16E2,2.83E2,2.26E2,6.8E1,6.3E1,4.1E1,3.7E1,2.3E1,7.3E1,1.6E2,1.23E2,1.75E2,5.1E1],"tree_param":{"num_deleted":"0","num_feature":"10","num_nodes":"35","size_leaf_vector":"1"}},{"base_weights":[5.9173144E-6,-1.20651625E-1,1.11771435E-1,-1.996144E-1,-7.0146695E-2,6.53805E-2,1.7628187E-1,-1.2938208E-2,-8.6310655E-3,-9.7055845E-2,-2.7591275E-2,3.228725E-2,9.554705E-2,1.863899E-1,-1.6410997E-2,-5.601419E-3,-3.5812303E-3,-1.9886359E-3,-1.6336784E-2,1.4216173E-2,4.7957767E-2,3.653703E-3,5.264533E-3,8.280091E-3,1.3278059E-2,-1.057465E-3,-4.2825998E-4,1.7661859E-4,1.0174396E-3,1.528133E-3,2.5736217E-3],"categories":[],"categories_nodes":[],"categories_segments":[],"categories_sizes":[],"default_left":[0,0,0,0,0,0,0,0,0,0,0,0,0,0,0,0,0,0,0,0,0,0,0,0,0,0,0,0,0,0,0],"id":40,"left_children":[1,3,5,7,9,11,13,-1,-1,15,17,19,21,23,-1,-1,-1,-1,25,27,29,-1,-1,-1,-1,-1,-1,-1,-1,-1,-1],"loss_changes":[2.2911615E1,3.1881914E0,2.581934E0,2.8119564E-1,5.660465E-1,5.0469446E-1,2.172308E0,0E0,0E0,7.715726E-2,2.4581686E-2,6.9086015E-2,2.065134E-2,3.758993E-1,0E0,0E0,0E0,0E0,3.3579618E-3,7.896081E-3,3.8796663E-4,0E0,0E0,0E0,0E0,0E0,0E0,0E0,0E0,0E0,0E0],"parents":[2147483647,0,0,1,1,2,2,3,3,4,4,5,5,6,6,9,9,10,10,11,11,12,12,13,13,18,18,19,19,20,20],"right_children":[2,4,6,8,10,12,14,-1,-1,16,18,20,22,24,-1,-1,-1,-1,26,28,30,-1,-1,-1,-1,-1,-1,-1,-1,-1,-1],"split_conditions":[-1.6818196E-2,-1.0853612E0,9.6903336E-1,-1.6115477E0,-4.0549174E-1,4.9072868E-1,1.6664551E0,-1.2938208E-2,-8.6310655E-3,-7.4033535E-1,-2.4522899E-1,2.16964E-1,6.133385E-1,1.4983501E0,-1.6410997E-2,-5.601419E-3,-3.5812303E-3,-1.9886359E-3,-1.5781558E-1,-6.0368975E-4,1.9619799E-1,3.653703E-3,5.264533E-3,8.280091E-3,1.3278059E-2,-1.057465E-3,-4.2825998E-4,1.7661859E-4,1.0174396E-3,1.528133E-3,2.5736217E-3],"split_indices":[9,9,8,9,9,9,5,0,0,1,8,9,3,1,0,0,0,0,5,1,0,0,0,0,0,0,0,0,0,0,0],"split_type":[0,0,0,0,0,0,0,0,0,0,0,0,0,0,0,0,0,0,0,0,0,0,0,0,0,0,0,0,0,0,0],"sum_hessian":[1.689E3,8.12E2,8.77E2,3.11E2,5.01E2,5.16E2,3.61E2,8.4E1,2.27E2,3.03E2,1.98E2,2.51E2,2.65E2,3.57E2,4E0,1.8E2,1.23E2,8.9E1,1.09E2,1.21E2,1.3E2,9.3E1,1.72E2,2.95E2,6.2E1,6.2E1,4.7E1,4.7E1,7.4E1,3E1,1E2],"tree_param":{"num_deleted":"0","num_feature":"10","num_nodes":"31","size_leaf_vector":"1"}},{"base_weights":[-7.092346E-4,-1.1859155E-1,1.0301032E-1,-1.9834255E-1,-7.593155E-2,5.5605423E-2,1.6485916E-1,-1.3205941E-2,-8.911899E-3,-1.0732002E-1,-4.10033E-2,2.0252988E-2,8.07063E-2,1.7295595E-1,-1.3744545E-2,-5.8662277E-3,-4.213817E-3,-5.7442013E-2,-2.178534E-2,4.809266E-3,3.1527262E-2,3.0696802E-3,4.729794E-3,7.4809003E-3,2.2102915E-1,-3.1076998E-3,-1.8877004E-3,-1.2902356E-3,-5.289455E-4,-1.0589118E-4,5.1103695E-4,1.0344699E-3,1.8574186E-3,1.1218342E-2,4.3973498E-4],"categories":[],"categories_nodes":[],"categories_segments":[],"categories_sizes":[],"default_left":[0,0,0,0,0,0,0,0,0,0,0,0,0,0,0,0,0,0,0,0,0,0,0,0,0,0,0,0,0,0,0,0,0,0,0],"id":41,"left_children":[1,3,5,7,9,11,13,-1,-1,15,17,19,21,23,-1,-1,-1,25,27,29,31,-1,-1,-1,33,-1,-1,-1,-1,-1,-1,-1,-1,-1,-1],"loss_changes":[2.0846474E1,2.639636E0,2.6134338E0,1.2828064E-1,5.5686736E-1,4.5415092E-1,1.629899E0,0E0,0E0,1.39603615E-2,7.525003E-2,3.806992E-2,5.224037E-2,2.6883602E-1,0E0,0E0,0E0,8.8378787E-4,4.3555126E-3,3.8568042E-3,3.954977E-3,0E0,0E0,0E0,7.2304726E-2,0E0,0E0,0E0,0E0,0E0,0E0,0E0,0E0,0E0,0E0],"parents":[2147483647,0,0,1,1,2,2,3,3,4,4,5,5,6,6,9,9,10,10,11,11,12,12,13,13,17,17,18,18,19,19,20,20,24,24],"right_children":[2,4,6,8,10,12,14,-1,-1,16,18,20,22,24,-1,-1,-1,26,28,30,32,-1,-1,-1,34,-1,-1,-1,-1,-1,-1,-1,-1,-1,-1],"split_conditions":[-5.996128E-2,-1.1892296E0,8.896403E-1,-1.6916312E0,-6.512644E-1,3.1947E-1,1.6528655E0,-1.3205941E-2,-8.911899E-3,-8.6171913E-1,-3.4986645E-1,5.1982928E-2,5.651759E-1,1.4172341E0,-1.3744545E-2,-5.8662277E-3,-4.213817E-3,-4.5515645E-1,-2.1253937E-1,-3.5617825E-2,1.4354472E-1,3.0696802E-3,4.729794E-3,7.4809003E-3,1.6420631E0,-3.1076998E-3,-1.8877004E-3,-1.2902356E-3,-5.289455E-4,-1.0589118E-4,5.1103695E-4,1.0344699E-3,1.8574186E-3,1.1218342E-2,4.3973498E-4],"split_indices":[9,9,4,9,3,4,3,0,0,3,6,2,3,2,0,0,0,1,1,2,1,0,0,0,2,0,0,0,0,0,0,0,0,0,0],"split_type":[0,0,0,0,0,0,0,0,0,0,0,0,0,0,0,0,0,0,0,0,0,0,0,0,0,0,0,0,0,0,0,0,0,0,0],"sum_hessian":[1.695E3,7.93E2,9.02E2,2.7E2,5.23E2,5.16E2,3.86E2,4.9E1,2.21E2,2.7E2,2.53E2,2.18E2,2.98E2,3.82E2,4E0,1.74E2,9.6E1,1.31E2,1.22E2,9.5E1,1.23E2,1.36E2,1.62E2,2.71E2,1.11E2,9.7E1,3.4E1,8.5E1,3.7E1,4.3E1,5.2E1,5E1,7.3E1,1.09E2,2E0],"tree_param":{"num_deleted":"0","num_feature":"10","num_nodes":"35","size_leaf_vector":"1"}},{"base_weights":[-9.3526416E-4,-1.0772806E-1,1.013419E-1,-1.74392E-1,-5.87396E-2,5.8731068E-2,1.575231E-1,-1.0997549E-2,-7.2395406E-3,-8.39413E-2,-2.3995103E-2,3.1590994E-2,8.644031E-2,1.665114E-1,-1.2645341E-2,-4.7904826E-3,-3.1413788E-3,-1.7514601E-3,-1.3258432E-2,1.4909345E-2,2.2748034E-3,3.3597057E-3,4.7489638E-3,7.3204623E-3,1.1076445E-2,-8.9282106E-4,-3.2677662E-4,2.5328694E-4,1.0001219E-3],"categories":[],"categories_nodes":[],"categories_segments":[],"categories_sizes":[],"default_left":[0,0,0,0,0,0,0,0,0,0,0,0,0,0,0,0,0,0,0,0,0,0,0,0,0,0,0,0,0],"id":42,"left_children":[1,3,5,7,9,11,13,-1,-1,15,17,19,21,23,-1,-1,-1,-1,25,27,-1,-1,-1,-1,-1,-1,-1,-1,-1],"loss_changes":[1.8688313E1,2.6822262E0,2.0460348E0,3.154726E-1,4.1898286E-1,3.661219E-1,1.590271E0,0E0,0E0,4.0567756E-2,2.291184E-2,5.761376E-2,8.68237E-3,2.4593353E-1,0E0,0E0,0E0,0E0,3.0022655E-3,5.860433E-3,0E0,0E0,0E0,0E0,0E0,0E0,0E0,0E0,0E0],"parents":[2147483647,0,0,1,1,2,2,3,3,4,4,5,5,6,6,9,9,10,10,11,11,12,12,13,13,18,18,19,19],"right_children":[2,4,6,8,10,12,14,-1,-1,16,18,20,22,24,-1,-1,-1,-1,26,28,-1,-1,-1,-1,-1,-1,-1,-1,-1],"split_conditions":[-5.512265E-3,-1.0112544E0,9.42935E-1,-1.518443E0,-4.0549174E-1,5.028492E-1,1.6806775E0,-1.0997549E-2,-7.2395406E-3,-7.2943664E-1,-2.456775E-1,1.6305211E-1,6.133385E-1,1.5046345E0,-1.2645341E-2,-4.7904826E-3,-3.1413788E-3,-1.7514601E-3,-1.3240124E-1,-2.0119692E-3,2.2748034E-3,3.3597057E-3,4.7489638E-3,7.3204623E-3,1.1076445E-2,-8.9282106E-4,-3.2677662E-4,2.5328694E-4,1.0001219E-3],"split_indices":[9,9,4,9,9,9,7,0,0,0,7,0,3,7,0,0,0,0,7,0,0,0,0,0,0,0,0,0,0],"split_type":[0,0,0,0,0,0,0,0,0,0,0,0,0,0,0,0,0,0,0,0,0,0,0,0,0,0,0,0,0],"sum_hessian":[1.701E3,8.32E2,8.69E2,3.47E2,4.85E2,5E2,3.69E2,1.24E2,2.23E2,2.77E2,2.08E2,2.58E2,2.42E2,3.64E2,5E0,1.66E2,1.11E2,9.7E1,1.11E2,1.22E2,1.36E2,8.8E1,1.54E2,2.8E2,8.4E1,6.1E1,5E1,4.5E1,7.7E1],"tree_param":{"num_deleted":"0","num_feature":"10","num_nodes":"29","size_leaf_vector":"1"}},{"base_weights":[-3.6700536E-3,-1.10336274E-1,9.0686165E-2,-1.8200648E-1,-6.977346E-2,9.56508E-2,-1.8084848E-2,-1.2329406E-2,-7.970974E-3,-9.4614E-2,-3.549087E-2,5.21044E-2,1.6188225E-1,-5.286047E-3,-3.7328878E-3,-2.447645E-3,-2.0990137E-2,1.8308172E-2,7.854276E-2,7.2463066E-3,1.2211695E-2,-1.1986407E-3,-5.570155E-4,2.0760659E-4,1.6093549E-3,2.9377677E-3,4.530188E-3],"categories":[],"categories_nodes":[],"categories_segments":[],"categories_sizes":[],"default_left":[0,0,0,0,0,0,0,0,0,0,0,0,0,0,0,0,0,0,0,0,0,0,0,0,0,0,0],"id":43,"left_children":[1,3,5,7,9,11,-1,-1,-1,13,15,17,19,-1,-1,-1,21,23,25,-1,-1,-1,-1,-1,-1,-1,-1],"loss_changes":[1.7391373E1,2.294198E0,2.23249E0,2.2647E-1,4.311509E-1,2.5852785E0,0E0,0E0,0E0,2.7474642E-2,3.9565295E-2,4.904989E-1,3.2431602E-1,0E0,0E0,0E0,2.1607578E-3,4.864589E-2,4.76048E-2,0E0,0E0,0E0,0E0,0E0,0E0,0E0,0E0],"parents":[2147483647,0,0,1,1,2,2,3,3,4,4,5,5,9,9,10,10,11,11,12,12,16,16,17,17,18,18],"right_children":[2,4,6,8,10,12,-1,-1,-1,14,16,18,20,-1,-1,-1,22,24,26,-1,-1,-1,-1,-1,-1,-1,-1],"split_conditions":[-8.975598E-2,-1.1892296E0,1.6664551E0,-1.6916312E0,-5.4569036E-1,9.29414E-1,-1.8084848E-2,-1.2329406E-2,-7.970974E-3,-8.9085865E-1,-3.493806E-1,3.6897415E-1,1.5177985E0,-5.286047E-3,-3.7328878E-3,-2.447645E-3,-1.7165115E-1,1.164079E-1,6.29368E-1,7.2463066E-3,1.2211695E-2,-1.1986407E-3,-5.570155E-4,2.0760659E-4,1.6093549E-3,2.9377677E-3,4.530188E-3],"split_indices":[9,9,5,9,9,0,0,0,0,0,5,7,0,0,0,0,7,7,6,0,0,0,0,0,0,0,0],"split_type":[0,0,0,0,0,0,0,0,0,0,0,0,0,0,0,0,0,0,0,0,0,0,0,0,0,0,0],"sum_hessian":[1.718E3,8.06E2,9.12E2,2.85E2,5.21E2,9.06E2,6E0,6.1E1,2.24E2,2.97E2,2.24E2,5.52E2,3.54E2,1.77E2,1.2E2,1.1E2,1.14E2,2.46E2,3.06E2,3.05E2,4.9E1,8.2E1,3.2E1,1.25E2,1.21E2,1.27E2,1.79E2],"tree_param":{"num_deleted":"0","num_feature":"10","num_nodes":"27","size_leaf_vector":"1"}},{"base_weights":[-1.0370417E-3,-9.943245E-2,8.825765E-2,-1.7148368E-1,-6.241762E-2,9.315045E-2,-1.3807005E-2,-1.0972728E-2,-7.4951514E-3,-8.818357E-2,-2.8480383E-2,5.5003386E-2,1.5566432E-1,-4.9577192E-3,-3.4253595E-3,-2.1175707E-3,-1.6506128E-2,2.715594E-2,8.071334E-2,6.9075893E-3,1.059482E-2,-1.042681E-3,-4.3934086E-4,5.668931E-4,2.056979E-3,3.050155E-3,4.3849293E-3],"categories":[],"categories_nodes":[],"categories_segments":[],"categories_sizes":[],"default_left":[0,0,0,0,0,0,0,0,0,0,0,0,0,0,0,0,0,0,0,0,0,0,0,0,0,0,0],"id":44,"left_children":[1,3,5,7,9,11,-1,-1,-1,13,15,17,19,-1,-1,-1,21,23,25,-1,-1,-1,-1,-1,-1,-1,-1],"loss_changes":[1.4848604E1,2.0907216E0,1.7082863E0,1.15030766E-1,4.5875764E-1,2.0509748E0,0E0,0E0,0E0,3.1659126E-2,3.636758E-2,3.849646E-1,1.7860365E-1,0E0,0E0,0E0,3.6814883E-3,5.805388E-2,1.2489557E-2,0E0,0E0,0E0,0E0,0E0,0E0,0E0,0E0],"parents":[2147483647,0,0,1,1,2,2,3,3,4,4,5,5,9,9,10,10,11,11,12,12,16,16,17,17,18,18],"right_children":[2,4,6,8,10,12,-1,-1,-1,14,16,18,20,-1,-1,-1,22,24,26,-1,-1,-1,-1,-1,-1,-1,-1],"split_conditions":[-4.643517E-2,-1.1882417E0,1.6274635E0,-1.6624168E0,-5.855634E-1,1.0253124E0,-1.3807005E-2,-1.0972728E-2,-7.4951514E-3,-8.317087E-1,-3.3927333E-1,4.4591138E-1,1.4827392E0,-4.9577192E-3,-3.4253595E-3,-2.1175707E-3,-1.9984862E-1,1.8938619E-1,5.869632E-1,6.9075893E-3,1.059482E-2,-1.042681E-3,-4.3934086E-4,5.668931E-4,2.056979E-3,3.050155E-3,4.3849293E-3],"split_indices":[8,8,0,8,0,8,0,0,0,4,4,2,0,0,0,0,2,4,0,0,0,0,0,0,0,0,0],"split_type":[0,0,0,0,0,0,0,0,0,0,0,0,0,0,0,0,0,0,0,0,0,0,0,0,0,0,0],"sum_hessian":[1.68E3,7.99E2,8.81E2,2.65E2,5.34E2,8.73E2,8E0,6.8E1,1.97E2,2.99E2,2.35E2,5.48E2,3.25E2,1.79E2,1.2E2,1.03E2,1.32E2,2.68E2,2.8E2,2.61E2,6.4E1,7.9E1,5.3E1,1.3E2,1.38E2,8.6E1,1.94E2],"tree_param":{"num_deleted":"0","num_feature":"10","num_nodes":"27","size_leaf_vector":"1"}},{"base_weights":[-2.522214E-4,-9.181436E-2,8.508968E-2,-1.4075412E-1,-4.3411624E-2,9.058584E-2,-1.4420832E-2,-8.662456E-3,-5.3072874E-3,-6.5274075E-2,-1.9233195E-2,5.3888295E-2,1.5085237E-1,-3.7033476E-3,-2.6203403E-3,-2.5029084E-2,-8.871833E-3,2.647292E-2,7.740322E-2,6.7176805E-3,1.10266125E-2,-1.4763186E-3,-9.298416E-4,-5.442914E-4,-2.3061044E-4,6.5854675E-4,1.9439849E-3,2.8989485E-3,4.2083287E-3],"categories":[],"categories_nodes":[],"categories_segments":[],"categories_sizes":[],"default_left":[0,0,0,0,0,0,0,0,0,0,0,0,0,0,0,0,0,0,0,0,0,0,0,0,0,0,0,0,0],"id":45,"left_children":[1,3,5,7,9,11,-1,-1,-1,13,15,17,19,-1,-1,21,23,25,27,-1,-1,-1,-1,-1,-1,-1,-1,-1,-1],"loss_changes":[1.3330827E1,1.9189863E0,1.9432979E0,3.657627E-1,2.1626341E-1,1.8923216E0,0E0,0E0,0E0,5.3696632E-3,1.1320762E-2,3.4496808E-1,2.2893286E-1,0E0,0E0,1.0151193E-3,4.5242812E-4,4.067871E-2,1.4224172E-2,0E0,0E0,0E0,0E0,0E0,0E0,0E0,0E0,0E0,0E0],"parents":[2147483647,0,0,1,1,2,2,3,3,4,4,5,5,9,9,10,10,11,11,12,12,15,15,16,16,17,17,18,18],"right_children":[2,4,6,8,10,12,-1,-1,-1,14,16,18,20,-1,-1,22,24,26,28,-1,-1,-1,-1,-1,-1,-1,-1,-1,-1],"split_conditions":[-1.8697225E-2,-8.993265E-1,1.6274635E0,-1.3546087E0,-3.9131114E-1,9.8145694E-1,-1.4420832E-2,-8.662456E-3,-5.3072874E-3,-6.926104E-1,-2.4260655E-1,4.741617E-1,