{"learner":{"attributes":{"scikit_learn":"{\"_estimator_type\": \"regressor\"}"},"feature_names":[],"feature_types":[],"gradient_booster":{"model":{"gbtree_model_param":{"num_parallel_tree":"1","num_trees":"500"},"iteration_indptr":[0,1,2,3,4,5,6,7,8,9,10,11,12,13,14,15,16,17,18,19,20,21,22,23,24,25,26,27,28,29,30,31,32,33,34,35,36,37,38,39,40,41,42,43,44,45,46,47,48,49,50,51,52,53,54,55,56,57,58,59,60,61,62,63,64,65,66,67,68,69,70,71,72,73,74,75,76,77,78,79,80,81,82,83,84,85,86,87,88,89,90,91,92,93,94,95,96,97,98,99,100,101,102,103,104,105,106,107,108,109,110,111,112,113,114,115,116,117,118,119,120,121,122,123,124,125,126,127,128,129,130,131,132,133,134,135,136,137,138,139,140,141,142,143,144,145,146,147,148,149,150,151,152,153,154,155,156,157,158,159,160,161,162,163,164,165,166,167,168,169,170,171,172,173,174,175,176,177,178,179,180,181,182,183,184,185,186,187,188,189,190,191,192,193,194,195,196,197,198,199,200,201,202,203,204,205,206,207,208,209,210,211,212,213,214,215,216,217,218,219,220,221,222,223,224,225,226,227,228,229,230,231,232,233,234,235,236,237,238,239,240,241,242,243,244,245,246,247,248,249,250,251,252,253,254,255,256,257,258,259,260,261,262,263,264,265,266,267,268,269,270,271,272,273,274,275,276,277,278,279,280,281,282,283,284,285,286,287,288,289,290,291,292,293,294,295,296,297,298,299,300,301,302,303,304,305,306,307,308,309,310,311,312,313,314,315,316,317,318,319,320,321,322,323,324,325,326,327,328,329,330,331,332,333,334,335,336,337,338,339,340,341,342,343,344,345,346,347,348,349,350,351,352,353,354,355,356,357,358,359,360,361,362,363,364,365,366,367,368,369,370,371,372,373,374,375,376,377,378,379,380,381,382,383,384,385,386,387,388,389,390,391,392,393,394,395,396,397,398,399,400,401,402,403,404,405,406,407,408,409,410,411,412,413,414,415,416,417,418,419,420,421,422,423,424,425,426,427,428,429,430,431,432,433,434,435,436,437,438,439,440,441,442,443,444,445,446,447,448,449,450,451,452,453,454,455,456,457,458,459,460,461,462,463,464,465,466,467,468,469,470,471,472,473,474,475,476,477,478,479,480,481,482,483,484,485,486,487,488,489,490,491,492,493,494,495,496,497,498,499,500],"tree_info":[0,0,0,0,0,0,0,0,0,0,0,0,0,0,0,0,0,0,0,0,0,0,0,0,0,0,0,0,0,0,0,0,0,0,0,0,0,0,0,0,0,0,0,0,0,0,0,0,0,0,0,0,0,0,0,0,0,0,0,0,0,0,0,0,0,0,0,0,0,0,0,0,0,0,0,0,0,0,0,0,0,0,0,0,0,0,0,0,0,0,0,0,0,0,0,0,0,0,0,0,0,0,0,0,0,0,0,0,0,0,0,0,0,0,0,0,0,0,0,0,0,0,0,0,0,0,0,0,0,0,0,0,0,0,0,0,0,0,0,0,0,0,0,0,0,0,0,0,0,0,0,0,0,0,0,0,0,0,0,0,0,0,0,0,0,0,0,0,0,0,0,0,0,0,0,0,0,0,0,0,0,0,0,0,0,0,0,0,0,0,0,0,0,0,0,0,0,0,0,0,0,0,0,0,0,0,0,0,0,0,0,0,0,0,0,0,0,0,0,0,0,0,0,0,0,0,0,0,0,0,0,0,0,0,0,0,0,0,0,0,0,0,0,0,0,0,0,0,0,0,0,0,0,0,0,0,0,0,0,0,0,0,0,0,0,0,0,0,0,0,0,0,0,0,0,0,0,0,0,0,0,0,0,0,0,0,0,0,0,0,0,0,0,0,0,0,0,0,0,0,0,0,0,0,0,0,0,0,0,0,0,0,0,0,0,0,0,0,0,0,0,0,0,0,0,0,0,0,0,0,0,0,0,0,0,0,0,0,0,0,0,0,0,0,0,0,0,0,0,0,0,0,0,0,0,0,0,0,0,0,0,0,0,0,0,0,0,0,0,0,0,0,0,0,0,0,0,0,0,0,0,0,0,0,0,0,0,0,0,0,0,0,0,0,0,0,0,0,0,0,0,0,0,0,0,0,0,0,0,0,0,0,0,0,0,0,0,0,0,0,0,0,0,0,0,0,0,0,0,0,0,0,0,0,0,0,0,0,0,0,0,0,0,0,0,0,0,0,0,0,0,0,0,0,0,0,0,0,0,0,0,0,0,0,0,0,0,0,0,0,0,0,0,0,0,0,0,0,0,0,0,0,0,0,0,0,0,0,0,0,0,0,0,0,0,0,0,0,0,0],"trees":[{"base_weights":[-7.257724E-3,-3.2099232E-1,2.2965957E-1,-5.4233307E-1,-2.0619649E-1,1.0235685E-1,4.445553E-1,-5.9050524E-1,6.6675556E-1,-3.1377256E-1,-2.1774031E-2,3.1803012E-2,3.7401208E-1,3.5849996E-2,5.71362E-1,-6.2223166E-1,2.760211E-1,1.0114905E-1,3.929315E-2,-3.4457076E-1,2.4637386E-1,-1.1681857E-1,4.187961E-1,-2.7589753E-1,8.4365755E-2,4.6322224E-1,-3.6921957E-1,2.3905465E-1,-5.3662187E-1,6.003276E-1,-3.932586E-1,-1.1140836E-2,-3.384536E-2,3.0838428E-2,-6.729372E-3,-2.8298076E-3,8.205495E-3,-1.9697404E-2,2.1045376E-3,-1.1983397E-2,3.1882823E-2,1.3862415E-2,-8.83047E-3,3.167103E-2,-8.767657E-3,1.5699694E-2,-1.8981602E-2,-1.4385043E-3,1.0223058E-2,1.06460005E-2,3.466476E-2,5.5309916E-3,-3.6242682E-2,1.7519154E-2,-1.5091886E-2,-3.883711E-2,2.0091107E-2,2.285212E-2,4.3690708E-2,1.3767508E-2,-3.3232775E-2],"categories":[],"categories_nodes":[],"categories_segments":[],"categories_sizes":[],"default_left":[0,0,0,0,0,0,0,0,0,0,0,0,0,0,0,0,0,0,0,0,0,0,0,0,0,0,0,0,0,0,0,0,0,0,0,0,0,0,0,0,0,0,0,0,0,0,0,0,0,0,0,0,0,0,0,0,0,0,0,0,0],"id":0,"left_children":[1,3,5,7,9,11,13,15,17,19,21,23,25,27,29,31,33,35,-1,37,39,41,43,45,47,49,51,53,55,57,59,-1,-1,-1,-1,-1,-1,-1,-1,-1,-1,-1,-1,-1,-1,-1,-1,-1,-1,-1,-1,-1,-1,-1,-1,-1,-1,-1,-1,-1,-1],"loss_changes":[1.421886E2,2.0352478E1,2.9591412E1,1.816056E1,1.0877529E1,1.3184453E1,2.0835518E1,8.281525E0,4.7833633E-1,6.4107437E0,8.954363E0,9.076548E0,1.0270294E1,1.2390634E1,9.786186E0,4.967476E0,2.2339263E0,1.2589413E-1,0E0,6.402458E0,4.757903E0,4.3681E0,5.401081E0,5.6137614E0,6.510455E0,6.6907387E0,3.4725661E0,5.2256956E0,7.8700657E0,9.798302E0,3.0925646E0,0E0,0E0,0E0,0E0,0E0,0E0,0E0,0E0,0E0,0E0,0E0,0E0,0E0,0E0,0E0,0E0,0E0,0E0,0E0,0E0,0E0,0E0,0E0,0E0,0E0,0E0,0E0,0E0,0E0,0E0],"parents":[2147483647,0,0,1,1,2,2,3,3,4,4,5,5,6,6,7,7,8,8,9,9,10,10,11,11,12,12,13,13,14,14,15,15,16,16,17,17,19,19,20,20,21,21,22,22,23,23,24,24,25,25,26,26,27,27,28,28,29,29,30,30],"right_children":[2,4,6,8,10,12,14,16,18,20,22,24,26,28,30,32,34,36,-1,38,40,42,44,46,48,50,52,54,56,58,60,-1,-1,-1,-1,-1,-1,-1,-1,-1,-1,-1,-1,-1,-1,-1,-1,-1,-1,-1,-1,-1,-1,-1,-1,-1,-1,-1,-1,-1,-1],"split_conditions":[-3.2395238E-1,-1.1763169E0,5.972226E-1,1.7312809E0,2.6528347E-1,9.1743654E-1,-6.5251815E-1,1.7138277E0,-1.2683861E-1,1.5577227E0,1.1060367E0,-1.0900996E0,4.1329446E-1,1.4977059E0,1.6689175E0,-1.4748993E0,-1.6203128E0,8.5060847E-1,3.929315E-2,1.3261974E0,-3.901726E-1,-1.0555041E0,1.5989139E0,-1.5131154E0,-2.1087025E-1,8.9271694E-1,7.1121216E-1,-7.999158E-1,1.0875498E0,1.0000646E0,1.5721933E0,-1.1140836E-2,-3.384536E-2,3.0838428E-2,-6.729372E-3,-2.8298076E-3,8.205495E-3,-1.9697404E-2,2.1045376E-3,-1.1983397E-2,3.1882823E-2,1.3862415E-2,-8.83047E-3,3.167103E-2,-8.767657E-3,1.5699694E-2,-1.8981602E-2,-1.4385043E-3,1.0223058E-2,1.06460005E-2,3.466476E-2,5.5309916E-3,-3.6242682E-2,1.7519154E-2,-1.5091886E-2,-3.883711E-2,2.0091107E-2,2.285212E-2,4.3690708E-2,1.3767508E-2,-3.3232775E-2],"split_indices":[9,9,8,8,6,6,4,6,2,3,1,2,8,9,3,3,9,1,0,4,2,9,1,4,8,5,9,4,6,3,9,0,0,0,0,0,0,0,0,0,0,0,0,0,0,0,0,0,0,0,0,0,0,0,0,0,0,0,0,0,0],"split_type":[0,0,0,0,0,0,0,0,0,0,0,0,0,0,0,0,0,0,0,0,0,0,0,0,0,0,0,0,0,0,0,0,0,0,0,0,0,0,0,0,0,0,0,0,0,0,0,0,0,0,0,0,0,0,0,0,0,0,0,0,0],"sum_hessian":[1.903E3,8.18E2,1.085E3,2.73E2,5.45E2,6.86E2,3.99E2,2.65E2,8E0,3.42E2,2.03E2,5.49E2,1.37E2,9.6E1,3.03E2,2.57E2,8E0,3E0,5E0,3.26E2,1.6E1,1.7E2,3.3E1,7.7E1,4.72E2,1.24E2,1.3E1,7.3E1,2.3E1,2.96E2,7E0,3.4E1,2.23E2,3E0,5E0,1E0,2E0,2.89E2,3.7E1,8E0,8E0,2E1,1.5E2,2.4E1,9E0,1E1,6.7E1,2.45E2,2.27E2,6.4E1,6E1,7E0,6E0,6.2E1,1.1E1,1.9E1,4E0,2.03E2,9.3E1,2E0,5E0],"tree_param":{"num_deleted":"0","num_feature":"10","num_nodes":"61","size_leaf_vector":"1"}},{"base_weights":[2.9603178E-3,-1.9263402E-1,1.5507542E-1,-2.1829592E-1,5.306324E-1,-2.3374306E-1,2.0862272E-1,-3.8336286E-1,-1.2117118E-1,-3.7164137E-2,8.2382166E-1,3.53678E-1,-3.300114E-1,8.398711E-2,3.3395746E-1,-5.615801E-1,-1.6627216E-1,-2.1502952E-1,2.1923408E-1,-3.749892E-1,3.9637992E-1,8.637017E-1,5.508423E-4,5.823166E-1,-1.1886461E-1,-8.1188524E-1,-1.530194E-1,2.0867584E-2,3.3213598E-1,3.597261E-1,-6.319972E-1,-6.340305E-3,-2.9774288E-2,-2.4879393E-3,-2.628146E-2,-1.3489649E-2,1.0148037E-2,1.4020018E-2,-1.0612216E-2,-2.035328E-2,-4.5187745E-4,2.2845974E-2,-7.328069E-4,8.968771E-3,4.67979E-2,3.3343893E-2,-5.01284E-3,-2.2113515E-2,1.9092299E-2,-1.2009073E-3,-4.6423834E-2,3.0475462E-2,-1.2134922E-2,3.4118854E-3,-2.0589136E-2,5.2907527E-3,3.275749E-2,4.786541E-3,2.380528E-2,-3.7288826E-2,7.0594447E-3],"categories":[],"categories_nodes":[],"categories_segments":[],"categories_sizes":[],"default_left":[0,0,0,0,0,0,0,0,0,0,0,0,0,0,0,0,0,0,0,0,0,0,0,0,0,0,0,0,0,0,0,0,0,0,0,0,0,0,0,0,0,0,0,0,0,0,0,0,0,0,0,0,0,0,0,0,0,0,0,0,0],"id":1,"left_children":[1,3,5,7,9,11,13,15,17,19,21,23,25,27,29,31,33,35,37,39,41,43,-1,45,47,49,51,53,55,57,59,-1,-1,-1,-1,-1,-1,-1,-1,-1,-1,-1,-1,-1,-1,-1,-1,-1,-1,-1,-1,-1,-1,-1,-1,-1,-1,-1,-1,-1,-1],"loss_changes":[5.665003E1,1.6039984E1,2.254224E1,1.2721661E1,5.147238E0,8.048195E0,1.460614E1,1.1023846E1,1.6721842E1,2.9401217E0,6.0071945E-1,2.614955E0,9.272215E0,7.4836044E0,1.2810772E1,1.9957924E0,5.772881E0,9.590256E0,3.3062472E0,1.10728264E-1,2.574389E-1,1.00050926E-1,0E0,1.2000842E0,2.6256547E0,2.6442566E0,6.962473E0,8.092438E0,6.744542E0,1.3904987E1,1.7580924E0,0E0,0E0,0E0,0E0,0E0,0E0,0E0,0E0,0E0,0E0,0E0,0E0,0E0,0E0,0E0,0E0,0E0,0E0,0E0,0E0,0E0,0E0,0E0,0E0,0E0,0E0,0E0,0E0,0E0,0E0],"parents":[2147483647,0,0,1,1,2,2,3,3,4,4,5,5,6,6,7,7,8,8,9,9,10,10,11,11,12,12,13,13,14,14,15,15,16,16,17,17,18,18,19,19,20,20,21,21,23,23,24,24,25,25,26,26,27,27,28,28,29,29,30,30],"right_children":[2,4,6,8,10,12,14,16,18,20,22,24,26,28,30,32,34,36,38,40,42,44,-1,46,48,50,52,54,56,58,60,-1,-1,-1,-1,-1,-1,-1,-1,-1,-1,-1,-1,-1,-1,-1,-1,-1,-1,-1,-1,-1,-1,-1,-1,-1,-1,-1,-1,-1,-1],"split_conditions":[-3.2490474E-1,1.6842978E0,-1.2027844E0,-1.1018482E0,-7.1164745E-1,-1.3597721E0,1.18769124E-1,-2.888488E-1,8.3327407E-1,-4.6270388E-1,1.4122705E0,-1.630942E-1,-1.3431942E0,1.1036425E0,1.6994243E0,-1.6111395E0,1.1232108E0,1.2886856E0,-4.3461594E-1,1.0191448E0,-1.0491358E0,-5.015757E-1,5.508423E-4,1.0666775E0,1.2359328E0,3.4761307E-1,-1.2653219E0,1.5148718E0,9.713351E-1,-3.0669966E-1,1.4556787E0,-6.340305E-3,-2.9774288E-2,-2.4879393E-3,-2.628146E-2,-1.3489649E-2,1.0148037E-2,1.4020018E-2,-1.0612216E-2,-2.035328E-2,-4.5187745E-4,2.2845974E-2,-7.328069E-4,8.968771E-3,4.67979E-2,3.3343893E-2,-5.01284E-3,-2.2113515E-2,1.9092299E-2,-1.2009073E-3,-4.6423834E-2,3.0475462E-2,-1.2134922E-2,3.4118854E-3,-2.0589136E-2,5.2907527E-3,3.275749E-2,4.786541E-3,2.380528E-2,-3.7288826E-2,7.0594447E-3],"split_indices":[8,6,4,8,7,6,6,5,2,4,2,5,5,5,2,1,2,4,8,3,1,1,0,2,3,8,1,8,3,2,4,0,0,0,0,0,0,0,0,0,0,0,0,0,0,0,0,0,0,0,0,0,0,0,0,0,0,0,0,0,0],"split_type":[0,0,0,0,0,0,0,0,0,0,0,0,0,0,0,0,0,0,0,0,0,0,0,0,0,0,0,0,0,0,0,0,0,0,0,0,0,0,0,0,0,0,0,0,0,0,0,0,0,0,0,0,0,0,0,0,0,0,0,0,0],"sum_hessian":[1.894E3,8.28E2,1.066E3,8.03E2,2.5E1,1.27E2,9.39E2,2.92E2,5.11E2,1E1,1.5E1,1.6E1,1.11E2,4.75E2,4.64E2,1.56E2,1.36E2,4.02E2,1.09E2,6E0,4E0,1.4E1,1E0,1E1,6E0,2.5E1,8.6E1,3.83E2,9.2E1,4.55E2,9E0,1.3E1,1.43E2,1.07E2,2.9E1,3.57E2,4.5E1,9.7E1,1.2E1,5E0,1E0,3E0,1E0,3E0,1.1E1,9E0,1E0,4E0,2E0,4E0,2.1E1,6E0,8E1,3.49E2,3.4E1,5.8E1,3.4E1,1.42E2,3.13E2,8E0,1E0],"tree_param":{"num_deleted":"0","num_feature":"10","num_nodes":"61","size_leaf_vector":"1"}},{"base_weights":[1.5442325E-2,-2.8200513E-1,2.0400028E-1,-5.370506E-1,-1.7551824E-1,9.538787E-2,4.0057242E-1,-5.963565E-1,5.146886E-1,-2.5224873E-1,6.742438E-2,2.9054781E-2,3.453318E-1,-2.8027174E-1,4.5846814E-1,-6.462112E-1,2.4389285E-1,-1.2390724E-2,6.68656E-1,-3.2057703E-1,-1.0617988E-1,-1.4774646E-1,2.1758392E-1,6.0708046E-2,-3.2984772E-1,-1.0913022E-1,4.5340303E-1,6.55101E-2,-5.263906E-1,1.0998532E-1,5.1754946E-1,-3.383987E-2,4.8564407E-3,2.19217E-2,-1.0017596E-2,4.0037513E-2,-7.637296E-3,-1.9561492E-2,-6.3392757E-3,-1.0224427E-2,2.0636013E-2,1.22785E-2,-2.0940887E-2,4.618259E-3,3.19866E-2,-2.3096285E-3,8.137933E-3,1.5018597E-2,-2.7590116E-2,1.9858593E-2,-2.188082E-2,2.7094463E-2,-9.608695E-3,1.2371704E-2,-1.6964084E-2,-3.1867146E-2,1.4105464E-2,-2.6784444E-3,3.3909597E-2,2.0708019E-2,3.945326E-2],"categories":[],"categories_nodes":[],"categories_segments":[],"categories_sizes":[],"default_left":[0,0,0,0,0,0,0,0,0,0,0,0,0,0,0,0,0,0,0,0,0,0,0,0,0,0,0,0,0,0,0,0,0,0,0,0,0,0,0,0,0,0,0,0,0,0,0,0,0,0,0,0,0,0,0,0,0,0,0,0,0],"id":2,"left_children":[1,3,5,7,9,11,13,15,17,19,21,23,25,27,29,31,33,-1,35,37,39,41,43,45,47,49,51,53,55,57,59,-1,-1,-1,-1,-1,-1,-1,-1,-1,-1,-1,-1,-1,-1,-1,-1,-1,-1,-1,-1,-1,-1,-1,-1,-1,-1,-1,-1,-1,-1],"loss_changes":[1.0522472E2,1.9300446E1,2.431895E1,1.4758053E1,9.797056E0,1.2318178E1,1.6685593E1,9.291779E0,2.472121E0,3.7921162E0,4.32872E0,6.859581E0,7.9092274E0,3.1510398E0,7.477371E0,4.716713E0,1.7355638E0,0E0,2.0220895E0,3.421423E0,7.257641E0,6.484786E0,3.8277013E0,6.048601E0,7.682859E0,6.523695E0,7.7755203E0,1.8189347E0,2.7828064E0,5.8505373E0,7.377037E0,0E0,0E0,0E0,0E0,0E0,0E0,0E0,0E0,0E0,0E0,0E0,0E0,0E0,0E0,0E0,0E0,0E0,0E0,0E0,0E0,0E0,0E0,0E0,0E0,0E0,0E0,0E0,0E0,0E0,0E0],"parents":[2147483647,0,0,1,1,2,2,3,3,4,4,5,5,6,6,7,7,8,8,9,9,10,10,11,11,12,12,13,13,14,14,15,15,16,16,18,18,19,19,20,20,21,21,22,22,23,23,24,24,25,25,26,26,27,27,28,28,29,29,30,30],"right_children":[2,4,6,8,10,12,14,16,18,20,22,24,26,28,30,32,34,-1,36,38,40,42,44,46,48,50,52,54,56,58,60,-1,-1,-1,-1,-1,-1,-1,-1,-1,-1,-1,-1,-1,-1,-1,-1,-1,-1,-1,-1,-1,-1,-1,-1,-1,-1,-1,-1,-1,-1],"split_conditions":[-4.5549762E-1,-1.2919021E0,6.466714E-1,1.7014725E0,8.424296E-1,8.928695E-1,-1.2916567E0,1.6842978E0,-1.5154579E0,2.784702E-1,-1.0520568E-1,1.5868887E0,-9.417674E-1,3.4915313E-1,-8.849686E-1,1.6408768E0,-1.475365E0,-1.2390724E-2,-1.4323756E0,1.7726156E-1,1.1060367E0,-9.596018E-1,1.6112996E0,-1.3133268E-1,-9.5624334E-1,-9.091497E-1,4.1329446E-1,-1.4148133E0,1.7014725E0,1.4346411E0,1.2170033E0,-3.383987E-2,4.8564407E-3,2.19217E-2,-1.0017596E-2,4.0037513E-2,-7.637296E-3,-1.9561492E-2,-6.3392757E-3,-1.0224427E-2,2.0636013E-2,1.22785E-2,-2.0940887E-2,4.618259E-3,3.19866E-2,-2.3096285E-3,8.137933E-3,1.5018597E-2,-2.7590116E-2,1.9858593E-2,-2.188082E-2,2.7094463E-2,-9.608695E-3,1.2371704E-2,-1.6964084E-2,-3.1867146E-2,1.4105464E-2,-2.6784444E-3,3.3909597E-2,2.0708019E-2,3.945326E-2],"split_indices":[9,9,8,8,5,6,4,6,2,6,4,9,7,1,5,7,9,0,9,8,1,4,5,1,1,8,8,4,8,2,4,0,0,0,0,0,0,0,0,0,0,0,0,0,0,0,0,0,0,0,0,0,0,0,0,0,0,0,0,0,0],"split_type":[0,0,0,0,0,0,0,0,0,0,0,0,0,0,0,0,0,0,0,0,0,0,0,0,0,0,0,0,0,0,0,0,0,0,0,0,0,0,0,0,0,0,0,0,0,0,0,0,0,0,0,0,0,0,0,0,0,0,0,0,0],"sum_hessian":[1.866E3,7.23E2,1.143E3,2.07E2,5.16E2,7.41E2,4.02E2,1.98E2,9E0,3.92E2,1.24E2,5.9E2,1.51E2,3E1,3.72E2,1.88E2,1E1,1E0,8E0,2.63E2,1.29E2,5.1E1,7.3E1,5.46E2,4.4E1,2.9E1,1.22E2,1.4E1,1.6E1,5.6E1,3.16E2,1.81E2,7E0,7E0,3E0,7E0,1E0,1.89E2,7.4E1,1.11E2,1.8E1,2.1E1,3E1,6.1E1,1.2E1,2.68E2,2.78E2,1.1E1,3.3E1,1.1E1,1.8E1,1.08E2,1.4E1,1.1E1,3E0,1.5E1,1E0,4.7E1,9E0,2.38E2,7.8E1],"tree_param":{"num_deleted":"0","num_feature":"10","num_nodes":"61","size_leaf_vector":"1"}},{"base_weights":[-3.6013986E-3,-2.619366E-1,2.109196E-1,-4.970893E-1,-1.7831376E-1,1.3961603E-1,4.846493E-1,-5.406862E-1,5.09307E-1,-2.50195E-1,6.523839E-2,1.8047297E-1,-3.10994E-1,-7.993518E-3,6.0029685E-1,-5.7561207E-1,3.0453408E-1,-1.765684E-1,3.6738317E-2,-3.298157E-1,-5.925347E-2,-7.5546205E-2,2.8975E-1,8.818043E-2,3.4271756E-1,-4.549954E-1,2.88715E-1,-2.982094E-1,4.828947E-1,2.546394E-2,6.613401E-1,-3.7301E-2,-2.2585193E-2,2.3779746E-2,-1.3142793E-2,-1.2287469E-2,1.9876452E-3,-1.76426E-2,5.005563E-3,-2.6428495E-2,2.7912315E-3,-1.2498051E-2,7.015201E-3,2.0896701E-2,-7.870096E-3,-3.7471645E-3,9.228044E-3,1.0832392E-2,3.3951502E-2,1.3206626E-2,-2.6497249E-2,-8.674747E-3,3.0984541E-2,7.1091615E-3,-3.184737E-2,3.7311774E-2,-1.1214069E-2,1.8909067E-2,-1.5557681E-2,3.5821423E-2,5.106182E-3],"categories":[],"categories_nodes":[],"categories_segments":[],"categories_sizes":[],"default_left":[0,0,0,0,0,0,0,0,0,0,0,0,0,0,0,0,0,0,0,0,0,0,0,0,0,0,0,0,0,0,0,0,0,0,0,0,0,0,0,0,0,0,0,0,0,0,0,0,0,0,0,0,0,0,0,0,0,0,0,0,0],"id":3,"left_children":[1,3,5,7,9,11,13,15,17,19,21,23,25,27,29,31,33,35,-1,37,39,41,43,45,47,49,51,53,55,57,59,-1,-1,-1,-1,-1,-1,-1,-1,-1,-1,-1,-1,-1,-1,-1,-1,-1,-1,-1,-1,-1,-1,-1,-1,-1,-1,-1,-1,-1,-1],"loss_changes":[1.0701193E2,1.6782597E1,2.025307E1,1.133667E1,1.1531076E1,1.5819132E1,1.2330147E1,7.3708725E0,2.5043266E0,7.5949497E0,4.945438E0,1.1483667E1,6.874663E0,7.273343E0,6.0564957E0,2.8125916E0,1.7897629E0,1.536035E-1,0E0,3.702427E0,8.518782E0,3.8648052E0,3.767981E0,7.9615717E0,1.113612E1,3.9337778E0,3.1382322E0,5.2265024E0,4.37517E0,3.2004418E0,4.5015717E0,0E0,0E0,0E0,0E0,0E0,0E0,0E0,0E0,0E0,0E0,0E0,0E0,0E0,0E0,0E0,0E0,0E0,0E0,0E0,0E0,0E0,0E0,0E0,0E0,0E0,0E0,0E0,0E0,0E0,0E0],"parents":[2147483647,0,0,1,1,2,2,3,3,4,4,5,5,6,6,7,7,8,8,9,9,10,10,11,11,12,12,13,13,14,14,15,15,16,16,17,17,19,19,20,20,21,21,22,22,23,23,24,24,25,25,26,26,27,27,28,28,29,29,30,30],"right_children":[2,4,6,8,10,12,14,16,18,20,22,24,26,28,30,32,34,36,-1,38,40,42,44,46,48,50,52,54,56,58,60,-1,-1,-1,-1,-1,-1,-1,-1,-1,-1,-1,-1,-1,-1,-1,-1,-1,-1,-1,-1,-1,-1,-1,-1,-1,-1,-1,-1,-1,-1],"split_conditions":[-2.7563155E-1,-1.2738514E0,1.1477177E0,1.7312809E0,8.424296E-1,1.6101882E0,-6.6608226E-1,1.7138277E0,-1.1111753E0,2.6528347E-1,-3.2490474E-1,4.7803378E-1,1.4556787E0,6.997142E-1,-1.0400788E0,-1.2128294E0,1.7149876E0,-5.3813463E-1,3.6738317E-2,1.5080528E0,-1.1905353E0,-2.4576133E-1,1.327432E0,-5.273439E-1,1.0191448E0,-1.5816485E0,9.0186995E-1,1.2540851E0,1.1330049E0,3.8486162E-1,1.5650237E0,-3.7301E-2,-2.2585193E-2,2.3779746E-2,-1.3142793E-2,-1.2287469E-2,1.9876452E-3,-1.76426E-2,5.005563E-3,-2.6428495E-2,2.7912315E-3,-1.2498051E-2,7.015201E-3,2.0896701E-2,-7.870096E-3,-3.7471645E-3,9.228044E-3,1.0832392E-2,3.3951502E-2,1.3206626E-2,-2.6497249E-2,-8.674747E-3,3.0984541E-2,7.1091615E-3,-3.184737E-2,3.7311774E-2,-1.1214069E-2,1.8909067E-2,-1.5557681E-2,3.5821423E-2,5.106182E-3],"split_indices":[9,9,8,8,5,9,4,6,2,6,8,5,4,6,6,8,4,1,0,3,3,2,6,4,3,4,1,9,5,2,3,0,0,0,0,0,0,0,0,0,0,0,0,0,0,0,0,0,0,0,0,0,0,0,0,0,0,0,0,0,0],"split_type":[0,0,0,0,0,0,0,0,0,0,0,0,0,0,0,0,0,0,0,0,0,0,0,0,0,0,0,0,0,0,0,0,0,0,0,0,0,0,0,0,0,0,0,0,0,0,0,0,0,0,0,0,0,0,0,0,0,0,0,0,0],"sum_hessian":[1.921E3,8.71E2,1.05E3,2.22E2,6.49E2,8.39E2,2.11E2,2.15E2,7E0,5.01E2,1.48E2,7.72E2,6.7E1,4.1E1,1.7E2,2.08E2,7E0,2E0,5E0,3.51E2,1.5E2,9.3E1,5.5E1,4.97E2,2.75E2,5.5E1,1.2E1,2.7E1,1.4E1,1.7E1,1.53E2,7.7E1,1.31E2,6E0,1E0,1E0,1E0,3.34E2,1.7E1,2.6E1,1.24E2,5.1E1,4.2E1,4.3E1,1.2E1,1.85E2,3.12E2,2.06E2,6.9E1,4E0,5.1E1,6E0,6E0,1.3E1,1.4E1,1E1,4E0,8E0,9E0,1.38E2,1.5E1],"tree_param":{"num_deleted":"0","num_feature":"10","num_nodes":"61","size_leaf_vector":"1"}},{"base_weights":[-5.1540574E-3,-3.0939338E-1,1.8790792E-1,-4.7905257E-1,-1.8777809E-1,8.3429724E-2,3.496455E-1,-5.1504123E-1,4.5808214E-1,-2.906856E-1,9.542842E-3,2.2831533E-2,3.6723903E-1,1.0092573E-1,4.404737E-1,-5.524049E-1,2.650303E-1,-8.342461E-2,3.581986E-2,-3.4758785E-1,2.6039875E-1,-1.0638992E-1,3.3688292E-1,-2.761576E-2,4.603699E-1,-8.2191624E-2,4.9984124E-1,2.8284723E-1,-3.5515553E-1,4.801286E-1,-4.4018742E-1,-3.0853797E-3,-3.0650515E-2,2.5677456E-2,-2.2840869E-2,-1.2185073E-2,4.4461703E-3,2.2321898E-3,-2.012073E-2,-2.2623831E-2,2.2854332E-2,-2.7281687E-2,2.1740508E-4,-4.9678804E-3,2.6396936E-2,-1.4084483E-2,2.655656E-3,2.4861261E-2,-1.4898367E-2,-2.8338913E-2,1.8724212E-2,-9.099753E-3,2.6176253E-2,1.789259E-2,-2.6680881E-2,-2.607672E-2,8.909612E-3,1.7597927E-2,3.7157815E-2,3.2662202E-4,-3.7807878E-2],"categories":[],"categories_nodes":[],"categories_segments":[],"categories_sizes":[],"default_left":[0,0,0,0,0,0,0,0,0,0,0,0,0,0,0,0,0,0,0,0,0,0,0,0,0,0,0,0,0,0,0,0,0,0,0,0,0,0,0,0,0,0,0,0,0,0,0,0,0,0,0,0,0,0,0,0,0,0,0,0,0],"id":4,"left_children":[1,3,5,7,9,11,13,15,17,19,21,23,25,27,29,31,33,35,-1,37,39,41,43,45,47,49,51,53,55,57,59,-1,-1,-1,-1,-1,-1,-1,-1,-1,-1,-1,-1,-1,-1,-1,-1,-1,-1,-1,-1,-1,-1,-1,-1,-1,-1,-1,-1,-1,-1],"loss_changes":[1.124197E2,1.4880646E1,1.9641762E1,1.1533615E1,8.968728E0,1.2306478E1,1.0124298E1,9.417625E0,2.257136E0,9.546364E0,6.099317E0,1.3240927E1,7.714449E0,1.1205531E1,1.2720856E1,8.3162E0,4.2226667E0,3.5696438E-1,0E0,5.7885933E0,5.2405233E0,5.8001404E0,3.7628174E0,1.1150801E1,2.473607E0,8.364116E0,2.0589466E0,6.772446E0,3.9254398E0,9.547546E0,2.4242496E0,0E0,0E0,0E0,0E0,0E0,0E0,0E0,0E0,0E0,0E0,0E0,0E0,0E0,0E0,0E0,0E0,0E0,0E0,0E0,0E0,0E0,0E0,0E0,0E0,0E0,0E0,0E0,0E0,0E0,0E0],"parents":[2147483647,0,0,1,1,2,2,3,3,4,4,5,5,6,6,7,7,8,8,9,9,10,10,11,11,12,12,13,13,14,14,15,15,16,16,17,17,19,19,20,20,21,21,22,22,23,23,24,24,25,25,26,26,27,27,28,28,29,29,30,30],"right_children":[2,4,6,8,10,12,14,16,18,20,22,24,26,28,30,32,34,36,-1,38,40,42,44,46,48,50,52,54,56,58,60,-1,-1,-1,-1,-1,-1,-1,-1,-1,-1,-1,-1,-1,-1,-1,-1,-1,-1,-1,-1,-1,-1,-1,-1,-1,-1,-1,-1,-1,-1],"split_conditions":[-4.5549762E-1,-1.1245922E0,3.8760734E-1,1.7312809E0,1.2977417E-1,1.002223E0,-4.864578E-1,1.6842978E0,-1.2683861E-1,1.4556787E0,6.688075E-1,1.3367155E0,-1.2279656E0,1.0162786E0,1.6689175E0,-1.4748993E0,1.2455517E0,-1.6338785E0,3.581986E-2,-1.0066563E0,-9.214072E-1,-1.0597535E0,-8.393158E-1,-5.8159E-1,7.8624356E-1,3.618624E-1,-1.6893235E0,1.6367527E0,1.3038265E0,9.608937E-1,1.4346411E0,-3.0853797E-3,-3.0650515E-2,2.5677456E-2,-2.2840869E-2,-1.2185073E-2,4.4461703E-3,2.2321898E-3,-2.012073E-2,-2.2623831E-2,2.2854332E-2,-2.7281687E-2,2.1740508E-4,-4.9678804E-3,2.6396936E-2,-1.4084483E-2,2.655656E-3,2.4861261E-2,-1.4898367E-2,-2.8338913E-2,1.8724212E-2,-9.099753E-3,2.6176253E-2,1.789259E-2,-2.6680881E-2,-2.607672E-2,8.909612E-3,1.7597927E-2,3.7157815E-2,3.2662202E-4,-3.7807878E-2],"split_indices":[9,9,7,8,0,6,0,6,2,4,2,4,7,4,3,3,8,0,0,9,9,3,7,8,6,4,3,2,3,3,2,0,0,0,0,0,0,0,0,0,0,0,0,0,0,0,0,0,0,0,0,0,0,0,0,0,0,0,0,0,0],"split_type":[0,0,0,0,0,0,0,0,0,0,0,0,0,0,0,0,0,0,0,0,0,0,0,0,0,0,0,0,0,0,0,0,0,0,0,0,0,0,0,0,0,0,0,0,0,0,0,0,0,0,0,0,0,0,0,0,0,0,0,0,0],"sum_hessian":[1.904E3,7.38E2,1.166E3,3.02E2,4.36E2,7.13E2,4.53E2,2.93E2,9E0,2.85E2,1.51E2,5.92E2,1.21E2,1.24E2,3.29E2,2.81E2,1.2E1,4E0,5E0,2.6E2,2.5E1,1.14E2,3.7E1,5.35E2,5.7E1,2.8E1,9.3E1,9E1,3.4E1,3.17E2,1.2E1,3.2E1,2.49E2,1E1,2E0,1E0,3E0,3.2E1,2.28E2,4E0,2.1E1,1.9E1,9.5E1,1.2E1,2.5E1,1.26E2,4.09E2,5.6E1,1E0,1.3E1,1.5E1,2E0,9.1E1,8.5E1,5E0,2.6E1,8E0,2.21E2,9.6E1,7E0,5E0],"tree_param":{"num_deleted":"0","num_feature":"10","num_nodes":"61","size_leaf_vector":"1"}},{"base_weights":[3.2074028E-4,-2.6402587E-1,1.7647447E-1,-4.3496814E-1,-1.6472021E-1,1.0529734E-1,4.3609968E-1,-4.8297235E-1,4.005857E-1,-2.5246406E-1,4.2739954E-2,2.0301102E-2,2.554674E-1,2.0341781E-1,6.2332904E-1,-5.343355E-1,1.23144574E-1,-2.1646341E-2,6.4006436E-1,-3.050675E-1,-6.193891E-2,-1.3008302E-1,2.657921E-1,5.1077247E-2,-2.4640806E-1,1.929403E-2,3.4192592E-1,-5.378207E-1,2.8929165E-1,7.151085E-1,7.647756E-2,-6.469654E-4,-2.814517E-2,-2.0456426E-2,2.7520044E-2,4.0726606E-2,-2.1742966E-3,-1.0584401E-2,-2.0358065E-2,-9.598902E-3,2.2687482E-2,-1.4726295E-2,1.6250713E-2,7.408337E-3,3.160064E-2,7.907619E-4,1.6681304E-2,2.2305584E-2,-1.6631296E-2,7.681213E-3,-1.8078715E-2,1.904817E-2,-2.149427E-2,-3.465819E-2,5.63197E-3,2.4909558E-2,-3.7961241E-3,1.9088475E-2,4.894515E-2,1.4386152E-2,-2.7612299E-2],"categories":[],"categories_nodes":[],"categories_segments":[],"categories_sizes":[],"default_left":[0,0,0,0,0,0,0,0,0,0,0,0,0,0,0,0,0,0,0,0,0,0,0,0,0,0,0,0,0,0,0,0,0,0,0,0,0,0,0,0,0,0,0,0,0,0,0,0,0,0,0,0,0,0,0,0,0,0,0,0,0],"id":5,"left_children":[1,3,5,7,9,11,13,15,17,19,21,23,25,27,29,31,33,-1,35,37,39,41,43,45,47,49,51,53,55,57,59,-1,-1,-1,-1,-1,-1,-1,-1,-1,-1,-1,-1,-1,-1,-1,-1,-1,-1,-1,-1,-1,-1,-1,-1,-1,-1,-1,-1,-1,-1],"loss_changes":[9.001152E1,1.2763847E1,2.1206478E1,1.22382965E1,9.101017E0,1.1678556E1,1.0170105E1,8.672401E0,4.978458E0,3.4133205E0,6.0322533E0,4.9140224E0,6.725769E0,8.28899E0,6.5021667E0,3.6575851E0,6.811349E0,0E0,2.0852227E0,2.1716785E0,5.934444E0,7.1391616E0,2.4610085E0,5.2939878E0,4.443811E0,5.0869727E0,8.110203E0,1.8050103E0,8.50506E0,8.243717E0,4.1148443E0,0E0,0E0,0E0,0E0,0E0,0E0,0E0,0E0,0E0,0E0,0E0,0E0,0E0,0E0,0E0,0E0,0E0,0E0,0E0,0E0,0E0,0E0,0E0,0E0,0E0,0E0,0E0,0E0,0E0,0E0],"parents":[2147483647,0,0,1,1,2,2,3,3,4,4,5,5,6,6,7,7,8,8,9,9,10,10,11,11,12,12,13,13,14,14,15,15,16,16,18,18,19,19,20,20,21,21,22,22,23,23,24,24,25,25,26,26,27,27,28,28,29,29,30,30],"right_children":[2,4,6,8,10,12,14,16,18,20,22,24,26,28,30,32,34,-1,36,38,40,42,44,46,48,50,52,54,56,58,60,-1,-1,-1,-1,-1,-1,-1,-1,-1,-1,-1,-1,-1,-1,-1,-1,-1,-1,-1,-1,-1,-1,-1,-1,-1,-1,-1,-1,-1,-1],"split_conditions":[-4.5549762E-1,-1.1763169E0,1.0528085E0,1.6831264E0,5.597162E-1,4.0437624E-1,2.975527E-1,1.521204E0,-1.4436423E0,6.0195386E-1,9.0396896E-2,1.5058374E0,-3.3473325E-1,-1.1018482E0,1.5959044E0,-1.6258302E0,4.7169328E-2,-2.1646341E-2,-1.4323756E0,-2.7422374E-1,1.1239097E0,5.2605474E-1,1.1962719E0,1.1612269E0,-1.6008266E0,1.32852E0,1.6663061E0,6.165347E-1,1.5650237E0,7.693406E-1,1.5617771E0,-6.469654E-4,-2.814517E-2,-2.0456426E-2,2.7520044E-2,4.0726606E-2,-2.1742966E-3,-1.0584401E-2,-2.0358065E-2,-9.598902E-3,2.2687482E-2,-1.4726295E-2,1.6250713E-2,7.408337E-3,3.160064E-2,7.907619E-4,1.6681304E-2,2.2305584E-2,-1.6631296E-2,7.681213E-3,-1.8078715E-2,1.904817E-2,-2.149427E-2,-3.465819E-2,5.63197E-3,2.4909558E-2,-3.7961241E-3,1.9088475E-2,4.894515E-2,1.4386152E-2,-2.7612299E-2],"split_indices":[9,9,3,8,5,7,5,7,3,3,2,9,5,8,9,3,6,0,9,1,1,1,3,2,6,9,5,1,3,9,1,0,0,0,0,0,0,0,0,0,0,0,0,0,0,0,0,0,0,0,0,0,0,0,0,0,0,0,0,0,0],"split_type":[0,0,0,0,0,0,0,0,0,0,0,0,0,0,0,0,0,0,0,0,0,0,0,0,0,0,0,0,0,0,0,0,0,0,0,0,0,0,0,0,0,0,0,0,0,0,0,0,0,0,0,0,0,0,0,0,0,0,0,0,0],"sum_hessian":[1.923E3,7.68E2,1.155E3,2.76E2,4.92E2,9.12E2,2.43E2,2.63E2,1.3E1,3.45E2,1.47E2,5.86E2,3.26E2,1.13E2,1.3E2,2.43E2,2E1,2E0,1.1E1,2.68E2,7.7E1,8.4E1,6.3E1,5.29E2,5.7E1,8.9E1,2.37E2,9E0,1.04E2,1.1E2,2E1,1.3E1,2.3E2,9E0,1.1E1,8E0,3E0,1.48E2,1.2E2,6.4E1,1.3E1,6.3E1,2.1E1,5.3E1,1E1,4.75E2,5.4E1,4E0,5.3E1,6.8E1,2.1E1,2.28E2,9E0,7E0,2E0,6.5E1,3.9E1,5.4E1,5.6E1,1.7E1,3E0],"tree_param":{"num_deleted":"0","num_feature":"10","num_nodes":"61","size_leaf_vector":"1"}},{"base_weights":[7.870078E-3,-2.3637846E-1,2.0231009E-1,-7.021393E-1,-2.026269E-1,9.959196E-2,3.719117E-1,-7.7423006E-1,1.726093E-2,-3.194147E-1,-6.8546094E-2,-7.083019E-2,2.0195863E-1,2.323013E-1,5.4496473E-1,-8.6054224E-1,-2.2645251E-1,-4.1264072E-1,-2.4810808E-2,-4.3775576E-1,-2.9026447E-2,4.2179906E-1,-1.5655014E-1,6.0999017E-2,5.262064E-1,2.8017905E-1,-2.8186202E-1,6.3318455E-1,1.0415093E-1,1.3979725E-3,-4.422281E-2,3.3724536E-3,-1.6863307E-2,-3.2368258E-2,-1.5648391E-2,-2.1807596E-2,4.439142E-3,8.815194E-3,-2.7103035E-2,-3.789806E-3,1.0696613E-2,-1.8406317E-2,3.42513E-2,-3.69968E-3,-3.1500418E-2,8.22418E-4,2.9407863E-2,2.9199947E-2,-4.806254E-3,6.017677E-3,2.6561653E-2,1.415886E-2,-2.2279954E-2,9.154274E-3,3.43113E-2,-9.557246E-3,3.386998E-2],"categories":[],"categories_nodes":[],"categories_segments":[],"categories_sizes":[],"default_left":[0,0,0,0,0,0,0,0,0,0,0,0,0,0,0,0,0,0,0,0,0,0,0,0,0,0,0,0,0,0,0,0,0,0,0,0,0,0,0,0,0,0,0,0,0,0,0,0,0,0,0,0,0,0,0,0,0],"id":6,"left_children":[1,3,5,7,9,11,13,15,-1,17,19,21,23,25,27,29,31,33,35,37,39,41,43,45,47,49,51,53,55,-1,-1,-1,-1,-1,-1,-1,-1,-1,-1,-1,-1,-1,-1,-1,-1,-1,-1,-1,-1,-1,-1,-1,-1,-1,-1,-1,-1],"loss_changes":[9.042582E1,1.255645E1,1.828123E1,5.4891586E0,1.2323776E1,1.1707705E1,8.982697E0,1.5314713E0,0E0,1.1566399E1,5.422697E0,1.1056115E1,1.8944546E1,6.0321503E0,6.4368668E0,1.0585403E0,5.696978E-1,6.4969864E0,5.1932683E0,2.783617E0,4.001345E0,9.370136E0,8.366073E0,6.9267464E0,4.81242E0,8.186787E0,2.6663103E0,2.8096504E0,6.572136E0,0E0,0E0,0E0,0E0,0E0,0E0,0E0,0E0,0E0,0E0,0E0,0E0,0E0,0E0,0E0,0E0,0E0,0E0,0E0,0E0,0E0,0E0,0E0,0E0,0E0,0E0,0E0,0E0],"parents":[2147483647,0,0,1,1,2,2,3,3,4,4,5,5,6,6,7,7,9,9,10,10,11,11,12,12,13,13,14,14,15,15,16,16,17,17,18,18,19,19,20,20,21,21,22,22,23,23,24,24,25,25,26,26,27,27,28,28],"right_children":[2,4,6,8,10,12,14,16,-1,18,20,22,24,26,28,30,32,34,36,38,40,42,44,46,48,50,52,54,56,-1,-1,-1,-1,-1,-1,-1,-1,-1,-1,-1,-1,-1,-1,-1,-1,-1,-1,-1,-1,-1,-1,-1,-1,-1,-1,-1,-1],"split_conditions":[-2.955069E-1,-1.5131154E0,5.5118257E-1,1.7258923E0,-2.3641431E-1,-5.273439E-1,5.972226E-1,-5.8404094E-1,1.726093E-2,6.7028844E-1,-1.4946858E0,-1.3597721E0,5.307379E-1,1.5959044E0,1.560461E0,-1.6852169E0,-1.4117072E0,-1.1763169E0,-1.2024424E0,-1.5843976E0,1.3448993E0,-1.3024551E0,1.5868887E0,1.4827368E0,1.6589738E0,9.0712595E-1,-1.468939E0,-7.18338E-1,1.3552039E0,1.3979725E-3,-4.422281E-2,3.3724536E-3,-1.6863307E-2,-3.2368258E-2,-1.5648391E-2,-2.1807596E-2,4.439142E-3,8.815194E-3,-2.7103035E-2,-3.789806E-3,1.0696613E-2,-1.8406317E-2,3.42513E-2,-3.69968E-3,-3.1500418E-2,8.22418E-4,2.9407863E-2,2.9199947E-2,-4.806254E-3,6.017677E-3,2.6561653E-2,1.415886E-2,-2.2279954E-2,9.154274E-3,3.43113E-2,-9.557246E-3,3.386998E-2],"split_indices":[9,4,5,2,6,4,8,9,0,0,1,6,0,9,9,0,5,9,8,2,0,8,9,8,0,6,6,0,4,0,0,0,0,0,0,0,0,0,0,0,0,0,0,0,0,0,0,0,0,0,0,0,0,0,0,0,0],"split_type":[0,0,0,0,0,0,0,0,0,0,0,0,0,0,0,0,0,0,0,0,0,0,0,0,0,0,0,0,0,0,0,0,0,0,0,0,0,0,0,0,0,0,0,0,0,0,0,0,0,0,0,0,0,0,0,0,0],"sum_hessian":[1.894E3,8.39E2,1.055E3,5E1,7.89E2,6.62E2,3.93E2,4.8E1,2E0,4.18E2,3.71E2,2.49E2,4.13E2,2.24E2,1.69E2,3.9E1,9E0,3.16E2,1.02E2,3.1E1,3.4E2,3.4E1,2.15E2,2.92E2,1.21E2,2.07E2,1.7E1,1.39E2,3E1,1E0,3.8E1,3E0,6E0,8.6E1,2.3E2,1.9E1,8.3E1,4E0,2.7E1,2.88E2,5.2E1,8E0,2.6E1,1.88E2,2.7E1,2.74E2,1.8E1,1.11E2,1E1,1.31E2,7.6E1,3E0,1.4E1,1.7E1,1.22E2,2.2E1,8E0],"tree_param":{"num_deleted":"0","num_feature":"10","num_nodes":"57","size_leaf_vector":"1"}},{"base_weights":[-6.1774813E-3,-2.4772519E-1,1.6289057E-1,-4.575982E-1,-1.6698472E-1,2.0053858E-1,-2.7011552E-1,-4.9940166E-1,2.2623332E-1,-2.4696344E-1,-3.0753365E-2,1.1322079E-1,4.0564182E-1,-3.890781E-1,2.0223603E-1,-6.447389E-2,-5.7129693E-1,5.513171E-1,-3.3289692E-1,-2.6876757E-1,4.4847482E-1,3.2644245E-1,-7.0466354E-2,4.6149347E-2,3.4100807E-1,-1.9240555E-1,4.413394E-1,3.4497502E-1,-4.8854545E-1,6.2197334E-1,-4.0670058E-1,-1.4912943E-2,2.9058734E-2,-3.004243E-2,1.1132037E-2,3.20037E-2,-3.541742E-3,-2.3965528E-2,6.986768E-3,-1.594293E-2,1.8087799E-3,2.69435E-2,-6.956918E-4,2.7466265E-2,-2.173956E-2,-1.9400788E-2,7.2121434E-4,-4.438378E-3,7.647888E-3,6.0666217E-3,2.645923E-2,-2.3975294E-2,1.4327596E-2,5.3333137E-3,2.4972362E-2,-5.8434424E-3,3.2447E-2,-2.6376102E-2,1.1673857E-2,3.6021877E-2,-6.3043833E-3,-2.6102552E-2,7.184621E-3],"categories":[],"categories_nodes":[],"categories_segments":[],"categories_sizes":[],"default_left":[0,0,0,0,0,0,0,0,0,0,0,0,0,0,0,0,0,0,0,0,0,0,0,0,0,0,0,0,0,0,0,0,0,0,0,0,0,0,0,0,0,0,0,0,0,0,0,0,0,0,0,0,0,0,0,0,0,0,0,0,0,0,0],"id":7,"left_children":[1,3,5,7,9,11,13,15,17,19,21,23,25,27,29,31,33,35,37,39,41,43,45,47,49,51,53,55,57,59,61,-1,-1,-1,-1,-1,-1,-1,-1,-1,-1,-1,-1,-1,-1,-1,-1,-1,-1,-1,-1,-1,-1,-1,-1,-1,-1,-1,-1,-1,-1,-1,-1],"loss_changes":[7.885574E1,1.3089413E1,1.8789707E1,6.796768E0,6.3032703E0,1.853917E1,5.6192985E0,6.288563E0,3.8258858E0,6.1524906E0,3.2499702E0,1.1257604E1,7.0640717E0,6.3917675E0,6.8878393E0,6.149705E0,4.821678E0,8.893411E-1,9.576813E-1,5.5260944E0,5.8085895E-1,5.0965247E0,5.5002494E0,8.4114275E0,6.6237125E0,3.5747023E0,5.4705315E0,2.0638165E0,2.5576172E0,1.5590496E0,1.1369311E0,0E0,0E0,0E0,0E0,0E0,0E0,0E0,0E0,0E0,0E0,0E0,0E0,0E0,0E0,0E0,0E0,0E0,0E0,0E0,0E0,0E0,0E0,0E0,0E0,0E0,0E0,0E0,0E0,0E0,0E0,0E0,0E0],"parents":[2147483647,0,0,1,1,2,2,3,3,4,4,5,5,6,6,7,7,8,8,9,9,10,10,11,11,12,12,13,13,14,14,15,15,16,16,17,17,18,18,19,19,20,20,21,21,22,22,23,23,24,24,25,25,26,26,27,27,28,28,29,29,30,30],"right_children":[2,4,6,8,10,12,14,16,18,20,22,24,26,28,30,32,34,36,38,40,42,44,46,48,50,52,54,56,58,60,62,-1,-1,-1,-1,-1,-1,-1,-1,-1,-1,-1,-1,-1,-1,-1,-1,-1,-1,-1,-1,-1,-1,-1,-1,-1,-1,-1,-1,-1,-1,-1,-1],"split_conditions":[-3.8167217E-1,-1.2738514E0,1.6372352E0,1.6842978E0,2.784702E-1,7.123538E-1,1.5958762E0,-1.4748993E0,-1.475365E0,1.7086037E0,-1.1881692E0,8.9785033E-1,-1.4807115E0,-1.468939E0,1.5956681E0,1.2868425E0,1.6831264E0,1.4665706E0,1.6932143E0,1.1036425E0,5.2865344E-1,-5.9261394E-1,-9.7527707E-1,-1.575413E-1,3.1958546E-2,3.3831558E-1,-5.8673214E-2,-1.6008266E0,1.7037863E0,1.7655444E0,1.0037891E0,-1.4912943E-2,2.9058734E-2,-3.004243E-2,1.1132037E-2,3.20037E-2,-3.541742E-3,-2.3965528E-2,6.986768E-3,-1.594293E-2,1.8087799E-3,2.69435E-2,-6.956918E-4,2.7466265E-2,-2.173956E-2,-1.9400788E-2,7.2121434E-4,-4.438378E-3,7.647888E-3,6.0666217E-3,2.645923E-2,-2.3975294E-2,1.4327596E-2,5.3333137E-3,2.4972362E-2,-5.8434424E-3,3.2447E-2,-2.6376102E-2,1.1673857E-2,3.6021877E-2,-6.3043833E-3,-2.6102552E-2,7.184621E-3],"split_indices":[9,9,9,6,6,6,8,3,9,0,4,0,4,6,7,0,8,0,0,5,3,9,3,8,4,5,9,6,5,0,4,0,0,0,0,0,0,0,0,0,0,0,0,0,0,0,0,0,0,0,0,0,0,0,0,0,0,0,0,0,0,0,0],"split_type":[0,0,0,0,0,0,0,0,0,0,0,0,0,0,0,0,0,0,0,0,0,0,0,0,0,0,0,0,0,0,0,0,0,0,0,0,0,0,0,0,0,0,0,0,0,0,0,0,0,0,0,0,0,0,0,0,0,0,0,0,0,0,0],"sum_hessian":[1.921E3,7.9E2,1.131E3,2.13E2,5.77E2,1.043E3,8.8E1,2.02E2,1.1E1,3.61E2,2.16E2,7.37E2,3.06E2,7.1E1,1.7E1,3E1,1.72E2,7E0,4E0,3.53E2,8E0,1.8E1,1.98E2,5.74E2,1.63E2,1.6E1,2.9E2,7E0,6.4E1,1E1,7E0,2.4E1,6E0,1.67E2,5E0,6E0,1E0,3E0,1E0,3.03E2,5E1,6E0,2E0,1.5E1,3E0,3.8E1,1.6E2,2.54E2,3.2E2,7.9E1,8.4E1,1E1,6E0,4.5E1,2.45E2,4E0,3E0,6.2E1,2E0,9E0,1E0,6E0,1E0],"tree_param":{"num_deleted":"0","num_feature":"10","num_nodes":"63","size_leaf_vector":"1"}},{"base_weights":[1.4961159E-2,-2.0561853E-1,1.6661666E-1,-3.6495453E-1,-1.06538855E-1,1.0885323E-1,4.336506E-1,-4.07801E-1,3.6927342E-1,-2.1779631E-1,3.5092365E-2,1.431787E-1,-2.27018E-1,6.386104E-1,1.3650799E-1,-4.3775168E-1,2.7323458E-1,-2.067142E-1,5.418693E-1,-4.9538396E-2,-3.0148882E-1,-4.439758E-2,4.7414026E-1,8.406129E-2,3.346867E-1,-5.9743667E-1,-6.869483E-2,4.1546933E-2,7.3113793E-1,-8.188592E-2,6.1911744E-1,-2.8978353E-2,-1.5554664E-2,-1.91589E-2,2.9849762E-2,-1.585882E-2,4.721008E-3,3.419781E-2,-1.3245286E-2,-9.718783E-3,1.3751675E-2,-2.037675E-2,-7.205095E-3,1.4187778E-2,-5.1358207E-3,-6.537143E-3,3.275867E-2,1.3228789E-3,1.6477345E-2,2.368407E-2,7.8065167E-3,5.935106E-3,-3.409223E-2,2.9066687E-3,-3.1381737E-2,-1.5126745E-2,1.848246E-2,4.0981796E-2,8.390621E-3,7.16874E-3,-2.4828805E-2,3.4719314E-2,-1.1776179E-2],"categories":[],"categories_nodes":[],"categories_segments":[],"categories_sizes":[],"default_left":[0,0,0,0,0,0,0,0,0,0,0,0,0,0,0,0,0,0,0,0,0,0,0,0,0,0,0,0,0,0,0,0,0,0,0,0,0,0,0,0,0,0,0,0,0,0,0,0,0,0,0,0,0,0,0,0,0,0,0,0,0,0,0],"id":8,"left_children":[1,3,5,7,9,11,13,15,17,19,21,23,25,27,29,31,33,35,37,39,41,43,45,47,49,51,53,55,57,59,61,-1,-1,-1,-1,-1,-1,-1,-1,-1,-1,-1,-1,-1,-1,-1,-1,-1,-1,-1,-1,-1,-1,-1,-1,-1,-1,-1,-1,-1,-1,-1,-1],"loss_changes":[6.40314E1,1.2119419E1,1.7255703E1,1.0096302E1,7.727889E0,1.0988192E1,1.1744583E1,6.3705254E0,2.4489088E0,3.7837696E0,7.7483296E0,9.539173E0,5.014277E0,6.311756E0,9.528592E0,4.002159E0,4.3315854E0,4.1585085E-1,2.7400336E0,4.8272796E0,2.7439976E0,3.7818577E0,4.15143E0,9.289386E0,4.593899E0,1.9763231E0,5.0029073E0,2.929933E0,4.3474426E0,6.427853E0,2.6189032E0,0E0,0E0,0E0,0E0,0E0,0E0,0E0,0E0,0E0,0E0,0E0,0E0,0E0,0E0,0E0,0E0,0E0,0E0,0E0,0E0,0E0,0E0,0E0,0E0,0E0,0E0,0E0,0E0,0E0,0E0,0E0,0E0],"parents":[2147483647,0,0,1,1,2,2,3,3,4,4,5,5,6,6,7,7,8,8,9,9,10,10,11,11,12,12,13,13,14,14,15,15,16,16,17,17,18,18,19,19,20,20,21,21,22,22,23,23,24,24,25,25,26,26,27,27,28,28,29,29,30,30],"right_children":[2,4,6,8,10,12,14,16,18,20,22,24,26,28,30,32,34,36,38,40,42,44,46,48,50,52,54,56,58,60,62,-1,-1,-1,-1,-1,-1,-1,-1,-1,-1,-1,-1,-1,-1,-1,-1,-1,-1,-1,-1,-1,-1,-1,-1,-1,-1,-1,-1,-1,-1,-1,-1],"split_conditions":[-3.8167217E-1,-1.1245922E0,1.1962719E0,1.6842978E0,-2.0294973E-1,1.5959044E0,1.5400747E0,1.7086037E0,-1.5025969E0,-6.0278785E-1,1.1962719E0,8.64211E-1,-9.9812245E-1,-1.0330853E0,1.0239779E0,-5.502313E-1,-4.807645E-1,-1.0900996E0,1.7149876E0,1.7689401E-1,-5.015757E-1,-1.2782292E0,-9.3534696E-1,8.839469E-1,1.598666E-1,-1.5983654E0,6.630336E-1,1.3367155E0,1.5409954E0,8.5060847E-1,1.6380379E0,-2.8978353E-2,-1.5554664E-2,-1.91589E-2,2.9849762E-2,-1.585882E-2,4.721008E-3,3.419781E-2,-1.3245286E-2,-9.718783E-3,1.3751675E-2,-2.037675E-2,-7.205095E-3,1.4187778E-2,-5.1358207E-3,-6.537143E-3,3.275867E-2,1.3228789E-3,1.6477345E-2,2.368407E-2,7.8065167E-3,5.935106E-3,-3.409223E-2,2.9066687E-3,-3.1381737E-2,-1.5126745E-2,1.848246E-2,4.0981796E-2,8.390621E-3,7.16874E-3,-2.4828805E-2,3.4719314E-2,-1.1776179E-2],"split_indices":[9,9,3,6,2,9,3,0,0,5,3,6,4,5,5,6,5,2,4,6,1,3,4,0,3,3,3,4,9,1,1,0,0,0,0,0,0,0,0,0,0,0,0,0,0,0,0,0,0,0,0,0,0,0,0,0,0,0,0,0,0,0,0],"split_type":[0,0,0,0,0,0,0,0,0,0,0,0,0,0,0,0,0,0,0,0,0,0,0,0,0,0,0,0,0,0,0,0,0,0,0,0,0,0,0,0,0,0,0,0,0,0,0,0,0,0,0,0,0,0,0,0,0,0,0,0,0,0,0],"sum_hessian":[1.904E3,7.75E2,1.129E3,2.92E2,4.83E2,9.34E2,1.95E2,2.78E2,1.4E1,2.69E2,2.14E2,8.5E2,8.4E1,1.12E2,8.3E1,2.68E2,1E1,3E0,1.1E1,9.2E1,1.77E2,1.85E2,2.9E1,6.55E2,1.95E2,2.1E1,6.3E1,1.6E1,9.6E1,6E1,2.3E1,1.18E2,1.5E2,3E0,7E0,2E0,1E0,1E1,1E0,6.5E1,2.7E1,1.01E2,7.6E1,2.5E1,1.6E2,7E0,2.2E1,5.35E2,1.2E2,1.05E2,9E1,2E0,1.9E1,5.5E1,8E0,8E0,8E0,8.1E1,1.5E1,4.1E1,1.9E1,2.2E1,1E0],"tree_param":{"num_deleted":"0","num_feature":"10","num_nodes":"63","size_leaf_vector":"1"}},{"base_weights":[-8.003277E-3,-1.8976615E-1,1.4829142E-1,-2.3223227E-1,1.0427185E-1,5.8387853E-2,2.8611803E-1,-4.64792E-1,-1.6262263E-1,1.6030762E-1,-4.3882704E-1,-8.130904E-2,1.3783309E-1,3.220049E-1,-4.052981E-1,-1.1139152E-1,-5.661283E-1,-2.4157389E-1,-5.9541114E-2,-8.433325E-2,2.8508675E-1,-7.7182055E-3,-2.6059484E-2,-1.6540502E-1,1.06013946E-1,1.809361E-1,-2.5008246E-1,4.7447324E-2,4.0646738E-1,-6.031184E-1,2.1550809E-1,9.559644E-3,-2.0799236E-2,1.7291928E-2,-3.001065E-2,-1.6463755E-2,-5.922644E-3,-5.6620818E-3,1.2017141E-2,1.2501593E-2,-1.5622953E-2,-6.1705946E-3,2.5109574E-2,1.0196199E-3,-1.4698486E-3,-1.2114784E-2,1.040852E-2,1.2992012E-2,-1.4578308E-2,5.635693E-3,2.090967E-2,8.533981E-3,-2.1345705E-2,-1.103918E-2,9.617809E-3,2.152067E-2,-2.9414056E-2,4.2166375E-3,-3.577019E-2,2.0880863E-2,-1.1678044E-2],"categories":[],"categories_nodes":[],"categories_segments":[],"categories_sizes":[],"default_left":[0,0,0,0,0,0,0,0,0,0,0,0,0,0,0,0,0,0,0,0,0,0,0,0,0,0,0,0,0,0,0,0,0,0,0,0,0,0,0,0,0,0,0,0,0,0,0,0,0,0,0,0,0,0,0,0,0,0,0,0,0],"id":9,"left_children":[1,3,5,7,9,11,13,15,17,19,21,23,25,27,29,31,33,35,37,39,41,43,-1,45,47,49,51,53,55,57,59,-1,-1,-1,-1,-1,-1,-1,-1,-1,-1,-1,-1,-1,-1,-1,-1,-1,-1,-1,-1,-1,-1,-1,-1,-1,-1,-1,-1,-1,-1],"loss_changes":[5.3832912E1,1.1059383E1,1.2543005E1,1.203857E1,3.8210945E0,6.9702473E0,1.0602463E1,5.916031E0,4.794855E0,3.3865013E0,4.0597415E-1,3.6951385E0,6.8976545E0,8.80846E0,3.351662E0,4.5450983E0,5.2031517E0,3.443863E0,4.4197283E0,3.4417157E0,6.6953444E0,7.2631957E-3,0E0,4.848108E0,4.9045153E0,5.6237326E0,3.489298E0,3.9437733E0,8.245361E0,1.691092E0,1.304544E0,0E0,0E0,0E0,0E0,0E0,0E0,0E0,0E0,0E0,0E0,0E0,0E0,0E0,0E0,0E0,0E0,0E0,0E0,0E0,0E0,0E0,0E0,0E0,0E0,0E0,0E0,0E0,0E0,0E0,0E0],"parents":[2147483647,0,0,1,1,2,2,3,3,4,4,5,5,6,6,7,7,8,8,9,9,10,10,11,11,12,12,13,13,14,14,15,15,16,16,17,17,18,18,19,19,20,20,21,21,23,23,24,24,25,25,26,26,27,27,28,28,29,29,30,30],"right_children":[2,4,6,8,10,12,14,16,18,20,22,24,26,28,30,32,34,36,38,40,42,44,-1,46,48,50,52,54,56,58,60,-1,-1,-1,-1,-1,-1,-1,-1,-1,-1,-1,-1,-1,-1,-1,-1,-1,-1,-1,-1,-1,-1,-1,-1,-1,-1,-1,-1,-1,-1],"split_conditions":[-2.2184645E-1,1.3622538E0,4.4076574E-1,-1.2738514E0,1.6689175E0,-2.9915383E-1,1.6517595E0,-1.1150092E0,-1.7096944E-1,-8.725657E-1,-4.922753E-2,4.9304196E-1,1.5868887E0,-4.5370284E-1,1.4892349E0,-4.765319E-2,-1.6576442E0,-4.6091524E-1,1.2015648E0,-9.050869E-1,-6.85649E-1,1.4665706E0,-2.6059484E-2,8.839469E-1,-5.387335E-1,1.0867363E0,-1.0463426E0,8.502115E-1,1.7849472E0,5.309384E-1,8.0371016E-1,9.559644E-3,-2.0799236E-2,1.7291928E-2,-3.001065E-2,-1.6463755E-2,-5.922644E-3,-5.6620818E-3,1.2017141E-2,1.2501593E-2,-1.5622953E-2,-6.1705946E-3,2.5109574E-2,1.0196199E-3,-1.4698486E-3,-1.2114784E-2,1.040852E-2,1.2992012E-2,-1.4578308E-2,5.635693E-3,2.090967E-2,8.533981E-3,-2.1345705E-2,-1.103918E-2,9.617809E-3,2.152067E-2,-2.9414056E-2,4.2166375E-3,-3.577019E-2,2.0880863E-2,-1.1678044E-2],"split_indices":[9,0,7,9,3,8,2,1,2,8,7,3,9,5,8,5,0,1,5,3,1,0,0,0,7,3,7,7,9,7,3,0,0,0,0,0,0,0,0,0,0,0,0,0,0,0,0,0,0,0,0,0,0,0,0,0,0,0,0,0,0],"split_type":[0,0,0,0,0,0,0,0,0,0,0,0,0,0,0,0,0,0,0,0,0,0,0,0,0,0,0,0,0,0,0,0,0,0,0,0,0,0,0,0,0,0,0,0,0,0,0,0,0,0,0,0,0,0,0,0,0,0,0,0,0],"sum_hessian":[1.885E3,8.71E2,1.014E3,7.62E2,1.09E2,6.18E2,3.96E2,1.69E2,5.93E2,1.02E2,7E0,2.24E2,3.94E2,3.79E2,1.7E1,4E1,1.29E2,3.32E2,2.61E2,3.5E1,6.7E1,2E0,5E0,1.55E2,6.9E1,3.57E2,3.7E1,9.1E1,2.88E2,1.3E1,4E0,2.1E1,1.9E1,3E0,1.26E2,1.89E2,1.43E2,2.24E2,3.7E1,1.4E1,2.1E1,2.4E1,4.3E1,1E0,1E0,1.3E2,2.5E1,5.1E1,1.8E1,2.83E2,7.4E1,1.1E1,2.6E1,3.1E1,6E1,2.84E2,4E0,2E0,1.1E1,3E0,1E0],"tree_param":{"num_deleted":"0","num_feature":"10","num_nodes":"61","size_leaf_vector":"1"}},{"base_weights":[-2.2389855E-4,-2.0324816E-1,1.6409327E-1,-3.6607575E-1,-1.2540393E-1,1.8120931E-2,2.6026395E-1,-4.1787177E-1,1.0399537E-1,-2.2122627E-1,-2.4772775E-3,-7.152079E-2,2.244979E-1,1.15291886E-1,3.6405113E-1,2.0470613E-1,-4.541729E-1,-2.6734084E-1,4.8843133E-1,-2.750851E-1,-2.8497297E-2,-1.3271558E-1,1.8403247E-1,-1.2704425E-1,1.9712952E-1,1.1532001E-1,6.155921E-1,-7.027044E-2,2.4231438E-1,4.0462983E-1,-1.7726529E-1,2.892572E-2,-1.3107518E-2,-3.7615504E-2,-1.7416151E-2,2.23494E-2,-3.4104843E-2,2.7290432E-2,-3.5800466E-3,-1.4518942E-2,1.2240061E-2,4.3867426E-3,-1.366816E-2,-9.509287E-3,1.9656213E-2,4.569906E-3,2.7522653E-2,-1.6463272E-2,-2.0429331E-3,1.8718595E-2,-2.1516068E-2,-1.5502584E-2,1.3195604E-2,3.590816E-2,-3.8433E-3,-6.958667E-3,1.1630025E-2,1.6722945E-2,-8.42812E-3,1.4387715E-2,2.814938E-2,1.6682472E-2,-2.2566989E-2],"categories":[],"categories_nodes":[],"categories_segments":[],"categories_sizes":[],"default_left":[0,0,0,0,0,0,0,0,0,0,0,0,0,0,0,0,0,0,0,0,0,0,0,0,0,0,0,0,0,0,0,0,0,0,0,0,0,0,0,0,0,0,0,0,0,0,0,0,0,0,0,0,0,0,0,0,0,0,0,0,0,0,0],"id":10,"left_children":[1,3,5,7,9,11,13,15,17,19,21,23,25,27,29,31,33,35,37,39,41,43,45,47,49,51,53,55,57,59,61,-1,-1,-1,-1,-1,-1,-1,-1,-1,-1,-1,-1,-1,-1,-1,-1,-1,-1,-1,-1,-1,-1,-1,-1,-1,-1,-1,-1,-1,-1,-1,-1],"loss_changes":[6.331794E1,1.05317E1,1.4702553E1,6.8398895E0,6.852708E0,7.887276E0,9.299362E0,6.0245323E0,5.078293E0,3.355114E0,6.437706E0,4.570306E0,5.1532E0,6.472768E0,8.398167E0,3.7250407E0,6.0742874E0,7.153617E0,7.4166584E-1,2.3829346E0,2.311437E0,5.088166E0,3.4482505E0,4.289871E0,6.6996775E0,7.172267E0,2.193718E0,2.5408895E0,6.4152117E0,5.5197716E0,4.813779E0,0E0,0E0,0E0,0E0,0E0,0E0,0E0,0E0,0E0,0E0,0E0,0E0,0E0,0E0,0E0,0E0,0E0,0E0,0E0,0E0,0E0,0E0,0E0,0E0,0E0,0E0,0E0,0E0,0E0,0E0,0E0,0E0],"parents":[2147483647,0,0,1,1,2,2,3,3,4,4,5,5,6,6,7,7,8,8,9,9,10,10,11,11,12,12,13,13,14,14,15,15,16,16,17,17,18,18,19,19,20,20,21,21,22,22,23,23,24,24,25,25,26,26,27,27,28,28,29,29,30,30],"right_children":[2,4,6,8,10,12,14,16,18,20,22,24,26,28,30,32,34,36,38,40,42,44,46,48,50,52,54,56,58,60,62,-1,-1,-1,-1,-1,-1,-1,-1,-1,-1,-1,-1,-1,-1,-1,-1,-1,-1,-1,-1,-1,-1,-1,-1,-1,-1,-1,-1,-1,-1,-1,-1],"split_conditions":[-2.8531495E-1,-1.1763169E0,-2.1141703E-1,1.5299666E0,-2.0294973E-1,7.535921E-1,-4.347991E-2,-1.6353139E0,7.65108E-1,9.9265134E-1,2.6733643E-1,1.0772643E0,1.1962719E0,4.6670514E-1,1.6227312E0,-1.4733204E0,-1.1620307E0,-1.4651775E0,1.6689175E0,1.7345527E0,1.1623204E0,1.3752654E0,1.2359328E0,-7.484218E-1,1.6372352E0,-8.2818305E-1,1.5065299E0,8.8917273E-1,1.5959044E0,1.0666775E0,8.63743E-1,2.892572E-2,-1.3107518E-2,-3.7615504E-2,-1.7416151E-2,2.23494E-2,-3.4104843E-2,2.7290432E-2,-3.5800466E-3,-1.4518942E-2,1.2240061E-2,4.3867426E-3,-1.366816E-2,-9.509287E-3,1.9656213E-2,4.569906E-3,2.7522653E-2,-1.6463272E-2,-2.0429331E-3,1.8718595E-2,-2.1516068E-2,-1.5502584E-2,1.3195604E-2,3.590816E-2,-3.8433E-3,-6.958667E-3,1.1630025E-2,1.6722945E-2,-8.42812E-3,1.4387715E-2,2.814938E-2,1.6682472E-2,-2.2566989E-2],"split_indices":[9,9,7,7,2,5,2,1,0,0,5,0,3,9,2,7,5,0,3,5,7,0,3,3,9,0,4,3,9,2,1,0,0,0,0,0,0,0,0,0,0,0,0,0,0,0,0,0,0,0,0,0,0,0,0,0,0,0,0,0,0,0,0],"split_type":[0,0,0,0,0,0,0,0,0,0,0,0,0,0,0,0,0,0,0,0,0,0,0,0,0,0,0,0,0,0,0,0,0,0,0,0,0,0,0,0,0,0,0,0,0,0,0,0,0,0,0,0,0,0,0,0,0,0,0,0,0,0,0],"sum_hessian":[1.888E3,8.44E2,1.044E3,2.67E2,5.77E2,4.17E2,6.27E2,2.41E2,2.6E1,3.22E2,2.55E2,2.93E2,1.24E2,2.66E2,3.61E2,1.2E1,2.29E2,1.4E1,1.2E1,2.5E2,7.2E1,1.51E2,1.04E2,2.45E2,4.8E1,1.02E2,2.2E1,1.09E2,1.57E2,3.37E2,2.4E1,6E0,6E0,5.2E1,1.77E2,5E0,9E0,1.1E1,1E0,2.45E2,5E0,5.1E1,2.1E1,1.39E2,1.2E1,8.8E1,1.6E1,6.9E1,1.76E2,3.9E1,9E0,2.5E1,7.7E1,1.9E1,3E0,9.1E1,1.8E1,1.29E2,2.8E1,2.02E2,1.35E2,8E0,1.6E1],"tree_param":{"num_deleted":"0","num_feature":"10","num_nodes":"63","size_leaf_vector":"1"}},{"base_weights":[3.4172183E-3,-1.5612467E-1,1.6824175E-1,-3.2531682E-1,-9.06618E-2,1.5484437E-2,2.7829838E-1,-3.7982592E-1,3.0571827E-1,-1.2629691E-1,1.6187534E-1,1.0176813E-1,-2.1063893E-1,1.3774486E-1,4.6313828E-1,-4.1048813E-1,3.3233225E-1,-2.2343811E-1,5.0376946E-1,-1.9558856E-1,-1.0777671E-2,-3.2905775E-1,3.3768246E-1,-2.075845E-2,3.7520266E-1,-4.7223833E-1,-1.0492361E-2,-3.3093214E-1,1.8208475E-1,4.2329654E-2,5.4189867E-1,1.762043E-3,-2.2049326E-2,-7.6587605E-3,2.7728606E-2,-2.1333901E-2,4.7022803E-3,3.0788038E-2,-1.2600615E-2,-1.2807588E-2,-1.7003106E-3,-1.8375678E-2,3.0064937E-3,-2.314204E-2,5.820775E-3,3.0035572E-4,2.4261938E-2,-4.2296364E-3,1.1852495E-2,-1.1384661E-2,2.2812312E-2,1.8368004E-2,-3.3019222E-2,3.3823967E-2,-6.5764138E-3,1.23063205E-2,-1.9774627E-2,1.0809504E-2,-2.1559905E-2,2.612336E-2,-9.467442E-3,9.721646E-3,2.9959118E-2],"categories":[],"categories_nodes":[],"categories_segments":[],"categories_sizes":[],"default_left":[0,0,0,0,0,0,0,0,0,0,0,0,0,0,0,0,0,0,0,0,0,0,0,0,0,0,0,0,0,0,0,0,0,0,0,0,0,0,0,0,0,0,0,0,0,0,0,0,0,0,0,0,0,0,0,0,0,0,0,0,0,0,0],"id":11,"left_children":[1,3,5,7,9,11,13,15,17,19,21,23,25,27,29,31,33,35,37,39,41,43,45,47,49,51,53,55,57,59,61,-1,-1,-1,-1,-1,-1,-1,-1,-1,-1,-1,-1,-1,-1,-1,-1,-1,-1,-1,-1,-1,-1,-1,-1,-1,-1,-1,-1,-1,-1,-1,-1],"loss_changes":[4.9884155E1,1.0529604E1,1.5664009E1,9.764643E0,6.4196525E0,7.8334427E0,1.3762127E1,6.0975E0,3.0780077E0,4.9362516E0,8.237133E0,9.754813E0,5.7869883E0,6.847333E0,7.574497E0,3.3402672E0,1.8274219E0,8.458894E-1,2.3840747E0,3.73382E0,6.1054707E0,1.8189249E0,3.3133998E0,3.4739506E0,4.916896E0,8.795415E0,6.098962E0,1.5671039E0,6.55272E0,5.16662E0,3.2988014E0,0E0,0E0,0E0,0E0,0E0,0E0,0E0,0E0,0E0,0E0,0E0,0E0,0E0,0E0,0E0,0E0,0E0,0E0,0E0,0E0,0E0,0E0,0E0,0E0,0E0,0E0,0E0,0E0,0E0,0E0,0E0,0E0],"parents":[2147483647,0,0,1,1,2,2,3,3,4,4,5,5,6,6,7,7,8,8,9,9,10,10,11,11,12,12,13,13,14,14,15,15,16,16,17,17,18,18,19,19,20,20,21,21,22,22,23,23,24,24,25,25,26,26,27,27,28,28,29,29,30,30],"right_children":[2,4,6,8,10,12,14,16,18,20,22,24,26,28,30,32,34,36,38,40,42,44,46,48,50,52,54,56,58,60,62,-1,-1,-1,-1,-1,-1,-1,-1,-1,-1,-1,-1,-1,-1,-1,-1,-1,-1,-1,-1,-1,-1,-1,-1,-1,-1,-1,-1,-1,-1,-1,-1],"split_conditions":[-8.714004E-2,-1.1763169E0,-1.3237709E-1,1.5925369E0,1.2555851E0,1.3020264E0,5.972226E-1,1.7014725E0,-1.4447767E0,-2.3454497E-2,-7.362293E-1,6.809161E-1,-9.803749E-1,-1.3117504E0,-7.131523E-1,-1.6063825E0,-6.098736E-1,-1.6352359E0,1.7149876E0,-4.3786916E-1,-1.1511772E0,1.0271928E0,-5.090104E-1,6.9434226E-1,-1.1018482E0,-1.3778675E0,-8.8458604E-1,-1.6008266E0,1.6529195E0,6.3225466E-1,-6.574639E-1,1.762043E-3,-2.2049326E-2,-7.6587605E-3,2.7728606E-2,-2.1333901E-2,4.7022803E-3,3.0788038E-2,-1.2600615E-2,-1.2807588E-2,-1.7003106E-3,-1.8375678E-2,3.0064937E-3,-2.314204E-2,5.820775E-3,3.0035572E-4,2.4261938E-2,-4.2296364E-3,1.1852495E-2,-1.1384661E-2,2.2812312E-2,1.8368004E-2,-3.3019222E-2,3.3823967E-2,-6.5764138E-3,1.23063205E-2,-1.9774627E-2,1.0809504E-2,-2.1559905E-2,2.612336E-2,-9.467442E-3,9.721646E-3,2.9959118E-2],"split_indices":[9,9,4,6,3,9,8,8,4,0,1,2,4,1,0,2,0,3,4,9,8,2,2,3,8,2,4,6,9,4,6,0,0,0,0,0,0,0,0,0,0,0,0,0,0,0,0,0,0,0,0,0,0,0,0,0,0,0,0,0,0,0,0],"split_type":[0,0,0,0,0,0,0,0,0,0,0,0,0,0,0,0,0,0,0,0,0,0,0,0,0,0,0,0,0,0,0,0,0,0,0,0,0,0,0,0,0,0,0,0,0,0,0,0,0,0,0,0,0,0,0,0,0,0,0,0,0,0,0],"sum_hessian":[1.887E3,9.59E2,9.28E2,2.62E2,6.97E2,3.91E2,5.37E2,2.43E2,1.9E1,6.13E2,8.4E1,2.85E2,1.06E2,3.1E2,2.27E2,2.35E2,8E0,5E0,1.4E1,3.81E2,2.32E2,2.1E1,6.3E1,2E2,8.5E1,4.3E1,6.3E1,2.4E1,2.86E2,3.7E1,1.9E2,1.5E1,2.2E2,3E0,5E0,2E0,3E0,1.3E1,1E0,2.75E2,1.06E2,3.5E1,1.97E2,1.6E1,5E0,2.1E1,4.2E1,1.63E2,3.7E1,9E0,7.6E1,7E0,3.6E1,6E0,5.7E1,1E0,2.3E1,2.74E2,1.2E1,1E1,2.7E1,3E1,1.6E2],"tree_param":{"num_deleted":"0","num_feature":"10","num_nodes":"63","size_leaf_vector":"1"}},{"base_weights":[-1.3495894E-2,-2.131277E-1,1.16539255E-1,-2.2572158E-1,4.3672878E-1,3.0315587E-2,2.5890586E-1,-3.6715204E-1,-1.6745967E-1,-1.1303099E-1,6.6707826E-1,-1.5571943E-1,1.1944078E-1,3.0992582E-1,-1.5562953E-1,-4.001602E-1,2.4259186E-1,-2.2719349E-1,-5.0542E-2,-1.5351844E-2,8.085567E-3,8.959995E-2,3.68887E-2,-5.8181826E-2,-4.5172498E-1,5.3688962E-2,4.5056802E-1,2.3174693E-1,6.0678357E-1,-3.567664E-1,3.958469E-1,1.1184727E-2,-2.1743363E-2,-9.195338E-3,2.5257234E-2,-1.2904258E-2,3.1013929E-3,-1.050463E-2,4.938583E-3,-1.6068543E-3,6.8335184E-3,-5.9291106E-3,1.8459601E-2,-3.1863075E-2,-1.6438244E-4,-1.1016246E-3,1.5933864E-2,2.614144E-2,-1.6194906E-2,1.3451837E-2,-2.1097539E-2,1.9102592E-3,3.437944E-2,5.5188974E-3,-3.0106409E-2,2.6124964E-2,-1.2532818E-2],"categories":[],"categories_nodes":[],"categories_segments":[],"categories_sizes":[],"default_left":[0,0,0,0,0,0,0,0,0,0,0,0,0,0,0,0,0,0,0,0,0,0,0,0,0,0,0,0,0,0,0,0,0,0,0,0,0,0,0,0,0,0,0,0,0,0,0,0,0,0,0,0,0,0,0,0,0],"id":12,"left_children":[1,3,5,7,9,11,13,15,17,19,21,23,25,27,29,31,33,35,37,-1,-1,39,-1,41,43,45,47,49,51,53,55,-1,-1,-1,-1,-1,-1,-1,-1,-1,-1,-1,-1,-1,-1,-1,-1,-1,-1,-1,-1,-1,-1,-1,-1,-1,-1],"loss_changes":[4.9498497E1,6.6474266E0,1.4138807E1,5.7984314E0,2.4031932E0,1.2113791E1,9.441238E0,4.7521973E0,3.6720085E0,7.279713E-1,1.5937996E-1,6.7111745E0,1.0612749E1,8.324814E0,6.3631587E0,4.881775E0,2.0321956E0,3.2249985E0,4.558673E0,0E0,0E0,6.2072426E-2,0E0,4.9685907E0,4.815213E0,8.402336E0,5.3797626E0,8.2705E0,3.452299E0,4.917083E0,1.9649374E0,0E0,0E0,0E0,0E0,0E0,0E0,0E0,0E0,0E0,0E0,0E0,0E0,0E0,0E0,0E0,0E0,0E0,0E0,0E0,0E0,0E0,0E0,0E0,0E0,0E0,0E0],"parents":[2147483647,0,0,1,1,2,2,3,3,4,4,5,5,6,6,7,7,8,8,9,9,10,10,11,11,12,12,13,13,14,14,15,15,16,16,17,17,18,18,21,21,23,23,24,24,25,25,26,26,27,27,28,28,29,29,30,30],"right_children":[2,4,6,8,10,12,14,16,18,20,22,24,26,28,30,32,34,36,38,-1,-1,40,-1,42,44,46,48,50,52,54,56,-1,-1,-1,-1,-1,-1,-1,-1,-1,-1,-1,-1,-1,-1,-1,-1,-1,-1,-1,-1,-1,-1,-1,-1,-1,-1],"split_conditions":[-4.3786916E-1,1.7345527E0,4.7803378E-1,-1.2738514E0,-4.5581847E-1,-6.874137E-1,1.5959044E0,1.6827241E0,1.5290658E-1,-7.7126086E-1,6.617404E-2,1.2822529E0,1.0467751E0,1.1962719E0,1.3552039E0,-1.5917828E0,-3.203169E-1,1.3832095E0,-4.376522E-1,-1.5351844E-2,8.085567E-3,9.688691E-2,3.68887E-2,8.7757623E-1,1.0528085E0,6.7656404E-1,1.7029771E0,1.7194809E0,8.734663E-1,-5.273439E-1,1.5894843E0,1.1184727E-2,-2.1743363E-2,-9.195338E-3,2.5257234E-2,-1.2904258E-2,3.1013929E-3,-1.050463E-2,4.938583E-3,-1.6068543E-3,6.8335184E-3,-5.9291106E-3,1.8459601E-2,-3.1863075E-2,-1.6438244E-4,-1.1016246E-3,1.5933864E-2,2.614144E-2,-1.6194906E-2,1.3451837E-2,-2.1097539E-2,1.9102592E-3,3.437944E-2,5.5188974E-3,-3.0106409E-2,2.6124964E-2,-1.2532818E-2],"split_indices":[9,5,5,9,3,4,9,4,0,0,4,9,7,3,4,0,2,4,3,0,0,0,0,7,3,0,4,5,5,4,2,0,0,0,0,0,0,0,0,0,0,0,0,0,0,0,0,0,0,0,0,0,0,0,0,0,0],"split_type":[0,0,0,0,0,0,0,0,0,0,0,0,0,0,0,0,0,0,0,0,0,0,0,0,0,0,0,0,0,0,0,0,0,0,0,0,0,0,0,0,0,0,0,0,0,0,0,0,0,0,0,0,0,0,0,0,0],"sum_hessian":[1.897E3,7.47E2,1.15E3,7.36E2,1.1E1,7.2E2,4.3E2,2.07E2,5.29E2,4E0,7E0,2.32E2,4.88E2,3.84E2,4.6E1,1.98E2,9E0,3.47E2,1.82E2,2E0,2E0,2E0,5E0,1.79E2,5.3E1,4.12E2,7.6E1,3.11E2,7.3E1,3.5E1,1.1E1,9E0,1.89E2,4E0,5E0,3.14E2,3.3E1,8.7E1,9.5E1,1E0,1E0,1.6E2,1.9E1,3.6E1,1.7E1,3.24E2,8.8E1,7.1E1,5E0,2.97E2,1.4E1,1E1,6.3E1,1.3E1,2.2E1,1E1,1E0],"tree_param":{"num_deleted":"0","num_feature":"10","num_nodes":"57","size_leaf_vector":"1"}},{"base_weights":[-3.0347118E-3,-1.7514834E-1,1.3855703E-1,-3.582664E-1,-1.0857015E-1,-1.1517738E-2,2.1714756E-1,-3.918142E-1,4.846877E-1,-2.106366E-1,2.8366653E-2,-3.6505666E-2,6.315728E-1,2.5559694E-1,-2.1702927E-1,-7.618353E-1,-3.0987784E-1,-1.0950522E-2,3.3228137E-2,-3.9872262E-1,-1.2621364E-1,-4.9477585E-2,2.6432142E-1,-8.082182E-2,2.4456403E-1,-1.8655265E-3,6.9737554E-1,1.3741155E-1,3.4155148E-1,-7.442163E-2,-6.9301724E-1,-3.9964452E-2,4.887519E-3,1.0776656E-2,-2.0147478E-2,-2.5025073E-2,-7.647899E-3,-1.0375147E-2,7.074316E-3,1.0960299E-2,-4.79086E-3,2.9725209E-2,4.6431753E-3,-2.2802923E-3,-1.6119486E-2,2.2104401E-2,-6.6733123E-3,3.811135E-2,-6.736847E-4,-2.3958763E-2,7.877712E-3,-1.7381798E-2,1.8901171E-2,-1.6087625E-2,2.8358117E-2,3.721974E-3,-3.939942E-2],"categories":[],"categories_nodes":[],"categories_segments":[],"categories_sizes":[],"default_left":[0,0,0,0,0,0,0,0,0,0,0,0,0,0,0,0,0,0,0,0,0,0,0,0,0,0,0,0,0,0,0,0,0,0,0,0,0,0,0,0,0,0,0,0,0,0,0,0,0,0,0,0,0,0,0,0,0],"id":13,"left_children":[1,3,5,7,9,11,13,15,17,19,21,23,25,27,29,31,33,-1,-1,35,37,39,41,43,45,-1,47,49,51,53,55,-1,-1,-1,-1,-1,-1,-1,-1,-1,-1,-1,-1,-1,-1,-1,-1,-1,-1,-1,-1,-1,-1,-1,-1,-1,-1],"loss_changes":[4.6814003E1,1.037569E1,1.2443865E1,7.4254932E0,9.016864E0,6.012786E0,1.1829487E1,5.580574E0,2.1200862E0,5.607649E0,5.1899834E0,4.558052E0,7.462983E-1,6.246502E0,3.7470143E0,1.5818615E0,9.774317E0,0E0,0E0,2.4187508E0,5.848214E0,2.7694669E0,3.6868324E0,2.5891924E0,4.0285215E0,0E0,6.5064526E-1,3.8177414E0,9.85685E0,9.005288E0,1.2408085E0,0E0,0E0,0E0,0E0,0E0,0E0,0E0,0E0,0E0,0E0,0E0,0E0,0E0,0E0,0E0,0E0,0E0,0E0,0E0,0E0,0E0,0E0,0E0,0E0,0E0,0E0],"parents":[2147483647,0,0,1,1,2,2,3,3,4,4,5,5,6,6,7,7,8,8,9,9,10,10,11,11,12,12,13,13,14,14,15,15,16,16,19,19,20,20,21,21,22,22,23,23,24,24,26,26,27,27,28,28,29,29,30,30],"right_children":[2,4,6,8,10,12,14,16,18,20,22,24,26,28,30,32,34,-1,-1,36,38,40,42,44,46,-1,48,50,52,54,56,-1,-1,-1,-1,-1,-1,-1,-1,-1,-1,-1,-1,-1,-1,-1,-1,-1,-1,-1,-1,-1,-1,-1,-1,-1,-1],"split_conditions":[-2.4436852E-1,-1.2738514E0,-1.9347669E-1,1.7312809E0,-2.0294973E-1,1.7039644E0,1.6529195E0,-1.4883394E0,-1.6338785E0,-8.962129E-1,5.5694366E-1,1.2290896E0,-1.6852169E0,6.274665E-1,1.5894843E0,1.7258923E0,-1.4748993E0,-1.0950522E-2,3.3228137E-2,2.5127074E-1,2.836202E-1,-1.239382E0,-7.2801673E-1,1.560461E0,1.5846546E0,-1.8655265E-3,-4.8459747E-1,-1.5934781E0,-1.5101268E0,1.0394459E0,-1.6022977E0,-3.9964452E-2,4.887519E-3,1.0776656E-2,-2.0147478E-2,-2.5025073E-2,-7.647899E-3,-1.0375147E-2,7.074316E-3,1.0960299E-2,-4.79086E-3,2.9725209E-2,4.6431753E-3,-2.2802923E-3,-1.6119486E-2,2.2104401E-2,-6.6733123E-3,3.811135E-2,-6.736847E-4,-2.3958763E-2,7.877712E-3,-1.7381798E-2,1.8901171E-2,-1.6087625E-2,2.8358117E-2,3.721974E-3,-3.939942E-2],"split_indices":[9,9,8,8,2,7,9,4,0,8,0,4,0,9,2,2,3,0,0,5,3,7,4,9,4,0,8,2,5,2,0,0,0,0,0,0,0,0,0,0,0,0,0,0,0,0,0,0,0,0,0,0,0,0,0,0,0],"split_type":[0,0,0,0,0,0,0,0,0,0,0,0,0,0,0,0,0,0,0,0,0,0,0,0,0,0,0,0,0,0,0,0,0,0,0,0,0,0,0,0,0,0,0,0,0,0,0,0,0,0,0,0,0,0,0,0,0],"sum_hessian":[1.911E3,8.62E2,1.049E3,2.24E2,6.38E2,3.62E2,6.87E2,2.18E2,6E0,3.64E2,2.74E2,3.53E2,9E0,6.33E2,5.4E1,3.2E1,1.86E2,1E0,5E0,1.07E2,2.57E2,2.09E2,6.5E1,3.08E2,4.5E1,1E0,8E0,2.72E2,3.61E2,4.6E1,8E0,3.1E1,1E0,2.7E1,1.59E2,7.2E1,3.5E1,1.98E2,5.9E1,2.8E1,1.81E2,1.8E1,4.7E1,2.74E2,3.4E1,2.9E1,1.6E1,7E0,1E0,5E0,2.67E2,1.6E1,3.45E2,3.5E1,1.1E1,1E0,7E0],"tree_param":{"num_deleted":"0","num_feature":"10","num_nodes":"57","size_leaf_vector":"1"}},{"base_weights":[-4.7264355E-3,-1.2454315E-1,1.0621197E-1,-1.7353828E-1,1.2738459E-1,7.3102447E-3,2.7708986E-1,-2.0009555E-1,1.99086E-1,-1.3707662E-1,4.5075122E-1,-1.002949E-1,8.8577285E-2,-3.9309382E-1,3.1547663E-1,-2.1107343E-1,2.897224E-1,-4.09819E-2,4.655018E-1,-2.2068134E-1,3.4336013E-1,2.0063604E-1,6.238381E-1,3.4993505E-1,-1.9089389E-1,1.1963058E-1,-6.261574E-1,1.7441328E-1,-6.113057E-1,7.387034E-2,3.8276199E-1,-1.2688552E-2,-6.3292035E-3,-1.6576277E-2,2.3549007E-2,1.616772E-2,-1.34841725E-2,3.3532754E-2,-2.6641672E-3,-2.8596167E-2,-7.5847134E-3,2.2416152E-2,-4.8414106E-3,2.6395211E-2,-4.9551697E-3,3.2906175E-2,-5.6583867E-3,3.877767E-2,-4.6284865E-3,3.5054341E-3,-1.788063E-2,-7.557716E-3,9.756555E-3,-3.620005E-2,7.0124716E-3,-7.3317657E-3,1.4577471E-2,6.519139E-3,-3.4920294E-2,-7.3551736E-3,1.1130484E-2,2.0073434E-2,-2.415696E-2],"categories":[],"categories_nodes":[],"categories_segments":[],"categories_sizes":[],"default_left":[0,0,0,0,0,0,0,0,0,0,0,0,0,0,0,0,0,0,0,0,0,0,0,0,0,0,0,0,0,0,0,0,0,0,0,0,0,0,0,0,0,0,0,0,0,0,0,0,0,0,0,0,0,0,0,0,0,0,0,0,0,0,0],"id":14,"left_children":[1,3,5,7,9,11,13,15,17,19,21,23,25,27,29,31,33,35,37,39,41,43,45,47,49,51,53,55,57,59,61,-1,-1,-1,-1,-1,-1,-1,-1,-1,-1,-1,-1,-1,-1,-1,-1,-1,-1,-1,-1,-1,-1,-1,-1,-1,-1,-1,-1,-1,-1,-1,-1],"loss_changes":[2.5494263E1,1.1490991E1,1.6822388E1,7.858595E0,1.3393181E1,5.6060815E0,1.00101185E1,4.2042027E0,3.5491111E0,3.9135425E0,2.4045925E0,1.1592146E1,8.475665E0,3.2575088E0,5.515911E0,2.4079208E0,2.8076177E0,3.1857178E0,2.9458656E0,1.4562428E0,9.1010356E-1,3.7930112E0,1.3578644E0,9.399195E0,1.0264124E1,7.384791E0,1.7075119E0,5.898211E-1,1.5535202E0,2.8588681E0,5.359524E0,0E0,0E0,0E0,0E0,0E0,0E0,0E0,0E0,0E0,0E0,0E0,0E0,0E0,0E0,0E0,0E0,0E0,0E0,0E0,0E0,0E0,0E0,0E0,0E0,0E0,0E0,0E0,0E0,0E0,0E0,0E0,0E0],"parents":[2147483647,0,0,1,1,2,2,3,3,4,4,5,5,6,6,7,7,8,8,9,9,10,10,11,11,12,12,13,13,14,14,15,15,16,16,17,17,18,18,19,19,20,20,21,21,22,22,23,23,24,24,25,25,26,26,27,27,28,28,29,29,30,30],"right_children":[2,4,6,8,10,12,14,16,18,20,22,24,26,28,30,32,34,36,38,40,42,44,46,48,50,52,54,56,58,60,62,-1,-1,-1,-1,-1,-1,-1,-1,-1,-1,-1,-1,-1,-1,-1,-1,-1,-1,-1,-1,-1,-1,-1,-1,-1,-1,-1,-1,-1,-1,-1,-1],"split_conditions":[-1.9347669E-1,1.0569711E0,5.204435E-1,1.5925369E0,2.3049164E-1,-1.6845167E-1,-1.5200119E0,1.7184819E0,-7.1164745E-1,1.0977086E0,4.237454E-1,-1.1684735E0,1.6874729E0,-1.4875301E0,-6.803047E-1,1.6847217E-1,-1.2671072E0,1.64841E0,1.47228E0,-1.4883394E0,-7.6307315E-1,-6.5961945E-1,1.7979376E0,-4.9005726E-1,4.7268716E-1,-2.3799333E-1,1.4556787E0,-1.6576442E0,-1.6871172E0,-1.76128E-1,1.7184819E0,-1.2688552E-2,-6.3292035E-3,-1.6576277E-2,2.3549007E-2,1.616772E-2,-1.34841725E-2,3.3532754E-2,-2.6641672E-3,-2.8596167E-2,-7.5847134E-3,2.2416152E-2,-4.8414106E-3,2.6395211E-2,-4.9551697E-3,3.2906175E-2,-5.6583867E-3,3.877767E-2,-4.6284865E-3,3.5054341E-3,-1.788063E-2,-7.557716E-3,9.756555E-3,-3.620005E-2,7.0124716E-3,-7.3317657E-3,1.4577471E-2,6.519139E-3,-3.4920294E-2,-7.3551736E-3,1.1130484E-2,2.0073434E-2,-2.415696E-2],"split_indices":[8,0,5,6,1,6,1,7,7,2,7,1,2,6,6,5,2,6,4,4,1,2,1,7,8,7,4,0,4,0,7,0,0,0,0,0,0,0,0,0,0,0,0,0,0,0,0,0,0,0,0,0,0,0,0,0,0,0,0,0,0,0,0],"split_type":[0,0,0,0,0,0,0,0,0,0,0,0,0,0,0,0,0,0,0,0,0,0,0,0,0,0,0,0,0,0,0,0,0,0,0,0,0,0,0,0,0,0,0,0,0,0,0,0,0,0,0,0,0,0,0,0,0,0,0,0,0,0,0],"sum_hessian":[1.908E3,9.17E2,9.91E2,7.69E2,1.48E2,6.31E2,3.6E2,7.2E2,4.9E1,8.3E1,6.5E1,2.71E2,3.6E2,1.7E1,3.43E2,7.07E2,1.3E1,2.8E1,2.1E1,7.3E1,1E1,3.1E1,3.4E1,4.3E1,2.28E2,3.49E2,1.1E1,5E0,1.2E1,7.7E1,2.66E2,4.63E2,2.44E2,2E0,1.1E1,1E1,1.8E1,1.4E1,7E0,6E0,6.7E1,8E0,2E0,1.3E1,1.8E1,3.3E1,1E0,2E1,2.3E1,9E1,1.38E2,7.5E1,2.74E2,1E1,1E0,1E0,4E0,1E0,1.1E1,3.1E1,4.6E1,2.63E2,3E0],"tree_param":{"num_deleted":"0","num_feature":"10","num_nodes":"63","size_leaf_vector":"1"}},{"base_weights":[-4.007562E-4,-2.1113527E-1,4.4406522E-2,-3.5398456E-1,-4.2046245E-2,-9.585408E-4,2.9016864E-1,-4.191619E-1,7.934107E-2,5.3653937E-2,-4.6568936E-1,-7.866731E-2,7.8860834E-2,3.4765822E-1,-5.898837E-1,1.9382471E-1,-4.412333E-1,-2.2907624E-1,5.2331346E-1,-3.7811317E-2,5.320462E-1,-6.118601E-1,3.1869265E-1,-1.22972265E-1,2.2393945E-1,3.1655196E-2,2.9193416E-1,1.7829268E-1,5.10852E-1,-7.2975494E-2,-7.2086483E-1,-6.086674E-3,1.8546833E-2,-4.5250705E-3,-2.4345268E-2,1.2007776E-2,-2.3276933E-2,3.4398448E-2,-5.4613156E-3,9.318609E-3,-1.0242472E-2,3.667609E-2,-1.424209E-4,-3.4972455E-2,6.900046E-3,1.9018749E-2,-9.423634E-4,-8.591789E-3,1.1584754E-4,2.3867987E-2,7.742785E-4,-6.9007515E-3,4.6199225E-3,7.2224075E-3,3.1473953E-2,-2.3244279E-2,1.1857166E-2,3.437494E-2,3.4708753E-3,-4.952478E-3,1.1301421E-3,-2.7007884E-3,-3.769645E-2],"categories":[],"categories_nodes":[],"categories_segments":[],"categories_sizes":[],"default_left":[0,0,0,0,0,0,0,0,0,0,0,0,0,0,0,0,0,0,0,0,0,0,0,0,0,0,0,0,0,0,0,0,0,0,0,0,0,0,0,0,0,0,0,0,0,0,0,0,0,0,0,0,0,0,0,0,0,0,0,0,0,0,0],"id":15,"left_children":[1,3,5,7,9,11,13,15,17,19,21,23,25,27,29,31,33,35,37,39,41,43,45,47,49,51,53,55,57,59,61,-1,-1,-1,-1,-1,-1,-1,-1,-1,-1,-1,-1,-1,-1,-1,-1,-1,-1,-1,-1,-1,-1,-1,-1,-1,-1,-1,-1,-1,-1,-1,-1],"loss_changes":[1.8148039E1,8.065561E0,1.7672579E1,5.306511E0,6.611766E0,8.361199E0,1.3522062E1,2.5787983E0,4.4333987E0,6.0076833E0,4.4145865E0,9.294657E0,6.6425395E0,6.039854E0,8.8796186E-1,7.287792E-1,2.26256E0,2.778122E0,1.729687E0,4.609659E0,2.3813486E0,2.2559729E0,2.0240706E-1,3.6691122E0,4.664592E0,5.7322383E0,5.5193424E0,5.206952E0,8.884802E0,3.3623055E-2,8.301449E-2,0E0,0E0,0E0,0E0,0E0,0E0,0E0,0E0,0E0,0E0,0E0,0E0,0E0,0E0,0E0,0E0,0E0,0E0,0E0,0E0,0E0,0E0,0E0,0E0,0E0,0E0,0E0,0E0,0E0,0E0,0E0,0E0],"parents":[2147483647,0,0,1,1,2,2,3,3,4,4,5,5,6,6,7,7,8,8,9,9,10,10,11,11,12,12,13,13,14,14,15,15,16,16,17,17,18,18,19,19,20,20,21,21,22,22,23,23,24,24,25,25,26,26,27,27,28,28,29,29,30,30],"right_children":[2,4,6,8,10,12,14,16,18,20,22,24,26,28,30,32,34,36,38,40,42,44,46,48,50,52,54,56,58,60,62,-1,-1,-1,-1,-1,-1,-1,-1,-1,-1,-1,-1,-1,-1,-1,-1,-1,-1,-1,-1,-1,-1,-1,-1,-1,-1,-1,-1,-1,-1,-1,-1],"split_conditions":[-1.0451182E0,-2.5631896E-1,1.2555851E0,1.1028739E0,1.2268924E0,-1.0567119E-1,1.7381469E0,-1.6567196E0,-1.394089E0,1.5299666E0,1.5577227E0,1.0095211E0,1.1460828E0,6.8655807E-1,-6.1864656E-1,-4.4542068E-1,-1.493403E0,-1.6386857E0,-1.0409875E0,-5.788384E-1,-1.4755199E0,-1.2024424E0,1.5846546E0,4.182866E-1,-3.9839238E-1,-6.6118026E-1,1.3084261E0,-1.1805952E0,1.6040124E0,9.2270774E-1,-1.392539E0,-6.086674E-3,1.8546833E-2,-4.5250705E-3,-2.4345268E-2,1.2007776E-2,-2.3276933E-2,3.4398448E-2,-5.4613156E-3,9.318609E-3,-1.0242472E-2,3.667609E-2,-1.424209E-4,-3.4972455E-2,6.900046E-3,1.9018749E-2,-9.423634E-4,-8.591789E-3,1.1584754E-4,2.3867987E-2,7.742785E-4,-6.9007515E-3,4.6199225E-3,7.2224075E-3,3.1473953E-2,-2.3244279E-2,1.1857166E-2,3.437494E-2,3.4708753E-3,-4.952478E-3,1.1301421E-3,-2.7007884E-3,-3.769645E-2],"split_indices":[8,5,3,0,2,0,3,1,8,7,3,2,4,8,7,0,0,8,5,3,8,8,4,5,1,1,5,1,3,0,0,0,0,0,0,0,0,0,0,0,0,0,0,0,0,0,0,0,0,0,0,0,0,0,0,0,0,0,0,0,0,0,0],"split_type":[0,0,0,0,0,0,0,0,0,0,0,0,0,0,0,0,0,0,0,0,0,0,0,0,0,0,0,0,0,0,0,0,0,0,0,0,0,0,0,0,0,0,0,0,0,0,0,0,0,0,0,0,0,0,0,0,0,0,0,0,0,0,0],"sum_hessian":[1.912E3,3.32E2,1.58E3,1.77E2,1.55E2,1.338E3,2.42E2,1.54E2,2.3E1,1.3E2,2.5E1,6.78E2,6.6E2,2.3E2,1.2E1,4E0,1.5E2,1.5E1,8E0,1.13E2,1.7E1,2.2E1,3E0,5.94E2,8.4E1,5.45E2,1.15E2,1.18E2,1.12E2,4E0,8E0,2E0,2E0,1.9E1,1.31E2,5E0,1E1,6E0,2E0,4.8E1,6.5E1,1.1E1,6E0,2E1,2E0,2E0,1E0,4.26E2,1.68E2,3.5E1,4.9E1,1.42E2,4.03E2,8.5E1,3E1,7E0,1.11E2,7.8E1,3.4E1,3E0,1E0,1E0,7E0],"tree_param":{"num_deleted":"0","num_feature":"10","num_nodes":"63","size_leaf_vector":"1"}},{"base_weights":[7.393607E-4,-1.5182143E-1,1.0544266E-1,-5.380583E-1,-1.22912385E-1,1.1703074E-3,1.956285E-1,-6.495109E-1,1.04080245E-1,-2.0472457E-1,-2.6122762E-2,3.0835226E-2,-4.7557104E-1,-5.905828E-2,2.3766139E-1,-7.1010995E-1,-1.869846E-1,1.944185E-2,-1.4728962E-1,1.9344786E-1,-2.4546924E-1,-3.4941527E-1,6.6278246E-3,-2.6013438E-2,2.9717636E-1,-5.850318E-1,-9.899772E-2,3.3472577E-1,-1.484375E-1,1.7177223E-1,5.4836255E-1,4.3788156E-4,-3.6536112E-2,5.563274E-3,-1.7410772E-2,-1.8636988E-2,7.1017644E-3,2.6708005E-2,-1.7894553E-3,-2.04526E-2,-7.290871E-3,1.1046569E-2,-2.1342058E-2,2.726456E-2,-9.268191E-4,2.0226014E-3,-8.916544E-3,1.2109414E-3,2.7765572E-2,-3.1249601E-2,-5.9743235E-3,-1.5240172E-2,1.4756195E-2,2.5002329E-2,-2.3777077E-3,-2.8631703E-3,-2.8412843E-2,9.374383E-3,-2.0403363E-2,2.9927408E-2,-1.1234122E-2],"categories":[],"categories_nodes":[],"categories_segments":[],"categories_sizes":[],"default_left":[0,0,0,0,0,0,0,0,0,0,0,0,0,0,0,0,0,0,0,0,0,0,0,0,0,0,0,0,0,0,0,0,0,0,0,0,0,0,0,0,0,0,0,0,0,0,0,0,0,0,0,0,0,0,0,0,0,0,0,0,0],"id":16,"left_children":[1,3,5,7,9,11,13,15,17,19,21,23,25,27,29,31,33,-1,35,37,39,41,43,45,47,49,51,53,55,57,59,-1,-1,-1,-1,-1,-1,-1,-1,-1,-1,-1,-1,-1,-1,-1,-1,-1,-1,-1,-1,-1,-1,-1,-1,-1,-1,-1,-1,-1,-1],"loss_changes":[3.0142393E1,8.244617E0,1.0521807E1,4.0595436E0,5.6825495E0,7.4839883E0,6.493313E0,5.973911E-1,1.1453094E0,6.564556E0,3.5691538E0,7.5789394E0,9.882364E-1,3.3808837E0,1.00925045E1,5.9506226E-1,7.707671E-1,0E0,9.1699445E-1,3.141635E0,5.5050335E0,1.8404608E0,4.2525997E0,4.2374663E0,6.133228E0,5.448532E-2,1.504236E0,1.2564752E0,2.7463233E0,4.3282156E0,4.086441E0,0E0,0E0,0E0,0E0,0E0,0E0,0E0,0E0,0E0,0E0,0E0,0E0,0E0,0E0,0E0,0E0,0E0,0E0,0E0,0E0,0E0,0E0,0E0,0E0,0E0,0E0,0E0,0E0,0E0,0E0],"parents":[2147483647,0,0,1,1,2,2,3,3,4,4,5,5,6,6,7,7,8,8,9,9,10,10,11,11,12,12,13,13,14,14,15,15,16,16,18,18,19,19,20,20,21,21,22,22,23,23,24,24,25,25,26,26,27,27,28,28,29,29,30,30],"right_children":[2,4,6,8,10,12,14,16,18,20,22,24,26,28,30,32,34,-1,36,38,40,42,44,46,48,50,52,54,56,58,60,-1,-1,-1,-1,-1,-1,-1,-1,-1,-1,-1,-1,-1,-1,-1,-1,-1,-1,-1,-1,-1,-1,-1,-1,-1,-1,-1,-1,-1,-1],"split_conditions":[-3.983485E-1,-1.5131154E0,-3.5997372E-2,1.501E0,-1.8687671E-1,1.6948355E0,-9.1956526E-1,-7.27332E-1,-5.747768E-1,-1.4717585E0,-1.4946858E0,1.115245E0,1.7666684E0,-1.3117995E0,1.2290896E0,-1.6803591E0,-5.3416234E-1,1.944185E-2,4.237454E-1,-1.2703891E0,-1.0722698E0,-1.5843976E0,-1.4148133E0,-1.3225415E-1,3.618624E-1,9.48399E-1,-6.069907E-1,3.4761307E-1,1.047763E0,1.7345527E0,1.7529657E0,4.3788156E-4,-3.6536112E-2,5.563274E-3,-1.7410772E-2,-1.8636988E-2,7.1017644E-3,2.6708005E-2,-1.7894553E-3,-2.04526E-2,-7.290871E-3,1.1046569E-2,-2.1342058E-2,2.726456E-2,-9.268191E-4,2.0226014E-3,-8.916544E-3,1.2109414E-3,2.7765572E-2,-3.1249601E-2,-5.9743235E-3,-1.5240172E-2,1.4756195E-2,2.5002329E-2,-2.3777077E-3,-2.8631703E-3,-2.8412843E-2,9.374383E-3,-2.0403363E-2,2.9927408E-2,-1.1234122E-2],"split_indices":[9,4,7,2,6,9,5,9,6,1,1,6,9,2,4,6,9,0,7,5,9,2,4,6,4,5,4,8,6,5,4,0,0,0,0,0,0,0,0,0,0,0,0,0,0,0,0,0,0,0,0,0,0,0,0,0,0,0,0,0,0],"split_type":[0,0,0,0,0,0,0,0,0,0,0,0,0,0,0,0,0,0,0,0,0,0,0,0,0,0,0,0,0,0,0,0,0,0,0,0,0,0,0,0,0,0,0,0,0,0,0,0,0,0,0,0,0,0,0,0,0,0,0,0,0],"sum_hessian":[1.877E3,7.63E2,1.114E3,4.7E1,7.16E2,5.19E2,5.95E2,4E1,7E0,3.85E2,3.31E2,4.93E2,2.6E1,8.4E1,5.11E2,3.3E1,7E0,2E0,5E0,3.4E1,3.51E2,2.6E1,3.05E2,4.1E2,8.3E1,1.8E1,8E0,1.3E1,7.1E1,4.28E2,8.3E1,1E0,3.2E1,3E0,4E0,2E0,3E0,1.1E1,2.3E1,1.27E2,2.24E2,2E0,2.4E1,9E0,2.96E2,2.88E2,1.22E2,4.3E1,4E1,1.5E1,3E0,6E0,2E0,8E0,5E0,6.3E1,8E0,4.2E2,8E0,7.9E1,4E0],"tree_param":{"num_deleted":"0","num_feature":"10","num_nodes":"61","size_leaf_vector":"1"}},{"base_weights":[1.6856577E-2,-1.0214718E-1,1.23744555E-1,-1.3293713E-1,1.502035E-1,4.8613187E-2,2.6865193E-1,-2.4990301E-1,-6.401802E-2,3.6515456E-1,-5.0181416E-3,7.4075274E-2,-4.1955915E-1,3.3213454E-1,-7.56683E-2,-4.0011272E-1,-4.2707816E-2,-1.5882076E-1,1.0784468E-1,-2.3474315E-1,5.893012E-1,-1.4077228E-1,5.203972E-1,3.450434E-2,3.5808164E-1,-1.2134472E-1,-7.3576856E-1,2.0483854E-1,5.5422145E-1,6.192117E-2,-3.0871466E-2,-1.0356112E-2,-2.4254268E-2,3.2619906E-3,-1.614259E-2,-9.4193965E-3,1.6195465E-2,-2.5537182E-3,1.5752083E-2,1.0027407E-3,-1.4082811E-2,-1.1967334E-2,3.2731805E-2,2.2857277E-2,-1.0386271E-2,3.3689704E-2,-1.2281347E-2,-6.5555917E-3,4.1200174E-3,4.486225E-3,2.5113652E-2,-1.2152735E-2,1.3699221E-2,-3.8394596E-2,-2.1159824E-3,-1.142672E-2,1.463443E-2,2.8430535E-2,-7.492428E-3,9.197475E-3,-2.9808993E-2],"categories":[],"categories_nodes":[],"categories_segments":[],"categories_sizes":[],"default_left":[0,0,0,0,0,0,0,0,0,0,0,0,0,0,0,0,0,0,0,0,0,0,0,0,0,0,0,0,0,0,0,0,0,0,0,0,0,0,0,0,0,0,0,0,0,0,0,0,0,0,0,0,0,0,0,0,0,0,0,0,0],"id":17,"left_children":[1,3,5,7,9,11,13,15,17,19,21,23,25,27,29,31,33,35,37,39,41,43,45,47,49,51,53,55,57,59,-1,-1,-1,-1,-1,-1,-1,-1,-1,-1,-1,-1,-1,-1,-1,-1,-1,-1,-1,-1,-1,-1,-1,-1,-1,-1,-1,-1,-1,-1,-1],"loss_changes":[2.4129574E1,7.077177E0,1.0810904E1,6.393139E0,3.3456678E0,8.0707035E0,7.557499E0,9.126886E0,8.427684E0,6.339204E0,4.8599076E0,7.063367E0,2.8540282E0,7.574354E0,4.4399743E0,2.3018532E0,4.0366287E0,5.043727E0,6.1720476E0,2.0754313E-1,2.515893E0,2.6365573E0,2.472589E0,4.512001E0,2.7541685E0,1.487738E0,1.9393063E-1,7.6061687E0,1.4593925E0,4.563684E0,0E0,0E0,0E0,0E0,0E0,0E0,0E0,0E0,0E0,0E0,0E0,0E0,0E0,0E0,0E0,0E0,0E0,0E0,0E0,0E0,0E0,0E0,0E0,0E0,0E0,0E0,0E0,0E0,0E0,0E0,0E0],"parents":[2147483647,0,0,1,1,2,2,3,3,4,4,5,5,6,6,7,7,8,8,9,9,10,10,11,11,12,12,13,13,14,14,15,15,16,16,17,17,18,18,19,19,20,20,21,21,22,22,23,23,24,24,25,25,26,26,27,27,28,28,29,29],"right_children":[2,4,6,8,10,12,14,16,18,20,22,24,26,28,30,32,34,36,38,40,42,44,46,48,50,52,54,56,58,60,-1,-1,-1,-1,-1,-1,-1,-1,-1,-1,-1,-1,-1,-1,-1,-1,-1,-1,-1,-1,-1,-1,-1,-1,-1,-1,-1,-1,-1,-1,-1],"split_conditions":[-1.9347669E-1,1.3552039E0,6.579627E-1,-1.0451182E0,-6.446517E-1,1.6340631E0,1.4473246E0,-2.1840812E-1,1.9026536E-1,1.4556787E0,1.521204E0,1.2184145E0,5.758081E-1,1.0329372E0,1.5052241E0,-8.615357E-1,6.536872E-1,1.5804032E0,3.3204204E-1,-1.394089E0,-1.6906898E0,1.3729995E0,1.7410197E0,-5.816967E-1,6.8655807E-1,1.521204E0,1.6827241E0,-1.0226542E0,1.7639914E0,1.7184819E0,-3.0871466E-2,-1.0356112E-2,-2.4254268E-2,3.2619906E-3,-1.614259E-2,-9.4193965E-3,1.6195465E-2,-2.5537182E-3,1.5752083E-2,1.0027407E-3,-1.4082811E-2,-1.1967334E-2,3.2731805E-2,2.2857277E-2,-1.0386271E-2,3.3689704E-2,-1.2281347E-2,-6.5555917E-3,4.1200174E-3,4.486225E-3,2.5113652E-2,-1.2152735E-2,1.3699221E-2,-3.8394596E-2,-2.1159824E-3,-1.142672E-2,1.463443E-2,2.8430535E-2,-7.492428E-3,9.197475E-3,-2.9808993E-2],"split_indices":[8,4,5,8,7,3,7,5,6,4,7,3,6,3,1,0,4,3,1,8,1,4,4,7,8,7,4,6,3,7,0,0,0,0,0,0,0,0,0,0,0,0,0,0,0,0,0,0,0,0,0,0,0,0,0,0,0,0,0,0,0],"split_type":[0,0,0,0,0,0,0,0,0,0,0,0,0,0,0,0,0,0,0,0,0,0,0,0,0,0,0,0,0,0,0,0,0,0,0,0,0,0,0,0,0,0,0,0,0,0,0,0,0,0,0,0,0,0,0,0,0,0,0,0,0],"sum_hessian":[1.887E3,8.93E2,9.94E2,7.98E2,9.5E1,6.59E2,3.35E2,2.91E2,5.07E2,3.7E1,5.8E1,6.29E2,3E1,2.83E2,5.2E1,1.66E2,1.25E2,3.27E2,1.8E2,1E1,2.7E1,4.9E1,9E0,5.57E2,7.2E1,1.9E1,1.1E1,1.86E2,9.7E1,4.5E1,7E0,5.6E1,1.1E2,9.3E1,3.2E1,3.11E2,1.6E1,1.04E2,7.6E1,2E0,8E0,1E0,2.6E1,2E0,4.7E1,8E0,1E0,1.23E2,4.34E2,2.8E1,4.4E1,1.6E1,3E0,1E1,1E0,3E1,1.56E2,9.6E1,1E0,4.1E1,4E0],"tree_param":{"num_deleted":"0","num_feature":"10","num_nodes":"61","size_leaf_vector":"1"}},{"base_weights":[8.263913E-3,-1.3181709E-1,1.5409447E-1,-2.5843278E-1,-8.074003E-2,5.3812463E-2,2.5791824E-1,-3.1010216E-1,2.0660566E-1,-1.1212061E-1,1.7950349E-1,-3.3760723E-2,1.6224557E-1,-1.9023356E-1,2.8682446E-1,2.1386774E-1,-3.3595887E-1,-3.3992475E-1,5.477927E-1,-1.4325818E-1,6.131693E-2,3.5070822E-1,-1.0709512E-1,2.585033E-1,-8.360892E-2,-4.4464007E-2,2.458245E-1,-5.852634E-1,2.1327566E-1,3.0939975E-1,-4.4992194E-1,-1.5574589E-2,2.3749795E-2,-3.284885E-2,-1.4043941E-2,1.4161065E-2,-2.4279281E-2,3.444754E-2,-1.1584283E-3,2.1912667E-3,-8.605437E-3,2.44933E-2,-1.2856792E-4,3.184957E-2,4.507201E-3,-1.8859867E-2,9.559501E-3,2.3078209E-2,-1.4897919E-2,-1.802471E-2,1.2393703E-3,1.9783406E-2,-9.352883E-3,9.554325E-3,3.6638957E-2,-6.9355876E-3,-3.56765E-2,2.1324035E-2,-9.592461E-3,1.6172234E-2,-2.6051952E-2,-2.8893305E-2,1.1177468E-2],"categories":[],"categories_nodes":[],"categories_segments":[],"categories_sizes":[],"default_left":[0,0,0,0,0,0,0,0,0,0,0,0,0,0,0,0,0,0,0,0,0,0,0,0,0,0,0,0,0,0,0,0,0,0,0,0,0,0,0,0,0,0,0,0,0,0,0,0,0,0,0,0,0,0,0,0,0,0,0,0,0,0,0],"id":18,"left_children":[1,3,5,7,9,11,13,15,17,19,21,23,25,27,29,31,33,35,37,39,41,43,45,47,49,51,53,55,57,59,61,-1,-1,-1,-1,-1,-1,-1,-1,-1,-1,-1,-1,-1,-1,-1,-1,-1,-1,-1,-1,-1,-1,-1,-1,-1,-1,-1,-1,-1,-1,-1,-1],"loss_changes":[3.932349E1,6.246418E0,9.748795E0,7.048258E0,5.874413E0,4.642362E0,6.25774E0,3.80048E0,6.7115827E0,3.4677896E0,4.0150247E0,4.085357E0,3.8209429E0,5.5654554E0,7.9476967E0,2.797579E0,3.3916798E0,2.049161E0,1.7723222E0,2.9469461E0,2.7442248E0,3.4426527E0,3.0193086E0,5.3204536E0,7.157841E0,4.574987E0,3.4580479E0,4.788456E-1,2.0502186E0,5.811264E0,1.9384086E0,0E0,0E0,0E0,0E0,0E0,0E0,0E0,0E0,0E0,0E0,0E0,0E0,0E0,0E0,0E0,0E0,0E0,0E0,0E0,0E0,0E0,0E0,0E0,0E0,0E0,0E0,0E0,0E0,0E0,0E0,0E0,0E0],"parents":[2147483647,0,0,1,1,2,2,3,3,4,4,5,5,6,6,7,7,8,8,9,9,10,10,11,11,12,12,13,13,14,14,15,15,16,16,17,17,18,18,19,19,20,20,21,21,22,22,23,23,24,24,25,25,26,26,27,27,28,28,29,29,30,30],"right_children":[2,4,6,8,10,12,14,16,18,20,22,24,26,28,30,32,34,36,38,40,42,44,46,48,50,52,54,56,58,60,62,-1,-1,-1,-1,-1,-1,-1,-1,-1,-1,-1,-1,-1,-1,-1,-1,-1,-1,-1,-1,-1,-1,-1,-1,-1,-1,-1,-1,-1,-1,-1,-1],"split_conditions":[-8.714004E-2,-1.1763169E0,2.4146637E-1,1.5299666E0,1.3038265E0,1.3348797E-1,-1.4607166E0,-1.6353139E0,3.898421E-1,1.0569711E0,1.6040124E0,-1.2854427E0,-9.596018E-1,8.6170876E-1,1.6517595E0,-1.4883394E0,-1.5379577E0,-1.6576442E0,1.7184819E0,-1.1747849E0,1.1688212E0,-8.0282104E-1,-4.961616E-1,-4.6689814E-1,-6.985463E-1,-1.2909845E0,1.5052241E0,2.3269734E-1,-9.0526384E-1,1.7666684E0,1.5691383E0,-1.5574589E-2,2.3749795E-2,-3.284885E-2,-1.4043941E-2,1.4161065E-2,-2.4279281E-2,3.444754E-2,-1.1584283E-3,2.1912667E-3,-8.605437E-3,2.44933E-2,-1.2856792E-4,3.184957E-2,4.507201E-3,-1.8859867E-2,9.559501E-3,2.3078209E-2,-1.4897919E-2,-1.802471E-2,1.2393703E-3,1.9783406E-2,-9.352883E-3,9.554325E-3,3.6638957E-2,-6.9355876E-3,-3.56765E-2,2.1324035E-2,-9.592461E-3,1.6172234E-2,-2.6051952E-2,-2.8893305E-2,1.1177468E-2],"split_indices":[9,9,4,7,3,7,1,1,6,0,3,6,4,9,2,4,7,0,7,6,0,9,9,4,1,2,1,3,7,9,6,0,0,0,0,0,0,0,0,0,0,0,0,0,0,0,0,0,0,0,0,0,0,0,0,0,0,0,0,0,0,0,0],"split_type":[0,0,0,0,0,0,0,0,0,0,0,0,0,0,0,0,0,0,0,0,0,0,0,0,0,0,0,0,0,0,0,0,0,0,0,0,0,0,0,0,0,0,0,0,0,0,0,0,0,0,0,0,0,0,0,0,0,0,0,0,0,0,0],"sum_hessian":[1.915E3,9.77E2,9.38E2,2.75E2,7.02E2,4.81E2,4.57E2,2.49E2,2.6E1,6.29E2,7.3E1,2.68E2,2.13E2,2.6E1,4.31E2,1E1,2.39E2,1E1,1.6E1,5.34E2,9.5E1,4.5E1,2.8E1,3.6E1,2.32E2,6.2E1,1.51E2,1.2E1,1.4E1,4.21E2,1E1,3E0,7E0,2.7E1,2.12E2,1E0,9E0,1.2E1,4E0,7.1E1,4.63E2,8E0,8.7E1,1.8E1,2.7E1,1.4E1,1.4E1,2.7E1,9E0,6.2E1,1.7E2,1.3E1,4.9E1,1.42E2,9E0,5E0,7E0,9E0,5E0,4.17E2,4E0,9E0,1E0],"tree_param":{"num_deleted":"0","num_feature":"10","num_nodes":"63","size_leaf_vector":"1"}},{"base_weights":[2.3022406E-3,-1.635968E-1,1.1130333E-1,-2.0157282E-1,-1.4907628E-2,5.4292653E-2,2.5878733E-1,-3.2269496E-1,-1.3942432E-1,2.3938775E-1,-1.4607432E-1,-3.382773E-2,1.3688907E-1,-2.1294542E-1,3.096321E-1,2.6740104E-1,-3.5102487E-1,-1.7146009E-1,1.8402253E-1,-2.3944327E-1,3.695079E-1,-2.9224926E-1,9.104274E-2,-1.4634273E-2,-5.3181815E-1,-4.6417564E-1,1.4936261E-1,1.2090903E-1,-6.263158E-1,-2.765449E-1,3.4663346E-1,2.6158093E-2,-1.4448613E-2,-2.4219664E-2,-8.574072E-3,-2.0602433E-2,-6.2063336E-3,-1.1538608E-2,1.9409345E-2,-2.7519206E-2,1.8831003E-2,-1.2286144E-2,2.2867702E-2,-2.3459332E-2,-5.9255837E-3,-1.0224757E-2,2.090933E-2,-2.3262468E-3,1.6681265E-2,-3.7327588E-2,1.2342143E-2,2.2367015E-3,-2.7278671E-2,8.438264E-3,-9.819258E-3,2.2114776E-2,-7.895746E-3,-4.0190037E-2,8.801135E-3,-3.030332E-2,1.7800493E-2,1.8708019E-2,-1.760236E-2],"categories":[],"categories_nodes":[],"categories_segments":[],"categories_sizes":[],"default_left":[0,0,0,0,0,0,0,0,0,0,0,0,0,0,0,0,0,0,0,0,0,0,0,0,0,0,0,0,0,0,0,0,0,0,0,0,0,0,0,0,0,0,0,0,0,0,0,0,0,0,0,0,0,0,0,0,0,0,0,0,0,0,0],"id":19,"left_children":[1,3,5,7,9,11,13,15,17,19,21,23,25,27,29,31,33,35,37,39,41,43,45,47,49,51,53,55,57,59,61,-1,-1,-1,-1,-1,-1,-1,-1,-1,-1,-1,-1,-1,-1,-1,-1,-1,-1,-1,-1,-1,-1,-1,-1,-1,-1,-1,-1,-1,-1,-1,-1],"loss_changes":[3.4430996E1,4.2481747E0,9.590729E0,4.2991047E0,5.478301E0,6.100641E0,7.980932E0,3.8127975E0,4.3646817E0,3.9314926E0,3.8763778E0,3.8608143E0,3.5855312E0,5.0708237E0,6.769211E0,2.4634776E0,4.2061424E0,3.9805593E0,3.7506795E0,3.9098175E0,3.0480113E0,1.812345E0,4.778339E0,4.497888E0,3.4294744E0,5.3626966E-1,3.0302124E0,2.4102612E0,2.9858856E0,5.2476363E0,5.9475517E0,0E0,0E0,0E0,0E0,0E0,0E0,0E0,0E0,0E0,0E0,0E0,0E0,0E0,0E0,0E0,0E0,0E0,0E0,0E0,0E0,0E0,0E0,0E0,0E0,0E0,0E0,0E0,0E0,0E0,0E0,0E0,0E0],"parents":[2147483647,0,0,1,1,2,2,3,3,4,4,5,5,6,6,7,7,8,8,9,9,10,10,11,11,12,12,13,13,14,14,15,15,16,16,17,17,18,18,19,19,20,20,21,21,22,22,23,23,24,24,25,25,26,26,27,27,28,28,29,29,30,30],"right_children":[2,4,6,8,10,12,14,16,18,20,22,24,26,28,30,32,34,36,38,40,42,44,46,48,50,52,54,56,58,60,62,-1,-1,-1,-1,-1,-1,-1,-1,-1,-1,-1,-1,-1,-1,-1,-1,-1,-1,-1,-1,-1,-1,-1,-1,-1,-1,-1,-1,-1,-1,-1,-1],"split_conditions":[-4.5549762E-1,1.0059781E0,8.410087E-1,-1.1895496E0,-7.2801673E-1,-4.347991E-2,-9.985484E-1,-1.6353139E0,1.3664311E0,-1.2977052E0,1.6722283E-1,7.6546603E-1,-1.6495005E0,8.3327407E-1,-1.4384881E0,6.54419E-1,-2.0232797E-1,-1.1950564E0,-7.4428177E-1,-7.962789E-1,-1.5764848E0,-9.539883E-1,1.0424334E0,5.2627933E-1,-5.662341E-1,-1.4717585E0,1.6254728E0,1.047763E0,1.6842978E0,1.5244402E0,1.6367527E0,2.6158093E-2,-1.4448613E-2,-2.4219664E-2,-8.574072E-3,-2.0602433E-2,-6.2063336E-3,-1.1538608E-2,1.9409345E-2,-2.7519206E-2,1.8831003E-2,-1.2286144E-2,2.2867702E-2,-2.3459332E-2,-5.9255837E-3,-1.0224757E-2,2.090933E-2,-2.3262468E-3,1.6681265E-2,-3.7327588E-2,1.2342143E-2,2.2367015E-3,-2.7278671E-2,8.438264E-3,-9.819258E-3,2.2114776E-2,-7.895746E-3,-4.0190037E-2,8.801135E-3,-3.030332E-2,1.7800493E-2,1.8708019E-2,-1.760236E-2],"split_indices":[9,0,6,9,4,2,5,1,3,6,2,6,4,2,1,0,6,0,2,5,9,9,4,6,2,1,9,6,6,0,2,0,0,0,0,0,0,0,0,0,0,0,0,0,0,0,0,0,0,0,0,0,0,0,0,0,0,0,0,0,0,0,0],"split_type":[0,0,0,0,0,0,0,0,0,0,0,0,0,0,0,0,0,0,0,0,0,0,0,0,0,0,0,0,0,0,0,0,0,0,0,0,0,0,0,0,0,0,0,0,0,0,0,0,0,0,0,0,0,0,0,0,0,0,0,0,0,0,0],"sum_hessian":[1.894E3,7.5E2,1.144E3,5.96E2,1.54E2,8.3E2,3.14E2,1.95E2,4.01E2,5.1E1,1.03E2,4.03E2,4.27E2,2.9E1,2.85E2,7E0,1.88E2,3.67E2,3.4E1,1E1,4.1E1,6.3E1,4E1,3.93E2,1E1,5E0,4.22E2,1.8E1,1.1E1,1.5E1,2.7E2,5E0,2E0,1.03E2,8.5E1,5.4E1,3.13E2,1.1E1,2.3E1,7E0,3E0,4E0,3.7E1,2.7E1,3.6E1,2.2E1,1.8E1,3.64E2,2.9E1,8E0,2E0,1E0,4E0,4.02E2,2E1,7E0,1.1E1,9E0,2E0,1E1,5E0,2.62E2,8E0],"tree_param":{"num_deleted":"0","num_feature":"10","num_nodes":"63","size_leaf_vector":"1"}},{"base_weights":[-3.5536068E-3,-1.1439513E-1,4.5173895E-2,-1.7012115E-1,5.853031E-2,-1.8404061E-2,1.7338906E-1,-5.3002125E-1,-1.2942308E-1,4.5690614E-1,-4.1013807E-2,-4.8292924E-2,1.4664195E-1,-2.3584481E-2,2.773203E-1,-5.745776E-1,1.154919E-2,3.0525655E-1,-1.5681268E-1,-3.4025747E-1,6.084905E-1,-5.6154525E-1,7.49604E-2,-3.1361076E-1,-2.5287526E-2,1.9437334E-1,-3.2805E-2,-1.3510247E-1,2.4054798E-1,1.7136088E-1,5.53504E-1,-3.724481E-2,-8.170655E-3,3.0417774E-2,-5.9900563E-3,-1.3974989E-2,-2.9112997E-3,-1.3653878E-3,-1.8272951E-2,3.562194E-2,-4.1830475E-3,9.375533E-3,-3.1910464E-2,-1.223774E-2,1.1593678E-2,-4.8016254E-3,-2.849072E-2,-2.7131801E-3,9.332933E-3,-5.9010806E-3,1.3502443E-2,2.3031728E-2,-1.0058427E-2,2.172446E-2,-7.464452E-3,1.5875435E-2,-8.120216E-3,3.0766318E-2,-1.345924E-2],"categories":[],"categories_nodes":[],"categories_segments":[],"categories_sizes":[],"default_left":[0,0,0,0,0,0,0,0,0,0,0,0,0,0,0,0,0,0,0,0,0,0,0,0,0,0,0,0,0,0,0,0,0,0,0,0,0,0,0,0,0,0,0,0,0,0,0,0,0,0,0,0,0,0,0,0,0,0,0],"id":20,"left_children":[1,3,5,7,9,11,13,15,17,19,21,23,25,27,29,31,-1,33,35,37,39,41,43,45,47,49,-1,51,53,55,57,-1,-1,-1,-1,-1,-1,-1,-1,-1,-1,-1,-1,-1,-1,-1,-1,-1,-1,-1,-1,-1,-1,-1,-1,-1,-1,-1,-1],"loss_changes":[1.0471431E1,5.754563E0,1.099624E1,6.2336283E0,5.9627805E0,4.499808E0,9.183554E0,2.1555252E0,5.120677E0,4.6603436E0,7.6357594E0,4.6602287E0,6.0018797E0,4.845921E0,8.1001835E0,2.4026175E0,0E0,3.714106E0,4.623706E0,1.3195276E-2,2.240611E0,1.9191461E0,5.55135E0,3.126801E0,4.4355817E0,3.3744864E0,0E0,4.989496E0,4.02899E0,1.0940435E1,4.8461666E0,0E0,0E0,0E0,0E0,0E0,0E0,0E0,0E0,0E0,0E0,0E0,0E0,0E0,0E0,0E0,0E0,0E0,0E0,0E0,0E0,0E0,0E0,0E0,0E0,0E0,0E0,0E0,0E0],"parents":[2147483647,0,0,1,1,2,2,3,3,4,4,5,5,6,6,7,7,8,8,9,9,10,10,11,11,12,12,13,13,14,14,15,15,17,17,18,18,19,19,20,20,21,21,22,22,23,23,24,24,25,25,27,27,28,28,29,29,30,30],"right_children":[2,4,6,8,10,12,14,16,18,20,22,24,26,28,30,32,-1,34,36,38,40,42,44,46,48,50,-1,52,54,56,58,-1,-1,-1,-1,-1,-1,-1,-1,-1,-1,-1,-1,-1,-1,-1,-1,-1,-1,-1,-1,-1,-1,-1,-1,-1,-1,-1,-1],"split_conditions":[-6.798102E-1,4.182866E-1,5.972226E-1,-1.6072222E0,7.01046E-1,1.0785216E0,-2.1394509E-1,1.7258923E0,-1.493403E0,-1.5537057E0,8.3848387E-1,-1.4878831E0,1.7410197E0,9.9486303E-1,1.2047937E0,5.749997E-1,1.154919E-2,-5.6595695E-1,-4.8550308E-1,-1.4653242E0,1.5654265E0,-1.6009687E0,-9.6563303E-1,6.7656404E-1,1.4556787E0,-7.201493E-1,-3.2805E-2,-1.27238E0,1.5893537E0,1.4014734E0,1.66732E0,-3.724481E-2,-8.170655E-3,3.0417774E-2,-5.9900563E-3,-1.3974989E-2,-2.9112997E-3,-1.3653878E-3,-1.8272951E-2,3.562194E-2,-4.1830475E-3,9.375533E-3,-3.1910464E-2,-1.223774E-2,1.1593678E-2,-4.8016254E-3,-2.849072E-2,-2.7131801E-3,9.332933E-3,-5.9010806E-3,1.3502443E-2,2.3031728E-2,-1.0058427E-2,2.172446E-2,-7.464452E-3,1.5875435E-2,-8.120216E-3,3.0766318E-2,-1.345924E-2],"split_indices":[4,5,8,4,5,7,2,2,0,8,5,8,4,5,3,3,0,1,1,3,0,2,0,0,4,3,0,3,5,8,2,0,0,0,0,0,0,0,0,0,0,0,0,0,0,0,0,0,0,0,0,0,0,0,0,0,0,0,0],"split_type":[0,0,0,0,0,0,0,0,0,0,0,0,0,0,0,0,0,0,0,0,0,0,0,0,0,0,0,0,0,0,0,0,0,0,0,0,0,0,0,0,0,0,0,0,0,0,0,0,0,0,0,0,0,0,0,0,0,0,0],"sum_hessian":[1.929E3,5.87E2,1.342E3,4.44E2,1.43E2,9E2,4.42E2,3.9E1,4.05E2,2.5E1,1.18E2,7.65E2,1.35E2,1.54E2,2.88E2,3.8E1,1E0,2.1E1,3.84E2,3E0,2.2E1,1.8E1,1E2,5.6E1,7.09E2,1.31E2,4E0,1.1E2,4.4E1,2.14E2,7.4E1,2.4E1,1.4E1,1.1E1,1E1,1.67E2,2.17E2,1E0,2E0,1.9E1,3E0,1E0,1.7E1,3.2E1,6.8E1,3.4E1,2.2E1,6.27E2,8.2E1,2.5E1,1.06E2,8E0,1.02E2,2.9E1,1.5E1,1.49E2,6.5E1,7E1,4E0],"tree_param":{"num_deleted":"0","num_feature":"10","num_nodes":"59","size_leaf_vector":"1"}},{"base_weights":[1.8408889E-3,-1.038703E-1,1.1265724E-1,-4.677876E-1,-8.580011E-2,1.5176432E-1,-1.5763907E-1,9.196903E-2,-5.492533E-1,-1.619088E-1,-3.381986E-3,8.618706E-2,2.600052E-1,-3.0163628E-1,2.2024839E-1,-8.944361E-3,2.2144595E-1,-6.409484E-1,-1.8277857E-1,-3.8811356E-1,-1.2914115E-1,-5.3788286E-2,1.8490657E-1,6.0657926E-2,5.3636956E-1,5.8015865E-1,2.035759E-1,1.8738487E-1,-3.976126E-1,4.8447242E-1,-3.0023778E-2,6.1190425E-4,1.1997406E-2,-9.594244E-3,-3.461921E-2,2.8488436E-3,-1.6557237E-2,1.3640423E-2,-2.443358E-2,-7.7679935E-3,1.175343E-2,-7.980457E-3,2.0982008E-3,1.6932061E-2,-9.013979E-3,-5.9206947E-3,5.7733157E-3,3.567988E-2,-6.085846E-3,-7.4367546E-3,3.3699278E-2,-8.800575E-3,1.3917178E-2,3.112088E-2,-5.3547095E-3,-2.4332069E-2,8.52291E-3,3.5675026E-2,-7.818079E-3],"categories":[],"categories_nodes":[],"categories_segments":[],"categories_sizes":[],"default_left":[0,0,0,0,0,0,0,0,0,0,0,0,0,0,0,0,0,0,0,0,0,0,0,0,0,0,0,0,0,0,0,0,0,0,0,0,0,0,0,0,0,0,0,0,0,0,0,0,0,0,0,0,0,0,0,0,0,0,0],"id":21,"left_children":[1,3,5,7,9,11,13,15,17,19,21,23,25,27,29,-1,31,33,35,37,39,41,43,45,47,49,51,53,55,57,-1,-1,-1,-1,-1,-1,-1,-1,-1,-1,-1,-1,-1,-1,-1,-1,-1,-1,-1,-1,-1,-1,-1,-1,-1,-1,-1,-1,-1],"loss_changes":[2.2316113E1,6.210972E0,9.950185E0,2.304615E0,5.8622704E0,5.6729393E0,6.861944E0,5.4876554E-1,7.5839996E-1,3.3517208E0,4.3586106E0,5.7560997E0,4.919609E0,4.549698E0,9.261349E0,0E0,2.0154685E-2,2.8647423E-2,6.2791187E-1,4.5877686E0,4.307817E0,3.7014866E0,5.751001E0,4.90698E0,3.583332E0,3.4419909E0,7.822649E0,2.6392307E0,4.2584333E0,4.9608903E0,0E0,0E0,0E0,0E0,0E0,0E0,0E0,0E0,0E0,0E0,0E0,0E0,0E0,0E0,0E0,0E0,0E0,0E0,0E0,0E0,0E0,0E0,0E0,0E0,0E0,0E0,0E0,0E0,0E0],"parents":[2147483647,0,0,1,1,2,2,3,3,4,4,5,5,6,6,7,7,8,8,9,9,10,10,11,11,12,12,13,13,14,14,16,16,17,17,18,18,19,19,20,20,21,21,22,22,23,23,24,24,25,25,26,26,27,27,28,28,29,29],"right_children":[2,4,6,8,10,12,14,16,18,20,22,24,26,28,30,-1,32,34,36,38,40,42,44,46,48,50,52,54,56,58,-1,-1,-1,-1,-1,-1,-1,-1,-1,-1,-1,-1,-1,-1,-1,-1,-1,-1,-1,-1,-1,-1,-1,-1,-1,-1,-1,-1,-1],"split_conditions":[-8.0061674E-2,-1.5632905E0,1.5959044E0,-1.6972752E0,-2.3641431E-1,5.972226E-1,1.5638239E0,-1.0378183E0,-7.27332E-1,-1.4532195E0,1.0271928E0,1.6259199E0,-1.1684735E0,-1.392539E0,1.5617771E0,-8.944361E-3,-1.6803591E0,-1.6258302E0,-4.8863095E-1,-1.6419469E0,1.5154678E0,-4.9330446E-1,1.6517595E0,-7.5082153E-1,1.761682E0,1.5818904E-1,-8.08724E-1,-1.468939E0,1.5617771E0,1.7301828E0,-3.0023778E-2,6.1190425E-4,1.1997406E-2,-9.594244E-3,-3.461921E-2,2.8488436E-3,-1.6557237E-2,1.3640423E-2,-2.443358E-2,-7.7679935E-3,1.175343E-2,-7.980457E-3,2.0982008E-3,1.6932061E-2,-9.013979E-3,-5.9206947E-3,5.7733157E-3,3.567988E-2,-6.085846E-3,-7.4367546E-3,3.3699278E-2,-8.800575E-3,1.3917178E-2,3.112088E-2,-5.3547095E-3,-2.4332069E-2,8.52291E-3,3.5675026E-2,-7.818079E-3],"split_indices":[9,4,9,4,6,8,8,1,9,9,2,6,1,0,1,0,6,3,9,9,0,8,2,1,6,9,3,6,1,9,0,0,0,0,0,0,0,0,0,0,0,0,0,0,0,0,0,0,0,0,0,0,0,0,0,0,0,0,0],"split_type":[0,0,0,0,0,0,0,0,0,0,0,0,0,0,0,0,0,0,0,0,0,0,0,0,0,0,0,0,0,0,0,0,0,0,0,0,0,0,0,0,0,0,0,0,0,0,0,0,0,0,0,0,0,0,0,0,0,0,0],"sum_hessian":[1.895E3,9.7E2,9.25E2,4E1,9.3E2,8.1E2,1.15E2,5E0,3.5E1,4.81E2,4.49E2,5.1E2,3E2,8.4E1,3.1E1,1E0,4E0,2.5E1,1E1,5.4E1,4.27E2,3.57E2,9.2E1,4.88E2,2.2E1,3.8E1,2.62E2,1.3E1,7.1E1,2.5E1,6E0,1E0,3E0,5E0,2E1,5E0,5E0,6E0,4.8E1,4.01E2,2.6E1,1.68E2,1.89E2,6.5E1,2.7E1,1.13E2,3.75E2,1.7E1,5E0,4E0,3.4E1,4.2E1,2.2E2,3E0,1E1,6.2E1,9E0,1.8E1,7E0],"tree_param":{"num_deleted":"0","num_feature":"10","num_nodes":"59","size_leaf_vector":"1"}},{"base_weights":[-2.5495966E-3,-1.4947963E-1,9.260886E-2,-1.6628802E-1,2.793955E-1,-5.6495745E-2,1.4857098E-1,-3.195074E-1,-1.13876745E-1,5.415318E-1,-1.6325136E-1,2.9769534E-2,-4.906306E-1,6.4141564E-2,2.8943095E-1,-3.471926E-1,3.2750592E-1,-1.681384E-1,3.327415E-2,7.2337E-1,-8.258725E-2,-2.8897586E-1,1.2736747E-1,3.1449792E-1,-3.7292007E-2,1.1628384E-1,-5.258315E-1,-6.955953E-3,2.6104093E-1,-2.598205E-1,3.3747193E-1,-2.8483076E-2,-1.30408555E-2,-7.3907296E-3,2.693601E-2,-1.171261E-2,-2.649891E-3,4.0933364E-3,-2.0115452E-2,-4.8397365E-3,4.051563E-2,7.5579435E-3,-1.2867125E-2,-1.5063091E-2,-1.2819201E-3,1.0153077E-2,-3.3540912E-3,2.8645057E-2,-4.647148E-4,-1.8805886E-2,9.4889005E-4,1.3627486E-2,-6.844261E-3,-3.1649515E-2,-8.938861E-3,1.2187617E-3,-2.3776626E-2,-6.7348587E-3,2.1221854E-2,1.496914E-2,-4.629731E-2,5.752013E-3,1.9958677E-2],"categories":[],"categories_nodes":[],"categories_segments":[],"categories_sizes":[],"default_left":[0,0,0,0,0,0,0,0,0,0,0,0,0,0,0,0,0,0,0,0,0,0,0,0,0,0,0,0,0,0,0,0,0,0,0,0,0,0,0,0,0,0,0,0,0,0,0,0,0,0,0,0,0,0,0,0,0,0,0,0,0,0,0],"id":22,"left_children":[1,3,5,7,9,11,13,15,17,19,21,23,25,27,29,31,33,35,37,39,41,43,45,47,49,51,53,55,57,59,61,-1,-1,-1,-1,-1,-1,-1,-1,-1,-1,-1,-1,-1,-1,-1,-1,-1,-1,-1,-1,-1,-1,-1,-1,-1,-1,-1,-1,-1,-1,-1,-1],"loss_changes":[2.653645E1,5.609995E0,9.654498E0,5.6080112E0,3.923043E0,1.1982372E1,9.885172E0,3.8107357E0,4.37961E0,2.5684805E0,7.320992E-1,5.2141094E0,1.4380169E0,7.4425783E0,8.6974125E0,2.6391048E0,1.4020982E0,2.9752645E0,3.3607612E0,1.5330849E0,5.621332E-1,2.0480156E-4,1.8585795E-1,4.3774085E0,4.287331E0,4.6347192E-1,1.3308659E0,5.856975E0,9.403206E0,1.1816054E1,3.7504654E0,0E0,0E0,0E0,0E0,0E0,0E0,0E0,0E0,0E0,0E0,0E0,0E0,0E0,0E0,0E0,0E0,0E0,0E0,0E0,0E0,0E0,0E0,0E0,0E0,0E0,0E0,0E0,0E0,0E0,0E0,0E0,0E0],"parents":[2147483647,0,0,1,1,2,2,3,3,4,4,5,5,6,6,7,7,8,8,9,9,10,10,11,11,12,12,13,13,14,14,15,15,16,16,17,17,18,18,19,19,20,20,21,21,22,22,23,23,24,24,25,25,26,26,27,27,28,28,29,29,30,30],"right_children":[2,4,6,8,10,12,14,16,18,20,22,24,26,28,30,32,34,36,38,40,42,44,46,48,50,52,54,56,58,60,62,-1,-1,-1,-1,-1,-1,-1,-1,-1,-1,-1,-1,-1,-1,-1,-1,-1,-1,-1,-1,-1,-1,-1,-1,-1,-1,-1,-1,-1,-1,-1,-1],"split_conditions":[-4.3786916E-1,1.6842978E0,-6.2853414E-1,-1.3102661E0,-1.0555041E0,1.5058374E0,5.972226E-1,1.746545E0,6.0769564E-1,1.7184819E0,-3.012053E-1,-1.5032303E0,-1.6440305E0,6.863965E-1,-1.2791522E0,-1.46382E0,-1.1372975E0,9.446614E-2,1.500294E0,-1.5025969E0,-1.392539E0,-6.295344E-1,-1.2873324E0,-4.0871326E-2,-1.0451182E0,-1.094449E0,4.2092925E-1,1.6101882E0,-6.159196E-1,-1.4875301E0,-6.111551E-1,-2.8483076E-2,-1.30408555E-2,-7.3907296E-3,2.693601E-2,-1.171261E-2,-2.649891E-3,4.0933364E-3,-2.0115452E-2,-4.8397365E-3,4.051563E-2,7.5579435E-3,-1.2867125E-2,-1.5063091E-2,-1.2819201E-3,1.0153077E-2,-3.3540912E-3,2.8645057E-2,-4.647148E-4,-1.8805886E-2,9.4889005E-4,1.3627486E-2,-6.844261E-3,-3.1649515E-2,-8.938861E-3,1.2187617E-3,-2.3776626E-2,-6.7348587E-3,2.1221854E-2,1.496914E-2,-4.629731E-2,5.752013E-3,1.9958677E-2],"split_indices":[9,6,4,9,9,9,8,0,0,7,4,4,0,1,6,8,2,4,8,0,0,9,0,8,8,1,6,9,6,6,1,0,0,0,0,0,0,0,0,0,0,0,0,0,0,0,0,0,0,0,0,0,0,0,0,0,0,0,0,0,0,0,0],"split_type":[0,0,0,0,0,0,0,0,0,0,0,0,0,0,0,0,0,0,0,0,0,0,0,0,0,0,0,0,0,0,0,0,0,0,0,0,0,0,0,0,0,0,0,0,0,0,0,0,0,0,0,0,0,0,0,0,0,0,0,0,0,0,0],"sum_hessian":[1.888E3,7.41E2,1.147E3,7.16E2,2.5E1,3.13E2,8.34E2,1.76E2,5.4E2,1.5E1,1E1,2.65E2,4.8E1,5.26E2,3.08E2,1.71E2,5E0,3.94E2,1.46E2,1.1E1,4E0,7E0,3E0,4.7E1,2.18E2,2E0,4.6E1,3.9E2,1.36E2,2.3E1,2.85E2,4E1,1.31E2,2E0,3E0,2.47E2,1.47E2,1.35E2,1.1E1,1E0,1E1,2E0,2E0,6E0,1E0,2E0,1E0,2.4E1,2.3E1,2.7E1,1.91E2,1E0,1E0,3.2E1,1.4E1,3.7E2,2E1,4E1,9.6E1,1.4E1,9E0,6.5E1,2.2E2],"tree_param":{"num_deleted":"0","num_feature":"10","num_nodes":"63","size_leaf_vector":"1"}},{"base_weights":[3.9884388E-3,-1.09110095E-1,9.3672395E-2,-1.1748343E-1,3.3820012E-1,2.399142E-2,2.2031637E-1,-2.7198008E-1,-8.766555E-2,4.4781244E-1,-6.9127455E-3,4.8902366E-2,-2.9161847E-1,-2.3937872E-1,2.6866847E-1,-3.209298E-1,4.2124394E-1,-1.2390512E-1,4.1686006E-2,2.4621075E-2,-1.4726195E-3,1.2180032E-3,2.1189018E-1,-5.866328E-1,-7.90242E-2,3.4814554E-1,-4.7366026E-1,3.4502915E-1,-5.3543568E-2,6.648598E-3,-1.98218E-2,2.5056256E-2,-3.1463988E-3,-8.34062E-3,-5.358308E-4,1.7571684E-2,-3.7125166E-4,-1.4816496E-3,1.2984735E-2,-1.2501897E-2,1.3474055E-2,4.988404E-3,-3.4257013E-2,-1.5329446E-2,1.7088136E-2,2.4838876E-2,-7.766376E-3,-3.457721E-2,-1.2630796E-3,1.298855E-2,2.4834355E-2,3.1429583E-3,-3.2602414E-2],"categories":[],"categories_nodes":[],"categories_segments":[],"categories_sizes":[],"default_left":[0,0,0,0,0,0,0,0,0,0,0,0,0,0,0,0,0,0,0,0,0,0,0,0,0,0,0,0,0,0,0,0,0,0,0,0,0,0,0,0,0,0,0,0,0,0,0,0,0,0,0,0,0],"id":23,"left_children":[1,3,5,7,9,11,13,15,17,19,-1,21,23,25,27,29,31,33,35,-1,-1,37,39,41,43,45,47,49,51,-1,-1,-1,-1,-1,-1,-1,-1,-1,-1,-1,-1,-1,-1,-1,-1,-1,-1,-1,-1,-1,-1,-1,-1],"loss_changes":[1.9607044E1,3.4010496E0,9.486572E0,3.764285E0,1.1973923E0,5.5826645E0,8.812365E0,5.222986E0,3.3728042E0,3.9186978E-1,0E0,5.0815783E0,3.0295634E0,6.1927114E0,8.65468E0,4.650443E0,5.8311236E-1,2.7059078E0,2.446972E0,0E0,0E0,4.113326E0,4.2741275E0,1.7617035E0,3.9711287E0,1.4334666E0,2.8436184E0,3.0011559E0,5.1513343E0,0E0,0E0,0E0,0E0,0E0,0E0,0E0,0E0,0E0,0E0,0E0,0E0,0E0,0E0,0E0,0E0,0E0,0E0,0E0,0E0,0E0,0E0,0E0,0E0],"parents":[2147483647,0,0,1,1,2,2,3,3,4,4,5,5,6,6,7,7,8,8,9,9,11,11,12,12,13,13,14,14,15,15,16,16,17,17,18,18,21,21,22,22,23,23,24,24,25,25,26,26,27,27,28,28],"right_children":[2,4,6,8,10,12,14,16,18,20,-1,22,24,26,28,30,32,34,36,-1,-1,38,40,42,44,46,48,50,52,-1,-1,-1,-1,-1,-1,-1,-1,-1,-1,-1,-1,-1,-1,-1,-1,-1,-1,-1,-1,-1,-1,-1,-1],"split_conditions":[-2.955069E-1,1.746545E0,5.972226E-1,-1.4532195E0,8.928695E-1,4.5330772E-1,-1.2929578E0,1.6842978E0,8.3848387E-1,1.7029771E0,-6.9127455E-3,8.64211E-1,-3.157547E-1,-1.35832E0,1.515908E0,-1.4748993E0,1.4665706E0,2.7092114E-1,-1.1881692E0,2.4621075E-2,-1.4726195E-3,1.3367155E0,-1.3117504E0,5.2508885E-1,9.635492E-1,9.846901E-1,1.3542062E0,9.449402E-1,1.5802722E0,6.648598E-3,-1.98218E-2,2.5056256E-2,-3.1463988E-3,-8.34062E-3,-5.358308E-4,1.7571684E-2,-3.7125166E-4,-1.4816496E-3,1.2984735E-2,-1.2501897E-2,1.3474055E-2,4.988404E-3,-3.4257013E-2,-1.5329446E-2,1.7088136E-2,2.4838876E-2,-7.766376E-3,-3.457721E-2,-1.2630796E-3,1.298855E-2,2.4834355E-2,3.1429583E-3,-3.2602414E-2],"split_indices":[9,0,8,9,6,8,5,6,5,4,0,6,0,0,9,3,0,3,4,0,0,4,1,9,1,4,9,3,1,0,0,0,0,0,0,0,0,0,0,0,0,0,0,0,0,0,0,0,0,0,0,0,0],"split_type":[0,0,0,0,0,0,0,0,0,0,0,0,0,0,0,0,0,0,0,0,0,0,0,0,0,0,0,0,0,0,0,0,0,0,0,0,0,0,0,0,0,0,0,0,0,0,0,0,0,0,0,0,0],"sum_hessian":[1.923E3,8.5E2,1.073E3,8.38E2,1.2E1,6.96E2,3.77E2,1.29E2,7.09E2,1E1,2E0,6.49E2,4.7E1,3.4E1,3.43E2,1.23E2,6E0,5.54E2,1.55E2,9E0,1E0,5.06E2,1.43E2,1.6E1,3.1E1,9E0,2.5E1,2.77E2,6.6E1,1.7E1,1.06E2,5E0,1E0,4E2,1.54E2,1.7E1,1.38E2,4.56E2,5E1,1.4E1,1.29E2,2E0,1.4E1,2.1E1,1E1,7E0,2E0,1.5E1,1E1,1.86E2,9.1E1,5.9E1,7E0],"tree_param":{"num_deleted":"0","num_feature":"10","num_nodes":"53","size_leaf_vector":"1"}},{"base_weights":[-8.455837E-3,-9.730848E-2,8.552244E-2,-3.716225E-1,-8.1498325E-2,3.0896565E-2,2.3122872E-1,-4.736504E-1,2.2395898E-1,1.2489666E-1,-9.8963134E-2,5.1065832E-2,-3.3700168E-1,5.045897E-2,4.27973E-1,-3.5471957E-2,-2.4513346E-1,3.5597295E-1,-9.134838E-3,-2.7383614E-1,2.225788E-1,2.4870863E-2,-1.2603618E-1,-4.2774245E-1,6.811379E-2,-3.5991903E-2,-5.1326573E-2,-3.823964E-1,1.6907358E-1,4.9258852E-1,-1.8853186E-1,-1.40199335E-2,6.77352E-3,1.4070714E-3,1.8838227E-2,1.122901E-2,-2.3042342E-2,3.0482715E-2,1.905602E-3,1.949346E-2,-1.9294264E-3,-1.5458274E-2,-4.9475143E-3,6.6878856E-3,-2.9057622E-2,-2.2253286E-2,4.0828693E-3,8.343581E-3,-1.877105E-2,1.4994728E-2,-2.6950628E-2,1.877899E-2,-2.600396E-3,2.576114E-2,-1.0423754E-2,-3.3000883E-2,1.4146275E-2],"categories":[],"categories_nodes":[],"categories_segments":[],"categories_sizes":[],"default_left":[0,0,0,0,0,0,0,0,0,0,0,0,0,0,0,0,0,0,0,0,0,0,0,0,0,0,0,0,0,0,0,0,0,0,0,0,0,0,0,0,0,0,0,0,0,0,0,0,0,0,0,0,0,0,0,0,0],"id":24,"left_children":[1,3,5,7,9,11,13,15,17,19,21,23,25,27,29,-1,31,33,-1,35,37,39,41,43,45,-1,47,49,51,53,55,-1,-1,-1,-1,-1,-1,-1,-1,-1,-1,-1,-1,-1,-1,-1,-1,-1,-1,-1,-1,-1,-1,-1,-1,-1,-1],"loss_changes":[1.5923726E1,4.098775E0,7.3425813E0,3.6902199E0,3.4249387E0,5.1318088E0,8.854508E0,1.6090221E0,9.1570204E-1,3.2259312E0,2.9089365E0,5.4432707E0,3.7524705E0,7.3572526E0,5.2446365E0,0E0,6.060127E-1,1.5148044E-2,0E0,2.1020417E0,4.382185E0,3.7580714E0,3.3638363E0,2.3698816E0,4.567349E0,0E0,2.1518729E0,4.1208267E0,5.165337E0,2.282545E0,4.26796E0,0E0,0E0,0E0,0E0,0E0,0E0,0E0,0E0,0E0,0E0,0E0,0E0,0E0,0E0,0E0,0E0,0E0,0E0,0E0,0E0,0E0,0E0,0E0,0E0,0E0,0E0],"parents":[2147483647,0,0,1,1,2,2,3,3,4,4,5,5,6,6,7,7,8,8,9,9,10,10,11,11,12,12,13,13,14,14,16,16,17,17,19,19,20,20,21,21,22,22,23,23,24,24,26,26,27,27,28,28,29,29,30,30],"right_children":[2,4,6,8,10,12,14,16,18,20,22,24,26,28,30,-1,32,34,-1,36,38,40,42,44,46,-1,48,50,52,54,56,-1,-1,-1,-1,-1,-1,-1,-1,-1,-1,-1,-1,-1,-1,-1,-1,-1,-1,-1,-1,-1,-1,-1,-1,-1,-1],"split_conditions":[-1.0064164E-1,-1.5632905E0,9.9227345E-1,1.501E0,-1.3354933E0,8.469598E-1,5.794838E-1,-1.4046172E0,1.6244702E0,-1.4520507E0,-1.0281731E0,-1.6111395E0,-4.7206944E-1,-9.0493757E-1,1.5617771E0,-3.5471957E-2,1.7360418E0,-1.6852169E0,-9.134838E-3,-1.492213E0,-1.0086879E0,-1.0698615E0,-8.8458604E-1,-1.493403E0,-1.6072222E0,-3.5991903E-2,1.1886861E0,-1.4268329E0,-6.751779E-1,1.6756462E0,1.6648847E0,-1.40199335E-2,6.77352E-3,1.4070714E-3,1.8838227E-2,1.122901E-2,-2.3042342E-2,3.0482715E-2,1.905602E-3,1.949346E-2,-1.9294264E-3,-1.5458274E-2,-4.9475143E-3,6.6878856E-3,-2.9057622E-2,-2.2253286E-2,4.0828693E-3,8.343581E-3,-1.877105E-2,1.4994728E-2,-2.6950628E-2,1.877899E-2,-2.600396E-3,2.576114E-2,-1.0423754E-2,-3.3000883E-2,1.4146275E-2],"split_indices":[9,4,3,2,4,3,5,9,5,0,1,1,0,1,1,0,0,0,0,7,0,4,4,0,4,0,9,2,5,0,1,0,0,0,0,0,0,0,0,0,0,0,0,0,0,0,0,0,0,0,0,0,0,0,0,0,0],"split_type":[0,0,0,0,0,0,0,0,0,0,0,0,0,0,0,0,0,0,0,0,0,0,0,0,0,0,0,0,0,0,0,0,0,0,0,0,0,0,0,0,0,0,0,0,0,0,0,0,0,0,0,0,0,0,0,0,0],"sum_hessian":[1.897E3,9.75E2,9.22E2,4.7E1,9.28E2,6.75E2,2.47E2,4.1E1,6E0,7E1,8.58E2,6.44E2,3.1E1,1.32E2,1.15E2,1.5E1,2.6E1,5E0,1E0,1.2E1,5.8E1,1.54E2,7.04E2,1.8E1,6.26E2,1E1,2.1E1,2.6E1,1.06E2,1.05E2,1E1,2.5E1,1E0,1E0,4E0,3E0,9E0,1.5E1,4.3E1,1.9E1,1.35E2,8.4E1,6.2E2,4E0,1.4E1,1.2E1,6.14E2,1.4E1,7E0,4E0,2.2E1,5.3E1,5.3E1,1.03E2,2E0,4E0,6E0],"tree_param":{"num_deleted":"0","num_feature":"10","num_nodes":"57","size_leaf_vector":"1"}},{"base_weights":[1.2129594E-2,-9.594834E-2,1.2412964E-1,-2.1530756E-1,-5.9965476E-2,4.7137067E-2,2.343614E-1,1.8786941E-1,-2.818109E-1,-1.250422E-1,1.0846318E-2,-1.3446735E-2,2.609299E-1,2.5477657E-1,-5.131724E-1,-2.969709E-1,4.1280854E-1,-3.1823862E-1,3.0540562E-1,3.6672246E-2,-1.8287098E-1,5.1110685E-1,-1.0148515E-2,2.7897817E-1,-5.568843E-2,7.12578E-1,1.6194588E-1,2.7246678E-1,-2.697661E-2,-3.4783732E-2,1.2452933E-2,-2.4394194E-2,4.0069227E-3,2.7337492E-2,-1.7064104E-2,-1.6905319E-2,1.0123708E-2,-5.9856623E-3,2.676549E-2,-7.920715E-3,1.17725935E-2,-1.8551987E-2,-5.0668903E-3,3.017546E-2,-6.5210494E-3,-1.132223E-2,1.4607495E-3,2.1559227E-2,-1.4546393E-2,-1.2107413E-2,2.1625978E-3,3.1445292E-3,3.82208E-2,1.0719464E-2,-2.3221923E-2,-2.0046761E-2,1.4531243E-2],"categories":[],"categories_nodes":[],"categories_segments":[],"categories_sizes":[],"default_left":[0,0,0,0,0,0,0,0,0,0,0,0,0,0,0,0,0,0,0,0,0,0,0,0,0,0,0,0,0,0,0,0,0,0,0,0,0,0,0,0,0,0,0,0,0,0,0,0,0,0,0,0,0,0,0,0,0],"id":25,"left_children":[1,3,5,7,9,11,13,15,17,19,21,23,25,27,29,31,33,35,37,39,41,43,45,47,49,51,53,55,-1,-1,-1,-1,-1,-1,-1,-1,-1,-1,-1,-1,-1,-1,-1,-1,-1,-1,-1,-1,-1,-1,-1,-1,-1,-1,-1,-1,-1],"loss_changes":[2.3397476E1,4.1616135E0,7.998952E0,6.3243713E0,3.5228372E0,7.33564E0,6.5902653E0,4.430045E0,4.678583E0,3.755528E0,3.9120028E0,5.574552E0,5.0112486E0,6.102688E0,2.5356252E0,1.2034223E0,3.559081E0,2.2768803E0,1.6887307E0,4.41343E0,4.322544E0,1.2827318E0,3.0981798E0,5.571588E0,7.3025913E0,4.6687508E-1,4.078473E0,5.1924458E0,0E0,0E0,0E0,0E0,0E0,0E0,0E0,0E0,0E0,0E0,0E0,0E0,0E0,0E0,0E0,0E0,0E0,0E0,0E0,0E0,0E0,0E0,0E0,0E0,0E0,0E0,0E0,0E0,0E0],"parents":[2147483647,0,0,1,1,2,2,3,3,4,4,5,5,6,6,7,7,8,8,9,9,10,10,11,11,12,12,13,13,14,14,15,15,16,16,17,17,18,18,19,19,20,20,21,21,22,22,23,23,24,24,25,25,26,26,27,27],"right_children":[2,4,6,8,10,12,14,16,18,20,22,24,26,28,30,32,34,36,38,40,42,44,46,48,50,52,54,56,-1,-1,-1,-1,-1,-1,-1,-1,-1,-1,-1,-1,-1,-1,-1,-1,-1,-1,-1,-1,-1,-1,-1,-1,-1,-1,-1,-1,-1],"split_conditions":[-8.714004E-2,-1.2738514E0,3.8760734E-1,-1.4748993E0,-2.3641431E-1,1.0037891E0,1.7381469E0,-1.5032303E0,1.6831264E0,-1.1747849E0,-1.2291712E0,-1.2977052E0,-1.0322732E0,1.7849472E0,1.7367002E0,-1.4532195E0,1.2368653E0,1.6842978E0,-9.423459E-1,-4.8748836E-1,-8.118628E-1,1.0447787E0,-1.1905353E0,8.953076E-1,-5.533844E-1,-1.5149704E0,1.6529195E0,-1.646091E0,-2.697661E-2,-3.4783732E-2,1.2452933E-2,-2.4394194E-2,4.0069227E-3,2.7337492E-2,-1.7064104E-2,-1.6905319E-2,1.0123708E-2,-5.9856623E-3,2.676549E-2,-7.920715E-3,1.17725935E-2,-1.8551987E-2,-5.0668903E-3,3.017546E-2,-6.5210494E-3,-1.132223E-2,1.4607495E-3,2.1559227E-2,-1.4546393E-2,-1.2107413E-2,2.1625978E-3,3.1445292E-3,3.82208E-2,1.0719464E-2,-2.3221923E-2,-2.0046761E-2,1.4531243E-2],"split_indices":[9,9,7,3,6,4,3,4,8,6,9,6,3,9,2,9,2,6,6,2,9,3,3,1,1,6,9,1,0,0,0,0,0,0,0,0,0,0,0,0,0,0,0,0,0,0,0,0,0,0,0,0,0,0,0,0,0],"split_type":[0,0,0,0,0,0,0,0,0,0,0,0,0,0,0,0,0,0,0,0,0,0,0,0,0,0,0,0,0,0,0,0,0,0,0,0,0,0,0,0,0,0,0,0,0,0,0,0,0,0,0,0,0,0,0,0,0],"sum_hessian":[1.923E3,9.79E2,9.44E2,2.21E2,7.58E2,5.6E2,3.84E2,3E1,1.91E2,3.93E2,3.65E2,4.4E2,1.2E2,3.77E2,7E0,9E0,2.1E1,1.82E2,9E0,1.04E2,2.89E2,1E1,3.55E2,5.2E1,3.88E2,1.6E1,1.04E2,3.72E2,5E0,6E0,1E0,5E0,4E0,1.9E1,2E0,1.77E2,5E0,4E0,5E0,5.3E1,5.1E1,8.2E1,2.07E2,9E0,1E0,5.1E1,3.04E2,4.2E1,1E1,1.32E2,2.56E2,2E0,1.4E1,9.9E1,5E0,7E0,3.65E2],"tree_param":{"num_deleted":"0","num_feature":"10","num_nodes":"57","size_leaf_vector":"1"}},{"base_weights":[6.0194274E-3,-8.052287E-2,9.503922E-2,-3.3342096E-1,-6.535121E-2,1.3130537E-1,-1.314451E-1,-4.58144E-1,9.817106E-2,2.1649309E-1,-7.921389E-2,5.921985E-2,2.3311366E-1,-2.9837668E-1,3.1635806E-1,2.531232E-1,-5.453086E-1,-2.1750458E-1,4.6453243E-1,3.2507923E-1,-3.152394E-1,-4.4595066E-1,-6.393465E-2,8.6437585E-3,2.2605053E-1,-2.6750717E-2,2.4824879E-1,4.4088367E-1,-3.5328582E-1,5.139028E-1,-2.4685925E-2,-6.8432787E-3,2.032985E-2,7.298183E-4,-2.8098175E-2,-1.3713406E-2,9.4733055E-4,2.5250113E-2,1.1731139E-3,1.9501727E-2,-5.4062153E-3,-1.8263586E-2,1.1254278E-3,-2.5406599E-2,3.686058E-3,-2.3842275E-3,-1.4177354E-2,6.7558587E-3,-4.6612937E-3,2.4442725E-2,4.432907E-3,2.3353267E-3,1.5290988E-2,-4.659431E-3,2.829428E-2,-2.8163875E-2,-8.719389E-3,-3.4794093E-3,3.5726875E-2],"categories":[],"categories_nodes":[],"categories_segments":[],"categories_sizes":[],"default_left":[0,0,0,0,0,0,0,0,0,0,0,0,0,0,0,0,0,0,0,0,0,0,0,0,0,0,0,0,0,0,0,0,0,0,0,0,0,0,0,0,0,0,0,0,0,0,0,0,0,0,0,0,0,0,0,0,0,0,0],"id":26,"left_children":[1,3,5,7,9,11,13,15,17,19,21,23,25,27,29,31,33,35,37,39,41,43,45,47,49,-1,51,53,55,57,-1,-1,-1,-1,-1,-1,-1,-1,-1,-1,-1,-1,-1,-1,-1,-1,-1,-1,-1,-1,-1,-1,-1,-1,-1,-1,-1,-1,-1],"loss_changes":[1.4552558E1,3.5667887E0,7.733265E0,3.0778441E0,3.6412227E0,5.838793E0,1.0264546E1,3.2940369E0,2.3556113E0,3.052895E0,4.738054E0,4.0234237E0,4.523821E0,4.7568197E0,7.349618E0,7.570701E-1,4.046936E-1,1.8704396E-1,1.0140777E-1,1.3082767E0,2.1009189E-1,1.2859726E0,2.9372625E0,4.855756E0,3.7912025E0,0E0,3.7459602E0,8.6451113E-1,3.040164E0,4.1118793E0,0E0,0E0,0E0,0E0,0E0,0E0,0E0,0E0,0E0,0E0,0E0,0E0,0E0,0E0,0E0,0E0,0E0,0E0,0E0,0E0,0E0,0E0,0E0,0E0,0E0,0E0,0E0,0E0,0E0],"parents":[2147483647,0,0,1,1,2,2,3,3,4,4,5,5,6,6,7,7,8,8,9,9,10,10,11,11,12,12,13,13,14,14,15,15,16,16,17,17,18,18,19,19,20,20,21,21,22,22,23,23,24,24,26,26,27,27,28,28,29,29],"right_children":[2,4,6,8,10,12,14,16,18,20,22,24,26,28,30,32,34,36,38,40,42,44,46,48,50,-1,52,54,56,58,-1,-1,-1,-1,-1,-1,-1,-1,-1,-1,-1,-1,-1,-1,-1,-1,-1,-1,-1,-1,-1,-1,-1,-1,-1,-1,-1,-1,-1],"split_conditions":[-1.0064164E-1,-1.5527306E0,1.5868887E0,-3.3746952E-1,-1.46486E0,4.0437624E-1,1.5638239E0,-1.6352359E0,3.39299E-1,8.847677E-1,-1.5896126E0,8.847677E-1,-1.6906898E0,